{"learner":{"attributes":{"scikit_learn":"{\"_estimator_type\": \"regressor\"}"},"feature_names":["minute","hour","dayofweek","lag_1","lag_5","lag_15","lag_60","rolling_mean_30"],"feature_types":["int","int","int","float","float","float","float","float"],"gradient_booster":{"model":{"gbtree_model_param":{"num_parallel_tree":"1","num_trees":"500"},"iteration_indptr":[0,1,2,3,4,5,6,7,8,9,10,11,12,13,14,15,16,17,18,19,20,21,22,23,24,25,26,27,28,29,30,31,32,33,34,35,36,37,38,39,40,41,42,43,44,45,46,47,48,49,50,51,52,53,54,55,56,57,58,59,60,61,62,63,64,65,66,67,68,69,70,71,72,73,74,75,76,77,78,79,80,81,82,83,84,85,86,87,88,89,90,91,92,93,94,95,96,97,98,99,100,101,102,103,104,105,106,107,108,109,110,111,112,113,114,115,116,117,118,119,120,121,122,123,124,125,126,127,128,129,130,131,132,133,134,135,136,137,138,139,140,141,142,143,144,145,146,147,148,149,150,151,152,153,154,155,156,157,158,159,160,161,162,163,164,165,166,167,168,169,170,171,172,173,174,175,176,177,178,179,180,181,182,183,184,185,186,187,188,189,190,191,192,193,194,195,196,197,198,199,200,201,202,203,204,205,206,207,208,209,210,211,212,213,214,215,216,217,218,219,220,221,222,223,224,225,226,227,228,229,230,231,232,233,234,235,236,237,238,239,240,241,242,243,244,245,246,247,248,249,250,251,252,253,254,255,256,257,258,259,260,261,262,263,264,265,266,267,268,269,270,271,272,273,274,275,276,277,278,279,280,281,282,283,284,285,286,287,288,289,290,291,292,293,294,295,296,297,298,299,300,301,302,303,304,305,306,307,308,309,310,311,312,313,314,315,316,317,318,319,320,321,322,323,324,325,326,327,328,329,330,331,332,333,334,335,336,337,338,339,340,341,342,343,344,345,346,347,348,349,350,351,352,353,354,355,356,357,358,359,360,361,362,363,364,365,366,367,368,369,370,371,372,373,374,375,376,377,378,379,380,381,382,383,384,385,386,387,388,389,390,391,392,393,394,395,396,397,398,399,400,401,402,403,404,405,406,407,408,409,410,411,412,413,414,415,416,417,418,419,420,421,422,423,424,425,426,427,428,429,430,431,432,433,434,435,436,437,438,439,440,441,442,443,444,445,446,447,448,449,450,451,452,453,454,455,456,457,458,459,460,461,462,463,464,465,466,467,468,469,470,471,472,473,474,475,476,477,478,479,480,481,482,483,484,485,486,487,488,489,490,491,492,493,494,495,496,497,498,499,500],"tree_info":[0,0,0,0,0,0,0,0,0,0,0,0,0,0,0,0,0,0,0,0,0,0,0,0,0,0,0,0,0,0,0,0,0,0,0,0,0,0,0,0,0,0,0,0,0,0,0,0,0,0,0,0,0,0,0,0,0,0,0,0,0,0,0,0,0,0,0,0,0,0,0,0,0,0,0,0,0,0,0,0,0,0,0,0,0,0,0,0,0,0,0,0,0,0,0,0,0,0,0,0,0,0,0,0,0,0,0,0,0,0,0,0,0,0,0,0,0,0,0,0,0,0,0,0,0,0,0,0,0,0,0,0,0,0,0,0,0,0,0,0,0,0,0,0,0,0,0,0,0,0,0,0,0,0,0,0,0,0,0,0,0,0,0,0,0,0,0,0,0,0,0,0,0,0,0,0,0,0,0,0,0,0,0,0,0,0,0,0,0,0,0,0,0,0,0,0,0,0,0,0,0,0,0,0,0,0,0,0,0,0,0,0,0,0,0,0,0,0,0,0,0,0,0,0,0,0,0,0,0,0,0,0,0,0,0,0,0,0,0,0,0,0,0,0,0,0,0,0,0,0,0,0,0,0,0,0,0,0,0,0,0,0,0,0,0,0,0,0,0,0,0,0,0,0,0,0,0,0,0,0,0,0,0,0,0,0,0,0,0,0,0,0,0,0,0,0,0,0,0,0,0,0,0,0,0,0,0,0,0,0,0,0,0,0,0,0,0,0,0,0,0,0,0,0,0,0,0,0,0,0,0,0,0,0,0,0,0,0,0,0,0,0,0,0,0,0,0,0,0,0,0,0,0,0,0,0,0,0,0,0,0,0,0,0,0,0,0,0,0,0,0,0,0,0,0,0,0,0,0,0,0,0,0,0,0,0,0,0,0,0,0,0,0,0,0,0,0,0,0,0,0,0,0,0,0,0,0,0,0,0,0,0,0,0,0,0,0,0,0,0,0,0,0,0,0,0,0,0,0,0,0,0,0,0,0,0,0,0,0,0,0,0,0,0,0,0,0,0,0,0,0,0,0,0,0,0,0,0,0,0,0,0,0,0,0,0,0,0,0,0,0,0,0,0,0,0,0,0,0,0,0,0,0,0,0,0,0,0,0,0,0,0,0,0,0,0,0,0,0,0],"trees":[{"base_weights":[2.0162104E-1,-1.3021857E2,3.223634E3,-2.7284103E2,5.425547E2,2.4972952E3,5.8897153E3,-2.853385E2,-7.414982E0,3.8801923E2,1.1169125E3,2.0469937E3,3.2960293E3,4.921908E3,3.387048E2,-2.8815927E2,-1.9813351E2,-5.375444E1,9.040367E1,3.5054486E2,6.0894415E2,9.477681E2,1.3260774E3,8.490581E1,2.2757852E3,1.3886755E2,3.5454216E3,3.210021E3,5.021766E3,-1.6985304E1,-1.4350501E1,-1.1053408E1,-8.801635E0,-4.647815E0,-7.196061E-1,2.5692387E0,5.407397E0,1.1612891E1,1.875083E1,2.5804981E1,3.3328E1,4.182211E1,5.1148014E1,6.1980877E1,7.013787E1,1.1415338E2,3.6654957E1,6.861595E1,1.7912897E2,1.8371352E2,5.2838287E1,2.061016E2,2.632852E2],"categories":[],"categories_nodes":[],"categories_segments":[],"categories_sizes":[],"default_left":[0,0,0,0,0,0,0,0,0,0,0,0,0,0,0,0,0,0,0,0,0,0,0,0,0,0,0,0,0,0,0,0,0,0,0,0,0,0,0,0,0,0,0,0,0,0,0,0,0,0,0,0,0],"id":0,"left_children":[1,3,5,7,9,11,13,15,17,19,21,23,25,27,-1,29,31,33,35,37,39,41,43,-1,45,-1,47,49,51,-1,-1,-1,-1,-1,-1,-1,-1,-1,-1,-1,-1,-1,-1,-1,-1,-1,-1,-1,-1,-1,-1,-1,-1],"loss_changes":[1.1600115E10,2.5448108E9,2.0631337E9,7.258368E7,4.11318E8,2.9717504E8,1.6266189E8,5.083648E6,4.4697305E6,3.0062912E7,3.3520768E7,3.9478016E7,2.9347584E7,3.196672E6,0E0,1.101568E6,2.9461E5,1.03098E6,2.1392125E5,8.970368E6,2.48576E6,3.7232E6,1.158272E6,0E0,1.9776E6,0E0,1.1313664E7,5.113984E6,1.34016E6,0E0,0E0,0E0,0E0,0E0,0E0,0E0,0E0,0E0,0E0,0E0,0E0,0E0,0E0,0E0,0E0,0E0,0E0,0E0,0E0,0E0,0E0,0E0,0E0],"parents":[2147483647,0,0,1,1,2,2,3,3,4,4,5,5,6,6,7,7,8,8,9,9,10,10,11,11,12,12,13,13,15,15,16,16,17,17,18,18,19,19,20,20,21,21,22,22,24,24,26,26,27,27,28,28],"right_children":[2,4,6,8,10,12,14,16,18,20,22,24,26,28,-1,30,32,34,36,38,40,42,44,-1,46,-1,48,50,52,-1,-1,-1,-1,-1,-1,-1,-1,-1,-1,-1,-1,-1,-1,-1,-1,-1,-1,-1,-1,-1,-1,-1,-1],"split_conditions":[1.843E3,4.29E2,4.614E3,1.44E2,1.041E3,2.912E3,6.294E3,4.5E1,3.14E2,7.62E2,1.399E3,2.182E3,3.315E3,9.77E2,3.387048E2,-2.8E1,8.8E1,2.37E2,3.52E2,5.98E2,8.67E2,1.191E3,1.59E3,8.490581E1,6.294E3,1.3886755E2,8.09E2,3.852E3,1.1E1,-1.6985304E1,-1.4350501E1,-1.1053408E1,-8.801635E0,-4.647815E0,-7.196061E-1,2.5692387E0,5.407397E0,1.1612891E1,1.875083E1,2.5804981E1,3.3328E1,4.182211E1,5.1148014E1,6.1980877E1,7.013787E1,1.1415338E2,3.6654957E1,6.861595E1,1.7912897E2,1.8371352E2,5.2838287E1,2.061016E2,2.632852E2],"split_indices":[3,3,3,3,3,3,3,3,3,3,3,3,3,6,0,3,3,3,3,3,3,3,3,0,5,0,5,4,1,0,0,0,0,0,0,0,0,0,0,0,0,0,0,0,0,0,0,0,0,0,0,0,0],"split_type":[0,0,0,0,0,0,0,0,0,0,0,0,0,0,0,0,0,0,0,0,0,0,0,0,0,0,0,0,0,0,0,0,0,0,0,0,0,0,0,0,0,0,0,0,0,0,0,0,0,0,0,0,0],"sum_hessian":[2.7591E4,2.6519E4,1.072E3,2.1881E4,4.638E3,8.44E2,2.28E2,2.0897E4,9.84E2,3.656E3,9.82E2,5.42E2,3.02E2,1.12E2,1.16E2,2.024E4,6.57E2,6.68E2,3.16E2,3.128E3,5.28E2,5.46E2,4.36E2,2.18E2,3.24E2,1.02E2,2E2,8E0,1.04E2,4.35E2,1.9805E4,3.18E2,3.39E2,3.34E2,3.34E2,1E2,2.16E2,5.38E2,2.59E3,2.06E2,3.22E2,2.25E2,3.21E2,2.13E2,2.23E2,3.22E2,2E0,4E0,1.96E2,6E0,2E0,2.6E1,7.8E1],"tree_param":{"num_deleted":"0","num_feature":"8","num_nodes":"53","size_leaf_vector":"1"}},{"base_weights":[-7.429354E-1,-1.23717545E2,3.035172E3,-2.5933902E2,5.1639813E2,2.3997483E3,5.6133325E3,-2.710757E2,-4.611822E0,3.6002243E2,1.0297094E3,1.9490837E3,3.1371277E3,4.6363457E3,3.2027896E2,-2.737475E2,-1.8836942E2,-6.3818417E1,6.7282776E1,3.2990283E2,5.31475E2,8.092333E2,1.1745603E3,1.6091858E3,2.1659402E3,1.3510582E2,3.3355173E3,3.4972703E3,2.4581883E2,-1.6108755E1,-1.3635027E1,-1.0482581E1,-8.335663E0,-5.1217914E0,-1.796146E0,1.5002983E0,5.212688E0,1.0832799E1,1.7686344E1,2.4089968E1,3.0052198E1,3.678167E1,4.4022488E1,5.350492E1,6.3866833E1,8.062014E1,2.301857E1,1.0292013E2,1.1761658E2,6.587131E1,1.6833232E2,1.801032E2,2.9795258E1],"categories":[],"categories_nodes":[],"categories_segments":[],"categories_sizes":[],"default_left":[0,0,0,0,0,0,0,0,0,0,0,0,0,0,0,0,0,0,0,0,0,0,0,0,0,0,0,0,0,0,0,0,0,0,0,0,0,0,0,0,0,0,0,0,0,0,0,0,0,0,0,0,0],"id":1,"left_children":[1,3,5,7,9,11,13,15,17,19,21,23,25,27,-1,29,31,33,35,37,39,41,43,45,47,-1,49,51,-1,-1,-1,-1,-1,-1,-1,-1,-1,-1,-1,-1,-1,-1,-1,-1,-1,-1,-1,-1,-1,-1,-1,-1,-1],"loss_changes":[1.0366922E10,2.316924E9,1.7574492E9,6.58368E7,3.741664E8,2.8266342E8,1.3516646E8,4.600448E6,4.137486E6,1.8301728E7,3.3828096E7,3.6464896E7,1.9293952E7,1.4384768E7,0E0,9.46048E5,2.7016E5,5.70495E5,6.01884E5,8.141472E6,1.5524E6,1.632352E6,5.66528E6,5.2288E4,1.73248E6,0E0,9.448192E6,4.846528E6,0E0,0E0,0E0,0E0,0E0,0E0,0E0,0E0,0E0,0E0,0E0,0E0,0E0,0E0,0E0,0E0,0E0,0E0,0E0,0E0,0E0,0E0,0E0,0E0,0E0],"parents":[2147483647,0,0,1,1,2,2,3,3,4,4,5,5,6,6,7,7,8,8,9,9,10,10,11,11,12,12,13,13,15,15,16,16,17,17,18,18,19,19,20,20,21,21,22,22,23,23,24,24,26,26,27,27],"right_children":[2,4,6,8,10,12,14,16,18,20,22,24,26,28,-1,30,32,34,36,38,40,42,44,46,48,-1,50,52,-1,-1,-1,-1,-1,-1,-1,-1,-1,-1,-1,-1,-1,-1,-1,-1,-1,-1,-1,-1,-1,-1,-1,-1,-1],"split_conditions":[1.843E3,4.29E2,4.614E3,1.44E2,9.77E2,2.912E3,6.294E3,4.5E1,2.85E2,7.26E2,1.249E3,2.182E3,3.315E3,3.4407E3,3.2027896E2,-2.8E1,8.8E1,2.08E2,3.52E2,5.98E2,8.67E2,1.11E3,1.48E3,6.294E3,2.633E3,1.3510582E2,8.09E2,6.294E3,2.4581883E2,-1.6108755E1,-1.3635027E1,-1.0482581E1,-8.335663E0,-5.1217914E0,-1.796146E0,1.5002983E0,5.212688E0,1.0832799E1,1.7686344E1,2.4089968E1,3.0052198E1,3.678167E1,4.4022488E1,5.350492E1,6.3866833E1,8.062014E1,2.301857E1,1.0292013E2,1.1761658E2,6.587131E1,1.6833232E2,1.801032E2,2.9795258E1],"split_indices":[3,3,3,3,3,3,3,3,3,3,3,3,3,7,0,3,3,3,3,3,3,3,3,5,3,0,5,4,0,0,0,0,0,0,0,0,0,0,0,0,0,0,0,0,0,0,0,0,0,0,0,0,0],"split_type":[0,0,0,0,0,0,0,0,0,0,0,0,0,0,0,0,0,0,0,0,0,0,0,0,0,0,0,0,0,0,0,0,0,0,0,0,0,0,0,0,0,0,0,0,0,0,0,0,0,0,0,0,0],"sum_hessian":[2.7766E4,2.6686E4,1.08E3,2.2021E4,4.665E3,8.68E2,2.12E2,2.1051E4,9.7E2,3.577E3,1.088E3,5.41E2,3.27E2,9.8E1,1.14E2,2.039E4,6.61E2,5.32E2,4.38E2,3.045E3,5.32E2,4.34E2,6.54E2,2.14E2,3.27E2,1.07E2,2.2E2,2.2E1,7.6E1,4.25E2,1.9965E4,3.29E2,3.32E2,2.22E2,3.1E2,2.19E2,2.19E2,5.31E2,2.514E3,3.15E2,2.17E2,2.19E2,2.15E2,3.3E2,3.24E2,2.13E2,1E0,2.15E2,1.12E2,4E0,2.16E2,2.1E1,1E0],"tree_param":{"num_deleted":"0","num_feature":"8","num_nodes":"53","size_leaf_vector":"1"}},{"base_weights":[1.9693351E0,-1.17545906E2,2.902204E3,-2.4649557E2,4.936118E2,2.260712E3,5.3182373E3,-2.5760748E2,-5.97246E0,3.4194308E2,9.84106E2,1.8373843E3,2.9893955E3,2.2311949E2,6.1424487E3,-2.6006647E2,-1.7945236E2,-4.894075E1,8.18686E1,3.163469E2,5.2428E2,8.357628E2,1.2031964E3,7.743158E1,2.0275195E3,2.7564136E3,3.4271572E3,3.298229E2,2.702785E2,-1.5286563E1,-1.2953107E1,-9.941718E0,-7.9509215E0,-4.1905866E0,-6.5812653E-1,2.4259632E0,4.9473724E0,9.458691E0,1.6803001E1,2.3625584E1,2.8693546E1,1.026407E2,4.1256573E1,5.790039E1,6.671161E1,9.168568E1,1.0608765E2,1.2654353E2,1.4731613E2,8.6236595E1,1.7560277E2],"categories":[],"categories_nodes":[],"categories_segments":[],"categories_sizes":[],"default_left":[0,0,0,0,0,0,0,0,0,0,0,0,0,0,0,0,0,0,0,0,0,0,0,0,0,0,0,0,0,0,0,0,0,0,0,0,0,0,0,0,0,0,0,0,0,0,0,0,0,0,0],"id":2,"left_children":[1,3,5,7,9,11,13,15,17,19,21,23,25,-1,27,29,31,33,35,37,39,41,43,-1,45,47,49,-1,-1,-1,-1,-1,-1,-1,-1,-1,-1,-1,-1,-1,-1,-1,-1,-1,-1,-1,-1,-1,-1,-1,-1],"loss_changes":[9.589992E9,2.0942232E9,1.6850811E9,5.8644864E7,3.4410125E8,2.6195251E8,1.3412608E8,3.984256E6,3.6651552E6,1.6346464E7,3.4517504E7,2.7111168E7,2.2884352E7,0E0,2.481152E6,8.53248E5,2.23042E5,8.123461E5,1.7689125E5,7.720608E6,8.43016E5,6.781184E6,1.0544E6,0E0,2.117888E6,1.623552E6,9.263104E6,0E0,0E0,0E0,0E0,0E0,0E0,0E0,0E0,0E0,0E0,0E0,0E0,0E0,0E0,0E0,0E0,0E0,0E0,0E0,0E0,0E0,0E0,0E0,0E0],"parents":[2147483647,0,0,1,1,2,2,3,3,4,4,5,5,6,6,7,7,8,8,9,9,10,10,11,11,12,12,14,14,15,15,16,16,17,17,18,18,19,19,20,20,21,21,22,22,24,24,25,25,26,26],"right_children":[2,4,6,8,10,12,14,16,18,20,22,24,26,-1,28,30,32,34,36,38,40,42,44,-1,46,48,50,-1,-1,-1,-1,-1,-1,-1,-1,-1,-1,-1,-1,-1,-1,-1,-1,-1,-1,-1,-1,-1,-1,-1,-1],"split_conditions":[1.843E3,4.29E2,4.614E3,1.44E2,9.77E2,2.912E3,6.294E3,4.5E1,3.14E2,7.62E2,1.399E3,2.182E3,3.852E3,2.2311949E2,2E0,-2.8E1,8.8E1,2.37E2,3.52E2,5.65E2,8.67E2,2.85E2,1.706E3,7.743158E1,2.385E3,3.315E3,1.843E3,3.298229E2,2.702785E2,-1.5286563E1,-1.2953107E1,-9.941718E0,-7.9509215E0,-4.1905866E0,-6.5812653E-1,2.4259632E0,4.9473724E0,9.458691E0,1.6803001E1,2.3625584E1,2.8693546E1,1.026407E2,4.1256573E1,5.790039E1,6.671161E1,9.168568E1,1.0608765E2,1.2654353E2,1.4731613E2,8.6236595E1,1.7560277E2],"split_indices":[3,3,3,3,3,3,3,3,3,3,3,3,3,0,2,3,3,3,3,3,3,4,3,0,3,3,4,0,0,0,0,0,0,0,0,0,0,0,0,0,0,0,0,0,0,0,0,0,0,0,0],"split_type":[0,0,0,0,0,0,0,0,0,0,0,0,0,0,0,0,0,0,0,0,0,0,0,0,0,0,0,0,0,0,0,0,0,0,0,0,0,0,0,0,0,0,0,0,0,0,0,0,0,0,0],"sum_hessian":[2.7665E4,2.6571E4,1.094E3,2.1942E4,4.629E3,8.66E2,2.28E2,2.0973E4,9.69E2,3.537E3,1.092E3,5.5E2,3.16E2,1.15E2,1.13E2,2.0331E4,6.42E2,6.51E2,3.18E2,3.104E3,4.33E2,6.54E2,4.38E2,2.22E2,3.28E2,2.11E2,1.05E2,6.5E1,4.8E1,4.31E2,1.99E4,3.25E2,3.17E2,3.29E2,3.22E2,1.09E2,2.09E2,4.18E2,2.686E3,2.17E2,2.16E2,4E0,6.5E2,3.33E2,1.05E2,1.14E2,2.14E2,1.03E2,1.08E2,6E0,9.9E1],"tree_param":{"num_deleted":"0","num_feature":"8","num_nodes":"51","size_leaf_vector":"1"}},{"base_weights":[-1.9572793E0,-1.1647833E2,2.5960813E3,-2.3549934E2,4.407419E2,2.0557573E3,5.0748047E3,-2.4520807E2,-3.05511E1,3.1848087E2,8.8969464E2,1.6704081E3,2.812891E3,4.2381E3,2.883899E2,-2.4727371E2,-1.8235599E2,-8.221424E1,3.3337196E1,2.9168866E2,4.8048123E2,7.2066626E2,1.0243468E3,1.4112815E3,1.9316354E3,2.598675E3,3.196683E3,1.358466E2,2.1626285E2,-1.4539836E1,-1.2316164E1,-1.0012355E1,-8.165446E0,-6.052766E0,-2.8113859E0,1.3579634E-2,3.2469258E0,8.414109E0,1.5832275E1,2.1843613E1,2.716875E1,3.2446606E1,3.9586506E1,1.7400888E2,5.067868E1,6.375558E1,7.381284E1,8.695541E1,1.01115746E2,5.779778E1,1.3069266E2,7.107496E1,1.6335039E2],"categories":[],"categories_nodes":[],"categories_segments":[],"categories_sizes":[],"default_left":[0,0,0,0,0,0,0,0,0,0,0,0,0,0,0,0,0,0,0,0,0,0,0,0,0,0,0,0,0,0,0,0,0,0,0,0,0,0,0,0,0,0,0,0,0,0,0,0,0,0,0,0,0],"id":3,"left_children":[1,3,5,7,9,11,13,15,17,19,21,23,25,27,-1,29,31,33,35,37,39,41,43,45,47,49,51,-1,-1,-1,-1,-1,-1,-1,-1,-1,-1,-1,-1,-1,-1,-1,-1,-1,-1,-1,-1,-1,-1,-1,-1,-1,-1],"loss_changes":[8.217191E9,1.7544247E9,1.5512069E9,4.336397E7,2.5528186E8,2.7510016E8,9.616026E7,2.656768E6,3.2605022E6,1.5749824E7,2.1930688E7,4.04608E7,1.816576E7,1.241344E6,0E0,7.61728E5,1.94256E5,5.4429575E5,4.6183556E5,9.629744E6,1.183352E6,1.754704E6,1.1076928E7,9.84256E5,1.982208E6,1.620736E6,9.213056E6,0E0,0E0,0E0,0E0,0E0,0E0,0E0,0E0,0E0,0E0,0E0,0E0,0E0,0E0,0E0,0E0,0E0,0E0,0E0,0E0,0E0,0E0,0E0,0E0,0E0,0E0],"parents":[2147483647,0,0,1,1,2,2,3,3,4,4,5,5,6,6,7,7,8,8,9,9,10,10,11,11,12,12,13,13,15,15,16,16,17,17,18,18,19,19,20,20,21,21,22,22,23,23,24,24,25,25,26,26],"right_children":[2,4,6,8,10,12,14,16,18,20,22,24,26,28,-1,30,32,34,36,38,40,42,44,46,48,50,52,-1,-1,-1,-1,-1,-1,-1,-1,-1,-1,-1,-1,-1,-1,-1,-1,-1,-1,-1,-1,-1,-1,-1,-1,-1,-1],"split_conditions":[1.706E3,3.95E2,4.614E3,1.17E2,9.77E2,2.912E3,6.294E3,3.1E1,2.61E2,7.26E2,1.249E3,2.182E3,3.852E3,2.2164E3,2.883899E2,-2.8E1,7.3E1,1.78E2,3.14E2,5.65E2,8.67E2,1.11E3,2.85E2,1.843E3,2.385E3,8.09E2,5.3E2,1.358466E2,2.1626285E2,-1.4539836E1,-1.2316164E1,-1.0012355E1,-8.165446E0,-6.052766E0,-2.8113859E0,1.3579634E-2,3.2469258E0,8.414109E0,1.5832275E1,2.1843613E1,2.716875E1,3.2446606E1,3.9586506E1,1.7400888E2,5.067868E1,6.375558E1,7.381284E1,8.695541E1,1.01115746E2,5.779778E1,1.3069266E2,7.107496E1,1.6335039E2],"split_indices":[3,3,3,3,3,3,3,3,3,3,3,3,3,7,0,3,3,3,3,3,3,3,4,3,3,5,6,0,0,0,0,0,0,0,0,0,0,0,0,0,0,0,0,0,0,0,0,0,0,0,0,0,0],"split_type":[0,0,0,0,0,0,0,0,0,0,0,0,0,0,0,0,0,0,0,0,0,0,0,0,0,0,0,0,0,0,0,0,0,0,0,0,0,0,0,0,0,0,0,0,0,0,0,0,0,0,0,0,0],"sum_hessian":[2.7616E4,2.6451E4,1.165E3,2.1796E4,4.655E3,9.58E2,2.07E2,2.081E4,9.86E2,3.66E3,9.95E2,6.37E2,3.21E2,9.7E1,1.1E2,2.0145E4,6.65E2,5.45E2,4.41E2,3.143E3,5.17E2,4.44E2,5.51E2,3.23E2,3.14E2,2.11E2,1.1E2,7E0,9E1,4.24E2,1.9721E4,3.38E2,3.27E2,2.17E2,3.28E2,2.16E2,2.25E2,5.3E2,2.613E3,3.1E2,2.07E2,2.26E2,2.18E2,1E0,5.5E2,1.11E2,2.12E2,1.07E2,2.07E2,3E0,2.08E2,5E0,1.05E2],"tree_param":{"num_deleted":"0","num_feature":"8","num_nodes":"53","size_leaf_vector":"1"}},{"base_weights":[2.0938196E0,-1.115889E2,2.4952683E3,-2.2403542E2,4.1759537E2,1.9529559E3,4.7933438E3,-2.3301566E2,-3.0277021E1,3.041563E2,8.519494E2,1.590888E3,2.702994E3,3.9755906E3,2.8060538E2,-2.3497408E2,-1.7383636E2,-7.7446915E1,2.9586872E1,2.7474738E2,4.3630484E2,6.8738965E2,9.7883264E2,1.3384205E3,1.8454452E3,2.250357E3,2.9113096E3,1.8065817E1,4.0033936E3,-1.3834709E1,-1.1701595E1,-9.523845E0,-7.7739024E0,-5.6428165E0,-2.7018468E0,-5.9708036E-2,2.9480703E0,7.8832397E0,1.4957341E1,1.9069872E1,2.4586174E1,3.220391E1,4.0037273E1,1.231782E2,4.843482E1,8.396955E0,6.7071106E1,9.2605064E1,2.5571709E1,4.584797E1,1.1337561E2,4.3350906E1,1.4632889E2,1.2299706E2,2.0396251E2],"categories":[],"categories_nodes":[],"categories_segments":[],"categories_sizes":[],"default_left":[0,0,0,0,0,0,0,0,0,0,0,0,0,0,0,0,0,0,0,0,0,0,0,0,0,0,0,0,0,0,0,0,0,0,0,0,0,0,0,0,0,0,0,0,0,0,0,0,0,0,0,0,0,0,0],"id":4,"left_children":[1,3,5,7,9,11,13,15,17,19,21,23,25,27,-1,29,31,33,35,37,39,41,43,45,47,49,51,-1,53,-1,-1,-1,-1,-1,-1,-1,-1,-1,-1,-1,-1,-1,-1,-1,-1,-1,-1,-1,-1,-1,-1,-1,-1,-1,-1],"loss_changes":[7.818718E9,1.5700122E9,1.4899072E9,3.785523E7,2.2757792E8,2.6047565E8,1.3101466E8,2.369408E6,2.7272325E6,1.4135232E7,1.9309184E7,3.9946496E7,2.3244544E7,1.0411008E7,0E0,7.264E5,1.75064E5,4.4152625E5,3.852505E5,8.531632E6,1.839024E6,1.546288E6,5.710272E6,9.5168E5,1.947392E6,2.99712E5,4.110848E6,0E0,3.663872E6,0E0,0E0,0E0,0E0,0E0,0E0,0E0,0E0,0E0,0E0,0E0,0E0,0E0,0E0,0E0,0E0,0E0,0E0,0E0,0E0,0E0,0E0,0E0,0E0,0E0,0E0],"parents":[2147483647,0,0,1,1,2,2,3,3,4,4,5,5,6,6,7,7,8,8,9,9,10,10,11,11,12,12,13,13,15,15,16,16,17,17,18,18,19,19,20,20,21,21,22,22,23,23,24,24,25,25,26,26,28,28],"right_children":[2,4,6,8,10,12,14,16,18,20,22,24,26,28,-1,30,32,34,36,38,40,42,44,46,48,50,52,-1,54,-1,-1,-1,-1,-1,-1,-1,-1,-1,-1,-1,-1,-1,-1,-1,-1,-1,-1,-1,-1,-1,-1,-1,-1,-1,-1],"split_conditions":[1.706E3,3.95E2,4.614E3,1.17E2,9.77E2,2.912E3,6.294E3,3.1E1,2.61E2,6.77E2,1.249E3,2.182E3,3.315E3,1.02E2,2.8060538E2,-2.8E1,7.3E1,1.78E2,3.14E2,5.65E2,8.09E2,1.191E3,2.85E2,2.85E2,6.294E3,1.399E3,1.4421333E3,1.8065817E1,2.2164E3,-1.3834709E1,-1.1701595E1,-9.523845E0,-7.7739024E0,-5.6428165E0,-2.7018468E0,-5.9708036E-2,2.9480703E0,7.8832397E0,1.4957341E1,1.9069872E1,2.4586174E1,3.220391E1,4.0037273E1,1.231782E2,4.843482E1,8.396955E0,6.7071106E1,9.2605064E1,2.5571709E1,4.584797E1,1.1337561E2,4.3350906E1,1.4632889E2,1.2299706E2,2.0396251E2],"split_indices":[3,3,3,3,3,3,3,3,3,3,3,3,3,6,0,3,3,3,3,3,3,3,4,5,5,4,7,0,7,0,0,0,0,0,0,0,0,0,0,0,0,0,0,0,0,0,0,0,0,0,0,0,0,0,0],"split_type":[0,0,0,0,0,0,0,0,0,0,0,0,0,0,0,0,0,0,0,0,0,0,0,0,0,0,0,0,0,0,0,0,0,0,0,0,0,0,0,0,0,0,0,0,0,0,0,0,0,0,0,0,0,0,0],"sum_hessian":[2.7584E4,2.6382E4,1.202E3,2.1759E4,4.623E3,9.74E2,2.28E2,2.0795E4,9.64E2,3.667E3,9.56E2,6.59E2,3.15E2,1.17E2,1.11E2,2.0126E4,6.69E2,5.39E2,4.25E2,3.002E3,6.65E2,4.19E2,5.37E2,3.34E2,3.25E2,1.03E2,2.12E2,1E0,1.16E2,4.38E2,1.9688E4,3.46E2,3.23E2,2.13E2,3.26E2,2.08E2,2.17E2,5.19E2,2.483E3,3.38E2,3.27E2,3.08E2,1.11E2,2E0,5.35E2,1E0,3.33E2,3.23E2,2E0,2E0,1.01E2,2E0,2.1E2,7E0,1.09E2],"tree_param":{"num_deleted":"0","num_feature":"8","num_nodes":"55","size_leaf_vector":"1"}},{"base_weights":[-2.6729379E0,-1.0083539E2,2.480607E3,-2.0982317E2,4.2965466E2,1.92699E3,4.561103E3,-2.2083797E2,5.809845E0,3.0790173E2,8.762243E2,1.5696707E3,2.542759E3,3.7878997E3,5.2797754E3,-2.232168E2,-1.5876996E2,-4.0047733E1,7.680489E1,2.777158E2,4.7709943E2,7.4953864E2,1.0334327E3,1.3050494E3,1.749806E3,2.1797056E3,2.7307288E3,1.7614172E1,3.816187E3,5.6965347E3,2.2392725E2,-1.2953981E1,-1.1112077E1,-9.03323E0,-7.0650783E0,-3.6473107E0,-4.5830637E-1,2.707679E0,4.923342E0,1.383594E1,8.261547E1,2.147935E1,2.7265387E1,1.19072266E2,3.6955193E1,5.103568E1,7.340563E1,6.586379E1,2.591504E1,8.781449E1,2.471932E1,1.09558266E2,2.3551588E1,3.2237324E1,1.3744086E2,1.5615817E2,2.0031451E2,5.7321167E1,2.8729318E2],"categories":[],"categories_nodes":[],"categories_segments":[],"categories_sizes":[],"default_left":[0,0,0,0,0,0,0,0,0,0,0,0,0,0,0,0,0,0,0,0,0,0,0,0,0,0,0,0,0,0,0,0,0,0,0,0,0,0,0,0,0,0,0,0,0,0,0,0,0,0,0,0,0,0,0,0,0,0,0],"id":5,"left_children":[1,3,5,7,9,11,13,15,17,19,21,23,25,27,29,31,33,35,37,39,41,43,45,47,49,51,53,-1,55,57,-1,-1,-1,-1,-1,-1,-1,-1,-1,-1,-1,-1,-1,-1,-1,-1,-1,-1,-1,-1,-1,-1,-1,-1,-1,-1,-1,-1,-1],"loss_changes":[6.763018E9,1.5431661E9,1.206358E9,5.258963E7,2.4706458E8,1.7973043E8,1.028055E8,3.074816E6,3.5094225E6,1.813152E7,1.8623616E7,2.3027968E7,1.4861952E7,9.346048E6,1.1886848E7,6.51904E5,2.73178E5,6.6478375E5,2.0222175E5,3.704928E6,1.515744E6,7.486464E6,8.8992E5,1.42384E6,1.679488E6,1.102208E6,5.660928E6,0E0,1.847808E6,9.124608E6,0E0,0E0,0E0,0E0,0E0,0E0,0E0,0E0,0E0,0E0,0E0,0E0,0E0,0E0,0E0,0E0,0E0,0E0,0E0,0E0,0E0,0E0,0E0,0E0,0E0,0E0,0E0,0E0,0E0],"parents":[2147483647,0,0,1,1,2,2,3,3,4,4,5,5,6,6,7,7,8,8,9,9,10,10,11,11,12,12,13,13,14,14,15,15,16,16,17,17,18,18,19,19,20,20,21,21,22,22,23,23,24,24,25,25,26,26,28,28,29,29],"right_children":[2,4,6,8,10,12,14,16,18,20,22,24,26,28,30,32,34,36,38,40,42,44,46,48,50,52,54,-1,56,58,-1,-1,-1,-1,-1,-1,-1,-1,-1,-1,-1,-1,-1,-1,-1,-1,-1,-1,-1,-1,-1,-1,-1,-1,-1,-1,-1,-1,-1],"split_conditions":[1.843E3,4.65E2,4.614E3,1.44E2,1.041E3,2.912E3,6.294E3,3.1E1,3.14E2,7.62E2,1.399E3,2.182E3,3.315E3,1.02E2,2E0,-5E0,7.3E1,2.37E2,3.95E2,2.385E3,9.16E2,2.85E2,3.1115E3,6.294E3,6.294E3,4.614E3,8.09E2,1.7614172E1,1.1E1,2.4237666E3,2.2392725E2,-1.2953981E1,-1.1112077E1,-9.03323E0,-7.0650783E0,-3.6473107E0,-4.5830637E-1,2.707679E0,4.923342E0,1.383594E1,8.261547E1,2.147935E1,2.7265387E1,1.19072266E2,3.6955193E1,5.103568E1,7.340563E1,6.586379E1,2.591504E1,8.781449E1,2.471932E1,1.09558266E2,2.3551588E1,3.2237324E1,1.3744086E2,1.5615817E2,2.0031451E2,5.7321167E1,2.8729318E2],"split_indices":[3,3,3,3,3,3,3,3,3,3,3,3,3,6,2,3,3,3,3,4,3,4,7,4,5,4,5,0,1,7,0,0,0,0,0,0,0,0,0,0,0,0,0,0,0,0,0,0,0,0,0,0,0,0,0,0,0,0,0],"split_type":[0,0,0,0,0,0,0,0,0,0,0,0,0,0,0,0,0,0,0,0,0,0,0,0,0,0,0,0,0,0,0,0,0,0,0,0,0,0,0,0,0,0,0,0,0,0,0,0,0,0,0,0,0,0,0,0,0,0,0],"sum_hessian":[2.7742E4,2.6688E4,1.054E3,2.214E4,4.548E3,8.34E2,2.2E2,2.1064E4,1.076E3,3.575E3,9.73E2,5.3E2,3.04E2,1.09E2,1.11E2,2.0284E4,7.8E2,6.54E2,4.22E2,3.036E3,5.39E2,5.42E2,4.31E2,2.18E2,3.12E2,1.08E2,1.96E2,1E0,1.08E2,6.9E1,4.2E1,5.3E2,1.9754E4,3.42E2,4.38E2,3.16E2,3.38E2,2.08E2,2.14E2,3.035E3,1E0,3.22E2,2.17E2,2E0,5.4E2,4.22E2,9E0,2.14E2,4E0,3.1E2,2E0,1.07E2,1E0,2E0,1.94E2,2.7E1,8.1E1,1E0,6.8E1],"tree_param":{"num_deleted":"0","num_feature":"8","num_nodes":"59","size_leaf_vector":"1"}},{"base_weights":[-7.132844E-1,-9.451757E1,2.3710293E3,-2.0074883E2,4.027088E2,1.8640023E3,4.299423E3,-2.0979547E2,-4.6454506E0,2.7867575E2,8.058166E2,1.5132411E3,2.43854E3,3.5731912E3,2.4996468E2,-2.1183394E2,-1.4525818E2,-4.8400295E1,5.0289543E1,2.5476207E2,4.0973624E2,6.217995E2,9.284818E2,1.2676736E3,1.664949E3,1.01796974E2,2.6125813E3,2.4655574E3,3.6962188E3,-1.2496191E1,-1.05496235E1,-7.8492103E0,-6.072968E0,-4.0031066E0,-1.4429258E0,1.1808197E0,3.799672E0,8.243342E0,1.3713237E1,1.8724596E1,2.3009527E1,2.7998495E1,3.388107E1,4.3058964E1,5.2972267E1,6.3778755E1,1.5917664E1,7.8661095E1,9.18843E1,6.828131E1,1.3239903E2,1.3448918E2,6.16273E1,1.4889801E2,1.9722636E2],"categories":[],"categories_nodes":[],"categories_segments":[],"categories_sizes":[],"default_left":[0,0,0,0,0,0,0,0,0,0,0,0,0,0,0,0,0,0,0,0,0,0,0,0,0,0,0,0,0,0,0,0,0,0,0,0,0,0,0,0,0,0,0,0,0,0,0,0,0,0,0,0,0,0,0],"id":6,"left_children":[1,3,5,7,9,11,13,15,17,19,21,23,25,27,-1,29,31,33,35,37,39,41,43,45,47,-1,49,51,53,-1,-1,-1,-1,-1,-1,-1,-1,-1,-1,-1,-1,-1,-1,-1,-1,-1,-1,-1,-1,-1,-1,-1,-1,-1,-1],"loss_changes":[6.1166336E9,1.3970373E9,1.0147103E9,3.865971E7,2.3256928E8,1.635758E8,9.243085E7,2.709632E6,2.3147668E6,1.1059424E7,2.413952E7,1.71872E7,1.6612736E7,5.87648E6,0E0,5.94496E5,1.59814E5,3.2932788E5,2.9095812E5,5.240672E6,8.02136E5,1.14264E6,4.860928E6,1.10912E6,2.131648E6,0E0,5.874048E6,5.55344E5,5.553152E6,0E0,0E0,0E0,0E0,0E0,0E0,0E0,0E0,0E0,0E0,0E0,0E0,0E0,0E0,0E0,0E0,0E0,0E0,0E0,0E0,0E0,0E0,0E0,0E0,0E0,0E0],"parents":[2147483647,0,0,1,1,2,2,3,3,4,4,5,5,6,6,7,7,8,8,9,9,10,10,11,11,12,12,13,13,15,15,16,16,17,17,18,18,19,19,20,20,21,21,22,22,23,23,24,24,26,26,27,27,28,28],"right_children":[2,4,6,8,10,12,14,16,18,20,22,24,26,28,-1,30,32,34,36,38,40,42,44,46,48,-1,50,52,54,-1,-1,-1,-1,-1,-1,-1,-1,-1,-1,-1,-1,-1,-1,-1,-1,-1,-1,-1,-1,-1,-1,-1,-1,-1,-1],"split_conditions":[1.843E3,4.29E2,4.614E3,1.44E2,9.77E2,2.912E3,6.294E3,4.5E1,2.85E2,7.26E2,1.249E3,2.182E3,3.315E3,2.5985E3,2.4996468E2,-2.8E1,1.02E2,2.08E2,3.52E2,5.98E2,8.67E2,1.11E3,1.59E3,6.294E3,2.633E3,1.01796974E2,1.7804E3,1.843E3,1.1E1,-1.2496191E1,-1.05496235E1,-7.8492103E0,-6.072968E0,-4.0031066E0,-1.4429258E0,1.1808197E0,3.799672E0,8.243342E0,1.3713237E1,1.8724596E1,2.3009527E1,2.7998495E1,3.388107E1,4.3058964E1,5.2972267E1,6.3778755E1,1.5917664E1,7.8661095E1,9.18843E1,6.828131E1,1.3239903E2,1.3448918E2,6.16273E1,1.4889801E2,1.9722636E2],"split_indices":[3,3,3,3,3,3,3,3,3,3,3,3,3,7,0,3,3,3,3,3,3,3,3,4,3,0,7,5,1,0,0,0,0,0,0,0,0,0,0,0,0,0,0,0,0,0,0,0,0,0,0,0,0,0,0],"split_type":[0,0,0,0,0,0,0,0,0,0,0,0,0,0,0,0,0,0,0,0,0,0,0,0,0,0,0,0,0,0,0,0,0,0,0,0,0,0,0,0,0,0,0,0,0,0,0,0,0,0,0,0,0,0,0],"sum_hessian":[2.7491E4,2.6446E4,1.045E3,2.1791E4,4.655E3,8.29E2,2.16E2,2.083E4,9.61E2,3.561E3,1.094E3,5.17E2,3.12E2,1.09E2,1.07E2,2.019E4,6.4E2,5.35E2,4.26E2,3.014E3,5.47E2,4.4E2,6.54E2,2.01E2,3.16E2,9.8E1,2.14E2,1.3E1,9.6E1,4.3E2,1.976E4,4.25E2,2.15E2,2.03E2,3.32E2,2.1E2,2.16E2,5.39E2,2.475E3,3.27E2,2.2E2,2.14E2,2.26E2,4.37E2,2.17E2,1.99E2,2E0,2.13E2,1.03E2,7E0,2.07E2,1E1,3E0,2.8E1,6.8E1],"tree_param":{"num_deleted":"0","num_feature":"8","num_nodes":"55","size_leaf_vector":"1"}},{"base_weights":[2.0595877E0,-9.004472E1,2.2554753E3,-1.8898778E2,3.8719153E2,1.7704668E3,4.0830164E3,-1.9926227E2,6.483404E0,2.6996893E2,7.5775793E2,1.4434342E3,2.293904E3,3.4305935E3,4.7457695E3,-2.0140773E2,-1.4348901E2,-3.6389763E1,6.99095E1,2.5052086E2,4.1089172E2,6.387999E2,9.3500806E2,1.1937551E3,1.6000376E3,2.1123457E3,2.6314478E3,2.9681873E3,3.7499412E3,5.10958E3,1.9906808E2,-1.1729938E1,-1.0027869E1,-7.9266634E0,-6.1071906E0,-3.196347E0,-4.1170698E-1,2.5098412E0,4.478672E0,1.2477539E1,8.020725E1,1.8460304E1,2.2511745E1,2.7879398E1,3.578404E1,4.357728E1,4.980993E1,6.024355E1,3.0842896E1,7.485195E1,8.847354E1,1.2053937E2,1.0160934E2,6.3313946E1,1.3770378E2,1.5082501E2,5.787348E1,5.0402794E1,1.8883078E2,4.9639027E1,2.5771045E2],"categories":[],"categories_nodes":[],"categories_segments":[],"categories_sizes":[],"default_left":[0,0,0,0,0,0,0,0,0,0,0,0,0,0,0,0,0,0,0,0,0,0,0,0,0,0,0,0,0,0,0,0,0,0,0,0,0,0,0,0,0,0,0,0,0,0,0,0,0,0,0,0,0,0,0,0,0,0,0,0,0],"id":7,"left_children":[1,3,5,7,9,11,13,15,17,19,21,23,25,27,29,31,33,35,37,39,41,43,45,47,49,51,53,55,57,59,-1,-1,-1,-1,-1,-1,-1,-1,-1,-1,-1,-1,-1,-1,-1,-1,-1,-1,-1,-1,-1,-1,-1,-1,-1,-1,-1,-1,-1,-1,-1],"loss_changes":[5.739979E9,1.2546877E9,9.55372E8,4.420141E7,1.980064E8,1.4390451E8,8.18729E7,2.473024E6,2.9937492E6,9.401744E6,2.2512256E7,1.889152E7,1.4604032E7,6.294272E6,1.0247936E7,5.21152E5,2.30469E5,5.0886306E5,1.6761075E5,3.60472E6,5.20952E5,3.71552E6,8.32672E5,5.96992E5,3.005312E6,3.39904E5,1.5094784E7,1.144992E6,1.020096E6,7.92768E6,0E0,0E0,0E0,0E0,0E0,0E0,0E0,0E0,0E0,0E0,0E0,0E0,0E0,0E0,0E0,0E0,0E0,0E0,0E0,0E0,0E0,0E0,0E0,0E0,0E0,0E0,0E0,0E0,0E0,0E0,0E0],"parents":[2147483647,0,0,1,1,2,2,3,3,4,4,5,5,6,6,7,7,8,8,9,9,10,10,11,11,12,12,13,13,14,14,15,15,16,16,17,17,18,18,19,19,20,20,21,21,22,22,23,23,24,24,25,25,26,26,27,27,28,28,29,29],"right_children":[2,4,6,8,10,12,14,16,18,20,22,24,26,28,30,32,34,36,38,40,42,44,46,48,50,52,54,56,58,60,-1,-1,-1,-1,-1,-1,-1,-1,-1,-1,-1,-1,-1,-1,-1,-1,-1,-1,-1,-1,-1,-1,-1,-1,-1,-1,-1,-1,-1,-1,-1],"split_conditions":[1.843E3,4.65E2,4.614E3,1.44E2,9.77E2,2.912E3,6.294E3,3.1E1,3.14E2,7.62E2,1.399E3,2.182E3,3.852E3,1.996E3,2E0,-5E0,8.8E1,2.37E2,3.95E2,3.852E3,8.67E2,1.191E3,1.59E3,6.294E3,2.633E3,2.385E3,2.385E3,6.294E3,1E0,2.4237666E3,1.9906808E2,-1.1729938E1,-1.0027869E1,-7.9266634E0,-6.1071906E0,-3.196347E0,-4.1170698E-1,2.5098412E0,4.478672E0,1.2477539E1,8.020725E1,1.8460304E1,2.2511745E1,2.7879398E1,3.578404E1,4.357728E1,4.980993E1,6.024355E1,3.0842896E1,7.485195E1,8.847354E1,1.2053937E2,1.0160934E2,6.3313946E1,1.3770378E2,1.5082501E2,5.787348E1,5.0402794E1,1.8883078E2,4.9639027E1,2.5771045E2],"split_indices":[3,3,3,3,3,3,3,3,3,3,3,3,3,6,2,3,3,3,3,4,3,3,3,4,3,4,4,4,2,7,0,0,0,0,0,0,0,0,0,0,0,0,0,0,0,0,0,0,0,0,0,0,0,0,0,0,0,0,0,0,0],"split_type":[0,0,0,0,0,0,0,0,0,0,0,0,0,0,0,0,0,0,0,0,0,0,0,0,0,0,0,0,0,0,0,0,0,0,0,0,0,0,0,0,0,0,0,0,0,0,0,0,0,0,0,0,0,0,0,0,0,0,0,0,0],"sum_hessian":[2.7654E4,2.6569E4,1.085E3,2.2007E4,4.562E3,8.59E2,2.26E2,2.0908E4,1.099E3,3.467E3,1.095E3,5.31E2,3.28E2,1.17E2,1.09E2,2.0131E4,7.77E2,6.56E2,4.43E2,3.049E3,4.18E2,6.58E2,4.37E2,2.08E2,3.23E2,2.18E2,1.1E2,5.2E1,6.5E1,7E1,3.9E1,4.96E2,1.9635E4,4.52E2,3.25E2,3.31E2,3.25E2,2.23E2,2.2E2,3.048E3,1E0,2.08E2,2.1E2,3.24E2,3.34E2,2.22E2,2.15E2,2.03E2,5E0,2.07E2,1.16E2,4E1,1.78E2,1E1,1E2,5E1,2E0,1E0,6.4E1,1E0,6.9E1],"tree_param":{"num_deleted":"0","num_feature":"8","num_nodes":"61","size_leaf_vector":"1"}},{"base_weights":[-1.4755226E0,-9.10158E1,2.026291E3,-1.8265883E2,3.386815E2,1.6039296E3,3.95663E3,-1.8983405E2,-2.4793089E1,2.4574771E2,6.896288E2,1.2219337E3,2.0660308E3,3.2405203E3,2.2981602E2,-1.9148975E2,-1.4469821E2,-6.477408E1,2.636917E1,2.2153188E2,3.5970343E2,5.5438513E2,7.9570685E2,5.4902462E1,1.4028501E3,8.930447E1,2.3389993E3,1.9024009E3,3.3190933E3,-1.1274047E1,-9.535903E0,-8.078183E0,-6.590422E0,-4.6707797E0,-2.2708826E0,2.1282227E-1,2.3562524E0,5.395176E0,1.2055427E1,1.648241E1,2.1070782E1,2.494628E1,3.0572275E1,1.1247509E2,3.930872E1,7.0370415E1,1.1140711E1,4.3257576E1,1.17784805E2,1.1905298E2,1.554749E1,4.0327007E1,1.682227E2],"categories":[],"categories_nodes":[],"categories_segments":[],"categories_sizes":[],"default_left":[0,0,0,0,0,0,0,0,0,0,0,0,0,0,0,0,0,0,0,0,0,0,0,0,0,0,0,0,0,0,0,0,0,0,0,0,0,0,0,0,0,0,0,0,0,0,0,0,0,0,0,0,0],"id":8,"left_children":[1,3,5,7,9,11,13,15,17,19,21,23,25,27,-1,29,31,33,35,37,39,41,43,-1,45,-1,47,49,51,-1,-1,-1,-1,-1,-1,-1,-1,-1,-1,-1,-1,-1,-1,-1,-1,-1,-1,-1,-1,-1,-1,-1,-1],"loss_changes":[5.0146964E9,1.0416695E9,9.459251E8,2.469088E7,1.514896E8,1.669353E8,8.084634E7,1.530688E6,1.9429045E6,1.0069872E7,1.3517888E7,1.0293568E7,2.8910208E7,4.410048E6,0E0,4.84672E5,1.4001E5,2.9125125E5,1.9118947E5,6.727472E6,1.053696E6,1.058856E6,5.756576E6,0E0,8.21376E5,0E0,3.277312E6,5.353706E6,8.113792E6,0E0,0E0,0E0,0E0,0E0,0E0,0E0,0E0,0E0,0E0,0E0,0E0,0E0,0E0,0E0,0E0,0E0,0E0,0E0,0E0,0E0,0E0,0E0,0E0],"parents":[2147483647,0,0,1,1,2,2,3,3,4,4,5,5,6,6,7,7,8,8,9,9,10,10,11,11,12,12,13,13,15,15,16,16,17,17,18,18,19,19,20,20,21,21,22,22,24,24,26,26,27,27,28,28],"right_children":[2,4,6,8,10,12,14,16,18,20,22,24,26,28,-1,30,32,34,36,38,40,42,44,-1,46,-1,48,50,52,-1,-1,-1,-1,-1,-1,-1,-1,-1,-1,-1,-1,-1,-1,-1,-1,-1,-1,-1,-1,-1,-1,-1,-1],"split_conditions":[1.706E3,3.95E2,4.614E3,1.17E2,9.77E2,2.633E3,6.294E3,2E1,2.61E2,6.77E2,1.249E3,2.182E3,3.315E3,9.77E2,2.2981602E2,-2.8E1,5.9E1,1.78E2,3.14E2,5.3E2,8.67E2,1.11E3,2.85E2,5.4902462E1,6.294E3,8.930447E1,8.09E2,3.852E3,2.2164E3,-1.1274047E1,-9.535903E0,-8.078183E0,-6.590422E0,-4.6707797E0,-2.2708826E0,2.1282227E-1,2.3562524E0,5.395176E0,1.2055427E1,1.648241E1,2.1070782E1,2.494628E1,3.0572275E1,1.1247509E2,3.930872E1,7.0370415E1,1.1140711E1,4.3257576E1,1.17784805E2,1.1905298E2,1.554749E1,4.0327007E1,1.682227E2],"split_indices":[3,3,3,3,3,3,3,3,3,3,3,3,3,6,0,3,3,3,3,3,3,3,4,0,5,0,5,4,7,0,0,0,0,0,0,0,0,0,0,0,0,0,0,0,0,0,0,0,0,0,0,0,0],"split_type":[0,0,0,0,0,0,0,0,0,0,0,0,0,0,0,0,0,0,0,0,0,0,0,0,0,0,0,0,0,0,0,0,0,0,0,0,0,0,0,0,0,0,0,0,0,0,0,0,0,0,0,0,0],"sum_hessian":[2.7617E4,2.645E4,1.167E3,2.1801E4,4.649E3,9.59E2,2.08E2,2.0853E4,9.48E2,3.677E3,9.72E2,5.27E2,4.32E2,1.01E2,1.07E2,2.0112E4,7.41E2,5.32E2,4.16E2,3.035E3,6.42E2,4.3E2,5.42E2,3.17E2,2.1E2,2.17E2,2.15E2,7E0,9.4E1,4.4E2,1.9672E4,3.16E2,4.25E2,2.13E2,3.19E2,2.02E2,2.14E2,4.47E2,2.588E3,4.36E2,2.06E2,2.23E2,2.07E2,2E0,5.4E2,2.09E2,1E0,3E0,2.12E2,5E0,2E0,2E0,9.2E1],"tree_param":{"num_deleted":"0","num_feature":"8","num_nodes":"53","size_leaf_vector":"1"}},{"base_weights":[-1.9860795E-1,-8.510687E1,1.907566E3,-1.7195596E2,3.307791E2,1.5070515E3,3.7009675E3,-1.7991713E2,-2.7016003E0,2.398477E2,6.6017395E2,1.2292577E3,2.0746108E3,3.0594976E3,4.313844E3,-1.8179776E2,-1.2955452E2,-4.2736557E1,4.4618427E1,2.1937932E2,3.5849738E2,4.965504E2,7.401206E2,1.0320323E3,1.4167816E3,1.9238422E3,2.3750132E3,1.3508857E3,3.0954495E3,3.1029749E3,4.4926455E3,-1.0583233E1,-9.050829E0,-7.1705003E0,-5.4819174E0,-3.4413655E0,-1.2979301E0,1.0680035E0,3.3436906E0,6.7360277E0,1.1850745E1,1.633453E1,2.0124317E1,2.5104048E1,1.8685802E1,1.08725914E2,3.6623383E1,5.255312E1,3.6324295E1,6.5956345E1,7.894245E1,3.7265182E1,9.657046E1,6.3327023E1,1.2551196E2,7.745914E1,1.8899878E1,3.8879677E1,1.5551299E2,1.8072493E2,1.0378493E2,2.4257059E2,1.8397824E2],"categories":[],"categories_nodes":[],"categories_segments":[],"categories_sizes":[],"default_left":[0,0,0,0,0,0,0,0,0,0,0,0,0,0,0,0,0,0,0,0,0,0,0,0,0,0,0,0,0,0,0,0,0,0,0,0,0,0,0,0,0,0,0,0,0,0,0,0,0,0,0,0,0,0,0,0,0,0,0,0,0,0,0],"id":9,"left_children":[1,3,5,7,9,11,13,15,17,19,21,23,25,27,29,31,33,35,37,39,41,43,45,47,49,51,53,55,57,59,61,-1,-1,-1,-1,-1,-1,-1,-1,-1,-1,-1,-1,-1,-1,-1,-1,-1,-1,-1,-1,-1,-1,-1,-1,-1,-1,-1,-1,-1,-1,-1,-1],"loss_changes":[4.470624E9,9.544377E8,8.39124E8,2.9453632E7,1.3657408E8,1.4928077E8,7.093402E7,1.953792E6,1.8641564E6,8.6132E6,1.2543584E7,2.25408E7,9.697536E6,2.452608E6,9.2256E6,4.31168E5,1.92616E5,2.3153388E5,2.3201981E5,4.5292E6,6.03056E5,3.4504E4,5.663296E6,1.097056E6,3.140096E6,4.77888E5,1.1960064E7,1.86096E5,1.18592E6,1.430464E6,8.694144E6,0E0,0E0,0E0,0E0,0E0,0E0,0E0,0E0,0E0,0E0,0E0,0E0,0E0,0E0,0E0,0E0,0E0,0E0,0E0,0E0,0E0,0E0,0E0,0E0,0E0,0E0,0E0,0E0,0E0,0E0,0E0,0E0],"parents":[2147483647,0,0,1,1,2,2,3,3,4,4,5,5,6,6,7,7,8,8,9,9,10,10,11,11,12,12,13,13,14,14,15,15,16,16,17,17,18,18,19,19,20,20,21,21,22,22,23,23,24,24,25,25,26,26,27,27,28,28,29,29,30,30],"right_children":[2,4,6,8,10,12,14,16,18,20,22,24,26,28,30,32,34,36,38,40,42,44,46,48,50,52,54,56,58,60,62,-1,-1,-1,-1,-1,-1,-1,-1,-1,-1,-1,-1,-1,-1,-1,-1,-1,-1,-1,-1,-1,-1,-1,-1,-1,-1,-1,-1,-1,-1,-1,-1],"split_conditions":[1.706E3,4.29E2,4.614E3,1.44E2,9.77E2,2.912E3,6.294E3,3.1E1,2.85E2,7.26E2,1.191E3,2.182E3,3.852E3,1E1,4.614E3,-5E0,8.8E1,2.08E2,3.52E2,5.98E2,8.67E2,1.4E1,2.85E2,1.3E1,2.633E3,8.09E2,2.385E3,5.7E1,2.85E2,2.385E3,2E0,-1.0583233E1,-9.050829E0,-7.1705003E0,-5.4819174E0,-3.4413655E0,-1.2979301E0,1.0680035E0,3.3436906E0,6.7360277E0,1.1850745E1,1.633453E1,2.0124317E1,2.5104048E1,1.8685802E1,1.08725914E2,3.6623383E1,5.255312E1,3.6324295E1,6.5956345E1,7.894245E1,3.7265182E1,9.657046E1,6.3327023E1,1.2551196E2,7.745914E1,1.8899878E1,3.8879677E1,1.5551299E2,1.8072493E2,1.0378493E2,2.4257059E2,1.8397824E2],"split_indices":[3,3,3,3,3,3,3,3,3,3,3,3,3,1,4,3,3,3,3,3,3,1,4,1,3,5,4,0,5,4,2,0,0,0,0,0,0,0,0,0,0,0,0,0,0,0,0,0,0,0,0,0,0,0,0,0,0,0,0,0,0,0,0],"split_type":[0,0,0,0,0,0,0,0,0,0,0,0,0,0,0,0,0,0,0,0,0,0,0,0,0,0,0,0,0,0,0,0,0,0,0,0,0,0,0,0,0,0,0,0,0,0,0,0,0,0,0,0,0,0,0,0,0,0,0,0,0,0,0],"sum_hessian":[2.7597E4,2.6422E4,1.175E3,2.1858E4,4.564E3,9.62E2,2.13E2,2.0876E4,9.82E2,3.578E3,9.86E2,6.48E2,3.14E2,1.07E2,1.06E2,2.0122E4,7.54E2,5.32E2,4.5E2,3.054E3,5.24E2,3.26E2,6.6E2,3.19E2,3.29E2,2.14E2,1E2,3E0,1.04E2,1.6E1,9E1,5.06E2,1.9616E4,4.41E2,3.13E2,2.07E2,3.25E2,2.21E2,2.29E2,5.28E2,2.526E3,3.09E2,2.15E2,3.09E2,1.7E1,2E0,6.58E2,2.98E2,2.1E1,2.11E2,1.18E2,2E0,2.12E2,1.2E1,8.8E1,2E0,1E0,1E0,1.03E2,9E0,7E0,5.9E1,3.1E1],"tree_param":{"num_deleted":"0","num_feature":"8","num_nodes":"63","size_leaf_vector":"1"}},{"base_weights":[4.866702E-1,-8.1516495E1,1.8273616E3,-1.6350786E2,3.1555347E2,1.4540577E3,3.5205571E3,-1.709289E2,-2.4099355E0,2.2856317E2,6.2793665E2,1.191247E3,1.9751914E3,2.933329E3,4.0748828E3,-1.7240834E2,-1.1323212E2,-4.8640522E1,3.3589542E1,2.0615956E2,3.2585385E2,5.080286E2,7.2474146E2,9.996827E2,1.3683473E3,1.6494928E3,2.1348987E3,1.193241E2,3.1153933E3,9.536378E1,4.119071E3,-1.019478E1,-8.586823E0,-6.156187E0,-4.9312506E0,-3.8073502E0,-1.9817437E0,1.3107422E-1,2.769764E0,6.514305E0,1.1163714E1,1.4868491E1,1.8955576E1,2.3049385E1,2.7670088E1,1.0510172E2,3.5786552E1,4.5612457E1,5.195277E1,6.411873E1,7.554894E1,8.298385E1,1.3230768E1,8.1738174E1,1.11014336E2,5.5950764E1,1.6047275E2,2.204217E2,1.7834583E2],"categories":[],"categories_nodes":[],"categories_segments":[],"categories_sizes":[],"default_left":[0,0,0,0,0,0,0,0,0,0,0,0,0,0,0,0,0,0,0,0,0,0,0,0,0,0,0,0,0,0,0,0,0,0,0,0,0,0,0,0,0,0,0,0,0,0,0,0,0,0,0,0,0,0,0,0,0,0,0],"id":10,"left_children":[1,3,5,7,9,11,13,15,17,19,21,23,25,27,29,31,33,35,37,39,41,43,45,47,49,51,53,-1,55,-1,57,-1,-1,-1,-1,-1,-1,-1,-1,-1,-1,-1,-1,-1,-1,-1,-1,-1,-1,-1,-1,-1,-1,-1,-1,-1,-1,-1,-1],"loss_changes":[4.1254538E9,8.58073E8,7.426273E8,2.6115648E7,1.2243981E8,1.3063475E8,5.738189E7,1.762944E6,1.6043326E6,7.62704E6,1.103056E7,2.0616256E7,1.3331712E7,3.218304E6,2.392448E6,3.95712E5,6.3713E4,1.01517125E5,3.658572E5,3.700344E6,8.8696E5,6.88296E5,5.20928E6,1.36512E5,2.158016E6,1.126336E6,5.509376E6,0E0,1.086784E7,0E0,8.92032E5,0E0,0E0,0E0,0E0,0E0,0E0,0E0,0E0,0E0,0E0,0E0,0E0,0E0,0E0,0E0,0E0,0E0,0E0,0E0,0E0,0E0,0E0,0E0,0E0,0E0,0E0,0E0,0E0],"parents":[2147483647,0,0,1,1,2,2,3,3,4,4,5,5,6,6,7,7,8,8,9,9,10,10,11,11,12,12,13,13,14,14,15,15,16,16,17,17,18,18,19,19,20,20,21,21,22,22,23,23,24,24,25,25,26,26,28,28,30,30],"right_children":[2,4,6,8,10,12,14,16,18,20,22,24,26,28,30,32,34,36,38,40,42,44,46,48,50,52,54,-1,56,-1,58,-1,-1,-1,-1,-1,-1,-1,-1,-1,-1,-1,-1,-1,-1,-1,-1,-1,-1,-1,-1,-1,-1,-1,-1,-1,-1,-1,-1],"split_conditions":[1.706E3,4.29E2,4.614E3,1.44E2,9.77E2,2.912E3,6.294E3,5.9E1,2.61E2,6.77E2,1.249E3,2.182E3,3.315E3,1.1E1,2.4237666E3,-2.8E1,1.02E2,1.78E2,3.14E2,5.98E2,8.67E2,1.11E3,2.85E2,1.843E3,2.633E3,4.614E3,7.62E2,1.193241E2,2.2164E3,9.536378E1,2E0,-1.019478E1,-8.586823E0,-6.156187E0,-4.9312506E0,-3.8073502E0,-1.9817437E0,1.3107422E-1,2.769764E0,6.514305E0,1.1163714E1,1.4868491E1,1.8955576E1,2.3049385E1,2.7670088E1,1.0510172E2,3.5786552E1,4.5612457E1,5.195277E1,6.411873E1,7.554894E1,8.298385E1,1.3230768E1,8.1738174E1,1.11014336E2,5.5950764E1,1.6047275E2,2.204217E2,1.7834583E2],"split_indices":[3,3,3,3,3,3,3,3,3,3,3,3,3,1,7,3,3,3,3,3,3,3,4,3,3,4,6,0,7,0,2,0,0,0,0,0,0,0,0,0,0,0,0,0,0,0,0,0,0,0,0,0,0,0,0,0,0,0,0],"split_type":[0,0,0,0,0,0,0,0,0,0,0,0,0,0,0,0,0,0,0,0,0,0,0,0,0,0,0,0,0,0,0,0,0,0,0,0,0,0,0,0,0,0,0,0,0,0,0,0,0,0,0,0,0,0,0,0,0,0,0],"sum_hessian":[2.7536E4,2.6354E4,1.182E3,2.1844E4,4.51E3,9.7E2,2.12E2,2.0882E4,9.62E2,3.529E3,9.81E2,6.47E2,3.23E2,1.06E2,1.06E2,2.0358E4,5.24E2,4.21E2,5.41E2,2.871E3,6.58E2,4.41E2,5.4E2,3.14E2,3.33E2,1.1E2,2.13E2,3E1,7.6E1,3E0,1.03E2,4.19E2,1.9939E4,3.08E2,2.16E2,1.02E2,3.19E2,2.24E2,3.17E2,5.3E2,2.341E3,4.33E2,2.25E2,2.22E2,2.19E2,2E0,5.38E2,1.05E2,2.09E2,2.14E2,1.19E2,1.09E2,1E0,3.4E1,1.79E2,4E0,7.2E1,6.3E1,4E1],"tree_param":{"num_deleted":"0","num_feature":"8","num_nodes":"59","size_leaf_vector":"1"}},{"base_weights":[7.245544E-1,-7.471496E1,1.8263047E3,-1.5409933E2,3.1321597E2,1.4389293E3,3.3412495E3,-1.6235121E2,3.26633E0,2.2694405E2,6.362891E2,1.1666868E3,1.8977803E3,2.8396797E3,3.830572E3,-1.6420703E2,-1.19367645E2,-3.168673E1,5.525057E1,2.0457109E2,3.4904697E2,5.4115674E2,7.54479E2,1.034497E3,1.3504504E3,1.5884272E3,2.0464799E3,1.7666163E3,2.9380825E3,2.9767966E3,4.0621548E3,-9.959546E0,-8.181926E0,-6.7200646E0,-5.1797514E0,-2.722326E0,-4.3450528E-1,1.3933508E0,3.2050598E0,1.0180237E1,7.7325325E1,1.5945871E1,1.9530722E1,1.0159833E2,2.6579441E1,3.7279415E1,6.6986534E1,3.349222E0,5.201582E1,6.87038E1,5.1920177E1,9.674619E1,7.468894E1,8.380005E1,1.09161644E2,1.06424194E2,5.2500072E1,5.999232E1,1.4983937E2,1.5698007E2,6.278852E1,1.5658635E2,2.1539091E2],"categories":[],"categories_nodes":[],"categories_segments":[],"categories_sizes":[],"default_left":[0,0,0,0,0,0,0,0,0,0,0,0,0,0,0,0,0,0,0,0,0,0,0,0,0,0,0,0,0,0,0,0,0,0,0,0,0,0,0,0,0,0,0,0,0,0,0,0,0,0,0,0,0,0,0,0,0,0,0,0,0,0,0],"id":11,"left_children":[1,3,5,7,9,11,13,15,17,19,21,23,25,27,29,31,33,35,37,39,41,43,45,47,49,51,53,55,57,59,61,-1,-1,-1,-1,-1,-1,-1,-1,-1,-1,-1,-1,-1,-1,-1,-1,-1,-1,-1,-1,-1,-1,-1,-1,-1,-1,-1,-1,-1,-1,-1,-1],"loss_changes":[3.7793347E9,8.1160614E8,6.342743E8,2.8409216E7,1.246391E8,1.0634048E8,4.336256E7,1.638592E6,1.9841066E6,9.585536E6,1.0194528E7,1.1914816E7,1.15616E7,6.741504E6,9.459328E6,3.63648E5,1.90948E5,3.41306E5,1.04610375E5,3.562528E6,5.5924E5,6.422672E6,1.176064E6,1.748928E6,2.39296E5,6.84352E5,7.182976E6,8.76924E5,6.812736E6,3.622528E6,5.480576E6,0E0,0E0,0E0,0E0,0E0,0E0,0E0,0E0,0E0,0E0,0E0,0E0,0E0,0E0,0E0,0E0,0E0,0E0,0E0,0E0,0E0,0E0,0E0,0E0,0E0,0E0,0E0,0E0,0E0,0E0,0E0,0E0],"parents":[2147483647,0,0,1,1,2,2,3,3,4,4,5,5,6,6,7,7,8,8,9,9,10,10,11,11,12,12,13,13,14,14,15,15,16,16,17,17,18,18,19,19,20,20,21,21,22,22,23,23,24,24,25,25,26,26,27,27,28,28,29,29,30,30],"right_children":[2,4,6,8,10,12,14,16,18,20,22,24,26,28,30,32,34,36,38,40,42,44,46,48,50,52,54,56,58,60,62,-1,-1,-1,-1,-1,-1,-1,-1,-1,-1,-1,-1,-1,-1,-1,-1,-1,-1,-1,-1,-1,-1,-1,-1,-1,-1,-1,-1,-1,-1,-1,-1],"split_conditions":[1.843E3,4.65E2,4.614E3,1.44E2,1.041E3,2.912E3,6.294E3,2E1,3.14E2,7.62E2,1.399E3,2.385E3,3.315E3,2.912E3,3.852E3,-4.8E1,7.3E1,2.37E2,3.52E2,2.912E3,9.16E2,2.85E2,3.4407E3,2.85E2,1.3E1,2.385E3,1.191E3,1.11E3,9.77E2,2.912E3,1.2E1,-9.959546E0,-8.181926E0,-6.7200646E0,-5.1797514E0,-2.722326E0,-4.3450528E-1,1.3933508E0,3.2050598E0,1.0180237E1,7.7325325E1,1.5945871E1,1.9530722E1,1.0159833E2,2.6579441E1,3.7279415E1,6.6986534E1,3.349222E0,5.201582E1,6.87038E1,5.1920177E1,9.674619E1,7.468894E1,8.380005E1,1.09161644E2,1.06424194E2,5.2500072E1,5.999232E1,1.4983937E2,1.5698007E2,6.278852E1,1.5658635E2,2.1539091E2],"split_indices":[3,3,3,3,3,3,3,3,3,3,3,3,3,4,5,3,3,3,3,4,3,4,7,5,1,4,6,6,6,5,1,0,0,0,0,0,0,0,0,0,0,0,0,0,0,0,0,0,0,0,0,0,0,0,0,0,0,0,0,0,0,0,0],"split_type":[0,0,0,0,0,0,0,0,0,0,0,0,0,0,0,0,0,0,0,0,0,0,0,0,0,0,0,0,0,0,0,0,0,0,0,0,0,0,0,0,0,0,0,0,0,0,0,0,0,0,0,0,0,0,0,0,0,0,0,0,0,0,0],"sum_hessian":[2.744E4,2.6352E4,1.088E3,2.1876E4,4.476E3,8.68E2,2.2E2,2.0786E4,1.09E3,3.534E3,9.42E2,5.47E2,3.21E2,1.12E2,1.08E2,1.9923E4,8.63E2,6.52E2,4.38E2,2.989E3,5.45E2,5.25E2,4.17E2,3.22E2,2.25E2,1.08E2,2.13E2,1.1E1,1.01E2,2.6E1,8.2E1,3.13E2,1.961E4,4.38E2,4.25E2,3.27E2,3.25E2,1.08E2,3.3E2,2.988E3,1E0,3.21E2,2.24E2,2E0,5.23E2,4.13E2,4E0,2E0,3.2E2,2.06E2,1.9E1,1.9E1,8.9E1,6.1E1,1.52E2,6E0,5E0,4E0,9.7E1,2.3E1,3E0,2E1,6.2E1],"tree_param":{"num_deleted":"0","num_feature":"8","num_nodes":"63","size_leaf_vector":"1"}},{"base_weights":[1.3110979E0,-7.4533226E1,1.6546787E3,-1.4859879E2,2.7582858E2,1.3161438E3,3.1667695E3,-1.5461758E2,-1.8842072E1,2.00633E2,5.627294E2,9.9610077E2,1.6947466E3,2.654859E3,3.6777976E3,-1.5598248E2,-1.17273346E2,-5.1943653E1,2.2694195E1,1.1574608E2,2.2272984E2,4.5458945E2,6.482648E2,8.901226E2,1.1462047E3,1.4474575E3,1.9282161E3,2.2837405E3,1.5124606E2,3.9124888E3,1.5608507E2,-9.078623E0,-7.765227E0,-6.372355E0,-5.1960707E0,-3.8403091E0,-1.747497E0,1.9903676E-1,2.0104797E0,3.623924E0,7.3546424E0,1.033372E1,1.5785251E1,2.0525183E1,2.477751E1,9.821172E1,3.197964E1,4.3767353E1,5.9882393E1,2.5551698E0,5.7548595E1,6.93897E1,8.186557E1,1.987519E1,9.6994995E1,1.0081818E0,1.1605653E2,1.3604597E2,2.0303958E2],"categories":[],"categories_nodes":[],"categories_segments":[],"categories_sizes":[],"default_left":[0,0,0,0,0,0,0,0,0,0,0,0,0,0,0,0,0,0,0,0,0,0,0,0,0,0,0,0,0,0,0,0,0,0,0,0,0,0,0,0,0,0,0,0,0,0,0,0,0,0,0,0,0,0,0,0,0,0,0],"id":12,"left_children":[1,3,5,7,9,11,13,15,17,19,21,23,25,27,29,31,33,35,37,39,41,43,45,47,49,51,53,55,-1,57,-1,-1,-1,-1,-1,-1,-1,-1,-1,-1,-1,-1,-1,-1,-1,-1,-1,-1,-1,-1,-1,-1,-1,-1,-1,-1,-1,-1,-1],"loss_changes":[3.465136E9,6.85659E8,6.1624934E8,1.703104E7,9.93633E7,1.1851149E8,4.804992E7,1.04416E6,1.3320976E6,6.830032E6,8.557376E6,7.569952E6,2.3362816E7,8.748224E6,1.881472E6,3.20608E5,8.7141E4,2.2504675E5,1.4078266E5,1.016058E6,4.262256E6,5.6584E5,4.814944E6,4.10208E5,1.089664E6,2.65056E5,3.3424E6,5.115968E6,0E0,1.67424E6,0E0,0E0,0E0,0E0,0E0,0E0,0E0,0E0,0E0,0E0,0E0,0E0,0E0,0E0,0E0,0E0,0E0,0E0,0E0,0E0,0E0,0E0,0E0,0E0,0E0,0E0,0E0,0E0,0E0],"parents":[2147483647,0,0,1,1,2,2,3,3,4,4,5,5,6,6,7,7,8,8,9,9,10,10,11,11,12,12,13,13,14,14,15,15,16,16,17,17,18,18,19,19,20,20,21,21,22,22,23,23,24,24,25,25,26,26,27,27,29,29],"right_children":[2,4,6,8,10,12,14,16,18,20,22,24,26,28,30,32,34,36,38,40,42,44,46,48,50,52,54,56,-1,58,-1,-1,-1,-1,-1,-1,-1,-1,-1,-1,-1,-1,-1,-1,-1,-1,-1,-1,-1,-1,-1,-1,-1,-1,-1,-1,-1,-1,-1],"split_conditions":[1.706E3,3.95E2,4.614E3,1.17E2,9.77E2,2.633E3,6.294E3,2E1,2.61E2,6.36E2,1.249E3,2.182E3,3.315E3,4.614E3,3E0,-5E0,7.3E1,1.78E2,3.14E2,4.94E2,7.62E2,1.11E3,2.85E2,4.614E3,3.14E2,4.3E1,1.4421333E3,1.02E2,1.5124606E2,4.614E3,1.5608507E2,-9.078623E0,-7.765227E0,-6.372355E0,-5.1960707E0,-3.8403091E0,-1.747497E0,1.9903676E-1,2.0104797E0,3.623924E0,7.3546424E0,1.033372E1,1.5785251E1,2.0525183E1,2.477751E1,9.821172E1,3.197964E1,4.3767353E1,5.9882393E1,2.5551698E0,5.7548595E1,6.93897E1,8.186557E1,1.987519E1,9.6994995E1,1.0081818E0,1.1605653E2,1.3604597E2,2.0303958E2],"split_indices":[3,3,3,3,3,3,3,3,3,3,3,3,3,5,2,3,3,3,3,3,3,3,4,6,4,0,7,6,0,4,0,0,0,0,0,0,0,0,0,0,0,0,0,0,0,0,0,0,0,0,0,0,0,0,0,0,0,0,0],"split_type":[0,0,0,0,0,0,0,0,0,0,0,0,0,0,0,0,0,0,0,0,0,0,0,0,0,0,0,0,0,0,0,0,0,0,0,0,0,0,0,0,0,0,0,0,0,0,0,0,0,0,0,0,0,0,0,0,0,0,0],"sum_hessian":[2.7631E4,2.642E4,1.211E3,2.181E4,4.61E3,9.91E2,2.2E2,2.0843E4,9.67E2,3.654E3,9.56E2,5.39E2,4.52E2,1.13E2,1.07E2,2.0105E4,7.38E2,5.38E2,4.29E2,7.56E2,2.898E3,4.25E2,5.31E2,3.2E2,2.19E2,2.23E2,2.29E2,6E1,5.3E1,7.1E1,3.6E1,5.12E2,1.9593E4,4.14E2,3.24E2,2.17E2,3.21E2,2.08E2,2.21E2,3.19E2,4.37E2,2.474E3,4.24E2,2.1E2,2.15E2,2E0,5.29E2,3.09E2,1.1E1,1E0,2.18E2,1.76E2,4.7E1,2E0,2.27E2,1E0,5.9E1,1E1,6.1E1],"tree_param":{"num_deleted":"0","num_feature":"8","num_nodes":"59","size_leaf_vector":"1"}},{"base_weights":[3.359413E0,-6.600971E1,1.6720552E3,-1.3906485E2,2.8556964E2,1.3130758E3,3.0500017E3,-1.4648267E2,3.7109797E0,2.0529028E2,5.775679E2,1.056306E3,1.7128281E3,2.5198633E3,3.5443984E3,-1.4818536E2,-1.0759975E2,-3.4508E1,4.040554E1,1.8545589E2,3.1489252E2,4.8481073E2,6.8954095E2,9.4360803E2,1.2240916E3,1.5749304E3,1.9771266E3,2.0906118E3,2.8046858E3,3.8095593E3,1.4964099E2,-9.001753E0,-7.383475E0,-5.9114623E0,-4.460302E0,-2.8855188E0,-9.4780415E-1,8.758489E-1,2.7886505E0,9.226244E0,7.520833E1,1.3516711E1,1.7247835E1,9.4937996E1,2.3802073E1,3.168338E1,3.7115414E1,4.432979E1,5.2000393E1,6.1396637E1,1.0339948E1,9.162183E1,7.518903E1,4.563226E1,1.0358068E2,1.0662335E2,3.6900394E1,4.244595E1,1.4428137E2,1.3556114E2,1.9791486E2],"categories":[],"categories_nodes":[],"categories_segments":[],"categories_sizes":[],"default_left":[0,0,0,0,0,0,0,0,0,0,0,0,0,0,0,0,0,0,0,0,0,0,0,0,0,0,0,0,0,0,0,0,0,0,0,0,0,0,0,0,0,0,0,0,0,0,0,0,0,0,0,0,0,0,0,0,0,0,0,0,0],"id":13,"left_children":[1,3,5,7,9,11,13,15,17,19,21,23,25,27,29,31,33,35,37,39,41,43,45,47,49,51,53,55,57,59,-1,-1,-1,-1,-1,-1,-1,-1,-1,-1,-1,-1,-1,-1,-1,-1,-1,-1,-1,-1,-1,-1,-1,-1,-1,-1,-1,-1,-1,-1,-1],"loss_changes":[3.1961324E9,6.8091494E8,5.411041E8,2.3246368E7,1.0679779E8,8.810726E7,5.056512E7,1.365472E6,1.5230292E6,7.721968E6,9.875456E6,8.980224E6,9.314368E6,7.952E6,5.41824E6,3.01792E5,1.61312E5,1.9087369E5,1.9388662E5,3.446232E6,6.39508E5,5.804152E6,8.35712E5,8.64128E5,5.74464E5,1.44E6,9.47488E6,1.200304E6,7.840064E6,1.357056E6,0E0,0E0,0E0,0E0,0E0,0E0,0E0,0E0,0E0,0E0,0E0,0E0,0E0,0E0,0E0,0E0,0E0,0E0,0E0,0E0,0E0,0E0,0E0,0E0,0E0,0E0,0E0,0E0,0E0,0E0,0E0],"parents":[2147483647,0,0,1,1,2,2,3,3,4,4,5,5,6,6,7,7,8,8,9,9,10,10,11,11,12,12,13,13,14,14,15,15,16,16,17,17,18,18,19,19,20,20,21,21,22,22,23,23,24,24,25,25,26,26,27,27,28,28,29,29],"right_children":[2,4,6,8,10,12,14,16,18,20,22,24,26,28,30,32,34,36,38,40,42,44,46,48,50,52,54,56,58,60,-1,-1,-1,-1,-1,-1,-1,-1,-1,-1,-1,-1,-1,-1,-1,-1,-1,-1,-1,-1,-1,-1,-1,-1,-1,-1,-1,-1,-1,-1,-1],"split_conditions":[1.843E3,4.65E2,4.614E3,1.44E2,1.041E3,2.912E3,6.294E3,2E1,2.85E2,7.62E2,1.399E3,2.385E3,3.852E3,1.996E3,3E0,-4.8E1,8.8E1,2.08E2,3.52E2,3.852E3,8.67E2,2.85E2,1.59E3,2.182E3,6.294E3,2.385E3,2.385E3,6.294E3,1E0,4.614E3,1.4964099E2,-9.001753E0,-7.383475E0,-5.9114623E0,-4.460302E0,-2.8855188E0,-9.4780415E-1,8.758489E-1,2.7886505E0,9.226244E0,7.520833E1,1.3516711E1,1.7247835E1,9.4937996E1,2.3802073E1,3.168338E1,3.7115414E1,4.432979E1,5.2000393E1,6.1396637E1,1.0339948E1,9.162183E1,7.518903E1,4.563226E1,1.0358068E2,1.0662335E2,3.6900394E1,4.244595E1,1.4428137E2,1.3556114E2,1.9791486E2],"split_indices":[3,3,3,3,3,3,3,3,3,3,3,3,3,6,2,3,3,3,3,4,3,4,3,3,4,4,4,4,2,4,0,0,0,0,0,0,0,0,0,0,0,0,0,0,0,0,0,0,0,0,0,0,0,0,0,0,0,0,0,0,0],"split_type":[0,0,0,0,0,0,0,0,0,0,0,0,0,0,0,0,0,0,0,0,0,0,0,0,0,0,0,0,0,0,0,0,0,0,0,0,0,0,0,0,0,0,0,0,0,0,0,0,0,0,0,0,0,0,0,0,0,0,0,0,0],"sum_hessian":[2.7609E4,2.6508E4,1.101E3,2.1948E4,4.56E3,8.75E2,2.26E2,2.0864E4,1.084E3,3.578E3,9.82E2,5.35E2,3.4E2,1.12E2,1.14E2,1.9986E4,8.78E2,5.31E2,5.53E2,3.032E3,5.46E2,5.4E2,4.42E2,3.24E2,2.11E2,2.28E2,1.12E2,4.8E1,6.4E1,7.3E1,4.1E1,3.13E2,1.9673E4,5.53E2,3.25E2,2.12E2,3.19E2,2.23E2,3.3E2,3.031E3,1E0,2.24E2,3.22E2,2E0,5.38E2,2.21E2,2.21E2,2.1E2,1.14E2,2.1E2,1E0,4.4E1,1.84E2,1E1,1.02E2,4.6E1,2E0,3E0,6.1E1,1.1E1,6.2E1],"tree_param":{"num_deleted":"0","num_feature":"8","num_nodes":"61","size_leaf_vector":"1"}},{"base_weights":[-1.0446466E-1,-6.650035E1,1.4755582E3,-1.3393085E2,2.4684106E2,1.1617552E3,2.8932146E3,-1.395163E2,-1.7565685E1,1.8026648E2,5.0056976E2,9.5259784E2,1.5915444E3,2.39186E3,3.3588267E3,-1.4075764E2,-1.0610362E2,-4.6876507E1,1.8523218E1,9.909507E1,2.0106161E2,4.402575E2,6.1837244E2,8.070126E2,1.0868175E3,1.4463501E3,1.8682885E3,1.6617272E3,2.4665955E3,1.784355E2,1.4170494E2,-8.536251E0,-7.013884E0,-5.933441E0,-4.805783E0,-3.413541E0,-1.6386102E0,8.5426375E-2,1.7740525E0,3.1859567E0,6.30794E0,9.248084E0,1.3683876E1,1.9330843E1,2.4659863E1,2.7115503E1,3.2880924E1,3.7823345E1,4.476846E1,9.869783E0,5.484092E1,8.293408E1,6.9383415E1,4.5650204E1,9.902634E1,9.063033E1,2.7729675E1,9.76255E1,1.3160059E2],"categories":[],"categories_nodes":[],"categories_segments":[],"categories_sizes":[],"default_left":[0,0,0,0,0,0,0,0,0,0,0,0,0,0,0,0,0,0,0,0,0,0,0,0,0,0,0,0,0,0,0,0,0,0,0,0,0,0,0,0,0,0,0,0,0,0,0,0,0,0,0,0,0,0,0,0,0,0,0],"id":14,"left_children":[1,3,5,7,9,11,13,15,17,19,21,23,25,27,29,31,33,35,37,39,41,43,45,47,49,51,53,55,57,-1,-1,-1,-1,-1,-1,-1,-1,-1,-1,-1,-1,-1,-1,-1,-1,-1,-1,-1,-1,-1,-1,-1,-1,-1,-1,-1,-1,-1,-1],"loss_changes":[2.7079142E9,5.588467E8,5.2602778E8,1.4143744E7,7.903136E7,8.622016E7,4.215501E7,8.46432E5,1.0565481E6,6.245824E6,6.640864E6,1.2000064E7,1.0075584E7,1.739904E6,1.890304E6,2.64032E5,8.2468E4,1.64028E5,1.2768244E5,7.186315E5,3.402944E6,1.646624E6,6.19512E5,7.51808E5,2.807744E6,3.52288E5,9.557024E6,1.166308E6,2.939584E6,0E0,0E0,0E0,0E0,0E0,0E0,0E0,0E0,0E0,0E0,0E0,0E0,0E0,0E0,0E0,0E0,0E0,0E0,0E0,0E0,0E0,0E0,0E0,0E0,0E0,0E0,0E0,0E0,0E0,0E0],"parents":[2147483647,0,0,1,1,2,2,3,3,4,4,5,5,6,6,7,7,8,8,9,9,10,10,11,11,12,12,13,13,14,14,15,15,16,16,17,17,18,18,19,19,20,20,21,21,22,22,23,23,24,24,25,25,26,26,27,27,28,28],"right_children":[2,4,6,8,10,12,14,16,18,20,22,24,26,28,30,32,34,36,38,40,42,44,46,48,50,52,54,56,58,-1,-1,-1,-1,-1,-1,-1,-1,-1,-1,-1,-1,-1,-1,-1,-1,-1,-1,-1,-1,-1,-1,-1,-1,-1,-1,-1,-1,-1,-1],"split_conditions":[1.706E3,3.95E2,4.614E3,1.17E2,9.77E2,2.912E3,6.294E3,2E1,2.61E2,6.36E2,1.399E3,2.182E3,3.852E3,2.5985E3,3E0,-4.8E1,5.9E1,1.78E2,3.14E2,4.94E2,7.26E2,1.191E3,1.48E3,1.996E3,1.11E3,2.385E3,2.5985E3,1.843E3,1.1E1,1.784355E2,1.4170494E2,-8.536251E0,-7.013884E0,-5.933441E0,-4.805783E0,-3.413541E0,-1.6386102E0,8.5426375E-2,1.7740525E0,3.1859567E0,6.30794E0,9.248084E0,1.3683876E1,1.9330843E1,2.4659863E1,2.7115503E1,3.2880924E1,3.7823345E1,4.476846E1,9.869783E0,5.484092E1,8.293408E1,6.9383415E1,4.5650204E1,9.902634E1,9.063033E1,2.7729675E1,9.76255E1,1.3160059E2],"split_indices":[3,3,3,3,3,3,3,3,3,3,3,3,3,7,2,3,3,3,3,3,3,3,3,3,4,4,7,5,1,0,0,0,0,0,0,0,0,0,0,0,0,0,0,0,0,0,0,0,0,0,0,0,0,0,0,0,0,0,0],"split_type":[0,0,0,0,0,0,0,0,0,0,0,0,0,0,0,0,0,0,0,0,0,0,0,0,0,0,0,0,0,0,0,0,0,0,0,0,0,0,0,0,0,0,0,0,0,0,0,0,0,0,0,0,0,0,0,0,0,0,0],"sum_hessian":[2.7636E4,2.6447E4,1.189E3,2.1764E4,4.683E3,9.75E2,2.14E2,2.0767E4,9.97E2,3.711E3,9.72E2,6.58E2,3.17E2,1.06E2,1.08E2,2.002E4,7.47E2,5.5E2,4.47E2,7.58E2,2.953E3,6.46E2,3.26E2,3.19E2,3.39E2,2.12E2,1.05E2,1.2E1,9.4E1,7.3E1,3.5E1,3.1E2,1.971E4,3.26E2,4.21E2,2.17E2,3.33E2,2.25E2,2.22E2,3.3E2,4.28E2,2.42E3,5.33E2,3.25E2,3.21E2,1.16E2,2.1E2,2.09E2,1.1E2,4E0,3.35E2,4E1,1.72E2,1.2E1,9.3E1,1E1,2E0,2.6E1,6.8E1],"tree_param":{"num_deleted":"0","num_feature":"8","num_nodes":"59","size_leaf_vector":"1"}},{"base_weights":[3.9139146E-1,-6.1196934E1,1.4957128E3,-1.2565489E2,2.544829E2,1.1682255E3,2.7524382E3,-1.3219556E2,3.1515176E0,1.849872E2,5.1403644E2,1.00278925E3,1.6282096E3,2.3218533E3,3.173743E3,-1.3353658E2,-9.101703E1,-2.5447927E1,4.5280277E1,1.6269447E2,2.6751767E2,4.3184717E2,6.139264E2,8.544186E2,1.1489535E3,-1.3165192E1,1.6501531E3,1.8359797E3,2.4717385E3,3.3853154E3,1.339107E2,-7.8366494E0,-6.646469E0,-4.9581347E0,-3.7231834E0,-2.1941414E0,-3.1713757E-1,1.7102871E0,2.827957E0,8.085277E0,7.3170425E1,1.1634084E1,1.5709136E1,1.8483578E1,2.3612616E1,3.756419E-1,3.0838455E1,4.3207535E1,2.5035326E1,1.11365456E2,5.6929546E1,9.268876E0,-1.5219833E1,7.4481346E1,8.9669395E1,4.4932255E1,9.52157E1,4.7776455E1,1.2772787E2,1.1891238E2,1.7709364E2],"categories":[],"categories_nodes":[],"categories_segments":[],"categories_sizes":[],"default_left":[0,0,0,0,0,0,0,0,0,0,0,0,0,0,0,0,0,0,0,0,0,0,0,0,0,0,0,0,0,0,0,0,0,0,0,0,0,0,0,0,0,0,0,0,0,0,0,0,0,0,0,0,0,0,0,0,0,0,0,0,0],"id":15,"left_children":[1,3,5,7,9,11,13,15,17,19,21,23,25,27,29,31,33,35,37,39,41,43,45,47,49,51,53,55,57,59,-1,-1,-1,-1,-1,-1,-1,-1,-1,-1,-1,-1,-1,-1,-1,-1,-1,-1,-1,-1,-1,-1,-1,-1,-1,-1,-1,-1,-1,-1,-1],"loss_changes":[2.5422638E9,5.395205E8,4.4620954E8,1.8550144E7,8.10031E7,6.442035E7,3.3447936E7,1.144928E6,1.2843274E6,6.484184E6,7.526064E6,1.291936E7,8.233728E6,3.8368E6,2.570624E6,2.64992E5,8.2149E4,2.2336988E5,5.190075E4,3.359976E6,1.150992E6,1.141816E6,7.29744E5,6.7576E5,1.039904E6,2.8771584E5,2.501952E6,2.74312E5,8.232608E6,3.243712E6,0E0,0E0,0E0,0E0,0E0,0E0,0E0,0E0,0E0,0E0,0E0,0E0,0E0,0E0,0E0,0E0,0E0,0E0,0E0,0E0,0E0,0E0,0E0,0E0,0E0,0E0,0E0,0E0,0E0,0E0,0E0],"parents":[2147483647,0,0,1,1,2,2,3,3,4,4,5,5,6,6,7,7,8,8,9,9,10,10,11,11,12,12,13,13,14,14,15,15,16,16,17,17,18,18,19,19,20,20,21,21,22,22,23,23,24,24,25,25,26,26,27,27,28,28,29,29],"right_children":[2,4,6,8,10,12,14,16,18,20,22,24,26,28,30,32,34,36,38,40,42,44,46,48,50,52,54,56,58,60,-1,-1,-1,-1,-1,-1,-1,-1,-1,-1,-1,-1,-1,-1,-1,-1,-1,-1,-1,-1,-1,-1,-1,-1,-1,-1,-1,-1,-1,-1,-1],"split_conditions":[1.843E3,4.65E2,4.614E3,1.44E2,1.041E3,3.315E3,6.294E3,4.5E1,3.14E2,6.77E2,1.399E3,2.385E3,8.09E2,1.1E1,3E0,-5E0,1.02E2,2.37E2,3.95E2,3.852E3,8.67E2,1.191E3,1.44E2,1.4E1,1.44E2,5.65E2,3.852E3,1E1,2.2164E3,4.614E3,1.339107E2,-7.8366494E0,-6.646469E0,-4.9581347E0,-3.7231834E0,-2.1941414E0,-3.1713757E-1,1.7102871E0,2.827957E0,8.085277E0,7.3170425E1,1.1634084E1,1.5709136E1,1.8483578E1,2.3612616E1,3.756419E-1,3.0838455E1,4.3207535E1,2.5035326E1,1.11365456E2,5.6929546E1,9.268876E0,-1.5219833E1,7.4481346E1,8.9669395E1,4.4932255E1,9.52157E1,4.7776455E1,1.2772787E2,1.1891238E2,1.7709364E2],"split_indices":[3,3,3,3,3,3,3,3,3,3,3,3,5,1,2,3,3,3,3,4,3,3,5,1,6,6,3,1,7,4,0,0,0,0,0,0,0,0,0,0,0,0,0,0,0,0,0,0,0,0,0,0,0,0,0,0,0,0,0,0,0],"split_type":[0,0,0,0,0,0,0,0,0,0,0,0,0,0,0,0,0,0,0,0,0,0,0,0,0,0,0,0,0,0,0,0,0,0,0,0,0,0,0,0,0,0,0,0,0,0,0,0,0,0,0,0,0,0,0,0,0,0,0,0,0],"sum_hessian":[2.7603E4,2.6512E4,1.091E3,2.2017E4,4.495E3,8.67E2,2.24E2,2.0953E4,1.064E3,3.547E3,9.48E2,6.4E2,2.27E2,1.14E2,1.1E2,2.029E4,6.63E2,6.34E2,4.3E2,2.795E3,7.52E2,5.23E2,4.25E2,3.21E2,3.19E2,3E0,2.24E2,3E1,8.4E1,7.3E1,3.7E1,5.11E2,1.9779E4,4.41E2,2.22E2,3.22E2,3.12E2,2.19E2,2.11E2,2.794E3,1E0,4.34E2,3.18E2,2.1E2,3.13E2,2E0,4.23E2,3.11E2,1E1,1E0,3.18E2,2E0,1E0,1.11E2,1.13E2,3E0,2.7E1,5E0,7.9E1,1.2E1,6.1E1],"tree_param":{"num_deleted":"0","num_feature":"8","num_nodes":"61","size_leaf_vector":"1"}},{"base_weights":[1.8766387E0,-5.6896027E1,1.4145464E3,-1.18211205E2,2.4744875E2,1.1101455E3,2.60681E3,-1.2530983E2,1.5042729E1,1.74239E2,4.7488654E2,9.0393475E2,1.4490369E3,2.1570474E3,3.08714E3,-1.267445E2,-7.851638E1,-1.710276E1,4.5923344E1,1.5846031E2,2.414517E2,3.5621725E2,5.5147034E2,7.506815E2,1.0020084E3,1.338432E3,1.6922559E3,4.740778E2,2.1817642E3,1.3128601E2,1.6388092E2,-7.4082284E0,-6.308896E0,-4.528915E0,-3.302409E0,-1.5203708E0,1.6189161E-1,9.352231E-1,2.6188757E0,7.873689E0,7.134116E1,1.0543683E1,1.3661183E1,1.8027988E1,1.1501076E1,9.016431E1,2.7244745E1,3.765807E1,5.251648E0,4.6840797E1,5.564261E1,6.745913E1,3.22523E0,8.632467E1,4.8748374E-1,3.298849E1,2.5673463E0,7.630718E1,1.1280304E2],"categories":[],"categories_nodes":[],"categories_segments":[],"categories_sizes":[],"default_left":[0,0,0,0,0,0,0,0,0,0,0,0,0,0,0,0,0,0,0,0,0,0,0,0,0,0,0,0,0,0,0,0,0,0,0,0,0,0,0,0,0,0,0,0,0,0,0,0,0,0,0,0,0,0,0,0,0,0,0],"id":16,"left_children":[1,3,5,7,9,11,13,15,17,19,21,23,25,27,29,31,33,35,37,39,41,43,45,47,49,51,53,55,57,-1,-1,-1,-1,-1,-1,-1,-1,-1,-1,-1,-1,-1,-1,-1,-1,-1,-1,-1,-1,-1,-1,-1,-1,-1,-1,-1,-1,-1,-1],"loss_changes":[2.2969219E9,4.9566422E8,3.981394E8,2.0913344E7,7.40793E7,6.032717E7,4.173261E7,1.399104E6,1.1115859E6,3.536776E6,9.65512E6,7.529408E6,6.666176E6,3.915712E6,7.10272E5,2.28416E5,8.83125E4,1.4867136E5,9.9330875E4,3.19504E6,5.63184E5,1.51612E5,4.425312E6,2.71536E5,1.363776E6,3.103968E6,5.743648E6,2.01616E5,2.256064E6,0E0,0E0,0E0,0E0,0E0,0E0,0E0,0E0,0E0,0E0,0E0,0E0,0E0,0E0,0E0,0E0,0E0,0E0,0E0,0E0,0E0,0E0,0E0,0E0,0E0,0E0,0E0,0E0,0E0,0E0],"parents":[2147483647,0,0,1,1,2,2,3,3,4,4,5,5,6,6,7,7,8,8,9,9,10,10,11,11,12,12,13,13,14,14,15,15,16,16,17,17,18,18,19,19,20,20,21,21,22,22,23,23,24,24,25,25,26,26,27,27,28,28],"right_children":[2,4,6,8,10,12,14,16,18,20,22,24,26,28,30,32,34,36,38,40,42,44,46,48,50,52,54,56,58,-1,-1,-1,-1,-1,-1,-1,-1,-1,-1,-1,-1,-1,-1,-1,-1,-1,-1,-1,-1,-1,-1,-1,-1,-1,-1,-1,-1,-1,-1],"split_conditions":[1.843E3,4.94E2,4.614E3,1.78E2,9.77E2,2.912E3,6.294E3,5.9E1,3.14E2,6.77E2,1.249E3,2.182E3,3.852E3,1E1,6.294E3,-5E0,1.02E2,2.61E2,3.52E2,3.852E3,8.09E2,1.843E3,2.85E2,5.5642666E3,2.633E3,6.294E3,5.7E1,3.9E1,2.5985E3,1.3128601E2,1.6388092E2,-7.4082284E0,-6.308896E0,-4.528915E0,-3.302409E0,-1.5203708E0,1.6189161E-1,9.352231E-1,2.6188757E0,7.873689E0,7.134116E1,1.0543683E1,1.3661183E1,1.8027988E1,1.1501076E1,9.016431E1,2.7244745E1,3.765807E1,5.251648E0,4.6840797E1,5.564261E1,6.745913E1,3.22523E0,8.632467E1,4.8748374E-1,3.298849E1,2.5673463E0,7.630718E1,1.1280304E2],"split_indices":[3,3,3,3,3,3,3,3,3,3,3,3,3,1,4,3,3,3,3,4,3,4,4,7,3,4,0,0,7,0,0,0,0,0,0,0,0,0,0,0,0,0,0,0,0,0,0,0,0,0,0,0,0,0,0,0,0,0,0],"split_type":[0,0,0,0,0,0,0,0,0,0,0,0,0,0,0,0,0,0,0,0,0,0,0,0,0,0,0,0,0,0,0,0,0,0,0,0,0,0,0,0,0,0,0,0,0,0,0,0,0,0,0,0,0,0,0,0,0,0,0],"sum_hessian":[2.7663E4,2.6559E4,1.104E3,2.2106E4,4.453E3,8.81E2,2.23E2,2.0988E4,1.118E3,3.37E3,1.083E3,5.5E2,3.31E2,1.18E2,1.05E2,2.0362E4,6.26E2,5.48E2,5.7E2,2.732E3,6.38E2,4.27E2,6.56E2,2.18E2,3.32E2,2.32E2,9.9E1,2E0,1.16E2,3.5E1,7E1,5.18E2,1.9844E4,3.15E2,3.11E2,3.31E2,2.17E2,1.1E2,4.6E2,2.731E3,1E0,3.29E2,3.09E2,4.11E2,1.6E1,2E0,6.54E2,2.17E2,1E0,2.15E2,1.17E2,2.3E2,2E0,9.7E1,2E0,1E0,1E0,1.4E1,1.02E2],"tree_param":{"num_deleted":"0","num_feature":"8","num_nodes":"59","size_leaf_vector":"1"}},{"base_weights":[9.274563E-1,-5.4336E1,1.347285E3,-1.1252983E2,2.3551216E2,1.0523655E3,2.507345E3,-1.18999626E2,1.4598656E1,1.7079312E2,4.6404617E2,8.5263995E2,1.3805836E3,2.0250376E3,2.9181436E3,-1.2040896E2,-7.413365E1,-1.4526915E1,4.3425297E1,1.5420769E2,2.6105463E2,3.838174E2,5.629856E2,7.4515906E2,1.010909E3,1.2613862E3,1.6063125E3,1.7615751E3,1.13717285E2,3.141983E3,1.27397766E2,-7.352066E0,-5.9988093E0,-4.1168404E0,-2.9318721E0,-1.3509594E0,1.6968368E-1,9.311876E-1,2.4820058E0,7.6652284E0,6.955763E1,1.1781411E1,1.4937015E1,-1.1905875E1,1.9270506E1,2.7633692E1,4.7246872E1,1.9834543E1,3.7803425E1,5.072365E1,6.116165E0,7.834777E1,6.0865456E1,3.905598E1,8.549604E1,2.2913465E1,8.88612E1,9.716739E1,1.6133179E2],"categories":[],"categories_nodes":[],"categories_segments":[],"categories_sizes":[],"default_left":[0,0,0,0,0,0,0,0,0,0,0,0,0,0,0,0,0,0,0,0,0,0,0,0,0,0,0,0,0,0,0,0,0,0,0,0,0,0,0,0,0,0,0,0,0,0,0,0,0,0,0,0,0,0,0,0,0,0,0],"id":17,"left_children":[1,3,5,7,9,11,13,15,17,19,21,23,25,27,29,31,33,35,37,39,41,43,45,47,49,51,53,55,-1,57,-1,-1,-1,-1,-1,-1,-1,-1,-1,-1,-1,-1,-1,-1,-1,-1,-1,-1,-1,-1,-1,-1,-1,-1,-1,-1,-1,-1,-1],"loss_changes":[2.0455982E9,4.4547702E8,3.682244E8,1.8091712E7,6.523563E7,5.559219E7,3.7481344E7,1.314432E6,8.9563625E5,5.114E6,7.515312E6,8.449568E6,6.74528E6,2.82464E6,1.606528E6,2.16224E5,7.652725E4,1.18966086E5,8.1693E4,3.038656E6,4.40332E5,6.27656E5,1.18712E6,9.39392E5,5.59968E5,1.028672E6,7.98352E6,3.0728E5,0E0,6.29312E5,0E0,0E0,0E0,0E0,0E0,0E0,0E0,0E0,0E0,0E0,0E0,0E0,0E0,0E0,0E0,0E0,0E0,0E0,0E0,0E0,0E0,0E0,0E0,0E0,0E0,0E0,0E0,0E0,0E0],"parents":[2147483647,0,0,1,1,2,2,3,3,4,4,5,5,6,6,7,7,8,8,9,9,10,10,11,11,12,12,13,13,14,14,15,15,16,16,17,17,18,18,19,19,20,20,21,21,22,22,23,23,24,24,25,25,26,26,27,27,29,29],"right_children":[2,4,6,8,10,12,14,16,18,20,22,24,26,28,30,32,34,36,38,40,42,44,46,48,50,52,54,56,-1,58,-1,-1,-1,-1,-1,-1,-1,-1,-1,-1,-1,-1,-1,-1,-1,-1,-1,-1,-1,-1,-1,-1,-1,-1,-1,-1,-1,-1,-1],"split_conditions":[1.843E3,4.94E2,4.614E3,1.78E2,1.041E3,2.912E3,6.294E3,5.9E1,3.14E2,7.62E2,1.399E3,2.385E3,3.852E3,4.614E3,2E0,-4.8E1,1.17E2,2.61E2,3.52E2,3.852E3,9.16E2,2.85E2,3.1115E3,1.11E3,6.294E3,1.399E3,2.385E3,2.85E2,1.13717285E2,4.1365E3,1.27397766E2,-7.352066E0,-5.9988093E0,-4.1168404E0,-2.9318721E0,-1.3509594E0,1.6968368E-1,9.311876E-1,2.4820058E0,7.6652284E0,6.955763E1,1.1781411E1,1.4937015E1,-1.1905875E1,1.9270506E1,2.7633692E1,4.7246872E1,1.9834543E1,3.7803425E1,5.072365E1,6.116165E0,7.834777E1,6.0865456E1,3.905598E1,8.549604E1,2.2913465E1,8.88612E1,9.716739E1,1.6133179E2],"split_indices":[3,3,3,3,3,3,3,3,3,3,3,3,3,5,2,3,3,3,3,4,3,4,7,4,4,5,4,5,0,7,0,0,0,0,0,0,0,0,0,0,0,0,0,0,0,0,0,0,0,0,0,0,0,0,0,0,0,0,0],"split_type":[0,0,0,0,0,0,0,0,0,0,0,0,0,0,0,0,0,0,0,0,0,0,0,0,0,0,0,0,0,0,0,0,0,0,0,0,0,0,0,0,0,0,0,0,0,0,0,0,0,0,0,0,0,0,0,0,0,0,0],"sum_hessian":[2.7491E4,2.6408E4,1.083E3,2.1993E4,4.415E3,8.65E2,2.18E2,2.0928E4,1.065E3,3.442E3,9.73E2,5.4E2,3.25E2,1.03E2,1.15E2,2.0289E4,6.39E2,5.3E2,5.35E2,2.91E3,5.32E2,5.4E2,4.33E2,3.25E2,2.15E2,2.17E2,1.08E2,5.4E1,4.9E1,6.7E1,4.8E1,3.19E2,1.997E4,4.15E2,2.24E2,3.12E2,2.18E2,1.08E2,4.27E2,2.909E3,1E0,3.22E2,2.1E2,1E0,5.39E2,4.24E2,9E0,1.1E1,3.14E2,2.14E2,1E0,2.3E1,1.94E2,1.3E1,9.5E1,1E0,5.3E1,6E0,6.1E1],"tree_param":{"num_deleted":"0","num_feature":"8","num_nodes":"59","size_leaf_vector":"1"}},{"base_weights":[9.092395E-2,-5.698284E1,1.1528674E3,-1.0993328E2,1.9041185E2,8.5222736E2,2.0784307E3,-1.1387435E2,-2.7215042E1,1.4209644E2,3.7230228E2,7.0309863E2,1.1386631E3,1.7594646E3,2.7428923E3,-1.1468724E2,-8.7915474E1,-5.644275E1,-3.7728763E0,6.972082E1,1.6105345E2,3.0319992E2,4.2859134E2,6.09587E2,7.9559784E2,1.0986038E3,1.3569656E3,1.6071453E3,2.067302E3,3.0269717E3,1.1232047E2,-6.714709E0,-5.7094693E0,-4.711206E0,-4.082339E0,-3.0907176E0,-1.9548811E0,-1.1085011E0,4.0325442E-1,2.4570181E0,4.867369E0,7.9610734E0,3.388435E1,1.428123E1,1.76518E1,-1.1608228E1,2.151302E1,2.9906345E1,5.2565174E1,3.9995453E1,3.311426E0,5.760682E1,4.705203E1,7.1504E1,4.063168E1,3.3696827E1,8.172442E1,1.2104125E2,8.911993E1,1.3814234E1,1.5337679E2],"categories":[],"categories_nodes":[],"categories_segments":[],"categories_sizes":[],"default_left":[0,0,0,0,0,0,0,0,0,0,0,0,0,0,0,0,0,0,0,0,0,0,0,0,0,0,0,0,0,0,0,0,0,0,0,0,0,0,0,0,0,0,0,0,0,0,0,0,0,0,0,0,0,0,0,0,0,0,0,0,0],"id":18,"left_children":[1,3,5,7,9,11,13,15,17,19,21,23,25,27,29,31,33,35,37,39,41,43,45,47,49,51,53,55,57,59,-1,-1,-1,-1,-1,-1,-1,-1,-1,-1,-1,-1,-1,-1,-1,-1,-1,-1,-1,-1,-1,-1,-1,-1,-1,-1,-1,-1,-1,-1,-1],"loss_changes":[1.8242506E9,3.461008E8,3.6219456E8,7.091248E6,4.088213E7,4.144531E7,6.299507E7,4.28256E5,6.787814E5,5.040568E6,3.670304E6,5.163328E6,1.45632E6,6.946368E6,7.586304E6,1.81232E5,1.74195E4,3.8671625E4,1.201782E5,4.30739E5,2.652928E6,2.86304E5,6.90992E5,1.036616E6,9.6896E5,1.361824E6,7.48192E5,2.75152E6,2.634816E6,6.070336E6,0E0,0E0,0E0,0E0,0E0,0E0,0E0,0E0,0E0,0E0,0E0,0E0,0E0,0E0,0E0,0E0,0E0,0E0,0E0,0E0,0E0,0E0,0E0,0E0,0E0,0E0,0E0,0E0,0E0,0E0,0E0],"parents":[2147483647,0,0,1,1,2,2,3,3,4,4,5,5,6,6,7,7,8,8,9,9,10,10,11,11,12,12,13,13,14,14,15,15,16,16,17,17,18,18,19,19,20,20,21,21,22,22,23,23,24,24,25,25,26,26,27,27,28,28,29,29],"right_children":[2,4,6,8,10,12,14,16,18,20,22,24,26,28,30,32,34,36,38,40,42,44,46,48,50,52,54,56,58,60,-1,-1,-1,-1,-1,-1,-1,-1,-1,-1,-1,-1,-1,-1,-1,-1,-1,-1,-1,-1,-1,-1,-1,-1,-1,-1,-1,-1,-1,-1,-1],"split_conditions":[1.59E3,3.52E2,3.852E3,1.02E2,9.16E2,2.633E3,6.294E3,2E1,2.08E2,5.98E2,1.191E3,1.996E3,5.2E1,4.614E3,2E0,-5E0,5.9E1,1.78E2,2.61E2,4.94E2,1.996E3,1.11E3,2.85E2,3.4407E3,6.294E3,3.6E1,3.852E3,1.7804E3,1.3E1,2.4237666E3,1.1232047E2,-6.714709E0,-5.7094693E0,-4.711206E0,-4.082339E0,-3.0907176E0,-1.9548811E0,-1.1085011E0,4.0325442E-1,2.4570181E0,4.867369E0,7.9610734E0,3.388435E1,1.428123E1,1.76518E1,-1.1608228E1,2.151302E1,2.9906345E1,5.2565174E1,3.9995453E1,3.311426E0,5.760682E1,4.705203E1,7.1504E1,4.063168E1,3.3696827E1,8.172442E1,1.2104125E2,8.911993E1,1.3814234E1,1.5337679E2],"split_indices":[3,3,3,3,3,3,3,3,3,3,3,3,0,5,2,3,3,3,3,3,4,3,4,7,5,0,6,7,1,7,0,0,0,0,0,0,0,0,0,0,0,0,0,0,0,0,0,0,0,0,0,0,0,0,0,0,0,0,0,0,0],"split_type":[0,0,0,0,0,0,0,0,0,0,0,0,0,0,0,0,0,0,0,0,0,0,0,0,0,0,0,0,0,0,0,0,0,0,0,0,0,0,0,0,0,0,0,0,0,0,0,0,0,0,0,0,0,0,0,0,0,0,0,0,0],"sum_hessian":[2.7725E4,2.6418E4,1.307E3,2.1761E4,4.657E3,9.88E2,3.19E2,2.0771E4,9.9E2,3.681E3,9.76E2,6.52E2,3.36E2,2.18E2,1.01E2,2.0137E4,6.34E2,4.4E2,5.5E2,7.65E2,2.916E3,4.41E2,5.35E2,3.28E2,3.24E2,2.89E2,4.7E1,1.5E2,6.8E1,6.1E1,4E1,4.92E2,1.9645E4,3.09E2,3.25E2,3.34E2,1.06E2,2.15E2,3.35E2,4.4E2,3.25E2,2.907E3,9E0,3.31E2,1.1E2,1E0,5.34E2,3.22E2,6E0,3.22E2,2E0,2.11E2,7.8E1,4E1,7E0,5E0,1.45E2,2.7E1,4.1E1,1E0,6E1],"tree_param":{"num_deleted":"0","num_feature":"8","num_nodes":"61","size_leaf_vector":"1"}},{"base_weights":[1.5013962E0,-5.3815884E1,1.1222931E3,-1.03695656E2,1.8680298E2,8.855729E2,2.290973E3,-1.07972786E2,-1.31749935E1,1.3757286E2,3.6925763E2,7.148466E2,1.2652666E3,1.9128112E3,2.6448699E3,-1.0896384E2,-8.136903E1,-3.534552E1,1.4657097E1,6.857177E1,1.5271208E2,1.3340776E3,3.6381955E2,6.3332465E2,9.101371E2,1.159181E3,1.4496337E3,1.3067656E3,1.9743141E3,2.0094482E3,2.7473499E3,-6.4836307E0,-5.425385E0,-4.39466E0,-3.6249778E0,-2.5596702E0,-1.2156959E0,1.3460578E0,-5.6628298E-2,2.745218E0,4.735988E0,7.549213E0,3.471079E1,1.4323198E2,1.1763859E1,1.4620316E1,2.091969E1,-6.8358397E0,3.189794E1,4.6680218E1,2.7775648E1,7.892296E1,5.518916E1,3.42567E1,7.688805E1,7.8180565E1,1.6898008E1,7.764352E1,1.04954056E2,1.100153E2,1.2905273E1,1.145934E2,1.4706264E2],"categories":[],"categories_nodes":[],"categories_segments":[],"categories_sizes":[],"default_left":[0,0,0,0,0,0,0,0,0,0,0,0,0,0,0,0,0,0,0,0,0,0,0,0,0,0,0,0,0,0,0,0,0,0,0,0,0,0,0,0,0,0,0,0,0,0,0,0,0,0,0,0,0,0,0,0,0,0,0,0,0,0,0],"id":19,"left_children":[1,3,5,7,9,11,13,15,17,19,21,23,25,27,29,31,33,35,37,39,41,43,45,47,49,51,53,55,57,59,61,-1,-1,-1,-1,-1,-1,-1,-1,-1,-1,-1,-1,-1,-1,-1,-1,-1,-1,-1,-1,-1,-1,-1,-1,-1,-1,-1,-1,-1,-1,-1,-1],"loss_changes":[1.7109889E9,3.1566035E8,3.5706304E8,8.432672E6,4.051312E7,6.916986E7,2.411584E7,5.39568E5,6.076974E5,3.706304E6,4.54628E6,1.1332128E7,4.852224E6,1.482848E6,1.642368E6,1.75312E5,3.70845E4,9.456075E4,8.46535E4,2.242345E5,2.624392E6,7.734927E6,3.5996E6,1.982096E6,1.295568E6,3.297984E6,6.89648E6,2.706396E6,1.840864E6,5.782976E6,1.384384E6,0E0,0E0,0E0,0E0,0E0,0E0,0E0,0E0,0E0,0E0,0E0,0E0,0E0,0E0,0E0,0E0,0E0,0E0,0E0,0E0,0E0,0E0,0E0,0E0,0E0,0E0,0E0,0E0,0E0,0E0,0E0,0E0],"parents":[2147483647,0,0,1,1,2,2,3,3,4,4,5,5,6,6,7,7,8,8,9,9,10,10,11,11,12,12,13,13,14,14,15,15,16,16,17,17,18,18,19,19,20,20,21,21,22,22,23,23,24,24,25,25,26,26,27,27,28,28,29,29,30,30],"right_children":[2,4,6,8,10,12,14,16,18,20,22,24,26,28,30,32,34,36,38,40,42,44,46,48,50,52,54,56,58,60,62,-1,-1,-1,-1,-1,-1,-1,-1,-1,-1,-1,-1,-1,-1,-1,-1,-1,-1,-1,-1,-1,-1,-1,-1,-1,-1,-1,-1,-1,-1,-1,-1],"split_conditions":[1.59E3,3.95E2,4.614E3,1.17E2,9.16E2,2.912E3,6.294E3,2E1,2.61E2,5.98E2,2.85E2,2.385E3,3.852E3,2.5985E3,1.2E1,-2.8E1,7.3E1,1.78E2,1.2E1,5.3E2,1.996E3,2E1,1.191E3,2.85E2,1.3E1,1.399E3,2.385E3,1.843E3,1.59E3,4.7E1,4.614E3,-6.4836307E0,-5.425385E0,-4.39466E0,-3.6249778E0,-2.5596702E0,-1.2156959E0,1.3460578E0,-5.6628298E-2,2.745218E0,4.735988E0,7.549213E0,3.471079E1,1.4323198E2,1.1763859E1,1.4620316E1,2.091969E1,-6.8358397E0,3.189794E1,4.6680218E1,2.7775648E1,7.892296E1,5.518916E1,3.42567E1,7.688805E1,7.8180565E1,1.6898008E1,7.764352E1,1.04954056E2,1.100153E2,1.2905273E1,1.145934E2,1.4706264E2],"split_indices":[3,3,3,3,3,3,3,3,3,3,4,3,3,7,1,3,3,3,1,3,4,6,3,5,1,5,4,5,6,0,5,0,0,0,0,0,0,0,0,0,0,0,0,0,0,0,0,0,0,0,0,0,0,0,0,0,0,0,0,0,0,0,0],"split_type":[0,0,0,0,0,0,0,0,0,0,0,0,0,0,0,0,0,0,0,0,0,0,0,0,0,0,0,0,0,0,0,0,0,0,0,0,0,0,0,0,0,0,0,0,0,0,0,0,0,0,0,0,0,0,0,0,0,0,0,0,0,0,0],"sum_hessian":[2.7595E4,2.6298E4,1.297E3,2.1783E4,4.515E3,1.08E3,2.17E2,2.08E4,9.83E2,3.557E3,9.58E2,7.47E2,3.33E2,1.08E2,1.09E2,2.005E4,7.5E2,5.47E2,4.36E2,6.41E2,2.916E3,4E0,9.54E2,5.3E2,2.17E2,2.16E2,1.17E2,1.2E1,9.6E1,1.8E1,9.1E1,4.26E2,1.9624E4,4.27E2,3.23E2,2.23E2,3.24E2,2.45E2,1.91E2,4.23E2,2.18E2,2.908E3,8E0,1E0,3E0,4.16E2,5.38E2,3E0,5.27E2,2.02E2,1.5E1,2.2E1,1.94E2,1.3E1,1.04E2,9E0,3E0,2.5E1,7.1E1,1.6E1,2E0,3.1E1,6E1],"tree_param":{"num_deleted":"0","num_feature":"8","num_nodes":"63","size_leaf_vector":"1"}},{"base_weights":[9.749238E-1,-4.736794E1,1.1661825E3,-9.653565E1,2.0036774E2,9.1519037E2,2.1740122E3,-1.0231671E2,7.442494E0,1.4489624E2,3.9803992E2,7.451474E2,1.2018733E3,1.830555E3,2.624502E3,-1.0351699E2,-7.4628815E1,-2.4015207E1,3.3910934E1,1.2902133E2,2.1461226E2,3.2416995E2,4.904839E2,6.6233716E2,8.6546436E2,1.1749252E3,1.0630984E2,1.5807661E3,2.0669343E3,1.4032414E2,2.108315E3,-6.3052573E0,-5.1572514E0,-4.18225E0,-3.2710388E0,-1.9102951E0,-7.4296343E-1,7.209721E-1,2.1719396E0,6.40596E0,6.610381E1,1.04732895E1,2.5714558E1,2.6408107E0,1.6409067E1,2.4105309E1,5.4805767E1,2.8905975E1,3.523463E1,4.342568E1,4.7134705E0,5.432339E1,6.749399E1,1.0130621E2,6.9886444E1,1.13398026E2,8.506807E1,1.1196189E2,1.3543938E1],"categories":[],"categories_nodes":[],"categories_segments":[],"categories_sizes":[],"default_left":[0,0,0,0,0,0,0,0,0,0,0,0,0,0,0,0,0,0,0,0,0,0,0,0,0,0,0,0,0,0,0,0,0,0,0,0,0,0,0,0,0,0,0,0,0,0,0,0,0,0,0,0,0,0,0,0,0,0,0],"id":20,"left_children":[1,3,5,7,9,11,13,15,17,19,21,23,25,27,29,31,33,35,37,39,41,43,45,47,49,51,-1,53,55,-1,57,-1,-1,-1,-1,-1,-1,-1,-1,-1,-1,-1,-1,-1,-1,-1,-1,-1,-1,-1,-1,-1,-1,-1,-1,-1,-1,-1,-1],"loss_changes":[1.5512E9,3.220865E8,2.755044E8,1.3262928E7,4.7958816E7,4.200307E7,2.8925632E7,6.86864E5,9.691704E5,3.758448E6,6.38984E6,4.956512E6,5.622112E6,4.231328E6,2.72512E6,1.55296E5,6.6923E4,6.855456E4,1.1674369E5,2.832384E6,8.68544E5,5.66104E5,1.622856E6,7.80448E5,4.42528E5,3.470272E6,0E0,2.54816E6,6.97744E5,0E0,6.129184E6,0E0,0E0,0E0,0E0,0E0,0E0,0E0,0E0,0E0,0E0,0E0,0E0,0E0,0E0,0E0,0E0,0E0,0E0,0E0,0E0,0E0,0E0,0E0,0E0,0E0,0E0,0E0,0E0],"parents":[2147483647,0,0,1,1,2,2,3,3,4,4,5,5,6,6,7,7,8,8,9,9,10,10,11,11,12,12,13,13,14,14,15,15,16,16,17,17,18,18,19,19,20,20,21,21,22,22,23,23,24,24,25,25,27,27,28,28,30,30],"right_children":[2,4,6,8,10,12,14,16,18,20,22,24,26,28,30,32,34,36,38,40,42,44,46,48,50,52,-1,54,56,-1,58,-1,-1,-1,-1,-1,-1,-1,-1,-1,-1,-1,-1,-1,-1,-1,-1,-1,-1,-1,-1,-1,-1,-1,-1,-1,-1,-1,-1],"split_conditions":[1.843E3,4.94E2,4.614E3,1.44E2,1.041E3,2.912E3,6.294E3,2E1,2.85E2,7.26E2,1.399E3,2.385E3,6.294E3,4.614E3,2E0,-4.8E1,7.3E1,2.08E2,3.52E2,3.852E3,2.5985E3,5.65E2,3.4407E3,1.996E3,6.294E3,3.852E3,1.0630984E2,1.48E3,1.3E1,1.4032414E2,4.7E1,-6.3052573E0,-5.1572514E0,-4.18225E0,-3.2710388E0,-1.9102951E0,-7.4296343E-1,7.209721E-1,2.1719396E0,6.40596E0,6.610381E1,1.04732895E1,2.5714558E1,2.6408107E0,1.6409067E1,2.4105309E1,5.4805767E1,2.8905975E1,3.523463E1,4.342568E1,4.7134705E0,5.432339E1,6.749399E1,1.0130621E2,6.9886444E1,1.13398026E2,8.506807E1,1.1196189E2,1.3543938E1],"split_indices":[3,3,3,3,3,3,4,3,3,3,3,3,5,5,2,3,3,3,3,4,7,4,7,3,4,3,0,5,1,0,0,0,0,0,0,0,0,0,0,0,0,0,0,0,0,0,0,0,0,0,0,0,0,0,0,0,0,0,0],"split_type":[0,0,0,0,0,0,0,0,0,0,0,0,0,0,0,0,0,0,0,0,0,0,0,0,0,0,0,0,0,0,0,0,0,0,0,0,0,0,0,0,0,0,0,0,0,0,0,0,0,0,0,0,0,0,0,0,0,0,0],"sum_hessian":[2.7536E4,2.644E4,1.096E3,2.2062E4,4.378E3,8.79E2,2.17E2,2.09E4,1.162E3,3.42E3,9.58E2,5.54E2,3.25E2,1.26E2,9.1E1,2.0029E4,8.71E2,5.31E2,6.31E2,2.788E3,6.32E2,5.35E2,4.23E2,3.32E2,2.22E2,3.18E2,7E0,6.5E1,6.1E1,6.4E1,2.7E1,3.19E2,1.971E4,4.36E2,4.35E2,2.07E2,3.24E2,2.08E2,4.23E2,2.787E3,1E0,6.23E2,9E0,8E0,5.27E2,4.19E2,4E0,1.16E2,2.16E2,2.21E2,1E0,2.16E2,1.02E2,1.6E1,4.9E1,3.6E1,2.5E1,2.5E1,2E0],"tree_param":{"num_deleted":"0","num_feature":"8","num_nodes":"59","size_leaf_vector":"1"}},{"base_weights":[-7.6827735E-1,-4.7374836E1,1.0422468E3,-9.251197E1,1.7935193E2,8.263424E2,2.0403375E3,-9.720267E1,5.4189694E-1,1.3146191E2,3.538105E2,6.2618225E2,1.0566919E3,1.7196694E3,2.3475537E3,-9.834225E1,-7.11637E1,-2.3528337E1,2.630682E1,1.18282326E2,1.894734E2,1.5533645E3,3.483296E2,5.545357E2,7.227775E2,9.684579E2,1.3271322E3,1.4369343E3,1.9124841E3,1.8282391E3,2.4887515E3,-5.7261896E0,-4.8943186E0,-3.8253438E0,-2.7796686E0,-1.6466801E0,-4.3695742E-1,8.284818E-1,2.0321546E0,5.8702545E0,6.4451225E1,9.312442E0,2.2607819E1,1.0500867E1,1.3958516E2,1.5133742E1,2.1812864E1,2.793371E1,5.2240143E0,3.6641518E1,7.2976274E0,7.0328156E1,4.7276993E1,1.3658816E1,6.9873695E1,7.435112E1,1.0331751E1,1.6096941E1,9.8089E1,1.0061644E2,1.5633222E1,9.3760254E1,1.3258939E2],"categories":[],"categories_nodes":[],"categories_segments":[],"categories_sizes":[],"default_left":[0,0,0,0,0,0,0,0,0,0,0,0,0,0,0,0,0,0,0,0,0,0,0,0,0,0,0,0,0,0,0,0,0,0,0,0,0,0,0,0,0,0,0,0,0,0,0,0,0,0,0,0,0,0,0,0,0,0,0,0,0,0,0],"id":21,"left_children":[1,3,5,7,9,11,13,15,17,19,21,23,25,27,29,31,33,35,37,39,41,43,45,47,49,51,53,55,57,59,61,-1,-1,-1,-1,-1,-1,-1,-1,-1,-1,-1,-1,-1,-1,-1,-1,-1,-1,-1,-1,-1,-1,-1,-1,-1,-1,-1,-1,-1,-1,-1,-1],"loss_changes":[1.3399238E9,2.700353E8,2.5237926E8,9.604944E6,3.655597E7,4.410797E7,1.6552512E7,6.1464E5,6.5613625E5,2.606936E6,5.658776E6,3.211824E6,9.45264E6,3.030528E6,3.07584E6,1.36832E5,6.9125E4,7.579781E4,7.065956E4,2.729436E6,4.53658E5,6.067769E6,3.641416E6,5.0784E5,1.162952E6,2.113952E6,7.625056E6,2.589024E6,4.072832E6,6.624856E6,2.92976E6,0E0,0E0,0E0,0E0,0E0,0E0,0E0,0E0,0E0,0E0,0E0,0E0,0E0,0E0,0E0,0E0,0E0,0E0,0E0,0E0,0E0,0E0,0E0,0E0,0E0,0E0,0E0,0E0,0E0,0E0,0E0,0E0],"parents":[2147483647,0,0,1,1,2,2,3,3,4,4,5,5,6,6,7,7,8,8,9,9,10,10,11,11,12,12,13,13,14,14,15,15,16,16,17,17,18,18,19,19,20,20,21,21,22,22,23,23,24,24,25,25,26,26,27,27,28,28,29,29,30,30],"right_children":[2,4,6,8,10,12,14,16,18,20,22,24,26,28,30,32,34,36,38,40,42,44,46,48,50,52,54,56,58,60,62,-1,-1,-1,-1,-1,-1,-1,-1,-1,-1,-1,-1,-1,-1,-1,-1,-1,-1,-1,-1,-1,-1,-1,-1,-1,-1,-1,-1,-1,-1,-1,-1],"split_conditions":[1.706E3,4.65E2,4.614E3,1.44E2,9.77E2,2.633E3,6.294E3,2E1,2.85E2,6.77E2,2.85E2,2.182E3,3.852E3,1.996E3,3.852E3,0E0,1.02E2,2.37E2,3.95E2,3.852E3,2.5985E3,4.9E1,1.399E3,6.294E3,4.614E3,1.48E3,1.843E3,6.294E3,1E0,2.912E3,1.2E1,-5.7261896E0,-4.8943186E0,-3.8253438E0,-2.7796686E0,-1.6466801E0,-4.3695742E-1,8.284818E-1,2.0321546E0,5.8702545E0,6.4451225E1,9.312442E0,2.2607819E1,1.0500867E1,1.3958516E2,1.5133742E1,2.1812864E1,2.793371E1,5.2240143E0,3.6641518E1,7.2976274E0,7.0328156E1,4.7276993E1,1.3658816E1,6.9873695E1,7.435112E1,1.0331751E1,1.6096941E1,9.8089E1,1.0061644E2,1.5633222E1,9.3760254E1,1.3258939E2],"split_indices":[3,3,3,3,3,3,3,3,3,3,4,3,3,6,5,3,3,3,3,4,7,0,3,5,4,4,4,4,2,5,1,0,0,0,0,0,0,0,0,0,0,0,0,0,0,0,0,0,0,0,0,0,0,0,0,0,0,0,0,0,0,0,0],"split_type":[0,0,0,0,0,0,0,0,0,0,0,0,0,0,0,0,0,0,0,0,0,0,0,0,0,0,0,0,0,0,0,0,0,0,0,0,0,0,0,0,0,0,0,0,0,0,0,0,0,0,0,0,0,0,0,0,0,0,0,0,0,0,0],"sum_hessian":[2.7562E4,2.6384E4,1.178E3,2.2004E4,4.38E3,9.7E2,2.08E2,2.0948E4,1.056E3,3.438E3,9.42E2,5.21E2,4.49E2,1.05E2,1.03E2,2.0067E4,8.81E2,5.46E2,5.1E2,2.804E3,6.34E2,3E0,9.39E2,3.03E2,2.18E2,3.42E2,1.07E2,4.6E1,5.9E1,2.5E1,7.8E1,5.43E2,1.9524E4,6.53E2,2.28E2,3.33E2,2.13E2,3.05E2,2.05E2,2.803E3,1E0,6.28E2,6E0,2E0,1E0,6.21E2,3.18E2,3E2,3E0,2.14E2,4E0,1.4E1,3.28E2,7E0,1E2,4.4E1,2E0,2E0,5.7E1,2.2E1,3E0,1.9E1,5.9E1],"tree_param":{"num_deleted":"0","num_feature":"8","num_nodes":"63","size_leaf_vector":"1"}},{"base_weights":[1.2036495E0,-4.0257477E1,1.1317063E3,-8.656544E1,1.9363205E2,8.700624E2,1.9799729E3,-9.209844E1,1.2998597E1,1.4168663E2,4.0525565E2,7.4826636E2,1.1657721E3,1.6853354E3,2.3596343E3,-9.339035E1,-6.315201E1,-1.272135E1,3.5076023E1,1.22735466E2,2.2699702E2,1.4901254E3,3.9977673E2,6.679635E2,8.5230304E2,1.0755054E2,1.1851398E3,5.6106506E2,1.7069642E3,-1.8505896E1,2.3915916E3,-5.6150026E0,-4.6490664E0,-3.5417378E0,-2.4578307E0,-1.3057206E0,-1.7240591E-1,2.1024787E0,1.0629148E0,6.0981746E0,4.140318E1,1.0060102E1,1.2557811E1,8.611337E0,1.3609554E2,1.7041096E1,2.3007458E1,3.3816334E1,1.4617383E0,9.052499E1,4.179425E1,4.0580715E1,-1.356845E1,5.747288E1,9.331088E1,4.2276672E1,-7.308502E0,7.035052E1,8.8596634E1,3.3486935E1,1.2012756E2],"categories":[],"categories_nodes":[],"categories_segments":[],"categories_sizes":[],"default_left":[0,0,0,0,0,0,0,0,0,0,0,0,0,0,0,0,0,0,0,0,0,0,0,0,0,0,0,0,0,0,0,0,0,0,0,0,0,0,0,0,0,0,0,0,0,0,0,0,0,0,0,0,0,0,0,0,0,0,0,0,0],"id":22,"left_children":[1,3,5,7,9,11,13,15,17,19,21,23,25,27,29,31,33,35,37,39,41,43,45,47,49,51,53,55,57,-1,59,-1,-1,-1,-1,-1,-1,-1,-1,-1,-1,-1,-1,-1,-1,-1,-1,-1,-1,-1,-1,-1,-1,-1,-1,-1,-1,-1,-1,-1,-1],"loss_changes":[1.2970853E9,2.8913805E8,2.1556032E8,1.227664E7,4.844315E7,2.613984E7,2.1751552E7,7.83536E5,6.670789E5,5.701832E6,4.569536E6,3.892E6,4.320064E6,2.276416E6,9.434368E6,1.45824E5,9.382675E4,6.73489E4,6.0004812E4,1.479128E6,3.50172E5,6.024687E6,2.925472E6,1.6148E6,2.0892E6,1.5541645E6,3.031264E6,9.2833575E5,4.0224E4,0E0,2.21312E5,0E0,0E0,0E0,0E0,0E0,0E0,0E0,0E0,0E0,0E0,0E0,0E0,0E0,0E0,0E0,0E0,0E0,0E0,0E0,0E0,0E0,0E0,0E0,0E0,0E0,0E0,0E0,0E0,0E0,0E0],"parents":[2147483647,0,0,1,1,2,2,3,3,4,4,5,5,6,6,7,7,8,8,9,9,10,10,11,11,12,12,13,13,14,14,15,15,16,16,17,17,18,18,19,19,20,20,21,21,22,22,23,23,24,24,25,25,26,26,27,27,28,28,30,30],"right_children":[2,4,6,8,10,12,14,16,18,20,22,24,26,28,30,32,34,36,38,40,42,44,46,48,50,52,54,56,58,-1,60,-1,-1,-1,-1,-1,-1,-1,-1,-1,-1,-1,-1,-1,-1,-1,-1,-1,-1,-1,-1,-1,-1,-1,-1,-1,-1,-1,-1,-1,-1],"split_conditions":[1.996E3,5.3E2,4.614E3,1.78E2,1.191E3,3.315E3,6.294E3,3.1E1,3.14E2,8.09E2,2.85E2,2.633E3,8.09E2,1E1,1.02E2,-2.8E1,1.02E2,2.37E2,1.2E1,2.182E3,9.77E2,4.9E1,1.48E3,4.614E3,1.78E2,8.09E2,6.294E3,5.7E1,1.1E1,-1.8505896E1,1E0,-5.6150026E0,-4.6490664E0,-3.5417378E0,-2.4578307E0,-1.3057206E0,-1.7240591E-1,2.1024787E0,1.0629148E0,6.0981746E0,4.140318E1,1.0060102E1,1.2557811E1,8.611337E0,1.3609554E2,1.7041096E1,2.3007458E1,3.3816334E1,1.4617383E0,9.052499E1,4.179425E1,4.0580715E1,-1.356845E1,5.747288E1,9.331088E1,4.2276672E1,-7.308502E0,7.035052E1,8.8596634E1,3.3486935E1,1.2012756E2],"split_indices":[3,3,3,3,3,3,4,3,3,3,4,3,5,1,6,3,3,3,1,4,3,0,3,4,6,4,5,0,1,0,2,0,0,0,0,0,0,0,0,0,0,0,0,0,0,0,0,0,0,0,0,0,0,0,0,0,0,0,0,0,0],"split_type":[0,0,0,0,0,0,0,0,0,0,0,0,0,0,0,0,0,0,0,0,0,0,0,0,0,0,0,0,0,0,0,0,0,0,0,0,0,0,0,0,0,0,0,0,0,0,0,0,0,0,0,0,0,0,0,0,0,0,0,0,0],"sum_hessian":[2.7671E4,2.6693E4,9.78E2,2.2282E4,4.411E3,7.49E2,2.29E2,2.1109E4,1.173E3,3.543E3,8.68E2,5.33E2,2.16E2,1.32E2,9.7E1,2.0205E4,9.04E2,5.42E2,6.31E2,2.901E3,6.42E2,3E0,8.65E2,3.05E2,2.28E2,4E0,2.12E2,3E0,1.29E2,1E0,9.6E1,4.22E2,1.9783E4,5.81E2,3.23E2,2.21E2,3.21E2,4.18E2,2.13E2,2.899E3,2E0,3.15E2,3.27E2,2E0,1E0,4.41E2,4.24E2,3.01E2,4E0,2E0,2.26E2,1E0,3E0,2.04E2,8E0,2E0,1E0,2.7E1,1.02E2,1E0,9.5E1],"tree_param":{"num_deleted":"0","num_feature":"8","num_nodes":"61","size_leaf_vector":"1"}},{"base_weights":[1.1784611E0,-3.784101E1,1.0533616E3,-8.20382E1,1.8489499E2,8.257676E2,1.8359688E3,-8.751356E1,1.2598161E1,1.2971143E2,3.7498926E2,6.615137E2,1.0429286E3,1.5357592E3,2.1119607E3,-8.877526E1,-6.1765858E1,-1.1728283E1,3.2711502E1,1.1428296E2,1.9795407E2,1.4517958E3,3.7025974E2,5.7926434E2,7.403975E2,1.0200886E3,1.9478405E3,7.56791E2,1.5813513E3,2.27497E3,1.7936901E3,-5.4498777E0,-4.421725E0,-3.4304616E0,-2.3882327E0,-1.2315029E0,-1.5198483E-1,1.7583954E0,-7.773503E-1,3.782768E0,5.959695E0,8.430326E0,1.061132E1,8.324292E0,1.3269315E2,1.588613E1,2.1814346E1,1.4633957E1,2.971955E1,3.553178E1,4.5309685E1,4.402287E1,5.4704132E1,1.0432991E2,2.7882368E1,4.862219E1,3.661092E0,6.028256E1,8.462767E1,4.12655E0,1.1525558E2,2.3536879E1,9.069904E1],"categories":[],"categories_nodes":[],"categories_segments":[],"categories_sizes":[],"default_left":[0,0,0,0,0,0,0,0,0,0,0,0,0,0,0,0,0,0,0,0,0,0,0,0,0,0,0,0,0,0,0,0,0,0,0,0,0,0,0,0,0,0,0,0,0,0,0,0,0,0,0,0,0,0,0,0,0,0,0,0,0,0,0],"id":23,"left_children":[1,3,5,7,9,11,13,15,17,19,21,23,25,27,29,31,33,35,37,39,41,43,45,47,49,51,53,55,57,59,61,-1,-1,-1,-1,-1,-1,-1,-1,-1,-1,-1,-1,-1,-1,-1,-1,-1,-1,-1,-1,-1,-1,-1,-1,-1,-1,-1,-1,-1,-1,-1,-1],"loss_changes":[1.1355153E9,2.6255294E8,1.746414E8,1.1532416E7,4.6275536E7,2.6704288E7,1.51504E7,6.77936E5,5.96334E5,3.582436E6,4.519584E6,2.42592E6,4.812864E6,2.709856E6,1.782016E6,1.28544E5,9.1197E4,6.1803312E4,7.961469E4,5.21188E5,2.28098E5,5.738284E6,3.295584E6,7.79752E5,4.4652E5,2.37392E6,1.86712E5,1.108105E6,2.262576E6,4.501696E6,3.00368E5,0E0,0E0,0E0,0E0,0E0,0E0,0E0,0E0,0E0,0E0,0E0,0E0,0E0,0E0,0E0,0E0,0E0,0E0,0E0,0E0,0E0,0E0,0E0,0E0,0E0,0E0,0E0,0E0,0E0,0E0,0E0,0E0],"parents":[2147483647,0,0,1,1,2,2,3,3,4,4,5,5,6,6,7,7,8,8,9,9,10,10,11,11,12,12,13,13,14,14,15,15,16,16,17,17,18,18,19,19,20,20,21,21,22,22,23,23,24,24,25,25,26,26,27,27,28,28,29,29,30,30],"right_children":[2,4,6,8,10,12,14,16,18,20,22,24,26,28,30,32,34,36,38,40,42,44,46,48,50,52,54,56,58,60,62,-1,-1,-1,-1,-1,-1,-1,-1,-1,-1,-1,-1,-1,-1,-1,-1,-1,-1,-1,-1,-1,-1,-1,-1,-1,-1,-1,-1,-1,-1,-1,-1],"split_conditions":[1.996E3,5.3E2,4.614E3,1.78E2,1.11E3,2.912E3,6.294E3,2E1,3.14E2,7.62E2,2.85E2,2.385E3,6.294E3,2.2164E3,2E0,-4.8E1,1.02E2,2.37E2,7.26E2,6.36E2,8.67E2,4.9E1,1.48E3,1.11E3,4.9E1,3.315E3,9.076E3,1.706E3,1.1E1,2.4237666E3,2.85E2,-5.4498777E0,-4.421725E0,-3.4304616E0,-2.3882327E0,-1.2315029E0,-1.5198483E-1,1.7583954E0,-7.773503E-1,3.782768E0,5.959695E0,8.430326E0,1.061132E1,8.324292E0,1.3269315E2,1.588613E1,2.1814346E1,1.4633957E1,2.971955E1,3.553178E1,4.5309685E1,4.402287E1,5.4704132E1,1.0432991E2,2.7882368E1,4.862219E1,3.661092E0,6.028256E1,8.462767E1,4.12655E0,1.1525558E2,2.3536879E1,9.069904E1],"split_indices":[3,3,3,3,3,3,3,3,3,3,4,3,5,7,2,3,3,3,4,3,3,0,3,4,0,3,6,6,1,7,5,0,0,0,0,0,0,0,0,0,0,0,0,0,0,0,0,0,0,0,0,0,0,0,0,0,0,0,0,0,0,0,0],"split_type":[0,0,0,0,0,0,0,0,0,0,0,0,0,0,0,0,0,0,0,0,0,0,0,0,0,0,0,0,0,0,0,0,0,0,0,0,0,0,0,0,0,0,0,0,0,0,0,0,0,0,0,0,0,0,0,0,0,0,0,0,0,0,0],"sum_hessian":[2.7656E4,2.6668E4,9.88E2,2.2253E4,4.415E3,7.67E2,2.21E2,2.1036E4,1.217E3,3.423E3,9.92E2,4.39E2,3.28E2,1.09E2,1.12E2,2.0051E4,9.85E2,5.51E2,6.66E2,2.794E3,6.29E2,3E0,9.89E2,2.19E2,2.2E2,3.22E2,6E0,7E0,1.02E2,7E1,4.2E1,3.27E2,1.9724E4,6.59E2,3.26E2,2.21E2,3.3E2,6.34E2,3.2E1,3.17E2,2.477E3,2.1E2,4.19E2,2E0,1E0,5.54E2,4.35E2,1.2E1,2.07E2,1.91E2,2.9E1,1.16E2,2.06E2,5E0,1E0,5E0,2E0,2.6E1,7.6E1,1E0,6.9E1,1E0,4.1E1],"tree_param":{"num_deleted":"0","num_feature":"8","num_nodes":"63","size_leaf_vector":"1"}},{"base_weights":[1.4324046E0,-4.0015232E1,9.0998535E2,-7.875581E1,1.5949995E2,7.094761E2,1.7504492E3,-8.317285E1,9.747595E0,1.2200728E2,3.359615E2,5.718972E2,9.6905634E2,1.3492969E3,2.101084E3,-8.4339386E1,-5.8640236E1,-1.0854561E1,3.033129E1,1.0724285E2,1.8741248E2,1.5601567E3,3.3063095E2,5.149815E2,6.8790466E2,7.976776E2,1.0474888E3,-2.0158941E1,1.3688938E3,1.643901E3,2.190693E3,-4.9317126E0,-4.1962214E0,-3.253994E0,-2.253991E0,-9.625169E-1,4.9351446E-2,1.4823709E0,9.768293E0,5.321433E0,6.1710293E1,9.173838E0,1.769725E1,-1.2364054E1,1.2937581E2,1.4468157E1,1.9212608E1,2.547067E1,7.3149475E1,3.6788525E1,2.3081005E1,5.0176537E1,3.5757404E1,3.924159E1,5.622463E1,3.330726E1,7.087402E1,8.833917E1,2.9389673E1,9.117657E1,1.1694186E2],"categories":[],"categories_nodes":[],"categories_segments":[],"categories_sizes":[],"default_left":[0,0,0,0,0,0,0,0,0,0,0,0,0,0,0,0,0,0,0,0,0,0,0,0,0,0,0,0,0,0,0,0,0,0,0,0,0,0,0,0,0,0,0,0,0,0,0,0,0,0,0,0,0,0,0,0,0,0,0,0,0],"id":24,"left_children":[1,3,5,7,9,11,13,15,17,19,21,23,25,27,29,31,33,35,37,39,41,43,45,47,49,51,53,-1,55,57,59,-1,-1,-1,-1,-1,-1,-1,-1,-1,-1,-1,-1,-1,-1,-1,-1,-1,-1,-1,-1,-1,-1,-1,-1,-1,-1,-1,-1,-1,-1],"loss_changes":[1.04265606E9,2.0468534E8,2.0233133E8,8.669536E6,2.8447552E7,3.433712E7,2.9797632E7,5.99472E5,4.4772147E5,3.410928E6,4.404456E6,3.878048E6,3.694272E6,4.363984E6,1.396736E6,1.11312E5,8.107225E4,5.251241E4,5.379928E4,2.530514E6,3.63056E5,6.2105085E6,1.552864E6,1.545656E6,1.913264E6,1.151112E6,3.728912E6,0E0,2.811616E6,2.07614E6,1.119968E6,0E0,0E0,0E0,0E0,0E0,0E0,0E0,0E0,0E0,0E0,0E0,0E0,0E0,0E0,0E0,0E0,0E0,0E0,0E0,0E0,0E0,0E0,0E0,0E0,0E0,0E0,0E0,0E0,0E0,0E0],"parents":[2147483647,0,0,1,1,2,2,3,3,4,4,5,5,6,6,7,7,8,8,9,9,10,10,11,11,12,12,13,13,14,14,15,15,16,16,17,17,18,18,19,19,20,20,21,21,22,22,23,23,24,24,25,25,26,26,28,28,29,29,30,30],"right_children":[2,4,6,8,10,12,14,16,18,20,22,24,26,28,30,32,34,36,38,40,42,44,46,48,50,52,54,-1,56,58,60,-1,-1,-1,-1,-1,-1,-1,-1,-1,-1,-1,-1,-1,-1,-1,-1,-1,-1,-1,-1,-1,-1,-1,-1,-1,-1,-1,-1,-1,-1],"split_conditions":[1.706E3,4.94E2,4.614E3,1.78E2,1.11E3,2.912E3,6.294E3,2E1,3.14E2,7.62E2,2.85E2,2.385E3,3.315E3,1.02E2,1.2E1,0E0,1.02E2,2.61E2,6.294E3,2.912E3,2.5985E3,4.9E1,1.399E3,6.294E3,1.2E1,2.4237666E3,1.041E3,-2.0158941E1,2.4237666E3,4.7E1,4.614E3,-4.9317126E0,-4.1962214E0,-3.253994E0,-2.253991E0,-9.625169E-1,4.9351446E-2,1.4823709E0,9.768293E0,5.321433E0,6.1710293E1,9.173838E0,1.769725E1,-1.2364054E1,1.2937581E2,1.4468157E1,1.9212608E1,2.547067E1,7.3149475E1,3.6788525E1,2.3081005E1,5.0176537E1,3.5757404E1,3.924159E1,5.622463E1,3.330726E1,7.087402E1,8.833917E1,2.9389673E1,9.117657E1,1.1694186E2],"split_indices":[3,3,3,3,3,3,3,3,3,3,4,3,3,6,1,3,3,3,6,4,7,0,3,5,1,7,6,0,7,0,5,0,0,0,0,0,0,0,0,0,0,0,0,0,0,0,0,0,0,0,0,0,0,0,0,0,0,0,0,0,0],"split_type":[0,0,0,0,0,0,0,0,0,0,0,0,0,0,0,0,0,0,0,0,0,0,0,0,0,0,0,0,0,0,0,0,0,0,0,0,0,0,0,0,0,0,0,0,0,0,0,0,0,0,0,0,0,0,0,0,0,0,0,0,0],"sum_hessian":[2.7686E4,2.6479E4,1.207E3,2.2174E4,4.305E3,9.76E2,2.31E2,2.112E4,1.054E3,3.552E3,7.53E2,6.4E2,3.36E2,1.1E2,1.21E2,2.0159E4,9.61E2,5.27E2,5.27E2,2.9E3,6.52E2,2E0,7.51E2,4.33E2,2.07E2,1.09E2,2.27E2,1E0,1.09E2,2.3E1,9.8E1,5.62E2,1.9597E4,6.49E2,3.12E2,3.08E2,2.19E2,5.26E2,1E0,2.899E3,1E0,6.39E2,1.3E1,1E0,1E0,4.28E2,3.23E2,4.32E2,1E0,1.69E2,3.8E1,2.8E1,8.1E1,5.4E1,1.73E2,8E0,1.01E2,2E1,3E0,3.2E1,6.6E1],"tree_param":{"num_deleted":"0","num_feature":"8","num_nodes":"61","size_leaf_vector":"1"}},{"base_weights":[6.446787E-1,-3.441291E1,9.487665E2,-7.486326E1,1.6299345E2,7.427227E2,1.6822778E3,-7.917496E1,4.5787497E0,1.2277295E2,3.6245047E2,6.265453E2,1.0303185E3,1.4511959E3,1.9871005E3,-8.0091354E1,-5.793197E1,-1.5948556E1,2.8747473E1,1.0296233E2,2.0066016E2,1.3788397E3,3.5659332E2,5.56885E2,7.2650806E2,-9.309155E1,1.041052E3,1.0958524E3,1.5370386E3,-1.9654968E1,2.0182611E3,-4.9103465E0,-3.989605E0,-3.1761725E0,-2.4109378E0,-1.3678378E0,-2.5157067E-1,1.4036365E0,9.524086E0,5.112958E0,3.8638115E1,8.6152E0,1.1059784E1,7.828369E0,1.2614142E2,1.4733019E1,2.0118048E1,8.759681E0,2.8231928E1,8.460783E1,3.550562E1,-8.724759E0,1.7428925E0,-3.9748292E0,5.258977E1,5.9575085E1,2.0878284E1,2.1038757E1,7.778582E1,2.876222E1,1.0140611E2],"categories":[],"categories_nodes":[],"categories_segments":[],"categories_sizes":[],"default_left":[0,0,0,0,0,0,0,0,0,0,0,0,0,0,0,0,0,0,0,0,0,0,0,0,0,0,0,0,0,0,0,0,0,0,0,0,0,0,0,0,0,0,0,0,0,0,0,0,0,0,0,0,0,0,0,0,0,0,0,0,0],"id":25,"left_children":[1,3,5,7,9,11,13,15,17,19,21,23,25,27,29,31,33,35,37,39,41,43,45,47,49,51,53,55,57,-1,59,-1,-1,-1,-1,-1,-1,-1,-1,-1,-1,-1,-1,-1,-1,-1,-1,-1,-1,-1,-1,-1,-1,-1,-1,-1,-1,-1,-1,-1,-1],"loss_changes":[9.172591E8,2.1251317E8,1.4746784E8,7.565824E6,3.6264264E7,2.5081792E7,1.2260736E7,4.03192E5,5.650416E5,5.793344E6,4.026752E6,3.432272E6,2.749712E6,2.159088E6,7.468544E6,1.01032E5,4.418775E4,7.658205E4,5.1727188E4,1.336778E6,4.06188E5,5.19807E6,2.024344E6,8.74744E5,2.329024E6,3.7329164E4,2.708032E6,1.31904E6,1.409472E6,0E0,9.9808E4,0E0,0E0,0E0,0E0,0E0,0E0,0E0,0E0,0E0,0E0,0E0,0E0,0E0,0E0,0E0,0E0,0E0,0E0,0E0,0E0,0E0,0E0,0E0,0E0,0E0,0E0,0E0,0E0,0E0,0E0],"parents":[2147483647,0,0,1,1,2,2,3,3,4,4,5,5,6,6,7,7,8,8,9,9,10,10,11,11,12,12,13,13,14,14,15,15,16,16,17,17,18,18,19,19,20,20,21,21,22,22,23,23,24,24,25,25,26,26,27,27,28,28,30,30],"right_children":[2,4,6,8,10,12,14,16,18,20,22,24,26,28,30,32,34,36,38,40,42,44,46,48,50,52,54,56,58,-1,60,-1,-1,-1,-1,-1,-1,-1,-1,-1,-1,-1,-1,-1,-1,-1,-1,-1,-1,-1,-1,-1,-1,-1,-1,-1,-1,-1,-1,-1,-1],"split_conditions":[1.996E3,4.94E2,4.614E3,1.44E2,1.249E3,3.315E3,6.294E3,2E1,3.14E2,8.09E2,2.85E2,2.633E3,8.09E2,1.1E1,1.02E2,-4.8E1,8.8E1,2.37E2,6.294E3,3.852E3,9.77E2,4.9E1,1.48E3,2.08E2,1.78E2,3.4E1,1.4421333E3,1.706E3,2.85E2,-1.9654968E1,1E0,-4.9103465E0,-3.989605E0,-3.1761725E0,-2.4109378E0,-1.3678378E0,-2.5157067E-1,1.4036365E0,9.524086E0,5.112958E0,3.8638115E1,8.6152E0,1.1059784E1,7.828369E0,1.2614142E2,1.4733019E1,2.0118048E1,8.759681E0,2.8231928E1,8.460783E1,3.550562E1,-8.724759E0,1.7428925E0,-3.9748292E0,5.258977E1,5.9575085E1,2.0878284E1,2.1038757E1,7.778582E1,2.876222E1,1.0140611E2],"split_indices":[3,3,3,3,3,3,4,3,3,3,4,3,5,1,6,3,3,3,6,4,3,0,3,6,6,0,7,6,5,0,2,0,0,0,0,0,0,0,0,0,0,0,0,0,0,0,0,0,0,0,0,0,0,0,0,0,0,0,0,0,0],"split_type":[0,0,0,0,0,0,0,0,0,0,0,0,0,0,0,0,0,0,0,0,0,0,0,0,0,0,0,0,0,0,0,0,0,0,0,0,0,0,0,0,0,0,0,0,0,0,0,0,0,0,0,0,0,0,0,0,0,0,0,0,0],"sum_hessian":[2.7594E4,2.6611E4,9.83E2,2.2086E4,4.525E3,7.69E2,2.14E2,2.0949E4,1.137E3,3.767E3,7.58E2,5.5E2,2.19E2,1.25E2,8.9E1,2.008E4,8.69E2,6.15E2,5.22E2,3.005E3,7.62E2,3E0,7.55E2,3.28E2,2.22E2,2E0,2.17E2,2.7E1,9.8E1,1E0,8.8E1,3.21E2,1.9759E4,5.48E2,3.21E2,3E2,3.15E2,5.21E2,1E0,3.003E3,2E0,3.24E2,4.38E2,2E0,1E0,3.24E2,4.31E2,7E0,3.21E2,2E0,2.2E2,1E0,1E0,2E0,2.15E2,2.3E1,4E0,2E0,9.6E1,1E0,8.7E1],"tree_param":{"num_deleted":"0","num_feature":"8","num_nodes":"61","size_leaf_vector":"1"}},{"base_weights":[1.0007241E0,-3.601799E1,8.2161255E2,-7.0973495E1,1.423809E2,6.000911E2,1.393346E3,-7.522394E1,4.4310455E0,1.02366615E2,2.659299E2,4.84209E2,7.831294E2,1.1835878E3,1.79842E3,-7.61063E1,-5.4778625E1,-1.8074493E1,2.3372437E1,9.354023E1,1.4676715E2,2.2111557E2,3.2954416E2,5.0269562E2,2.8887006E2,1.3576582E3,7.5913727E2,7.2921173E2,1.2538848E3,1.4436296E3,1.9300156E3,-4.5032663E0,-3.7869496E0,-3.107725E0,-2.3731396E0,-1.4938949E0,-4.8438388E-1,4.2500755E-1,1.5290645E0,3.2008252E0,5.014942E0,7.1386847E0,3.225991E1,1.0615185E1,2.2589462E1,1.6101469E1,3.4472633E1,2.1859735E1,2.75086E1,-1.8618023E1,1.8720844E1,4.110826E1,8.780618E1,9.327998E1,3.7491024E1,5.292874E1,1.4268097E1,5.484915E1,6.878816E1,4.933717E1,8.397381E1,6.487282E1,1.01268394E2],"categories":[],"categories_nodes":[],"categories_segments":[],"categories_sizes":[],"default_left":[0,0,0,0,0,0,0,0,0,0,0,0,0,0,0,0,0,0,0,0,0,0,0,0,0,0,0,0,0,0,0,0,0,0,0,0,0,0,0,0,0,0,0,0,0,0,0,0,0,0,0,0,0,0,0,0,0,0,0,0,0,0,0],"id":26,"left_children":[1,3,5,7,9,11,13,15,17,19,21,23,25,27,29,31,33,35,37,39,41,43,45,47,49,51,53,55,57,59,61,-1,-1,-1,-1,-1,-1,-1,-1,-1,-1,-1,-1,-1,-1,-1,-1,-1,-1,-1,-1,-1,-1,-1,-1,-1,-1,-1,-1,-1,-1,-1,-1],"loss_changes":[8.3609274E8,1.6423578E8,1.4962547E8,7.058128E6,2.1304952E7,1.7819712E7,2.5995712E7,3.71904E5,5.0173503E5,1.264244E6,2.93476E6,1.761472E6,3.531904E6,6.144704E6,2.396288E6,9.5624E4,4.378E4,5.296878E4,6.8248625E4,5.36926E5,9.80742E5,1.168402E6,9.51784E5,1.255256E6,2.8545932E6,1.116682E6,1.89992E6,4.37593E6,2.12416E6,2.006456E6,2.0768E6,0E0,0E0,0E0,0E0,0E0,0E0,0E0,0E0,0E0,0E0,0E0,0E0,0E0,0E0,0E0,0E0,0E0,0E0,0E0,0E0,0E0,0E0,0E0,0E0,0E0,0E0,0E0,0E0,0E0,0E0,0E0,0E0],"parents":[2147483647,0,0,1,1,2,2,3,3,4,4,5,5,6,6,7,7,8,8,9,9,10,10,11,11,12,12,13,13,14,14,15,15,16,16,17,17,18,18,19,19,20,20,21,21,22,22,23,23,24,24,25,25,26,26,27,27,28,28,29,29,30,30],"right_children":[2,4,6,8,10,12,14,16,18,20,22,24,26,28,30,32,34,36,38,40,42,44,46,48,50,52,54,56,58,60,62,-1,-1,-1,-1,-1,-1,-1,-1,-1,-1,-1,-1,-1,-1,-1,-1,-1,-1,-1,-1,-1,-1,-1,-1,-1,-1,-1,-1,-1,-1,-1,-1],"split_conditions":[1.706E3,4.94E2,3.852E3,1.44E2,9.16E2,2.633E3,6.294E3,2E1,2.85E2,6.77E2,1.329E3,1.3E1,1.48E3,2.5985E3,6.294E3,-5E0,7.3E1,2.08E2,3.52E2,6.59E2,2.5985E3,2.182E3,6.294E3,1.996E3,5.65E2,4.4E1,1.44E2,2E0,1.1E1,2.4E1,1.2E1,-4.5032663E0,-3.7869496E0,-3.107725E0,-2.3731396E0,-1.4938949E0,-4.8438388E-1,4.2500755E-1,1.5290645E0,3.2008252E0,5.014942E0,7.1386847E0,3.225991E1,1.0615185E1,2.2589462E1,1.6101469E1,3.4472633E1,2.1859735E1,2.75086E1,-1.8618023E1,1.8720844E1,4.110826E1,8.780618E1,9.327998E1,3.7491024E1,5.292874E1,1.4268097E1,5.484915E1,6.878816E1,4.933717E1,8.397381E1,6.487282E1,1.01268394E2],"split_indices":[3,3,3,3,3,3,3,3,3,3,3,1,4,7,4,3,3,3,3,3,7,4,5,3,6,0,6,2,1,0,1,0,0,0,0,0,0,0,0,0,0,0,0,0,0,0,0,0,0,0,0,0,0,0,0,0,0,0,0,0,0,0,0],"split_type":[0,0,0,0,0,0,0,0,0,0,0,0,0,0,0,0,0,0,0,0,0,0,0,0,0,0,0,0,0,0,0,0,0,0,0,0,0,0,0,0,0,0,0,0,0,0,0,0,0,0,0,0,0,0,0,0,0,0,0,0,0,0,0],"sum_hessian":[2.7521E4,2.6334E4,1.187E3,2.202E4,4.314E3,8.57E2,3.3E2,2.0845E4,1.175E3,3.26E3,1.054E3,5.27E2,3.3E2,2.2E2,1.1E2,1.998E4,8.65E2,5.37E2,6.38E2,2.722E3,5.38E2,6.21E2,4.33E2,4.8E2,4.7E1,1.1E1,3.19E2,3.1E1,1.89E2,3.3E1,7.7E1,5.06E2,1.9474E4,4.27E2,4.38E2,2.22E2,3.15E2,2.09E2,4.29E2,5.09E2,2.213E3,5.35E2,3E0,6E2,2.1E1,4.26E2,7E0,2.06E2,2.74E2,5E0,4.2E1,6E0,5E0,1E0,3.18E2,1.7E1,1.4E1,8.7E1,1.02E2,1.3E1,2E1,1.2E1,6.5E1],"tree_param":{"num_deleted":"0","num_feature":"8","num_nodes":"63","size_leaf_vector":"1"}},{"base_weights":[1.2561312E0,-3.2256058E1,8.1826855E2,-6.7492645E1,1.4199144E2,6.429189E2,1.4917472E3,-7.147855E1,4.3324523E0,1.0558371E2,2.9479782E2,5.24022E2,8.53031E2,1.222528E3,1.7500509E3,-7.2145424E1,-4.698864E1,-1.3437637E1,2.6187145E1,8.9936356E1,1.5415388E2,1.4694196E3,2.903368E2,4.4134262E2,5.786408E2,8.2990173E2,1.536936E3,1.01719617E3,1.4357867E3,1.327601E3,1.8385654E3,-4.467809E0,-3.593517E0,-2.1315947E0,-2.5573225E0,-1.3980001E0,-3.1984818E-1,1.276307E0,9.247758E0,4.4551215E0,5.912156E1,7.5413713E0,1.8181677E1,-1.2516044E1,1.2272251E2,1.2827698E1,1.7237165E1,2.1205433E1,3.5595165E1,2.915235E1,-4.872518E0,9.094798E1,4.103018E1,8.076635E1,2.2745245E1,6.063058E1,3.94484E1,8.481121E1,5.8978863E1,8.399803E1,-1.3844292E1,6.378249E1,9.715192E1],"categories":[],"categories_nodes":[],"categories_segments":[],"categories_sizes":[],"default_left":[0,0,0,0,0,0,0,0,0,0,0,0,0,0,0,0,0,0,0,0,0,0,0,0,0,0,0,0,0,0,0,0,0,0,0,0,0,0,0,0,0,0,0,0,0,0,0,0,0,0,0,0,0,0,0,0,0,0,0,0,0,0,0],"id":27,"left_children":[1,3,5,7,9,11,13,15,17,19,21,23,25,27,29,31,33,35,37,39,41,43,45,47,49,51,53,55,57,59,61,-1,-1,-1,-1,-1,-1,-1,-1,-1,-1,-1,-1,-1,-1,-1,-1,-1,-1,-1,-1,-1,-1,-1,-1,-1,-1,-1,-1,-1,-1,-1,-1],"loss_changes":[7.560395E8,1.628701E8,1.2752749E8,6.316976E6,2.4792472E7,2.1162176E7,1.3437536E7,3.38E5,4.512377E5,2.72592E6,4.069344E6,2.250928E6,3.643968E6,3.487648E6,1.747104E6,8.992E4,7.909375E3,6.536161E4,4.9956E4,2.380898E6,5.56272E5,5.6963915E6,1.484888E6,7.47212E5,1.042864E6,1.29384E6,2.857E4,1.763844E6,1.53568E6,1.3468352E7,2.81424E6,0E0,0E0,0E0,0E0,0E0,0E0,0E0,0E0,0E0,0E0,0E0,0E0,0E0,0E0,0E0,0E0,0E0,0E0,0E0,0E0,0E0,0E0,0E0,0E0,0E0,0E0,0E0,0E0,0E0,0E0,0E0,0E0],"parents":[2147483647,0,0,1,1,2,2,3,3,4,4,5,5,6,6,7,7,8,8,9,9,10,10,11,11,12,12,13,13,14,14,15,15,16,16,17,17,18,18,19,19,20,20,21,21,22,22,23,23,24,24,25,25,26,26,27,27,28,28,29,29,30,30],"right_children":[2,4,6,8,10,12,14,16,18,20,22,24,26,28,30,32,34,36,38,40,42,44,46,48,50,52,54,56,58,60,62,-1,-1,-1,-1,-1,-1,-1,-1,-1,-1,-1,-1,-1,-1,-1,-1,-1,-1,-1,-1,-1,-1,-1,-1,-1,-1,-1,-1,-1,-1,-1,-1],"split_conditions":[1.843E3,4.94E2,4.614E3,1.44E2,1.11E3,2.912E3,6.294E3,5.9E1,3.14E2,6.77E2,2.85E2,2.182E3,6.294E3,4.614E3,4.614E3,-4.8E1,1.3E1,2.08E2,6.294E3,2.912E3,2.5985E3,4.9E1,1.48E3,4.614E3,6.294E3,1.44E2,9.076E3,2.9E1,1.3E1,3.852E3,1.2E1,-4.467809E0,-3.593517E0,-2.1315947E0,-2.5573225E0,-1.3980001E0,-3.1984818E-1,1.276307E0,9.247758E0,4.4551215E0,5.912156E1,7.5413713E0,1.8181677E1,-1.2516044E1,1.2272251E2,1.2827698E1,1.7237165E1,2.1205433E1,3.5595165E1,2.915235E1,-4.872518E0,9.094798E1,4.103018E1,8.076635E1,2.2745245E1,6.063058E1,3.94484E1,8.481121E1,5.8978863E1,8.399803E1,-1.3844292E1,6.378249E1,9.715192E1],"split_indices":[3,3,3,3,3,3,3,3,3,3,4,3,5,5,4,3,1,3,6,4,7,0,3,6,5,6,6,0,1,4,1,0,0,0,0,0,0,0,0,0,0,0,0,0,0,0,0,0,0,0,0,0,0,0,0,0,0,0,0,0,0,0,0],"split_type":[0,0,0,0,0,0,0,0,0,0,0,0,0,0,0,0,0,0,0,0,0,0,0,0,0,0,0,0,0,0,0,0,0,0,0,0,0,0,0,0,0,0,0,0,0,0,0,0,0,0,0,0,0,0,0,0,0,0,0,0,0,0,0],"sum_hessian":[2.7611E4,2.6524E4,1.087E3,2.2063E4,4.461E3,8.64E2,2.23E2,2.0903E4,1.16E3,3.604E3,8.57E2,5.54E2,3.1E2,1.12E2,1.11E2,2.0347E4,5.56E2,6.4E2,5.2E2,2.728E3,8.76E2,2E0,8.55E2,2.24E2,3.3E2,3.02E2,8E0,6E1,5.2E1,2.2E1,8.9E1,3.15E2,2.0032E4,2.77E2,2.79E2,2.08E2,4.32E2,5.19E2,1E0,2.727E3,1E0,8.64E2,1.2E1,1E0,1E0,5.31E2,3.24E2,2.13E2,1.1E1,3.28E2,2E0,1E0,3.01E2,7E0,1E0,3E1,3E1,2.3E1,2.9E1,1.8E1,4E0,1.6E1,7.3E1],"tree_param":{"num_deleted":"0","num_feature":"8","num_nodes":"63","size_leaf_vector":"1"}},{"base_weights":[6.631338E-1,-3.0520182E1,7.772797E2,-6.3952858E1,1.3575917E2,6.02765E2,1.4129926E3,-6.769096E1,7.6182413E0,9.9831505E1,2.8513202E2,5.216726E2,8.356468E2,1.1086455E3,1.6144418E3,-6.849742E1,-4.3051796E1,-6.078763E0,2.9110441E1,8.8603775E1,1.6310216E2,1.1965444E2,2.7987994E2,4.394872E2,5.9835815E2,8.025565E2,1.5874023E3,1.2551831E3,8.131324E2,1.3736637E3,1.7533146E3,-4.219721E0,-3.411906E0,-2.3930595E0,-1.6738304E0,-7.958161E-1,2.1293674E-1,1.8432544E0,7.2233355E-1,4.374034E0,2.8096338E1,1.587948E1,7.9784036E0,1.1690893E1,1.6253843E1,7.084217E0,2.2456732E1,8.867428E1,2.945429E1,-1.4587146E0,4.095445E1,1.0979618E2,5.0928738E1,4.6357197E1,6.756081E1,4.7864983E1,-1.0724883E1,8.060085E1,5.37803E1,6.2647064E1,9.372337E1],"categories":[],"categories_nodes":[],"categories_segments":[],"categories_sizes":[],"default_left":[0,0,0,0,0,0,0,0,0,0,0,0,0,0,0,0,0,0,0,0,0,0,0,0,0,0,0,0,0,0,0,0,0,0,0,0,0,0,0,0,0,0,0,0,0,0,0,0,0,0,0,0,0,0,0,0,0,0,0,0,0],"id":28,"left_children":[1,3,5,7,9,11,13,15,17,19,21,23,25,27,29,31,33,35,37,39,41,-1,43,45,47,49,51,53,55,57,59,-1,-1,-1,-1,-1,-1,-1,-1,-1,-1,-1,-1,-1,-1,-1,-1,-1,-1,-1,-1,-1,-1,-1,-1,-1,-1,-1,-1,-1,-1],"loss_changes":[6.662466E8,1.47043E8,1.1696794E8,5.892296E6,2.3734912E7,1.5332992E7,1.218896E7,4.12912E5,3.2222734E5,2.522336E6,8.829312E6,3.657136E6,4.04944E6,3.049928E6,2.1056E6,7.7768E4,2.9067625E4,6.810224E4,4.7908906E4,1.564214E6,2.4251E5,0E0,1.708144E6,8.0976E5,2.431176E6,2.870272E6,5.32436E5,6.6888E5,5.242458E6,2.102424E6,2.622384E6,0E0,0E0,0E0,0E0,0E0,0E0,0E0,0E0,0E0,0E0,0E0,0E0,0E0,0E0,0E0,0E0,0E0,0E0,0E0,0E0,0E0,0E0,0E0,0E0,0E0,0E0,0E0,0E0,0E0,0E0],"parents":[2147483647,0,0,1,1,2,2,3,3,4,4,5,5,6,6,7,7,8,8,9,9,10,10,11,11,12,12,13,13,14,14,15,15,16,16,17,17,18,18,19,19,20,20,22,22,23,23,24,24,25,25,26,26,27,27,28,28,29,29,30,30],"right_children":[2,4,6,8,10,12,14,16,18,20,22,24,26,28,30,32,34,36,38,40,42,-1,44,46,48,50,52,54,56,58,60,-1,-1,-1,-1,-1,-1,-1,-1,-1,-1,-1,-1,-1,-1,-1,-1,-1,-1,-1,-1,-1,-1,-1,-1,-1,-1,-1,-1,-1,-1],"split_conditions":[1.843E3,4.94E2,4.614E3,1.78E2,1.11E3,3.315E3,4.614E3,5.9E1,3.52E2,8.09E2,2.85E2,2.385E3,6.294E3,2.912E3,6.294E3,-4.8E1,1.17E2,2.61E2,1.2E1,1.996E3,2.08E2,1.1965444E2,1.399E3,1.11E3,1.44E2,8.09E2,1.3E1,1.2E1,4.614E3,1.3E1,1.2E1,-4.219721E0,-3.411906E0,-2.3930595E0,-1.6738304E0,-7.958161E-1,2.1293674E-1,1.8432544E0,7.2233355E-1,4.374034E0,2.8096338E1,1.587948E1,7.9784036E0,1.1690893E1,1.6253843E1,7.084217E0,2.2456732E1,8.867428E1,2.945429E1,-1.4587146E0,4.095445E1,1.0979618E2,5.0928738E1,4.6357197E1,6.756081E1,4.7864983E1,-1.0724883E1,8.060085E1,5.37803E1,6.2647064E1,9.372337E1],"split_indices":[3,3,3,3,3,3,5,3,3,3,4,3,5,5,3,3,3,3,1,4,5,0,3,4,6,5,1,1,6,1,1,0,0,0,0,0,0,0,0,0,0,0,0,0,0,0,0,0,0,0,0,0,0,0,0,0,0,0,0,0,0],"split_type":[0,0,0,0,0,0,0,0,0,0,0,0,0,0,0,0,0,0,0,0,0,0,0,0,0,0,0,0,0,0,0,0,0,0,0,0,0,0,0,0,0,0,0,0,0,0,0,0,0,0,0,0,0,0,0,0,0,0,0,0,0],"sum_hessian":[2.7509E4,2.6448E4,1.061E3,2.2021E4,4.427E3,8.34E2,2.27E2,2.0928E4,1.093E3,3.57E3,8.57E2,6.21E2,2.13E2,9.3E1,1.34E2,2.0263E4,6.65E2,6.68E2,4.25E2,3.034E3,5.36E2,1E0,8.56E2,3.03E2,3.18E2,2.06E2,7E0,6E1,3.3E1,5.3E1,8.1E1,3.2E2,1.9943E4,4.4E2,2.25E2,3.42E2,3.26E2,2.77E2,1.48E2,3.028E3,6E0,1E1,5.26E2,4.27E2,4.29E2,1E1,2.93E2,1E0,3.17E2,4E0,2.02E2,2E0,5E0,1.6E1,4.4E1,2.9E1,4E0,2.7E1,2.6E1,1.8E1,6.3E1],"tree_param":{"num_deleted":"0","num_feature":"8","num_nodes":"61","size_leaf_vector":"1"}},{"base_weights":[1.351483E0,-2.9306372E1,7.4532166E2,-6.038044E1,1.3002223E2,5.408125E2,1.1972601E3,-6.4503265E1,6.2744517E0,9.395547E1,2.5447275E2,4.4185013E2,6.6829755E2,1.015349E3,1.5397839E3,-6.529684E1,-4.6159676E1,-1.1965839E1,2.3679926E1,8.270935E1,1.317542E2,