{"learner":{"attributes":{"scikit_learn":"{\"_estimator_type\": \"regressor\"}"},"feature_names":["minute","hour","dayofweek","lag_1","lag_5","lag_15","lag_60","rolling_mean_30"],"feature_types":["int","int","int","float","float","float","float","float"],"gradient_booster":{"model":{"gbtree_model_param":{"num_parallel_tree":"1","num_trees":"500"},"iteration_indptr":[0,1,2,3,4,5,6,7,8,9,10,11,12,13,14,15,16,17,18,19,20,21,22,23,24,25,26,27,28,29,30,31,32,33,34,35,36,37,38,39,40,41,42,43,44,45,46,47,48,49,50,51,52,53,54,55,56,57,58,59,60,61,62,63,64,65,66,67,68,69,70,71,72,73,74,75,76,77,78,79,80,81,82,83,84,85,86,87,88,89,90,91,92,93,94,95,96,97,98,99,100,101,102,103,104,105,106,107,108,109,110,111,112,113,114,115,116,117,118,119,120,121,122,123,124,125,126,127,128,129,130,131,132,133,134,135,136,137,138,139,140,141,142,143,144,145,146,147,148,149,150,151,152,153,154,155,156,157,158,159,160,161,162,163,164,165,166,167,168,169,170,171,172,173,174,175,176,177,178,179,180,181,182,183,184,185,186,187,188,189,190,191,192,193,194,195,196,197,198,199,200,201,202,203,204,205,206,207,208,209,210,211,212,213,214,215,216,217,218,219,220,221,222,223,224,225,226,227,228,229,230,231,232,233,234,235,236,237,238,239,240,241,242,243,244,245,246,247,248,249,250,251,252,253,254,255,256,257,258,259,260,261,262,263,264,265,266,267,268,269,270,271,272,273,274,275,276,277,278,279,280,281,282,283,284,285,286,287,288,289,290,291,292,293,294,295,296,297,298,299,300,301,302,303,304,305,306,307,308,309,310,311,312,313,314,315,316,317,318,319,320,321,322,323,324,325,326,327,328,329,330,331,332,333,334,335,336,337,338,339,340,341,342,343,344,345,346,347,348,349,350,351,352,353,354,355,356,357,358,359,360,361,362,363,364,365,366,367,368,369,370,371,372,373,374,375,376,377,378,379,380,381,382,383,384,385,386,387,388,389,390,391,392,393,394,395,396,397,398,399,400,401,402,403,404,405,406,407,408,409,410,411,412,413,414,415,416,417,418,419,420,421,422,423,424,425,426,427,428,429,430,431,432,433,434,435,436,437,438,439,440,441,442,443,444,445,446,447,448,449,450,451,452,453,454,455,456,457,458,459,460,461,462,463,464,465,466,467,468,469,470,471,472,473,474,475,476,477,478,479,480,481,482,483,484,485,486,487,488,489,490,491,492,493,494,495,496,497,498,499,500],"tree_info":[0,0,0,0,0,0,0,0,0,0,0,0,0,0,0,0,0,0,0,0,0,0,0,0,0,0,0,0,0,0,0,0,0,0,0,0,0,0,0,0,0,0,0,0,0,0,0,0,0,0,0,0,0,0,0,0,0,0,0,0,0,0,0,0,0,0,0,0,0,0,0,0,0,0,0,0,0,0,0,0,0,0,0,0,0,0,0,0,0,0,0,0,0,0,0,0,0,0,0,0,0,0,0,0,0,0,0,0,0,0,0,0,0,0,0,0,0,0,0,0,0,0,0,0,0,0,0,0,0,0,0,0,0,0,0,0,0,0,0,0,0,0,0,0,0,0,0,0,0,0,0,0,0,0,0,0,0,0,0,0,0,0,0,0,0,0,0,0,0,0,0,0,0,0,0,0,0,0,0,0,0,0,0,0,0,0,0,0,0,0,0,0,0,0,0,0,0,0,0,0,0,0,0,0,0,0,0,0,0,0,0,0,0,0,0,0,0,0,0,0,0,0,0,0,0,0,0,0,0,0,0,0,0,0,0,0,0,0,0,0,0,0,0,0,0,0,0,0,0,0,0,0,0,0,0,0,0,0,0,0,0,0,0,0,0,0,0,0,0,0,0,0,0,0,0,0,0,0,0,0,0,0,0,0,0,0,0,0,0,0,0,0,0,0,0,0,0,0,0,0,0,0,0,0,0,0,0,0,0,0,0,0,0,0,0,0,0,0,0,0,0,0,0,0,0,0,0,0,0,0,0,0,0,0,0,0,0,0,0,0,0,0,0,0,0,0,0,0,0,0,0,0,0,0,0,0,0,0,0,0,0,0,0,0,0,0,0,0,0,0,0,0,0,0,0,0,0,0,0,0,0,0,0,0,0,0,0,0,0,0,0,0,0,0,0,0,0,0,0,0,0,0,0,0,0,0,0,0,0,0,0,0,0,0,0,0,0,0,0,0,0,0,0,0,0,0,0,0,0,0,0,0,0,0,0,0,0,0,0,0,0,0,0,0,0,0,0,0,0,0,0,0,0,0,0,0,0,0,0,0,0,0,0,0,0,0,0,0,0,0,0,0,0,0,0,0,0,0,0,0,0,0,0,0,0,0,0,0,0,0,0,0,0,0,0,0,0,0,0,0],"trees":[{"base_weights":[1.2515714E0,-2.25971E2,3.3981624E3,-2.3272061E2,4.7417408E1,-8.81109E0,1.7022368E2,-1.1747652E1,-1.431631E2,1.1115161E2,-2.1568027E2,-5.0560317E0,5.0164776E1,-1.1044806E1,-5.019941E0],"categories":[],"categories_nodes":[],"categories_segments":[],"categories_sizes":[],"default_left":[0,0,0,0,0,0,0,0,0,0,0,0,0,0,0],"id":0,"left_children":[1,3,5,7,-1,-1,-1,-1,9,11,13,-1,-1,-1,-1],"loss_changes":[2.1297785E10,2.0521626E8,3.962675E7,5.107712E6,0E0,0E0,0E0,0E0,1.1605663E7,2.6614288E7,2.71854E5,0E0,0E0,0E0,0E0],"parents":[2147483647,0,0,1,1,2,2,3,3,8,8,9,9,10,10],"right_children":[2,4,6,8,-1,-1,-1,-1,10,12,14,-1,-1,-1,-1],"split_conditions":[1.356E3,1.171E3,4.81E1,3.8866665E1,4.7417408E1,-8.81109E0,1.7022368E2,-1.1747652E1,1.7073334E2,1.2163333E2,3.697E3,-5.0560317E0,5.0164776E1,-1.1044806E1,-5.019941E0],"split_indices":[3,3,7,7,0,0,0,0,7,7,4,0,0,0,0],"split_type":[0,0,0,0,0,0,0,0,0,0,0,0,0,0,0],"sum_hessian":[2.7591E4,2.5862E4,1.729E3,2.5715E4,1.47E2,3E0,1.726E3,2.5088E4,6.27E2,1.39E2,4.88E2,1.13E2,2.6E1,4.66E2,2.2E1],"tree_param":{"num_deleted":"0","num_feature":"8","num_nodes":"15","size_leaf_vector":"1"}},{"base_weights":[1.2219181E0,-2.1447678E2,3.2277761E3,-2.2102788E2,9.0221606E2,-8.480674E0,1.6168707E2,-1.1160296E1,-1.3164563E2,-1.0129653E1,4.5543716E1,1.3948125E2,-2.0486351E2,-3.4906456E0,4.7799435E1,-1.0489208E1,-5.0597434E0],"categories":[],"categories_nodes":[],"categories_segments":[],"categories_sizes":[],"default_left":[0,0,0,0,0,0,0,0,0,0,0,0,0,0,0,0,0],"id":1,"left_children":[1,3,5,7,9,-1,-1,-1,11,-1,-1,13,15,-1,-1,-1,-1],"loss_changes":[1.9325512E10,1.9060902E8,3.5813376E7,5.008256E6,1.63852E6,0E0,0E0,0E0,1.2296698E7,0E0,0E0,2.2624252E7,2.27198E5,0E0,0E0,0E0,0E0],"parents":[2147483647,0,0,1,1,2,2,3,3,4,4,8,8,11,11,12,12],"right_children":[2,4,6,8,10,-1,-1,-1,12,-1,-1,14,16,-1,-1,-1,-1],"split_conditions":[1.413E3,1.171E3,4.81E1,3.8866665E1,5E0,-8.480674E0,1.6168707E2,-1.1160296E1,1.7073334E2,-1.0129653E1,4.5543716E1,1.2163333E2,3.697E3,-3.4906456E0,4.7799435E1,-1.0489208E1,-5.0597434E0],"split_indices":[3,3,7,7,2,0,0,0,7,0,0,7,4,0,0,0,0],"split_type":[0,0,0,0,0,0,0,0,0,0,0,0,0,0,0,0,0],"sum_hessian":[2.7766E4,2.6027E4,1.739E3,2.5876E4,1.51E2,3E0,1.736E3,2.5259E4,6.17E2,1E0,1.5E2,1.31E2,4.86E2,1.05E2,2.6E1,4.63E2,2.3E1],"tree_param":{"num_deleted":"0","num_feature":"8","num_nodes":"17","size_leaf_vector":"1"}},{"base_weights":[2.474465E0,-2.0383047E2,3.0765352E3,-2.1004034E2,4.3235798E1,-7.2556877E0,1.540163E2,-1.0602302E1,-1.2831282E2,1.1808877E2,-2.0042596E2,-3.4310405E0,4.544798E1,-8.873687E0,-1.0668323E1],"categories":[],"categories_nodes":[],"categories_segments":[],"categories_sizes":[],"default_left":[0,0,0,0,0,0,0,0,0,0,0,0,0,0,0],"id":2,"left_children":[1,3,5,7,-1,-1,-1,-1,9,11,13,-1,-1,-1,-1],"loss_changes":[1.7546234E10,1.7222106E8,2.1697536E7,4.198272E6,0E0,0E0,0E0,0E0,1.104032E7,2.0882878E7,1.04698E5,0E0,0E0,0E0,0E0],"parents":[2147483647,0,0,1,1,2,2,3,3,8,8,9,9,10,10],"right_children":[2,4,6,8,-1,-1,-1,-1,10,12,14,-1,-1,-1,-1],"split_conditions":[1.356E3,1.171E3,4.81E1,3.8866665E1,4.3235798E1,-7.2556877E0,1.540163E2,-1.0602302E1,1.7073334E2,1.2163333E2,1.215E3,-3.4310405E0,4.544798E1,-8.873687E0,-1.0668323E1],"split_indices":[3,3,7,7,0,0,0,0,7,7,6,0,0,0,0],"split_type":[0,0,0,0,0,0,0,0,0,0,0,0,0,0,0],"sum_hessian":[2.7665E4,2.5926E4,1.739E3,2.5777E4,1.49E2,2E0,1.737E3,2.5158E4,6.19E2,1.4E2,4.79E2,1.14E2,2.6E1,1.78E2,3.01E2],"tree_param":{"num_deleted":"0","num_feature":"8","num_nodes":"15","size_leaf_vector":"1"}},{"base_weights":[2.1928208E0,-1.9370204E2,2.9245818E3,-1.9943953E2,8.053086E2,-5.2603736E0,1.4631949E2,-1.0072207E1,-1.1870919E2,-1.3726819E1,4.07261E1,1.4152599E2,-1.8786543E2,-2.8265135E0,5.4129913E1,-8.348434E0,-1.0159274E1],"categories":[],"categories_nodes":[],"categories_segments":[],"categories_sizes":[],"default_left":[0,0,0,0,0,0,0,0,0,0,0,0,0,0,0,0,0],"id":3,"left_children":[1,3,5,7,9,-1,-1,-1,11,-1,-1,13,15,-1,-1,-1,-1],"loss_changes":[1.5810774E10,1.4851693E8,9.811968E6,4.140992E6,1.696096E6,0E0,0E0,0E0,1.1292638E7,0E0,0E0,2.4664052E7,1.24544E5,0E0,0E0,0E0,0E0],"parents":[2147483647,0,0,1,1,2,2,3,3,4,4,8,8,11,11,12,12],"right_children":[2,4,6,8,10,-1,-1,-1,12,-1,-1,14,16,-1,-1,-1,-1],"split_conditions":[1.413E3,1.166E3,4.7566666E1,3.8866665E1,5E0,-5.2603736E0,1.4631949E2,-1.0072207E1,1.7073334E2,-1.3726819E1,4.07261E1,1.2163333E2,1.3E1,-2.8265135E0,5.4129913E1,-8.348434E0,-1.0159274E1],"split_indices":[3,3,7,7,2,0,0,0,7,0,0,7,1,0,0,0,0],"split_type":[0,0,0,0,0,0,0,0,0,0,0,0,0,0,0,0,0],"sum_hessian":[2.7616E4,2.5882E4,1.734E3,2.5735E4,1.47E2,1E0,1.733E3,2.511E4,6.25E2,1E0,1.46E2,1.31E2,4.94E2,1.09E2,2.2E1,2.14E2,2.8E2],"tree_param":{"num_deleted":"0","num_feature":"8","num_nodes":"17","size_leaf_vector":"1"}},{"base_weights":[-4.8923492E-1,-1.8373518E2,2.768965E3,-1.8963437E2,7.655235E2,-1.1482793E1,2.7743633E3,-9.568617E0,-1.18509964E2,-1.3383649E1,3.8685253E1,2.662399E3,1.4099495E2,1.3141234E2,-1.8368695E2,1.3879001E2,1.4532521E3,-2.0576313E0,5.326604E1,-1.8535908E1,-9.029803E0,1.0371156E2,1.3596048E1],"categories":[],"categories_nodes":[],"categories_segments":[],"categories_sizes":[],"default_left":[0,0,0,0,0,0,0,0,0,0,0,0,0,0,0,0,0,0,0,0,0,0,0],"id":4,"left_children":[1,3,5,7,9,-1,11,-1,13,-1,-1,15,-1,17,19,-1,21,-1,-1,-1,-1,-1,-1],"loss_changes":[1.3999657E10,1.4503578E8,2.8350464E7,3.155904E6,1.5596E6,0E0,1.204224E6,0E0,1.0058275E7,0E0,0E0,6.617088E7,0E0,2.0672304E7,2.15739E5,0E0,3.3180744E7,0E0,0E0,0E0,0E0,0E0,0E0],"parents":[2147483647,0,0,1,1,2,2,3,3,4,4,6,6,8,8,11,11,13,13,14,14,16,16],"right_children":[2,4,6,8,10,-1,12,-1,14,-1,-1,16,-1,18,20,-1,22,-1,-1,-1,-1,-1,-1],"split_conditions":[1.413E3,1.171E3,4.81E1,3.8866665E1,5E0,-1.1482793E1,3.6328333E3,-9.568617E0,1.236E2,-1.3383649E1,3.8685253E1,3.4511667E3,1.4099495E2,1.2163333E2,1.7073334E2,1.3879001E2,1.417E3,-2.0576313E0,5.326604E1,-1.8535908E1,-9.029803E0,1.0371156E2,1.3596048E1],"split_indices":[3,3,7,7,2,0,7,0,7,0,0,7,0,7,7,0,6,0,0,0,0,0,0],"split_type":[0,0,0,0,0,0,0,0,0,0,0,0,0,0,0,0,0,0,0,0,0,0,0],"sum_hessian":[2.7584E4,2.5873E4,1.711E3,2.5714E4,1.59E2,3E0,1.708E3,2.5099E4,6.15E2,1E0,1.58E2,5.11E2,1.197E3,1.27E2,4.88E2,4.66E2,4.5E1,1.08E2,1.9E1,6E0,4.82E2,2.9E1,1.6E1],"tree_param":{"num_deleted":"0","num_feature":"8","num_nodes":"23","size_leaf_vector":"1"}},{"base_weights":[-7.02616E-1,-1.7447386E2,2.6268684E3,-1.7979057E2,7.2567883E2,-1.1052188E1,2.6319702E3,-9.090207E0,-9.9740585E1,-1.3049057E1,3.669435E1,2.5163447E3,1.3395534E2,1.4885161E2,-1.6688959E2,1.3101585E2,1.2855054E3,-2.026345E0,4.5744034E1,-8.569234E0,-3.7133904E0,1.07421814E2,7.786489E-1],"categories":[],"categories_nodes":[],"categories_segments":[],"categories_sizes":[],"default_left":[0,0,0,0,0,0,0,0,0,0,0,0,0,0,0,0,0,0,0,0,0,0,0],"id":5,"left_children":[1,3,5,7,9,-1,11,-1,13,-1,-1,15,-1,17,19,-1,21,-1,-1,-1,-1,-1,-1],"loss_changes":[1.266781E10,1.246729E8,2.5586688E7,4.151936E6,1.430632E6,0E0,2.62144E6,0E0,1.0658102E7,0E0,0E0,6.2409984E7,0E0,1.9766524E7,1.96277E5,0E0,4.599284E7,0E0,0E0,0E0,0E0,0E0,0E0],"parents":[2147483647,0,0,1,1,2,2,3,3,4,4,6,6,8,8,11,11,13,13,14,14,16,16],"right_children":[2,4,6,8,10,-1,12,-1,14,-1,-1,16,-1,18,20,-1,22,-1,-1,-1,-1,-1,-1],"split_conditions":[1.413E3,1.166E3,4.81E1,3.8866665E1,5E0,-1.1052188E1,3.6328333E3,-9.090207E0,1.7073334E2,-1.3049057E1,3.669435E1,3.4857334E3,1.3395534E2,1.2163333E2,3.697E3,1.3101585E2,1.417E3,-2.026345E0,4.5744034E1,-8.569234E0,-3.7133904E0,1.07421814E2,7.786489E-1],"split_indices":[3,3,7,7,2,0,7,0,7,0,0,7,0,7,4,0,6,0,0,0,0,0,0],"split_type":[0,0,0,0,0,0,0,0,0,0,0,0,0,0,0,0,0,0,0,0,0,0,0],"sum_hessian":[2.7742E4,2.6022E4,1.72E3,2.587E4,1.52E2,3E0,1.717E3,2.5234E4,6.36E2,1E0,1.51E2,5.13E2,1.204E3,1.35E2,5.01E2,4.72E2,4.1E1,1.09E2,2.6E1,4.77E2,2.4E1,2.4E1,1.7E1],"tree_param":{"num_deleted":"0","num_feature":"8","num_nodes":"23","size_leaf_vector":"1"}},{"base_weights":[-4.0299174E-1,-1.6604642E2,2.494021E3,-1.712133E2,6.892938E2,-1.06377325E1,2.498897E3,-8.635711E0,-1.1119074E2,-1.2722831E1,3.4853718E1,2.3849263E3,1.2727598E2,5.799573E1,-1.6074316E2,2.4952979E3,1.0561395E3,3.207851E1,-3.5539982E0,-7.0337067E0,-8.768882E0,9.511834E1,1.2586625E2,9.339049E1,5.5247746E0],"categories":[],"categories_nodes":[],"categories_segments":[],"categories_sizes":[],"default_left":[0,0,0,0,0,0,0,0,0,0,0,0,0,0,0,0,0,0,0,0,0,0,0,0,0],"id":6,"left_children":[1,3,5,7,9,-1,11,-1,13,-1,-1,15,-1,17,19,21,23,-1,-1,-1,-1,-1,-1,-1,-1],"loss_changes":[1.1359695E10,1.1405568E8,2.312704E7,2.289536E6,1.315528E6,0E0,3.01056E6,0E0,5.2742225E6,0E0,0E0,7.245466E7,0E0,1.0817119E7,1.18067E5,1.375744E6,3.1263204E7,0E0,0E0,0E0,0E0,0E0,0E0,0E0,0E0],"parents":[2147483647,0,0,1,1,2,2,3,3,4,4,6,6,8,8,11,11,13,13,14,14,15,15,16,16],"right_children":[2,4,6,8,10,-1,12,-1,14,-1,-1,16,-1,18,20,22,24,-1,-1,-1,-1,-1,-1,-1,-1],"split_conditions":[1.413E3,1.166E3,4.81E1,3.8866665E1,5E0,-1.06377325E1,3.6328333E3,-8.635711E0,1.7073334E2,-1.2722831E1,3.4853718E1,3.4857334E3,1.2727598E2,1.5E1,1.3E1,2E0,1.417E3,3.207851E1,-3.5539982E0,-7.0337067E0,-8.768882E0,9.511834E1,1.2586625E2,9.339049E1,5.5247746E0],"split_indices":[3,3,7,7,2,0,7,0,7,0,0,7,0,1,1,1,6,0,0,0,0,0,0,0,0],"split_type":[0,0,0,0,0,0,0,0,0,0,0,0,0,0,0,0,0,0,0,0,0,0,0,0,0],"sum_hessian":[2.7491E4,2.578E4,1.711E3,2.5626E4,1.54E2,3E0,1.708E3,2.4999E4,6.27E2,1E0,1.53E2,5.11E2,1.197E3,1.42E2,4.85E2,4.71E2,4E1,2.5E1,1.17E2,2.09E2,2.76E2,2E1,4.51E2,2.1E1,1.9E1],"tree_param":{"num_deleted":"0","num_feature":"8","num_nodes":"25","size_leaf_vector":"1"}},{"base_weights":[1.4797896E0,-1.5777054E2,2.380688E3,-1.6284917E2,6.609378E2,-8.25906E0,1.1918607E2,-8.203944E0,-1.13771904E2,-1.2404759E1,3.341077E1,4.1977604E1,-1.5256168E2,-4.405971E0,3.51427E1,-7.840554E0,-3.39582E0],"categories":[],"categories_nodes":[],"categories_segments":[],"categories_sizes":[],"default_left":[0,0,0,0,0,0,0,0,0,0,0,0,0,0,0,0,0],"id":7,"left_children":[1,3,5,7,9,-1,-1,-1,11,-1,-1,13,15,-1,-1,-1,-1],"loss_changes":[1.0478569E10,1.0788493E8,1.3792256E7,1.536128E6,1.224272E6,0E0,0E0,0E0,3.8306665E6,0E0,0E0,1.0981148E7,1.71714E5,0E0,0E0,0E0,0E0],"parents":[2147483647,0,0,1,1,2,2,3,3,4,4,8,8,11,11,12,12],"right_children":[2,4,6,8,10,-1,-1,-1,12,-1,-1,14,16,-1,-1,-1,-1],"split_conditions":[1.413E3,1.171E3,4.76E1,3.8866665E1,5E0,-8.25906E0,1.1918607E2,-8.203944E0,1.236E2,-1.2404759E1,3.341077E1,1.2163333E2,3.697E3,-4.405971E0,3.51427E1,-7.840554E0,-3.39582E0],"split_indices":[3,3,7,7,2,0,0,0,7,0,0,7,4,0,0,0,0],"split_type":[0,0,0,0,0,0,0,0,0,0,0,0,0,0,0,0,0],"sum_hessian":[2.7654E4,2.592E4,1.734E3,2.5761E4,1.59E2,2E0,1.732E3,2.5129E4,6.32E2,1E0,1.58E2,1.26E2,5.06E2,1.06E2,2E1,4.81E2,2.5E1],"tree_param":{"num_deleted":"0","num_feature":"8","num_nodes":"17","size_leaf_vector":"1"}},{"base_weights":[-1.1569414E0,-1.499957E2,2.2553752E3,-1.5462617E2,6.254398E2,-1.1522166E1,2.2598816E3,-7.793763E0,-1.05043846E2,-1.2094641E1,3.1634485E1,2.1627947E3,1.1495088E2,7.940786E1,-1.5167618E2,2.2652695E3,1.1116509E3,-5.5953016E0,5.964522E1,-1.9273794E1,-7.4292884E0,8.50848E1,1.1434849E2,8.698427E1,8.84101E0],"categories":[],"categories_nodes":[],"categories_segments":[],"categories_sizes":[],"default_left":[0,0,0,0,0,0,0,0,0,0,0,0,0,0,0,0,0,0,0,0,0,0,0,0,0],"id":8,"left_children":[1,3,5,7,9,-1,11,-1,13,-1,-1,15,-1,17,19,21,23,-1,-1,-1,-1,-1,-1,-1,-1],"loss_changes":[9.276105E9,9.313005E7,1.9664896E7,1.578752E6,1.121396E6,0E0,1.509376E6,0E0,5.482543E6,0E0,0E0,5.2093696E7,0E0,2.761402E7,3.09772E5,1.746176E6,2.7286364E7,0E0,0E0,0E0,0E0,0E0,0E0,0E0,0E0],"parents":[2147483647,0,0,1,1,2,2,3,3,4,4,6,6,8,8,11,11,13,13,14,14,15,15,16,16],"right_children":[2,4,6,8,10,-1,12,-1,14,-1,-1,16,-1,18,20,22,24,-1,-1,-1,-1,-1,-1,-1,-1],"split_conditions":[1.413E3,1.171E3,4.81E1,3.8866665E1,5E0,-1.1522166E1,3.6328333E3,-7.793763E0,1.236E2,-1.2094641E1,3.1634485E1,3.4857334E3,1.1495088E2,1.2163333E2,1.7073334E2,2E0,1.417E3,-5.5953016E0,5.964522E1,-1.9273794E1,-7.4292884E0,8.50848E1,1.1434849E2,8.698427E1,8.84101E0],"split_indices":[3,3,7,7,2,0,7,0,7,0,0,7,0,7,7,1,6,0,0,0,0,0,0,0,0],"split_type":[0,0,0,0,0,0,0,0,0,0,0,0,0,0,0,0,0,0,0,0,0,0,0,0,0],"sum_hessian":[2.7617E4,2.5909E4,1.708E3,2.5756E4,1.53E2,3E0,1.705E3,2.5121E4,6.35E2,1E0,1.52E2,5.06E2,1.199E3,1.28E2,5.07E2,4.6E2,4.6E1,1.1E2,1.8E1,5E0,5.02E2,2E1,4.4E2,2.7E1,1.9E1],"tree_param":{"num_deleted":"0","num_feature":"8","num_nodes":"25","size_leaf_vector":"1"}},{"base_weights":[-9.169494E-1,-1.4261073E2,2.1402893E3,-1.468219E2,5.907255E2,-7.5996857E0,2.1430576E3,-7.4040904E0,-9.677972E1,-1.1792274E1,2.9897642E1,2.0466866E3,1.092112E2,4.02924E1,-1.352743E2,1.07223045E2,6.91237E2,-1.6516056E0,5.5562084E1,-6.9746413E0,-2.1227293E0,-1.7005894E0,6.5469955E1],"categories":[],"categories_nodes":[],"categories_segments":[],"categories_sizes":[],"default_left":[0,0,0,0,0,0,0,0,0,0,0,0,0,0,0,0,0,0,0,0,0,0,0],"id":9,"left_children":[1,3,5,7,9,-1,11,-1,13,-1,-1,15,-1,17,19,-1,21,-1,-1,-1,-1,-1,-1],"loss_changes":[8.373418E9,8.002787E7,1.1195904E7,1.608384E6,1.02516E6,0E0,2.317824E6,0E0,3.3560505E6,0E0,0E0,6.849229E7,0E0,1.1030465E7,1.88293E5,0E0,1.6632426E7,0E0,0E0,0E0,0E0,0E0,0E0],"parents":[2147483647,0,0,1,1,2,2,3,3,4,4,6,6,8,8,11,11,13,13,14,14,16,16],"right_children":[2,4,6,8,10,-1,12,-1,14,-1,-1,16,-1,18,20,-1,22,-1,-1,-1,-1,-1,-1],"split_conditions":[1.413E3,1.171E3,4.76E1,3.8866665E1,5E0,-7.5996857E0,3.6328333E3,-7.4040904E0,1.7073334E2,-1.1792274E1,2.9897642E1,3.4857334E3,1.092112E2,2.1E1,3.697E3,1.07223045E2,3.685E3,-1.6516056E0,5.5562084E1,-6.9746413E0,-2.1227293E0,-1.7005894E0,6.5469955E1],"split_indices":[3,3,7,7,2,0,7,0,7,0,0,7,0,1,4,0,5,0,0,0,0,0,0],"split_type":[0,0,0,0,0,0,0,0,0,0,0,0,0,0,0,0,0,0,0,0,0,0,0],"sum_hessian":[2.7597E4,2.5885E4,1.712E3,2.5738E4,1.47E2,2E0,1.71E3,2.5104E4,6.34E2,1E0,1.46E2,5.27E2,1.183E3,1.39E2,4.95E2,4.91E2,3.6E1,1.31E2,8E0,4.73E2,2.2E1,1.7E1,1.9E1],"tree_param":{"num_deleted":"0","num_feature":"8","num_nodes":"23","size_leaf_vector":"1"}},{"base_weights":[1.025114E0,-1.3528992E2,2.0320555E3,-1.393308E2,5.6146344E2,-2.4480762E2,2.0361477E3,-7.0339007E0,-8.541171E1,-1.1497468E1,2.8418226E1,-3.6150239E0,-1.3910492E1,1.9422527E3,1.0376833E2,4.9582775E1,-1.2787772E2,2.019216E3,8.070766E2,2.7236311E1,-2.8882434E0,-5.225745E0,-7.259369E0,1.0172634E2,6.988586E1,7.748568E1,-2.0878637E1],"categories":[],"categories_nodes":[],"categories_segments":[],"categories_sizes":[],"default_left":[0,0,0,0,0,0,0,0,0,0,0,0,0,0,0,0,0,0,0,0,0,0,0,0,0,0,0],"id":10,"left_children":[1,3,5,7,9,11,13,-1,15,-1,-1,-1,-1,17,-1,19,21,23,25,-1,-1,-1,-1,-1,-1,-1,-1],"loss_changes":[7.6241674E9,7.273501E7,1.6635904E7,1.851808E6,9.44472E5,2.9337812E3,2.336256E6,0E0,3.606462E6,0E0,0E0,0E0,0E0,4.423808E7,0E0,8.057491E6,1.781305E5,1.82848E6,3.2478568E7,0E0,0E0,0E0,0E0,0E0,0E0,0E0,0E0],"parents":[2147483647,0,0,1,1,2,2,3,3,4,4,5,5,6,6,8,8,13,13,15,15,16,16,17,17,18,18],"right_children":[2,4,6,8,10,12,14,-1,16,-1,-1,-1,-1,18,-1,20,22,24,26,-1,-1,-1,-1,-1,-1,-1,-1],"split_conditions":[1.413E3,1.171E3,4.81E1,3.8866665E1,5E0,6E0,3.6328333E3,-7.0339007E0,1.7073334E2,-1.1497468E1,2.8418226E1,-3.6150239E0,-1.3910492E1,3.5511333E3,1.0376833E2,1.5E1,1.3E1,3.4511667E3,1.417E3,2.7236311E1,-2.8882434E0,-5.225745E0,-7.259369E0,1.0172634E2,6.988586E1,7.748568E1,-2.0878637E1],"split_indices":[3,3,7,7,2,0,7,0,7,0,0,0,0,7,0,1,1,7,6,0,0,0,0,0,0,0,0],"split_type":[0,0,0,0,0,0,0,0,0,0,0,0,0,0,0,0,0,0,0,0,0,0,0,0,0,0,0],"sum_hessian":[2.7536E4,2.5805E4,1.731E3,2.5657E4,1.48E2,3E0,1.728E3,2.503E4,6.27E2,1E0,1.47E2,1E0,2E0,5.24E2,1.204E3,1.5E2,4.77E2,4.9E2,3.4E1,2.6E1,1.24E2,2.06E2,2.71E2,4.76E2,1.4E1,2.1E1,1.3E1],"tree_param":{"num_deleted":"0","num_feature":"8","num_nodes":"27","size_leaf_vector":"1"}},{"base_weights":[2.660242E0,-1.2799726E2,1.9373833E3,-1.3231477E2,5.370718E2,-2.3694862E2,1.941284E3,-6.6822176E0,-7.900889E1,-1.12100315E1,2.7152216E1,-3.5246484E0,-1.344681E1,1.4068912E3,9.725655E1,8.147446E1,-1.22230995E2,9.1216576E1,-3.0151224E2,3.733015E1,-1.7964724E0,-5.0609584E0,-6.902073E0,-5.3228065E1,4.9690876E1],"categories":[],"categories_nodes":[],"categories_segments":[],"categories_sizes":[],"default_left":[0,0,0,0,0,0,0,0,0,0,0,0,0,0,0,0,0,0,0,0,0,0,0,0,0],"id":11,"left_children":[1,3,5,7,9,11,13,-1,15,-1,-1,-1,-1,17,-1,19,21,-1,23,-1,-1,-1,-1,-1,-1],"loss_changes":[6.9369513E9,7.388435E7,1.5183872E7,1.799616E6,8.76512E5,2.3399375E3,8.25856E5,0E0,4.33829E6,0E0,0E0,0E0,0E0,1.1960562E7,0E0,1.041262E7,1.494735E5,0E0,5.0115805E6,0E0,0E0,0E0,0E0,0E0,0E0],"parents":[2147483647,0,0,1,1,2,2,3,3,4,4,5,5,6,6,8,8,13,13,15,15,16,16,18,18],"right_children":[2,4,6,8,10,12,14,-1,16,-1,-1,-1,-1,18,-1,20,22,-1,24,-1,-1,-1,-1,-1,-1],"split_conditions":[1.413E3,1.166E3,4.81E1,3.8866665E1,5E0,6E0,3.625E3,-6.6822176E0,1.7073334E2,-1.12100315E1,2.7152216E1,-3.5246484E0,-1.344681E1,1.443E3,9.725655E1,1.1E1,1.3E1,9.1216576E1,2.3E1,3.733015E1,-1.7964724E0,-5.0609584E0,-6.902073E0,-5.3228065E1,4.9690876E1],"split_indices":[3,3,7,7,2,0,3,0,7,0,0,0,0,3,0,1,1,0,0,0,0,0,0,0,0],"split_type":[0,0,0,0,0,0,0,0,0,0,0,0,0,0,0,0,0,0,0,0,0,0,0,0,0],"sum_hessian":[2.744E4,2.5705E4,1.735E3,2.554E4,1.65E2,3E0,1.732E3,2.4917E4,6.23E2,1E0,1.64E2,1E0,2E0,1.5E1,1.717E3,1.32E2,4.91E2,1.2E1,3E0,1.9E1,1.13E2,2.14E2,2.77E2,2E0,1E0],"tree_param":{"num_deleted":"0","num_feature":"8","num_nodes":"25","size_leaf_vector":"1"}},{"base_weights":[3.1425193E-2,-1.2238113E2,1.8374254E3,-1.2606905E2,5.1600604E2,-1.0809212E1,1.8399331E3,-6.348122E0,-9.119775E1,-1.0929781E1,2.612233E1,1.7597026E3,9.370363E1,2.8631424E1,-1.2404201E2,1.8270978E3,5.7330206E2,3.4015545E1,-1.8889227E0,-6.40487E0,-2.1967263E0,6.576777E1,9.195418E1,6.068011E1,-3.2149914E1],"categories":[],"categories_nodes":[],"categories_segments":[],"categories_sizes":[],"default_left":[0,0,0,0,0,0,0,0,0,0,0,0,0,0,0,0,0,0,0,0,0,0,0,0,0],"id":12,"left_children":[1,3,5,7,9,-1,11,-1,13,-1,-1,15,-1,17,19,21,23,-1,-1,-1,-1,-1,-1,-1,-1],"loss_changes":[6.215217E9,6.105853E7,9.286656E6,7.90912E5,8.19152E5,0E0,1.424384E6,0E0,2.54995E6,0E0,0E0,4.140992E7,0E0,6.084615E6,1.59405E5,6.59968E5,2.4144264E7,0E0,0E0,0E0,0E0,0E0,0E0,0E0,0E0],"parents":[2147483647,0,0,1,1,2,2,3,3,4,4,6,6,8,8,11,11,13,13,14,14,15,15,16,16],"right_children":[2,4,6,8,10,-1,12,-1,14,-1,-1,16,-1,18,20,22,24,-1,-1,-1,-1,-1,-1,-1,-1],"split_conditions":[1.413E3,1.171E3,4.81E1,3.8866665E1,5E0,-1.0809212E1,3.6328333E3,-6.348122E0,1.7073334E2,-1.0929781E1,2.612233E1,3.5511333E3,9.370363E1,8E0,3.697E3,3.625E3,1.213E3,3.4015545E1,-1.8889227E0,-6.40487E0,-2.1967263E0,6.576777E1,9.195418E1,6.068011E1,-3.2149914E1],"split_indices":[3,3,7,7,2,0,7,0,7,0,0,7,0,0,4,3,6,0,0,0,0,0,0,0,0],"split_type":[0,0,0,0,0,0,0,0,0,0,0,0,0,0,0,0,0,0,0,0,0,0,0,0,0],"sum_hessian":[2.7631E4,2.5906E4,1.725E3,2.5758E4,1.48E2,2E0,1.723E3,2.5112E4,6.46E2,1E0,1.47E2,5.3E2,1.193E3,1.39E2,5.07E2,5.01E2,2.9E1,1.2E1,1.27E2,4.82E2,2.5E1,1.4E1,4.87E2,1.9E1,1E1],"tree_param":{"num_deleted":"0","num_feature":"8","num_nodes":"25","size_leaf_vector":"1"}},{"base_weights":[-3.0927697E-1,-1.1609413E2,1.7436708E3,-1.1971736E2,4.824139E2,-2.2123715E2,1.7472349E3,-1.2063265E2,-7.8799774E1,-1.0656536E1,2.4413816E1,-3.166302E0,-1.2638276E1,1.6666792E3,8.904328E1,-1.2055324E2,-1.6138974E2,2.3420605E2,-1.0825631E2,8.7749916E1,7.165356E2,-6.0301204E0,2.7870565E1,-9.618483E0,3.0817657E1,-4.582107E-1,3.68365E1,-4.1821723E0,-6.3887615E0,6.744937E1,-8.655057E0],"categories":[],"categories_nodes":[],"categories_segments":[],"categories_sizes":[],"default_left":[0,0,0,0,0,0,0,0,0,0,0,0,0,0,0,0,0,0,0,0,0,0,0,0,0,0,0,0,0,0,0],"id":13,"left_children":[1,3,5,7,9,11,13,15,17,-1,-1,-1,-1,19,-1,21,23,25,27,-1,29,-1,-1,-1,-1,-1,-1,-1,-1,-1,-1],"loss_changes":[5.575393E9,5.620547E7,1.2424704E7,9.54368E5,7.40168E5,3.9080625E3,1.680384E6,6.2016E4,5.243913E6,0E0,0E0,0E0,0E0,4.246259E7,0E0,9.048E5,1.2269105E6,5.999421E6,2.38168E5,0E0,2.6115522E7,0E0,0E0,0E0,0E0,0E0,0E0,0E0,0E0,0E0,0E0],"parents":[2147483647,0,0,1,1,2,2,3,3,4,4,5,5,6,6,7,7,8,8,13,13,15,15,16,16,17,17,18,18,20,20],"right_children":[2,4,6,8,10,12,14,16,18,-1,-1,-1,-1,20,-1,22,24,26,28,-1,30,-1,-1,-1,-1,-1,-1,-1,-1,-1,-1],"split_conditions":[1.413E3,1.171E3,4.81E1,4.76E1,5E0,6E0,3.6328333E3,4.7433334E1,1.236E2,-1.0656536E1,2.4413816E1,-3.166302E0,-1.2638276E1,3.4511667E3,8.904328E1,4.7133335E1,5E0,1.2163333E2,1.3E1,8.7749916E1,1.417E3,-6.0301204E0,2.7870565E1,-9.618483E0,3.0817657E1,-4.582107E-1,3.68365E1,-4.1821723E0,-6.3887615E0,6.744937E1,-8.655057E0],"split_indices":[3,3,7,7,2,0,7,7,7,0,0,0,0,7,0,7,2,7,1,0,6,0,0,0,0,0,0,0,0,0,0],"split_type":[0,0,0,0,0,0,0,0,0,0,0,0,0,0,0,0,0,0,0,0,0,0,0,0,0,0,0,0,0,0,0],"sum_hessian":[2.7609E4,2.5891E4,1.718E3,2.5736E4,1.55E2,3E0,1.715E3,2.5171E4,5.65E2,1E0,1.54E2,1E0,2E0,5.2E2,1.195E3,2.5126E4,4.5E1,4.8E1,5.17E2,4.75E2,4.5E1,2.5125E4,1E0,4.4E1,1E0,3.3E1,1.5E1,2.31E2,2.86E2,2.6E1,1.9E1],"tree_param":{"num_deleted":"0","num_feature":"8","num_nodes":"31","size_leaf_vector":"1"}},{"base_weights":[5.679696E-1,-1.0998278E2,1.6612642E3,-1.13214096E2,4.6107657E2,-2.1412643E2,1.6646558E3,-5.729235E0,-5.789318E1,-1.0390123E1,2.3356133E1,-3.0871444E0,-1.2217E1,1.5961439E3,8.458083E1,1.4289226E2,-1.0737426E2,1.6773413E3,7.3065735E2,-1.215893E0,3.8704052E1,-4.446858E0,-5.934924E0,6.0980408E1,8.48774E1,6.2857746E1,4.838852E-1],"categories":[],"categories_nodes":[],"categories_segments":[],"categories_sizes":[],"default_left":[0,0,0,0,0,0,0,0,0,0,0,0,0,0,0,0,0,0,0,0,0,0,0,0,0,0,0],"id":14,"left_children":[1,3,5,7,9,11,13,-1,15,-1,-1,-1,-1,17,-1,19,21,23,25,-1,-1,-1,-1,-1,-1,-1,-1],"loss_changes":[5.074093E9,4.786883E7,1.1328512E7,1.947168E6,6.87508E5,3.3299531E3,4.80256E5,0E0,6.224768E6,0E0,0E0,0E0,0E0,3.4193024E7,0E0,1.3105926E7,9.4254E4,2.18432E6,1.7069564E7,0E0,0E0,0E0,0E0,0E0,0E0,0E0,0E0],"parents":[2147483647,0,0,1,1,2,2,3,3,4,4,5,5,6,6,8,8,13,13,15,15,16,16,17,17,18,18],"right_children":[2,4,6,8,10,12,14,-1,16,-1,-1,-1,-1,18,-1,20,22,24,26,-1,-1,-1,-1,-1,-1,-1,-1],"split_conditions":[1.413E3,1.171E3,4.81E1,3.8866665E1,5E0,6E0,3.6328333E3,-5.729235E0,1.7073334E2,-1.0390123E1,2.3356133E1,-3.0871444E0,-1.2217E1,3.4511667E3,8.458083E1,1.2163333E2,2.5E1,2E0,1.417E3,-1.215893E0,3.8704052E1,-4.446858E0,-5.934924E0,6.0980408E1,8.48774E1,6.2857746E1,4.838852E-1],"split_indices":[3,3,7,7,2,0,7,0,7,0,0,0,0,7,0,7,0,1,6,0,0,0,0,0,0,0,0],"split_type":[0,0,0,0,0,0,0,0,0,0,0,0,0,0,0,0,0,0,0,0,0,0,0,0,0,0,0],"sum_hessian":[2.7636E4,2.5912E4,1.724E3,2.5767E4,1.45E2,3E0,1.721E3,2.5143E4,6.24E2,1E0,1.44E2,1E0,2E0,5.03E2,1.218E3,1.23E2,5.01E2,4.59E2,4.4E1,9.8E1,2.5E1,1.94E2,3.07E2,2.2E1,4.37E2,2.5E1,1.9E1],"tree_param":{"num_deleted":"0","num_feature":"8","num_nodes":"27","size_leaf_vector":"1"}},{"base_weights":[6.113583E-2,-1.0445342E2,1.5778348E3,-1.07692444E2,4.34023E2,-3.0099657E0,1.5788257E3,-5.4427843E0,-6.2054947E1,-1.013037E1,2.197363E1,1.5143054E3,8.034881E1,1.0100253E2,-1.0690204E2,1.5839111E3,7.873448E2,-1.3506222E0,3.9151867E1,-2.1358572E1,-5.10928E0,6.0566364E1,7.973705E1,7.243159E1,-4.5040774E0],"categories":[],"categories_nodes":[],"categories_segments":[],"categories_sizes":[],"default_left":[0,0,0,0,0,0,0,0,0,0,0,0,0,0,0,0,0,0,0,0,0,0,0,0,0],"id":15,"left_children":[1,3,5,7,9,-1,11,-1,13,-1,-1,15,-1,17,19,21,23,-1,-1,-1,-1,-1,-1,-1,-1],"loss_changes":[4.552073E9,4.52024E7,2.878464E6,1.35952E6,6.26796E5,0E0,6.7968E5,0E0,4.7055215E6,0E0,0E0,2.5976064E7,0E0,1.2157335E7,7.17657E5,4.544E4,2.8561794E7,0E0,0E0,0E0,0E0,0E0,0E0,0E0,0E0],"parents":[2147483647,0,0,1,1,2,2,3,3,4,4,6,6,8,8,11,11,13,13,14,14,15,15,16,16],"right_children":[2,4,6,8,10,-1,12,-1,14,-1,-1,16,-1,18,20,22,24,-1,-1,-1,-1,-1,-1,-1,-1],"split_conditions":[1.413E3,1.171E3,4.7566666E1,3.8866665E1,5E0,-3.0099657E0,3.6328333E3,-5.4427843E0,1.236E2,-1.013037E1,2.197363E1,3.4511667E3,8.034881E1,1.2163333E2,1.7073334E2,1E0,1.417E3,-1.3506222E0,3.9151867E1,-2.1358572E1,-5.10928E0,6.0566364E1,7.973705E1,7.243159E1,-4.5040774E0],"split_indices":[3,3,7,7,2,0,7,0,7,0,0,7,0,7,7,1,6,0,0,0,0,0,0,0,0],"split_type":[0,0,0,0,0,0,0,0,0,0,0,0,0,0,0,0,0,0,0,0,0,0,0,0,0],"sum_hessian":[2.7603E4,2.5889E4,1.714E3,2.5735E4,1.54E2,1E0,1.713E3,2.5094E4,6.41E2,1E0,1.53E2,5.37E2,1.176E3,1.38E2,5.03E2,4.89E2,4.8E1,1.17E2,2.1E1,6E0,4.97E2,1.7E1,4.72E2,2.7E1,2.1E1],"tree_param":{"num_deleted":"0","num_feature":"8","num_nodes":"25","size_leaf_vector":"1"}},{"base_weights":[-1.1364566E0,-9.953634E1,1.5008363E3,-1.0238232E2,4.114737E2,-2.241842E2,1.5029989E3,-5.1706567E0,-6.1532036E1,-9.8771105E0,2.0855698E1,-2.9347167E0,-1.3879099E1,1.01007965E3,7.531002E1,6.3222836E1,-9.673064E1,1.2314081E3,-4.667975E1,1.08524166E-1,4.792081E1,-5.5667453E0,-3.9036243E0,7.315209E1,-3.870488E1],"categories":[],"categories_nodes":[],"categories_segments":[],"categories_sizes":[],"default_left":[0,0,0,0,0,0,0,0,0,0,0,0,0,0,0,0,0,0,0,0,0,0,0,0,0],"id":16,"left_children":[1,3,5,7,9,11,13,-1,15,-1,-1,-1,-1,17,-1,19,21,23,-1,-1,-1,-1,-1,-1,-1],"loss_changes":[4.088721E9,3.780216E7,6.682368E6,1.080928E6,5.77038E5,1.0217875E4,1.160192E6,0E0,2.8076995E6,0E0,0E0,0E0,0E0,7.172303E6,0E0,7.7040855E6,1.27007E5,7.171592E6,0E0,0E0,0E0,0E0,0E0,0E0,0E0],"parents":[2147483647,0,0,1,1,2,2,3,3,4,4,5,5,6,6,8,8,13,13,15,15,16,16,17,17],"right_children":[2,4,6,8,10,12,14,-1,16,-1,-1,-1,-1,18,-1,20,22,24,-1,-1,-1,-1,-1,-1,-1],"split_conditions":[1.413E3,1.171E3,4.81E1,3.8866665E1,5E0,6E0,3.625E3,-5.1706567E0,1.7073334E2,-9.8771105E0,2.0855698E1,-2.9347167E0,-1.3879099E1,3.695E3,7.531002E1,2.1E1,3.667E3,3.338E3,-4.667975E1,1.08524166E-1,4.792081E1,-5.5667453E0,-3.9036243E0,7.315209E1,-3.870488E1],"split_indices":[3,3,7,7,2,0,3,0,7,0,0,0,0,5,0,1,5,3,0,0,0,0,0,0,0],"split_type":[0,0,0,0,0,0,0,0,0,0,0,0,0,0,0,0,0,0,0,0,0,0,0,0,0],"sum_hessian":[2.7663E4,2.5963E4,1.7E3,2.582E4,1.43E2,2E0,1.698E3,2.5183E4,6.37E2,1E0,1.42E2,1E0,1E0,1.3E1,1.685E3,1.4E2,4.97E2,1.2E1,1E0,1.32E2,8E0,2.76E2,2.21E2,1.1E1,1E0],"tree_param":{"num_deleted":"0","num_feature":"8","num_nodes":"25","size_leaf_vector":"1"}},{"base_weights":[-6.364508E-1,-9.446177E1,1.4229148E3,-9.7458244E1,4.0504572E2,-1.4005031E1,1.4250857E3,-4.9121327E0,-6.548663E1,-9.630183E0,2.0510538E1,1.3632516E3,7.25837E1,4.774565E1,-9.4352036E1,1.4157534E3,4.7755258E2,2.5010319E1,-2.9072819E0,-1.9417173E1,-4.5573244E0,7.144735E1,4.7958607E1,4.693764E1,-4.828711E1],"categories":[],"categories_nodes":[],"categories_segments":[],"categories_sizes":[],"default_left":[0,0,0,0,0,0,0,0,0,0,0,0,0,0,0,0,0,0,0,0,0,0,0,0,0],"id":17,"left_children":[1,3,5,7,9,-1,11,-1,13,-1,-1,15,-1,17,19,21,23,-1,-1,-1,-1,-1,-1,-1,-1],"loss_changes":[3.6721075E9,3.8645504E7,6.683904E6,6.3656E5,5.5439E5,0E0,8.12544E5,0E0,2.0211668E6,0E0,0E0,2.3829888E7,0E0,6.065953E6,4.28267E5,1.623232E6,2.1541678E7,0E0,0E0,0E0,0E0,0E0,0E0,0E0,0E0],"parents":[2147483647,0,0,1,1,2,2,3,3,4,4,6,6,8,8,11,11,13,13,14,14,15,15,16,16],"right_children":[2,4,6,8,10,-1,12,-1,14,-1,-1,16,-1,18,20,22,24,-1,-1,-1,-1,-1,-1,-1,-1],"split_conditions":[1.413E3,1.166E3,4.81E1,3.8866665E1,5E0,-1.4005031E1,3.6328333E3,-4.9121327E0,1.236E2,-9.630183E0,2.0510538E1,3.5511333E3,7.25837E1,1.5E1,1.7073334E2,3.4511667E3,3.674E3,2.5010319E1,-2.9072819E0,-1.9417173E1,-4.5573244E0,7.144735E1,4.7958607E1,4.693764E1,-4.828711E1],"split_indices":[3,3,7,7,2,0,7,0,7,0,0,7,0,1,7,7,6,0,0,0,0,0,0,0,0],"split_type":[0,0,0,0,0,0,0,0,0,0,0,0,0,0,0,0,0,0,0,0,0,0,0,0,0],"sum_hessian":[2.7491E4,2.5792E4,1.699E3,2.5639E4,1.53E2,2E0,1.697E3,2.5023E4,6.16E2,1E0,1.52E2,5.26E2,1.171E3,1.25E2,4.91E2,4.96E2,3E1,2.3E1,1.02E2,4E0,4.87E2,4.8E2,1.6E1,2.3E1,7E0],"tree_param":{"num_deleted":"0","num_feature":"8","num_nodes":"25","size_leaf_vector":"1"}},{"base_weights":[-8.596822E-1,-8.943893E1,1.3518977E3,-9.235534E1,3.7381772E2,-2.281852E2,1.3548186E3,-9.3280266E1,-5.0929916E1,-9.389428E0,1.892218E1,-2.511223E0,-1.35381975E1,1.2948436E3,6.891808E1,-9.321064E1,-1.25283905E2,2.9389404E2,-8.854556E1,1.3486522E3,1.3520921E1,-4.665134E0,3.5613327E1,-7.570605E0,3.0181349E1,1.1217884E0,3.5620033E1,-2.076165E1,-4.2577915E0,4.825129E1,6.825582E1,-2.7600382E1,6.1171814E1],"categories":[],"categories_nodes":[],"categories_segments":[],"categories_sizes":[],"default_left":[0,0,0,0,0,0,0,0,0,0,0,0,0,0,0,0,0,0,0,0,0,0,0,0,0,0,0,0,0,0,0,0,0],"id":18,"left_children":[1,3,5,7,9,11,13,15,17,-1,-1,-1,-1,19,-1,21,23,25,27,29,31,-1,-1,-1,-1,-1,-1,-1,-1,-1,-1,-1,-1],"loss_changes":[3.322423E9,3.519285E7,8.173568E6,9.86128E5,4.94532E5,1.6710438E4,6.17216E5,4.4688E4,7.3804535E6,0E0,0E0,0E0,0E0,3.4179136E7,0E0,1.937888E6,1.0817428E6,6.3460135E6,5.3161975E5,1.689088E6,1.5044421E7,0E0,0E0,0E0,0E0,0E0,0E0,0E0,0E0,0E0,0E0,0E0,0E0],"parents":[2147483647,0,0,1,1,2,2,3,3,4,4,5,5,6,6,7,7,8,8,13,13,15,15,16,16,17,17,18,18,19,19,20,20],"right_children":[2,4,6,8,10,12,14,16,18,-1,-1,-1,-1,20,-1,22,24,26,28,30,32,-1,-1,-1,-1,-1,-1,-1,-1,-1,-1,-1,-1],"split_conditions":[1.413E3,1.171E3,4.81E1,4.76E1,5E0,6E0,3.5937E3,4.7433334E1,1.236E2,-9.389428E0,1.892218E1,-2.511223E0,-1.35381975E1,3.5511333E3,6.891808E1,4.7133335E1,5E0,1.2163333E2,1.7073334E2,2E0,3.701E3,-4.665134E0,3.5613327E1,-7.570605E0,3.0181349E1,1.1217884E0,3.5620033E1,-2.076165E1,-4.2577915E0,4.825129E1,6.825582E1,-2.7600382E1,6.1171814E1],"split_indices":[3,3,7,7,2,0,7,7,7,0,0,0,0,7,0,7,2,7,7,1,4,0,0,0,0,0,0,0,0,0,0,0,0],"split_type":[0,0,0,0,0,0,0,0,0,0,0,0,0,0,0,0,0,0,0,0,0,0,0,0,0,0,0,0,0,0,0,0,0],"sum_hessian":[2.7725E4,2.6022E4,1.703E3,2.586E4,1.62E2,3E0,1.7E3,2.5294E4,5.66E2,1E0,1.61E2,1E0,2E0,4.95E2,1.205E3,2.5243E4,5.1E1,5.5E1,5.11E2,4.75E2,2E1,2.5241E4,2E0,5E1,1E0,3.4E1,2.1E1,4E0,5.07E2,2.2E1,4.53E2,1.4E1,6E0],"tree_param":{"num_deleted":"0","num_feature":"8","num_nodes":"33","size_leaf_vector":"1"}},{"base_weights":[-5.234773E-1,-8.5536644E1,1.2824568E3,-8.80237E1,3.534697E2,-2.2078828E2,1.28522E3,-8.863754E1,-6.0716526E1,-9.154693E0,1.7921642E1,-2.4484425E0,-1.3086924E1,1.225461E3,6.5527336E1,-8.859311E1,-1.1050266E2,1.3349565E2,-8.302142E1,1.2998538E3,4.762609E2,-4.4318795E0,2.571966E1,1.6795208E1,-6.8903747E0,4.1362556E1,-5.036136E0,-4.3451247E0,3.5971662E-1,4.797248E1,6.551741E1,4.6924477E1,-1.2044753E1],"categories":[],"categories_nodes":[],"categories_segments":[],"categories_sizes":[],"default_left":[0,0,0,0,0,0,0,0,0,0,0,0,0,0,0,0,0,0,0,0,0,0,0,0,0,0,0,0,0,0,0,0,0],"id":19,"left_children":[1,3,5,7,9,11,13,15,17,-1,-1,-1,-1,19,-1,21,23,25,27,29,31,-1,-1,-1,-1,-1,-1,-1,-1,-1,-1,-1,-1],"loss_changes":[3.0100114E9,2.8289952E7,7.40736E6,4.26032E5,4.54432E5,1.5327109E4,9.85088E5,1.4656E4,2.4759245E6,0E0,0E0,0E0,0E0,2.8641792E7,0E0,7.19392E5,6.1917625E5,9.670249E6,1.7954375E5,4.46848E5,1.6469086E7,0E0,0E0,0E0,0E0,0E0,0E0,0E0,0E0,0E0,0E0,0E0,0E0],"parents":[2147483647,0,0,1,1,2,2,3,3,4,4,5,5,6,6,7,7,8,8,13,13,15,15,16,16,17,17,18,18,19,19,20,20],"right_children":[2,4,6,8,10,12,14,16,18,-1,-1,-1,-1,20,-1,22,24,26,28,30,32,-1,-1,-1,-1,-1,-1,-1,-1,-1,-1,-1,-1],"split_conditions":[1.413E3,1.171E3,4.81E1,4.76E1,5E0,6E0,3.6328333E3,4.7433334E1,1.7073334E2,-9.154693E0,1.7921642E1,-2.4484425E0,-1.3086924E1,3.4511667E3,6.5527336E1,4.7133335E1,5E0,1.1E1,3.697E3,2E0,1.417E3,-4.4318795E0,2.571966E1,1.6795208E1,-6.8903747E0,4.1362556E1,-5.036136E0,-4.3451247E0,3.5971662E-1,4.797248E1,6.551741E1,4.6924477E1,-1.2044753E1],"split_indices":[3,3,7,7,2,0,7,7,7,0,0,0,0,7,0,7,0,1,4,1,6,0,0,0,0,0,0,0,0,0,0,0,0],"split_type":[0,0,0,0,0,0,0,0,0,0,0,0,0,0,0,0,0,0,0,0,0,0,0,0,0,0,0,0,0,0,0,0,0],"sum_hessian":[2.7595E4,2.5881E4,1.714E3,2.5736E4,1.45E2,3E0,1.711E3,2.5168E4,5.68E2,1E0,1.44E2,1E0,2E0,5.24E2,1.187E3,2.5122E4,4.6E1,5.8E1,5.1E2,4.76E2,4.8E1,2.5121E4,1E0,2E0,4.4E1,1.4E1,4.4E1,4.89E2,2.1E1,1.7E1,4.59E2,2.9E1,1.9E1],"tree_param":{"num_deleted":"0","num_feature":"8","num_nodes":"33","size_leaf_vector":"1"}},{"base_weights":[-1.0199711E0,-8.1008E1,1.2246895E3,-8.3423096E1,3.361469E2,-2.1363272E2,1.2273785E3,-4.211704E0,-5.183633E1,-8.925825E0,1.7041529E1,-2.3872316E0,-1.2650694E1,1.1372681E3,6.1917397E1,4.8399475E1,-8.198428E1,1.1476353E3,5.137852E2,2.5907583E1,-1.6044245E0,-2.9498308E0,-4.698427E0,5.1902386E1,6.094474E1,4.696543E1,-2.9707706E1],"categories":[],"categories_nodes":[],"categories_segments":[],"categories_sizes":[],"default_left":[0,0,0,0,0,0,0,0,0,0,0,0,0,0,0,0,0,0,0,0,0,0,0,0,0,0,0],"id":20,"left_children":[1,3,5,7,9,11,13,-1,15,-1,-1,-1,-1,17,-1,19,21,23,25,-1,-1,-1,-1,-1,-1,-1,-1],"loss_changes":[2.699884E9,2.607208E7,6.787584E6,6.54064E5,4.20008E5,1.4051391E4,2.56E5,0E0,1.9561182E6,0E0,0E0,0E0,0E0,6.70784E5,0E0,5.688036E6,1.3137475E5,2.26272E5,2.9153648E6,0E0,0E0,0E0,0E0,0E0,0E0,0E0,0E0],"parents":[2147483647,0,0,1,1,2,2,3,3,4,4,5,5,6,6,8,8,13,13,15,15,16,16,17,17,18,18],"right_children":[2,4,6,8,10,12,14,-1,16,-1,-1,-1,-1,18,-1,20,22,24,26,-1,-1,-1,-1,-1,-1,-1,-1],"split_conditions":[1.413E3,1.171E3,4.81E1,3.8866665E1,5E0,6E0,3.665E3,-4.211704E0,1.7073334E2,-8.925825E0,1.7041529E1,-2.3872316E0,-1.2650694E1,3.714E3,6.1917397E1,1.1E1,1.215E3,3.5700334E3,5E0,2.5907583E1,-1.6044245E0,-2.9498308E0,-4.698427E0,5.1902386E1,6.094474E1,4.696543E1,-2.9707706E1],"split_indices":[3,3,7,7,2,0,3,0,7,0,0,0,0,4,0,1,6,7,1,0,0,0,0,0,0,0,0],"split_type":[0,0,0,0,0,0,0,0,0,0,0,0,0,0,0,0,0,0,0,0,0,0,0,0,0,0,0],"sum_hessian":[2.7536E4,2.585E4,1.686E3,2.5702E4,1.48E2,3E0,1.683E3,2.5057E4,6.45E2,1E0,1.47E2,1E0,2E0,1.94E2,1.489E3,1.49E2,4.96E2,1.9E2,4E0,2.1E1,1.28E2,1.72E2,3.24E2,8.1E1,1.09E2,3E0,1E0],"tree_param":{"num_deleted":"0","num_feature":"8","num_nodes":"27","size_leaf_vector":"1"}},{"base_weights":[-6.534099E-2,-7.7049484E1,1.1581024E3,-7.935549E1,3.185131E2,-2.0671056E2,1.1606105E3,-4.0011277E0,-5.2379715E1,-8.70268E0,1.6149353E1,-2.3275506E0,-1.2229003E1,1.103537E3,5.9166027E1,5.383128E1,-8.215082E1,1.1580948E3,4.0544427E2,-1.0412582E0,2.7427515E1,-4.216614E0,-1.3498509E0,3.3603825E1,5.847304E1,4.0933456E1,-5.0851067E1],"categories":[],"categories_nodes":[],"categories_segments":[],"categories_sizes":[],"default_left":[0,0,0,0,0,0,0,0,0,0,0,0,0,0,0,0,0,0,0,0,0,0,0,0,0,0,0],"id":21,"left_children":[1,3,5,7,9,11,13,-1,15,-1,-1,-1,-1,17,-1,19,21,23,25,-1,-1,-1,-1,-1,-1,-1,-1],"loss_changes":[2.457622E9,2.3601168E7,6.120448E6,4.58208E5,3.86775E5,1.2875219E4,9.16992E5,0E0,1.9743598E6,0E0,0E0,0E0,0E0,1.8688E7,0E0,5.071376E6,5.6317E4,1.78816E6,2.3168932E7,0E0,0E0,0E0,0E0,0E0,0E0,0E0,0E0],"parents":[2147483647,0,0,1,1,2,2,3,3,4,4,5,5,6,6,8,8,13,13,15,15,16,16,17,17,18,18],"right_children":[2,4,6,8,10,12,14,-1,16,-1,-1,-1,-1,18,-1,20,22,24,26,-1,-1,-1,-1,-1,-1,-1,-1],"split_conditions":[1.413E3,1.171E3,4.81E1,3.8866665E1,5E0,6E0,3.6328333E3,-4.0011277E0,1.7073334E2,-8.70268E0,1.6149353E1,-2.3275506E0,-1.2229003E1,3.4857334E3,5.9166027E1,1.2276667E2,3.3322334E3,3.625E3,3.674E3,-1.0412582E0,2.7427515E1,-4.216614E0,-1.3498509E0,3.3603825E1,5.847304E1,4.0933456E1,-5.0851067E1],"split_indices":[3,3,7,7,2,0,7,0,7,0,0,0,0,7,0,7,7,3,6,0,0,0,0,0,0,0,0],"split_type":[0,0,0,0,0,0,0,0,0,0,0,0,0,0,0,0,0,0,0,0,0,0,0,0,0,0,0],"sum_hessian":[2.7562E4,2.5845E4,1.717E3,2.5696E4,1.49E2,3E0,1.714E3,2.5074E4,6.22E2,1E0,1.48E2,1E0,2E0,5.02E2,1.212E3,1.36E2,4.86E2,4.65E2,3.7E1,1.19E2,1.7E1,4.67E2,1.9E1,1.2E1,4.53E2,2.9E1,8E0],"tree_param":{"num_deleted":"0","num_feature":"8","num_nodes":"27","size_leaf_vector":"1"}},{"base_weights":[-1.949002E-1,-7.310587E1,1.1013212E3,-7.530247E1,3.0528375E2,-2.0001416E2,1.1037141E3,-7.600256E1,-4.3488857E1,-8.485113E0,1.5480527E1,-2.269362E0,-1.182137E1,1.0536559E3,5.6230755E1,-7.595466E1,-1.1374307E2,8.900596E1,-6.6827965E1,1.1084814E3,1.8121367E2,-3.799823E0,2.4455011E1,3.003017E1,-7.9543085E0,-2.3891258E0,2.3833633E1,-1.952516E0,-4.3619175E0,4.2711983E1,5.6015663E1,3.7894238E1,-4.9430126E1],"categories":[],"categories_nodes":[],"categories_segments":[],"categories_sizes":[],"default_left":[0,0,0,0,0,0,0,0,0,0,0,0,0,0,0,0,0,0,0,0,0,0,0,0,0,0,0,0,0,0,0,0,0],"id":22,"left_children":[1,3,5,7,9,11,13,15,17,-1,-1,-1,-1,19,-1,21,23,25,27,29,31,-1,-1,-1,-1,-1,-1,-1,-1,-1,-1,-1,-1],"loss_changes":[2.2224911E9,2.1595984E7,5.570688E6,5.7144E5,3.60815E5,1.17910625E4,6.09408E5,3.7024E4,1.7314578E6,0E0,0E0,0E0,0E0,2.4719616E7,0E0,6.32848E5,1.0672681E6,4.477157E6,2.658955E5,5.17056E5,2.233642E7,0E0,0E0,0E0,0E0,0E0,0E0,0E0,0E0,0E0,0E0,0E0,0E0],"parents":[2147483647,0,0,1,1,2,2,3,3,4,4,5,5,6,6,7,7,8,8,13,13,15,15,16,16,17,17,18,18,19,19,20,20],"right_children":[2,4,6,8,10,12,14,16,18,-1,-1,-1,-1,20,-1,22,24,26,28,30,32,-1,-1,-1,-1,-1,-1,-1,-1,-1,-1,-1,-1],"split_conditions":[1.413E3,1.166E3,4.81E1,4.7566666E1,5E0,6E0,3.6328333E3,4.7433334E1,1.236E2,-8.485113E0,1.5480527E1,-2.269362E0,-1.182137E1,3.5511333E3,5.6230755E1,4.7133335E1,5E0,1.2163333E2,1.3E1,2E0,1.213E3,-3.799823E0,2.4455011E1,3.003017E1,-7.9543085E0,-2.3891258E0,2.3833633E1,-1.952516E0,-4.3619175E0,4.2711983E1,5.6015663E1,3.7894238E1,-4.9430126E1],"split_indices":[3,3,7,7,2,0,7,7,7,0,0,0,0,7,0,7,0,7,1,1,6,0,0,0,0,0,0,0,0,0,0,0,0],"split_type":[0,0,0,0,0,0,0,0,0,0,0,0,0,0,0,0,0,0,0,0,0,0,0,0,0,0,0,0,0,0,0,0,0],"sum_hessian":[2.7671E4,2.5954E4,1.717E3,2.5805E4,1.49E2,3E0,1.714E3,2.5248E4,5.57E2,1E0,1.48E2,1E0,2E0,5.2E2,1.194E3,2.5219E4,2.9E1,8.3E1,4.74E2,4.89E2,3.1E1,2.5218E4,1E0,1E0,2.8E1,6.2E1,2.1E1,2.02E2,2.72E2,2.5E1,4.64E2,2.1E1,1E1],"tree_param":{"num_deleted":"0","num_feature":"8","num_nodes":"33","size_leaf_vector":"1"}},{"base_weights":[5.0477874E-1,-6.93414E1,1.0538011E3,-7.1553505E1,2.9670932E2,-1.1427324E1,1.055427E3,-3.611096E0,-4.5265476E1,-8.272985E0,1.5037928E1,8.5487335E2,5.31461E1,3.060174E1,-6.477469E1,9.052368E2,-6.1727875E1,-2.3227966E0,3.6977467E1,-2.1090796E0,-4.113067E0,4.684275E1,-2.874861E1],"categories":[],"categories_nodes":[],"categories_segments":[],"categories_sizes":[],"default_left":[0,0,0,0,0,0,0,0,0,0,0,0,0,0,0,0,0,0,0,0,0,0,0],"id":23,"left_children":[1,3,5,7,9,-1,11,-1,13,-1,-1,15,-1,17,19,21,-1,-1,-1,-1,-1,-1,-1],"loss_changes":[2.0347634E9,2.1024288E7,3.827328E6,4.49768E5,3.41706E5,0E0,1.673728E6,0E0,9.522124E5,0E0,0E0,8.16804E6,0E0,7.2454965E6,1.9841475E5,3.627564E6,0E0,0E0,0E0,0E0,0E0,0E0,0E0],"parents":[2147483647,0,0,1,1,2,2,3,3,4,4,6,6,8,8,11,11,13,13,14,14,15,15],"right_children":[2,4,6,8,10,-1,12,-1,14,-1,-1,16,-1,18,20,22,-1,-1,-1,-1,-1,-1,-1],"split_conditions":[1.413E3,1.171E3,4.81E1,3.8866665E1,5E0,-1.1427324E1,2E0,-3.611096E0,1.236E2,-8.272985E0,1.5037928E1,3.697E3,5.31461E1,2E1,1.3E1,3.716E3,-6.1727875E1,-2.3227966E0,3.6977467E1,-2.1090796E0,-4.113067E0,4.684275E1,-2.874861E1],"split_indices":[3,3,7,7,2,0,1,0,7,0,0,6,0,1,1,3,0,0,0,0,0,0,0],"split_type":[0,0,0,0,0,0,0,0,0,0,0,0,0,0,0,0,0,0,0,0,0,0,0],"sum_hessian":[2.7656E4,2.5937E4,1.719E3,2.5782E4,1.55E2,2E0,1.717E3,2.5141E4,6.41E2,1E0,1.54E2,6.6E1,1.651E3,1.31E2,5.1E2,6.5E1,1E0,1.19E2,1.2E1,2.24E2,2.86E2,6.4E1,1E0],"tree_param":{"num_deleted":"0","num_feature":"8","num_nodes":"23","size_leaf_vector":"1"}},{"base_weights":[-1.1869235E-1,-6.597292E1,9.8983026E2,-6.809417E1,1.4155065E1,-1.8496564E2,9.919819E2,-3.4305484E0,-4.7434692E1,-1.9269447E0,-1.1046413E1,9.3630884E2,5.0749386E1,1.2885544E1,-9.380606E1,9.929489E2,1.02482475E2,1.4538221E-1,6.89202E1,-2.3817684E1,-3.7258127E0,2.6505152E1,5.063985E1,2.9131712E1,-2.72276E1],"categories":[],"categories_nodes":[],"categories_segments":[],"categories_sizes":[],"default_left":[0,0,0,0,0,0,0,0,0,0,0,0,0,0,0,0,0,0,0,0,0,0,0,0,0],"id":24,"left_children":[1,3,5,7,-1,9,11,-1,13,-1,-1,15,-1,17,19,21,23,-1,-1,-1,-1,-1,-1,-1,-1],"loss_changes":[1.8050454E9,1.9242656E7,4.548864E6,2.72256E5,0E0,1.2549234E4,1.257728E6,0E0,1.7717934E6,0E0,0E0,2.4315104E7,0E0,3.7564935E6,2.6062828E6,3.909408E6,1.0880216E7,0E0,0E0,0E0,0E0,0E0,0E0,0E0,0E0],"parents":[2147483647,0,0,1,1,2,2,3,3,5,5,6,6,8,8,11,11,13,13,14,14,15,15,16,16],"right_children":[2,4,6,8,-1,10,12,-1,14,-1,-1,16,-1,18,20,22,24,-1,-1,-1,-1,-1,-1,-1,-1],"split_conditions":[1.356E3,1.171E3,4.81E1,3.8866665E1,1.4155065E1,6E0,3.6328333E3,-3.4305484E0,4.52E2,-1.9269447E0,-1.1046413E1,3.5511333E3,5.0749386E1,2.3E1,1.7073334E2,2E0,1.417E3,1.4538221E-1,6.89202E1,-2.3817684E1,-3.7258127E0,2.6505152E1,5.063985E1,2.9131712E1,-2.72276E1],"split_indices":[3,3,7,7,0,0,7,0,6,0,0,7,0,1,7,1,6,0,0,0,0,0,0,0,0],"split_type":[0,0,0,0,0,0,0,0,0,0,0,0,0,0,0,0,0,0,0,0,0,0,0,0,0],"sum_hessian":[2.7686E4,2.596E4,1.726E3,2.5804E4,1.56E2,3E0,1.723E3,2.5172E4,6.32E2,1E0,2E0,5.16E2,1.207E3,2.75E2,3.57E2,4.83E2,3.3E1,2.74E2,1E0,1.6E1,3.41E2,2.1E1,4.62E2,1.9E1,1.4E1],"tree_param":{"num_deleted":"0","num_feature":"8","num_nodes":"25","size_leaf_vector":"1"}},{"base_weights":[5.5757314E-1,-6.217317E1,9.4137286E2,-6.425974E1,2.6131833E2,-1.789607E2,9.4342865E2,-3.2590272E0,-2.732503E1,-9.332157E0,1.3258222E1,-1.8787712E0,-1.0678199E1,8.931676E2,4.8206696E1,8.253777E1,-5.7923557E1,9.452382E2,2.8300784E2,-6.662697E-1,2.7913252E1,-1.6740273E0,-3.7960203E0,3.087996E1,4.7728973E1,-3.1941452E1,4.093999E1],"categories":[],"categories_nodes":[],"categories_segments":[],"categories_sizes":[],"default_left":[0,0,0,0,0,0,0,0,0,0,0,0,0,0,0,0,0,0,0,0,0,0,0,0,0,0,0],"id":25,"left_children":[1,3,5,7,9,11,13,-1,15,-1,-1,-1,-1,17,-1,19,21,23,25,-1,-1,-1,-1,-1,-1,-1,-1],"loss_changes":[1.6286615E9,1.7479416E7,4.141568E6,8.72464E5,3.35492E5,1.1544836E4,9.30944E5,0E0,2.1125292E6,0E0,0E0,0E0,0E0,1.612656E7,0E0,6.255285E6,2.1344775E5,8.64224E5,2.126741E7,0E0,0E0,0E0,0E0,0E0,0E0,0E0,0E0],"parents":[2147483647,0,0,1,1,2,2,3,3,4,4,5,5,6,6,8,8,13,13,15,15,16,16,17,17,18,18],"right_children":[2,4,6,8,10,12,14,-1,16,-1,-1,-1,-1,18,-1,20,22,24,26,-1,-1,-1,-1,-1,-1,-1,-1],"split_conditions":[1.413E3,1.171E3,4.81E1,3.8866665E1,5E0,6E0,3.6328333E3,-3.2590272E0,1.236E2,-9.332157E0,1.3258222E1,-1.8787712E0,-1.0678199E1,3.4857334E3,4.8206696E1,1.2163333E2,1.3E1,3.625E3,3.685E3,-6.662697E-1,2.7913252E1,-1.6740273E0,-3.7960203E0,3.087996E1,4.7728973E1,-3.1941452E1,4.093999E1],"split_indices":[3,3,7,7,2,0,7,0,7,0,0,0,0,7,0,7,1,3,5,0,0,0,0,0,0,0,0],"split_type":[0,0,0,0,0,0,0,0,0,0,0,0,0,0,0,0,0,0,0,0,0,0,0,0,0,0,0],"sum_hessian":[2.7594E4,2.587E4,1.724E3,2.5705E4,1.65E2,3E0,1.721E3,2.5079E4,6.26E2,1E0,1.64E2,1E0,2E0,5.15E2,1.206E3,1.36E2,4.9E2,4.74E2,4.1E1,1.14E2,2.2E1,2.09E2,2.81E2,1.5E1,4.59E2,1.5E1,2.6E1],"tree_param":{"num_deleted":"0","num_feature":"8","num_nodes":"27","size_leaf_vector":"1"}},{"base_weights":[-5.4853342E-2,-5.9460503E1,8.978122E2,-6.1229538E1,1.292764E1,-1.7315192E2,8.9979816E2,-3.0960824E0,-3.3930523E1,-1.831802E0,-1.032226E1,7.39746E2,9.060964E2,5.623852E1,-5.8063507E1,7.8643243E2,-6.2040535E1,8.7913995E2,4.631111E1,3.066185E1,-1.7347449E0,-3.876352E0,-1.7496964E0,-1.6958845E1,4.1254757E1,4.0929928E1,4.5306026E1],"categories":[],"categories_nodes":[],"categories_segments":[],"categories_sizes":[],"default_left":[0,0,0,0,0,0,0,0,0,0,0,0,0,0,0,0,0,0,0,0,0,0,0,0,0,0,0],"id":26,"left_children":[1,3,5,7,-1,9,11,-1,13,-1,-1,15,17,19,21,23,-1,25,-1,-1,-1,-1,-1,-1,-1,-1,-1],"loss_changes":[1.4680321E9,1.4538752E7,3.788544E6,4.8296E5,0E0,1.0616914E4,1.04832E6,0E0,1.389408E6,0E0,0E0,7.448384E6,7.3344E4,6.8589965E6,2.2314175E5,3.282668E6,0E0,4.32704E5,0E0,0E0,0E0,0E0,0E0,0E0,0E0,0E0,0E0],"parents":[2147483647,0,0,1,1,2,2,3,3,5,5,6,6,8,8,11,11,12,12,13,13,14,14,15,15,17,17],"right_children":[2,4,6,8,-1,10,12,-1,14,-1,-1,16,18,20,22,24,-1,26,-1,-1,-1,-1,-1,-1,-1,-1,-1],"split_conditions":[1.356E3,1.171E3,4.81E1,3.8866665E1,1.292764E1,6E0,2E0,-3.0960824E0,1.236E2,-1.831802E0,-1.032226E1,3.693E3,3.688E3,1.1E1,5E0,1.448E3,-6.2040535E1,3.5937E3,4.631111E1,3.066185E1,-1.7347449E0,-3.876352E0,-1.7496964E0,-1.6958845E1,4.1254757E1,4.0929928E1,4.5306026E1],"split_indices":[3,3,7,7,0,0,1,0,7,0,0,6,3,1,2,3,0,7,0,0,0,0,0,0,0,0,0],"split_type":[0,0,0,0,0,0,0,0,0,0,0,0,0,0,0,0,0,0,0,0,0,0,0,0,0,0,0],"sum_hessian":[2.7521E4,2.5814E4,1.707E3,2.5672E4,1.42E2,3E0,1.704E3,2.5036E4,6.36E2,1E0,2E0,6.9E1,1.635E3,1.34E2,5.02E2,6.8E1,1E0,7.18E2,9.17E2,1.8E1,1.16E2,2.71E2,2.31E2,2E0,6.6E1,2.31E2,4.87E2],"tree_param":{"num_deleted":"0","num_feature":"8","num_nodes":"27","size_leaf_vector":"1"}},{"base_weights":[5.377569E-1,-5.6495228E1,8.554048E2,-5.819568E1,1.2082074E1,-1.6753284E2,8.57282E2,-2.941285E0,-3.3275654E1,-1.7860069E0,-9.978184E0,7.450755E2,4.309668E1,3.9314186E1,-5.3429386E1,7.8727094E2,-6.048952E1,-1.1180581E0,5.2602154E1,-3.4618936E0,-1.8766998E0,-5.5091717E1,4.1384453E1],"categories":[],"categories_nodes":[],"categories_segments":[],"categories_sizes":[],"default_left":[0,0,0,0,0,0,0,0,0,0,0,0,0,0,0,0,0,0,0,0,0,0,0],"id":27,"left_children":[1,3,5,7,-1,9,11,-1,13,-1,-1,15,-1,17,19,21,-1,-1,-1,-1,-1,-1,-1],"loss_changes":[1.3462886E9,1.31374E7,3.45984E6,4.0216E5,0E0,9.759859E3,2.57664E5,0E0,9.340037E5,0E0,0E0,7.221396E6,0E0,8.705522E6,1.22791E5,6.638528E6,0E0,0E0,0E0,0E0,0E0,0E0,0E0],"parents":[2147483647,0,0,1,1,2,2,3,3,5,5,6,6,8,8,11,11,13,13,14,14,15,15],"right_children":[2,4,6,8,-1,10,12,-1,14,-1,-1,16,-1,18,20,22,-1,-1,-1,-1,-1,-1,-1],"split_conditions":[1.356E3,1.166E3,4.81E1,3.8866665E1,1.2082074E1,6E0,2E0,-2.941285E0,1.7073334E2,-1.7860069E0,-9.978184E0,3.697E3,4.309668E1,2.1E1,1.177E3,1.448E3,-6.048952E1,-1.1180581E0,5.2602154E1,-3.4618936E0,-1.8766998E0,-5.5091717E1,4.1384453E1],"split_indices":[3,3,7,7,0,0,1,0,7,0,0,6,0,1,5,3,0,0,0,0,0,0,0],"split_type":[0,0,0,0,0,0,0,0,0,0,0,0,0,0,0,0,0,0,0,0,0,0,0],"sum_hessian":[2.7611E4,2.5885E4,1.726E3,2.5739E4,1.46E2,3E0,1.723E3,2.5103E4,6.36E2,1E0,2E0,7.5E1,1.648E3,1.38E2,4.98E2,7.4E1,1E0,1.31E2,7E0,2.48E2,2.5E2,1E0,7.3E1],"tree_param":{"num_deleted":"0","num_feature":"8","num_nodes":"23","size_leaf_vector":"1"}},{"base_weights":[2.1615285E-2,-5.3797363E1,8.1256537E2,-5.5639717E1,2.3455577E2,7.747458E2,4.14003E1,-5.5716038E1,-1.1966594E1,2.58695E2,-7.956879E2,4.0823044E1,2.0165904E2,-5.5618774E1,-9.831639E1,2.5403137E1,-3.4813084E1,2.2475497E2,6.2780054E2,2.3492493E1,-6.870753E1,-6.130499E2,6.345573E2,-2.7835948E0,1.1392606E0,-1.3953989E1,-3.3713963E0,1.6719053E1,-2.9880605E0,-1.1199519E1,1.1465024E1,-8.104861E0,4.404898E1,-4.806182E1,2.0533934E1,4.2999813E1,-6.1509033E1],"categories":[],"categories_nodes":[],"categories_segments":[],"categories_sizes":[],"default_left":[0,0,0,0,0,0,0,0,0,0,0,0,0,0,0,0,0,0,0,0,0,0,0,0,0,0,0,0,0,0,0,0,0,0,0,0,0],"id":28,"left_children":[1,3,5,7,9,11,-1,13,15,17,19,-1,21,23,25,-1,27,29,31,-1,-1,33,35,-1,-1,-1,-1,-1,-1,-1,-1,-1,-1,-1,-1,-1,-1],"loss_changes":[1.2030637E9,1.3720328E7,3.5648E5,8.4784E4,4.284407E6,1.205152E7,0E0,1.00576E5,5.642061E5,1.87582E6,3.5739095E6,0E0,1.3085715E7,1.07632E5,2.9944188E5,0E0,4.344646E5,3.55288E5,2.742617E6,0E0,0E0,5.028589E6,1.1147179E7,0E0,0E0,0E0,0E0,0E0,0E0,0E0,0E0,0E0,0E0,0E0,0E0,0E0,0E0],"parents":[2147483647,0,0,1,1,2,2,3,3,4,4,5,5,7,7,8,8,9,9,10,10,12,12,13,13,14,14,16,16,17,17,18,18,21,21,22,22],"right_children":[2,4,6,8,10,12,-1,14,16,18,20,-1,22,24,26,-1,28,30,32,-1,-1,34,36,-1,-1,-1,-1,-1,-1,-1,-1,-1,-1,-1,-1,-1,-1],"split_conditions":[3.625E3,1.171E3,3.6328333E3,3.716E3,1.356E3,3.4857334E3,4.14003E1,3.707E3,1E0,1.413E3,1.2E1,4.0823044E1,3.684E3,3.705E3,3.708E3,2.5403137E1,3.717E3,5E0,4.81E1,2.3492493E1,-6.870753E1,4.7E1,3.716E3,-2.7835948E0,1.1392606E0,-1.3953989E1,-3.3713963E0,1.6719053E1,-2.9880605E0,-1.1199519E1,1.1465024E1,-8.104861E0,4.404898E1,-4.806182E1,2.0533934E1,4.2999813E1,-6.1509033E1],"split_indices":[3,3,7,6,5,7,0,6,1,3,0,0,5,6,6,0,6,2,7,0,0,0,3,0,0,0,0,0,0,0,0,0,0,0,0,0,0],"split_type":[0,0,0,0,0,0,0,0,0,0,0,0,0,0,0,0,0,0,0,0,0,0,0,0,0,0,0,0,0,0,0,0,0,0,0,0,0],"sum_hessian":[2.7509E4,2.5801E4,1.708E3,2.5638E4,1.63E2,5.1E2,1.198E3,2.5593E4,4.5E1,1.6E2,3E0,4.75E2,3.5E1,2.5537E4,5.6E1,1E0,4.4E1,1.48E2,1.2E1,1E0,2E0,1.2E1,2.3E1,2.552E4,1.7E1,7E0,4.9E1,2E0,4.2E1,1E0,1.47E2,3E0,9E0,9E0,3E0,2.1E1,2E0],"tree_param":{"num_deleted":"0","num_feature":"8","num_nodes":"37","size_leaf_vector":"1"}},{"base_weights":[2.403757E-2,-5.121982E1,7.680298E2,-5.2688564E1,2.1015553E2,-9.375416E0,7.6924493E2,-5.309743E1,-3.2087307E1,-1.0919531E1,2.1464815E2,7.2775464E2,3.9313725E1,-5.3006065E1,-1.8567812E2,5.9286237E2,-4.4647728E1,1.1447776E1,1.812635E2,7.745049E2,-3.5458393E0,-2.65392E0,7.0246077E-1,6.609402E1,-1.8125902E1,8.199197E1,-3.910412E1,9.048961E0,-2.3659694E0,-2.4357634E1,1.0292503E1,2.5061262E1,3.925905E1,1.1028308E1,-6.2893196E1],"categories":[],"categories_nodes":[],"categories_segments":[],"categories_sizes":[],"default_left":[0,0,0,0,0,0,0,0,0,0,0,0,0,0,0,0,0,0,0,0,0,0,0,0,0,0,0,0,0,0,0,0,0,0,0],"id":29,"left_children":[1,3,5,7,9,-1,11,13,15,-1,17,19,-1,21,23,25,27,-1,29,31,33,-1,-1,-1,-1,-1,-1,-1,-1,-1,-1,-1,-1,-1,-1],"loss_changes":[1.0878669E9,9.958944E6,2.151808E6,2.15344E5,3.260445E5,0E0,6.47936E5,2.96208E5,3.982684E6,0E0,2.72805E4,1.7644064E7,0E0,1.23224E5,5.011347E6,1.5677842E7,3.0694925E5,0E0,8.891155E5,1.02144E6,9.272889E6,0E0,0E0,0E0,0E0,0E0,0E0,0E0,0E0,0E0,0E0,0E0,0E0,0E0,0E0],"parents":[2147483647,0,0,1,1,2,2,3,3,4,4,6,6,7,7,8,8,10,10,11,11,13,13,14,14,15,15,16,16,18,18,19,19,20,20],"right_children":[2,4,6,8,10,-1,12,14,16,-1,18,20,-1,22,24,26,28,-1,30,32,34,-1,-1,-1,-1,-1,-1,-1,-1,-1,-1,-1,-1,-1,-1],"split_conditions":[1.413E3,1.171E3,4.81E1,1.2276667E2,5E0,-9.375416E0,3.6328333E3,4.81E1,1.236E2,-1.0919531E1,1.181E3,3.5511333E3,3.9313725E1,4.76E1,3E0,3.674E3,1.7073334E2,1.1447776E1,1.182E3,2E0,3.715E3,-2.65392E0,7.0246077E-1,6.609402E1,-1.8125902E1,8.199197E1,-3.910412E1,9.048961E0,-2.3659694E0,-2.4357634E1,1.0292503E1,2.5061262E1,3.925905E1,1.1028308E1,-6.2893196E1],"split_indices":[3,3,7,7,2,0,7,7,7,0,6,7,0,7,0,6,7,0,6,1,5,0,0,0,0,0,0,0,0,0,0,0,0,0,0],"split_type":[0,0,0,0,0,0,0,0,0,0,0,0,0,0,0,0,0,0,0,0,0,0,0,0,0,0,0,0,0,0,0,0,0,0,0],"sum_hessian":[2.764E4,2.5912E4,1.728E3,2.5768E4,1.44E2,2E0,1.726E3,2.5265E4,5.03E2,1E0,1.43E2,5.15E2,1.211E3,2.5249E4,1.6E1,9E0,4.94E2,9.6E1,4.7E1,4.84E2,3.1E1,2.5222E4,2.7E1,1E0,1.5E1,5E0,4E0,5E0,4.89E2,1E0,4.6E1,2E1,4.64E2,2.7E1,4E0],"tree_param":{"num_deleted":"0","num_feature":"8","num_nodes":"35","size_leaf_vector":"1"}},{"base_weights":[4.560061E-1,-4.8150528E1,7.320508E2,-4.9740574E1,1.0584901E1,-9.062902E0,7.3322424E2,-2.5224671E0,-2.0784803E1,7.157364E2,3.8578983E1,7.944362E1,-4.7345875E1,6.559962E2,3.704951E1,-8.537451E-1,2.5121181E1,-3.0147617E0,-1.4021522E0,3.6184128E1,-1.0530946E1],"categories":[],"categories_nodes":[],"categories_segments":[],"categories_sizes":[],"default_left":[0,0,0,0,0,0,0,0,0,0,0,0,0,0,0,0,0,0,0,0,0],"id":30,"left_children":[1,3,5,7,-1,-1,9,-1,11,13,-1,15,17,19,-1,-1,-1,-1,-1,-1,-1],"loss_changes":[9.777653E8,1.0663312E7,1.968896E6,5.24888E5,0E0,0E0,5.95392E5,0E0,1.6383365E6,1.307648E6,0E0,5.275056E6,1.19789375E5,2.1386624E7,0E0,0E0,0E0,0E0,0E0,0E0,0E0],"parents":[2147483647,0,0,1,1,2,2,3,3,6,6,8,8,9,9,11,11,12,12,13,13],"right_children":[2,4,6,8,-1,-1,10,-1,12,14,-1,16,18,20,-1,-1,-1,-1,-1,-1,-1],"split_conditions":[1.356E3,4.52E2,4.81E1,3.8866665E1,1.0584901E1,-9.062902E0,3.7E3,-2.5224671E0,1.7073334E2,3.5937E3,3.8578983E1,1.2163333E2,3.667E3,3.4511667E3,3.704951E1,-8.537451E-1,2.5121181E1,-3.0147617E0,-1.4021522E0,3.6184128E1,-1.0530946E1],"split_indices":[3,3,7,7,0,0,3,0,7,7,0,7,5,7,0,0,0,0,0,0,0],"split_type":[0,0,0,0,0,0,0,0,0,0,0,0,0,0,0,0,0,0,0,0,0],"sum_hessian":[2.7494E4,2.5782E4,1.712E3,2.5626E4,1.56E2,2E0,1.71E3,2.5013E4,6.13E2,1.188E3,5.22E2,1.28E2,4.85E2,3.61E2,8.27E2,1.05E2,2.3E1,2.89E2,1.96E2,3.35E2,2.6E1],"tree_param":{"num_deleted":"0","num_feature":"8","num_nodes":"21","size_leaf_vector":"1"}},{"base_weights":[-4.2787334E-1,-4.6332874E1,6.9436456E2,-4.779802E1,1.8844154E2,-1.4218985E2,6.9591534E2,-4.7925327E1,-2.8347334E1,-1.15511465E1,1.925071E2,-1.0777771E0,-8.760806E0,5.934214E2,3.5029083E1,-4.7673252E1,-6.640099E1,5.6625397E2,-4.9797398E1,1.0375314E1,1.5922157E2,6.3160364E2,-6.152899E1,-2.3963292E0,4.0638986E-1,-2.320292E1,-2.7743433E0,9.0252495E1,-2.1257591E0,-5.7358974E-1,-3.3915596E0,-2.4013317E1,9.017451E0,3.2743E1,-3.0141134E1],"categories":[],"categories_nodes":[],"categories_segments":[],"categories_sizes":[],"default_left":[0,0,0,0,0,0,0,0,0,0,0,0,0,0,0,0,0,0,0,0,0,0,0,0,0,0,0,0,0,0,0,0,0,0,0],"id":31,"left_children":[1,3,5,7,9,11,13,15,17,-1,19,-1,-1,21,-1,23,25,27,29,-1,31,33,-1,-1,-1,-1,-1,-1,-1,-1,-1,-1,-1,-1,-1],"loss_changes":[8.815628E8,8.927328E6,2.32128E6,6.2448E4,3.19035E5,1.2159516E4,4.02112E5,1.16048E5,2.1964178E6,0E0,4.68415E4,0E0,0E0,6.41844E6,0E0,3.57424E5,1.4585591E6,4.601586E6,1.1326259E5,0E0,8.161955E5,2.691424E6,0E0,0E0,0E0,0E0,0E0,0E0,0E0,0E0,0E0,0E0,0E0,0E0,0E0],"parents":[2147483647,0,0,1,1,2,2,3,3,4,4,5,5,6,6,7,7,8,8,10,10,13,13,15,15,16,16,17,17,18,18,20,20,21,21],"right_children":[2,4,6,8,10,12,14,16,18,-1,20,-1,-1,22,-1,24,26,28,30,-1,32,34,-1,-1,-1,-1,-1,-1,-1,-1,-1,-1,-1,-1,-1],"split_conditions":[1.413E3,1.171E3,4.81E1,3.68E3,5E0,6E0,2E0,1.2276667E2,3.681E3,-1.15511465E1,1.181E3,-1.0777771E0,-8.760806E0,3.697E3,3.5029083E1,3.8866665E1,1.236E2,1E1,1.9E1,1.0375314E1,1.182E3,3.713E3,-6.152899E1,-2.3963292E0,4.0638986E-1,-2.320292E1,-2.7743433E0,9.0252495E1,-2.1257591E0,-5.7358974E-1,-3.3915596E0,-2.4013317E1,9.017451E0,3.2743E1,-3.0141134E1],"split_indices":[3,3,7,5,2,0,1,7,5,0,6,0,0,6,0,7,7,1,0,0,6,5,0,0,0,0,0,0,0,0,0,0,0,0,0],"split_type":[0,0,0,0,0,0,0,0,0,0,0,0,0,0,0,0,0,0,0,0,0,0,0,0,0,0,0,0,0,0,0,0,0,0,0],"sum_hessian":[2.7638E4,2.5926E4,1.712E3,2.5766E4,1.6E2,3E0,1.709E3,2.5597E4,1.69E2,1E0,1.59E2,1E0,2E0,8E1,1.629E3,2.5256E4,3.41E2,5E0,1.64E2,1.06E2,5.3E1,7.9E1,1E0,2.5142E4,1.14E2,8E0,3.33E2,1E0,4E0,5.3E1,1.11E2,1E0,5.2E1,7.8E1,1E0],"tree_param":{"num_deleted":"0","num_feature":"8","num_nodes":"35","size_leaf_vector":"1"}},{"base_weights":[1.4768323E-1,-4.3516624E1,6.5955786E2,-4.4854668E1,1.841415E2,-8.46878E0,6.606283E2,-2.2764442E0,-1.7279253E1,9.859644E0,1.5628813E2,5.904994E2,6.6928217E2,7.05959E1,-4.079779E1,-2.3412985E1,1.7730365E2,4.8423276E2,6.566397E2,3.3524364E1,4.6276535E2,3.1992462E1,-1.3302093E0,-2.9953725E0,-1.5052619E0,9.484191E0,-4.406673E0,3.0886759E1,-3.1137833E1,3.3658493E1,-1.0070235E1,-1.3853608E-1,3.0912596E1],"categories":[],"categories_nodes":[],"categories_segments":[],"categories_sizes":[],"default_left":[0,0,0,0,0,0,0,0,0,0,0,0,0,0,0,0,0,0,0,0,0,0,0,0,0,0,0,0,0,0,0,0,0],"id":32,"left_children":[1,3,5,7,9,-1,11,-1,13,-1,15,17,19,21,23,-1,25,27,29,-1,31,-1,-1,-1,-1,-1,-1,-1,-1,-1,-1,-1,-1],"loss_changes":[7.9231706E8,7.870104E6,1.628416E6,4.7626E5,2.40735E4,0E0,6.40704E5,0E0,1.2718309E6,0E0,7.786599E5,1.059632E6,6.5984E4,7.2101135E6,9.729706E4,0E0,1.875975E5,1.2059772E7,1.80924E6,0E0,8.7032825E5,0E0,0E0,0E0,0E0,0E0,0E0,0E0,0E0,0E0,0E0,0E0,0E0],"parents":[2147483647,0,0,1,1,2,2,3,3,4,4,6,6,8,8,10,10,11,11,12,12,13,13,14,14,16,16,17,17,18,18,20,20],"right_children":[2,4,6,8,10,-1,12,-1,14,-1,16,18,20,22,24,-1,26,28,30,-1,32,-1,-1,-1,-1,-1,-1,-1,-1,-1,-1,-1,-1],"split_conditions":[1.356E3,1.166E3,4.81E1,3.8866665E1,1.181E3,-8.46878E0,3.665E3,-2.2764442E0,1.7073334E2,9.859644E0,1.182E3,3.5700334E3,3.731E3,1.1E1,9E0,-2.3412985E1,1.217E3,3.4511667E3,3.715E3,3.3524364E1,3.732E3,3.1992462E1,-1.3302093E0,-2.9953725E0,-1.5052619E0,9.484191E0,-4.406673E0,3.0886759E1,-3.1137833E1,3.3658493E1,-1.0070235E1,-1.3853608E-1,3.0912596E1],"split_indices":[3,3,7,7,6,0,3,0,7,0,6,7,5,1,1,0,3,7,4,0,5,0,0,0,0,0,0,0,0,0,0,0,0],"split_type":[0,0,0,0,0,0,0,0,0,0,0,0,0,0,0,0,0,0,0,0,0,0,0,0,0,0,0,0,0,0,0,0,0],"sum_hessian":[2.7516E4,2.5808E4,1.708E3,2.5658E4,1.5E2,2E0,1.706E3,2.5045E4,6.13E2,9.8E1,5.2E1,1.95E2,1.511E3,1.29E2,4.84E2,1E0,5.1E1,7.8E1,1.17E2,1.5E3,1.1E1,1.8E1,1.11E2,1.72E2,3.12E2,4.9E1,2E0,7E1,8E0,1.15E2,2E0,3E0,8E0],"tree_param":{"num_deleted":"0","num_feature":"8","num_nodes":"33","size_leaf_vector":"1"}},{"base_weights":[7.741319E-1,-4.170962E1,6.2917816E2,-4.3079823E1,1.7575027E2,3.1514667E2,6.318988E2,-4.3396397E1,-2.7648834E1,9.418744E0,1.505179E2,6.0726074E2,-5.0737918E2,5.4106055E2,6.35515E2,-4.3249355E1,-9.073782E1,4.1468625E2,-4.436883E1,-2.282766E1,1.6885625E2,-2.6337535E0,3.6601883E1,-6.9042175E1,2.676058E1,5.823691E2,-6.0828876E1,6.216543E2,3.2875443E1,-2.1643655E0,2.2723444E1,-6.1442657E0,2.6333761E1,7.311053E1,-2.4003887E1,-2.179172E1,-1.9371661E0,8.94004E0,-5.047569E-1,3.0380003E1,-3.0225718E1,3.1264072E1,2.2835232E1],"categories":[],"categories_nodes":[],"categories_segments":[],"categories_sizes":[],"default_left":[0,0,0,0,0,0,0,0,0,0,0,0,0,0,0,0,0,0,0,0,0,0,0,0,0,0,0,0,0,0,0,0,0,0,0,0,0,0,0,0,0,0,0],"id":33,"left_children":[1,3,5,7,9,11,13,15,17,-1,19,21,23,25,27,29,31,33,35,-1,37,-1,-1,-1,-1,39,-1,41,-1,-1,-1,-1,-1,-1,-1,-1,-1,-1,-1,-1,-1,-1,-1],"loss_changes":[7.365153E8,7.707256E6,1.29344E6,1.24248E5,2.3251E4,4.392724E6,2.24768E5,1.71236E5,3.8568402E6,0E0,7.3392E5,1.1090425E6,5.292373E6,6.008696E6,9.696E4,4.93612E5,1.5930381E6,1.8510428E7,1.086413E6,0E0,1.05021E5,0E0,0E0,0E0,0E0,2.523432E6,0E0,3.34304E5,0E0,0E0,0E0,0E0,0E0,0E0,0E0,0E0,0E0,0E0,0E0,0E0,0E0,0E0,0E0],"parents":[2147483647,0,0,1,1,2,2,3,3,4,4,5,5,6,6,7,7,8,8,10,10,11,11,12,12,13,13,14,14,15,15,16,16,17,17,18,18,20,20,25,25,27,27],"right_children":[2,4,6,8,10,12,14,16,18,-1,20,22,24,26,28,30,32,34,36,-1,38,-1,-1,-1,-1,40,-1,42,-1,-1,-1,-1,-1,-1,-1,-1,-1,-1,-1,-1,-1,-1,-1],"split_conditions":[1.356E3,1.171E3,3.625E3,1.2163333E2,1.181E3,1.44E3,2E0,4.7433334E1,1.236E2,9.418744E0,1.182E3,4.76E1,2.3E1,3.697E3,3.697E3,4.7133335E1,5E0,4.52E2,1.7073334E2,-2.282766E1,1.217E3,-2.6337535E0,3.6601883E1,-6.9042175E1,2.676058E1,3.713E3,-6.0828876E1,3.696E3,3.2875443E1,-2.1643655E0,2.2723444E1,-6.1442657E0,2.6333761E1,7.311053E1,-2.4003887E1,-2.179172E1,-1.9371661E0,8.94004E0,-5.047569E-1,3.0380003E1,-3.0225718E1,3.1264072E1,2.2835232E1],"split_indices":[3,3,3,7,6,3,1,7,7,0,6,7,0,6,3,7,2,6,7,0,3,0,0,0,0,5,0,3,0,0,0,0,0,0,0,0,0,0,0,0,0,0,0],"split_type":[0,0,0,0,0,0,0,0,0,0,0,0,0,0,0,0,0,0,0,0,0,0,0,0,0,0,0,0,0,0,0,0,0,0,0,0,0,0,0,0,0,0,0],"sum_hessian":[2.7586E4,2.584E4,1.746E3,2.5679E4,1.61E2,1.6E1,1.73E3,2.5161E4,5.18E2,1.03E2,5.8E1,1.2E1,4E0,7.2E1,1.658E3,2.5085E4,7.6E1,1.8E1,5E2,1E0,5.7E1,2E0,1E1,2E0,2E0,7.1E1,1E0,1.035E3,6.23E2,2.5084E4,1E0,7.3E1,3E0,8E0,1E1,6E0,4.94E2,5.4E1,3E0,7E1,1E0,1.01E3,2.5E1],"tree_param":{"num_deleted":"0","num_feature":"8","num_nodes":"43","size_leaf_vector":"1"}},{"base_weights":[1.858149E-1,-3.9305595E1,5.940042E2,-4.0478462E1,1.6189973E2,-1.3902202E2,5.9536676E2,-4.1149834E1,-7.6978254E0,-1.2949584E1,1.664627E2,-7.7326936E-1,-8.752622E0,5.699995E2,6.160447E2,-4.1012997E1,-8.466567E1,5.246407E2,-3.6955345E1,8.922129E0,1.3994373E2,5.2639886E2,3.0101576E1,5.397257E2,3.1047544E1,-2.0543754E0,2.9806528E1,-6.51432E0,3.9594467E1,4.8696236E1,-1.7060413E0,-7.148477E-1,-2.6371615E0,-2.225697E1,8.02741E0,2.9633163E1,-3.8374393E1,2.8487913E1,-3.380811E1],"categories":[],"categories_nodes":[],"categories_segments":[],"categories_sizes":[],"default_left":[0,0,0,0,0,0,0,0,0,0,0,0,0,0,0,0,0,0,0,0,0,0,0,0,0,0,0,0,0,0,0,0,0,0,0,0,0,0,0],"id":34,"left_children":[1,3,5,7,9,11,13,15,17,-1,19,-1,-1,21,23,25,27,29,31,-1,33,35,-1,37,-1,-1,-1,-1,-1,-1,-1,-1,-1,-1,-1,-1,-1,-1,-1],"loss_changes":[6.464661E8,6.10634E6,1.79968E6,5.65268E5,3.3119025E5,1.509993E4,5.48928E5,1.46476E5,8.0716145E6,0E0,2.2364E4,0E0,0E0,7.78048E5,1.4208E4,1.216316E6,3.2223205E6,6.8113815E6,1.7489044E5,0E0,6.862874E5,2.9606016E7,0E0,2.722286E6,0E0,0E0,0E0,0E0,0E0,0E0,0E0,0E0,0E0,0E0,0E0,0E0,0E0,0E0,0E0],"parents":[2147483647,0,0,1,1,2,2,3,3,4,4,5,5,6,6,7,7,8,8,10,10,13,13,14,14,15,15,16,16,17,17,18,18,20,20,21,21,23,23],"right_children":[2,4,6,8,10,12,14,16,18,-1,20,-1,-1,22,24,26,28,30,32,-1,34,36,-1,38,-1,-1,-1,-1,-1,-1,-1,-1,-1,-1,-1,-1,-1,-1,-1],"split_conditions":[1.413E3,1.171E3,4.81E1,4.81E1,5E0,6E0,3.685E3,4.7433334E1,1.236E2,-1.2949584E1,1.181E3,-7.7326936E-1,-8.752622E0,3.5937E3,5E0,4.7133335E1,5E0,4.52E2,1.3E1,8.922129E0,1.182E3,3.4857334E3,3.0101576E1,3.697E3,3.1047544E1,-2.0543754E0,2.9806528E1,-6.51432E0,3.9594467E1,4.8696236E1,-1.7060413E0,-7.148477E-1,-2.6371615E0,-2.225697E1,8.02741E0,2.9633163E1,-3.8374393E1,2.8487913E1,-3.380811E1],"split_indices":[3,3,7,7,2,0,5,7,7,0,6,0,0,7,1,7,2,6,1,0,6,7,0,6,0,0,0,0,0,0,0,0,0,0,0,0,0,0,0],"split_type":[0,0,0,0,0,0,0,0,0,0,0,0,0,0,0,0,0,0,0,0,0,0,0,0,0,0,0,0,0,0,0,0,0,0,0,0,0,0,0],"sum_hessian":[2.7565E4,2.5847E4,1.718E3,2.5698E4,1.49E2,3E0,1.715E3,2.5182E4,5.16E2,1E0,1.48E2,1E0,2E0,7.83E2,9.32E2,2.5105E4,7.7E1,2.6E1,4.9E2,9.8E1,5E1,3.39E2,4.44E2,6.3E1,8.69E2,2.5103E4,2E0,7.4E1,3E0,1.4E1,1.2E1,2.02E2,2.88E2,1E0,4.9E1,3.23E2,1.6E1,6.2E1,1E0],"tree_param":{"num_deleted":"0","num_feature":"8","num_nodes":"39","size_leaf_vector":"1"}},{"base_weights":[-5.2212393E-1,-3.752135E1,5.668143E2,-3.8687916E1,1.5694229E2,-1.344524E2,5.681387E2,-3.9060284E1,-2.2567322E1,8.483474E0,1.3071704E2,-7.539376E-1,-8.460868E0,3.690681E2,5.6958136E2,-3.904683E1,-9.459551E0,2.8812977E1,-2.5610054E1,-2.1700544E1,1.492122E2,3.691319E1,-8.307859E2,5.46826E2,2.8931448E1,-1.952121E0,-3.755635E0,8.440979E-1,-2.7074387E0,7.961184E0,-7.868561E-1,-6.770946E1,1.8485596E1,2.953874E1,-5.3760047E0],"categories":[],"categories_nodes":[],"categories_segments":[],"categories_sizes":[],"default_left":[0,0,0,0,0,0,0,0,0,0,0,0,0,0,0,0,0,0,0,0,0,0,0,0,0,0,0,0,0,0,0,0,0,0,0],"id":35,"left_children":[1,3,5,7,9,11,13,15,17,-1,19,-1,-1,21,23,25,-1,-1,27,-1,29,-1,31,33,-1,-1,-1,-1,-1,-1,-1,-1,-1,-1,-1],"loss_changes":[5.8046464E8,5.895204E6,1.648768E6,1.54032E5,2.955625E4,1.4048492E4,2.75136E5,4.3556E4,1.0806691E6,0E0,6.392201E5,0E0,0E0,7.258052E6,2.8672E4,1.076E3,0E0,0E0,7.0789944E5,0E0,9.16805E4,0E0,3.014038E6,1.4298592E7,0E0,0E0,0E0,0E0,0E0,0E0,0E0,0E0,0E0,0E0,0E0],"parents":[2147483647,0,0,1,1,2,2,3,3,4,4,5,5,6,6,7,7,8,8,10,10,13,13,14,14,15,15,18,18,20,20,22,22,23,23],"right_children":[2,4,6,8,10,12,14,16,18,-1,20,-1,-1,22,24,26,-1,-1,28,-1,30,-1,32,34,-1,-1,-1,-1,-1,-1,-1,-1,-1,-1,-1],"split_conditions":[1.356E3,1.171E3,4.81E1,4.7133335E1,1.181E3,6E0,3.625E3,4.52E2,4.7433334E1,8.483474E0,1.182E3,-7.539376E-1,-8.460868E0,1.441E3,3.6328333E3,4.52E2,-9.459551E0,2.8812977E1,1.3E1,-2.1700544E1,1.217E3,3.691319E1,2.3E1,3.5511333E3,2.8931448E1,-1.952121E0,-3.755635E0,8.440979E-1,-2.7074387E0,7.961184E0,-7.868561E-1,-6.770946E1,1.8485596E1,2.953874E1,-5.3760047E0],"split_indices":[3,3,7,7,6,0,3,3,7,0,6,0,0,3,7,4,0,0,1,0,3,0,0,7,0,0,0,0,0,0,0,0,0,0,0],"split_type":[0,0,0,0,0,0,0,0,0,0,0,0,0,0,0,0,0,0,0,0,0,0,0,0,0,0,0,0,0,0,0,0,0,0,0],"sum_hessian":[2.7651E4,2.5959E4,1.692E3,2.5805E4,1.54E2,3E0,1.689E3,2.5221E4,5.84E2,1E2,5.4E1,1E0,2E0,1.4E1,1.675E3,2.522E4,1E0,2E0,5.82E2,1E0,5.3E1,1.1E1,3E0,4.94E2,1.181E3,2.5219E4,1E0,2.34E2,3.48E2,5E1,3E0,2E0,1E0,4.63E2,3.1E1],"tree_param":{"num_deleted":"0","num_feature":"8","num_nodes":"35","size_leaf_vector":"1"}},{"base_weights":[-1.4513382E-1,-3.5436726E1,5.360968E2,-3.645662E1,1.4242287E2,-1.3003348E2,5.373466E2,-1.8541788E0,-1.0789916E1,-1.3548675E1,1.4707845E2,-7.350892E-1,-8.178839E0,5.0188077E2,5.51505E2,8.7888374E1,-3.8668205E1,8.021486E0,1.196015E2,5.3396924E2,-2.1520905E2,5.53083E2,2.8000546E2,-4.229548E-1,2.3858E1,-2.1075838E0,1.1956877E0,-2.1158031E1,6.9270587E0,1.3196648E1,2.7200287E1,1.3211962E1,-5.4363674E1,4.2719097E1,2.749152E1,-3.5652E1,2.4663307E1],"categories":[],"categories_nodes":[],"categories_segments":[],"categories_sizes":[],"default_left":[0,0,0,0,0,0,0,0,0,0,0,0,0,0,0,0,0,0,0,0,0,0,0,0,0,0,0,0,0,0,0,0,0,0,0,0,0],"id":36,"left_children":[1,3,5,7,9,11,13,-1,15,-1,17,-1,-1,19,21,23,25,-1,27,29,31,33,35,-1,-1,-1,-1,-1,-1,-1,-1,-1,-1,-1,-1,-1,-1],"loss_changes":[5.2285533E8,4.70739E6,1.490208E6,4.14372E5,3.24695E5,1.3069555E4,5.78336E5,0E0,1.6980034E6,0E0,3.473975E4,0E0,0E0,1.1551024E7,3.62272E5,5.104761E6,1.0586719E5,0E0,5.9317125E5,1.14648E6,9.485715E6,7.0528E5,2.2577165E6,0E0,0E0,0E0,0E0,0E0,0E0,0E0,0E0,0E0,0E0,0E0,0E0,0E0,0E0],"parents":[2147483647,0,0,1,1,2,2,3,3,4,4,5,5,6,6,8,8,10,10,13,13,14,14,15,15,16,16,18,18,19,19,20,20,21,21,22,22],"right_children":[2,4,6,8,10,12,14,-1,16,-1,18,-1,-1,20,22,24,26,-1,28,30,32,34,36,-1,-1,-1,-1,-1,-1,-1,-1,-1,-1,-1,-1,-1,-1],"split_conditions":[1.413E3,1.171E3,4.81E1,3.8866665E1,5E0,6E0,3.5937E3,-1.8541788E0,1.7073334E2,-1.3548675E1,1.181E3,-7.350892E-1,-8.178839E0,3.5511333E3,3.731E3,1.2163333E2,3.697E3,8.021486E0,1.182E3,1E0,3.674E3,3.6328333E3,3.732E3,-4.229548E-1,2.3858E1,-2.1075838E0,1.1956877E0,-2.1158031E1,6.9270587E0,1.3196648E1,2.7200287E1,1.3211962E1,-5.4363674E1,4.2719097E1,2.749152E1,-3.5652E1,2.4663307E1],"split_indices":[3,3,7,7,2,0,7,0,7,0,6,0,0,7,5,7,4,0,6,1,6,7,5,0,0,0,0,0,0,0,0,0,0,0,0,0,0],"split_type":[0,0,0,0,0,0,0,0,0,0,0,0,0,0,0,0,0,0,0,0,0,0,0,0,0,0,0,0,0,0,0,0,0,0,0,0,0],"sum_hessian":[2.7626E4,2.5921E4,1.705E3,2.5774E4,1.47E2,3E0,1.702E3,2.5159E4,6.15E2,1E0,1.46E2,1E0,2E0,4.96E2,1.206E3,1.35E2,4.8E2,9.5E1,5.1E1,4.75E2,2.1E1,1.198E3,8E0,1.09E2,2.6E1,4.55E2,2.5E1,1E0,5E1,1.8E1,4.57E2,1.4E1,7E0,1E1,1.188E3,1E0,7E0],"tree_param":{"num_deleted":"0","num_feature":"8","num_nodes":"37","size_leaf_vector":"1"}},{"base_weights":[7.324071E-2,-3.385078E1,5.1635315E2,-3.4922333E1,1.3849991E2,-1.2576028E2,5.175553E2,-3.5429226E1,-1.0484713E1,-1.3209958E1,1.4266801E2,-2.0850513E0,-9.448451E0,3.605381E1,5.155678E2,-3.5236656E1,-9.156323E1,5.525825E2,-3.3786346E1,7.694118E0,1.2141276E2,4.6031085E2,2.5940948E1,-1.7635422E0,2.0700445E1,-6.552241E0,3.752852E1,7.2763535E1,-1.2285303E1,-4.041191E-1,-2.4201915E0,-2.062908E1,6.8728213E0,2.4493357E1,-6.3860786E1],"categories":[],"categories_nodes":[],"categories_segments":[],"categories_sizes":[],"default_left":[0,0,0,0,0,0,0,0,0,0,0,0,0,0,0,0,0,0,0,0,0,0,0,0,0,0,0,0,0,0,0,0,0,0,0],"id":37,"left_children":[1,3,5,7,9,11,13,15,17,-1,19,-1,-1,-1,21,23,25,27,29,-1,31,33,-1,-1,-1,-1,-1,-1,-1,-1,-1,-1,-1,-1,-1],"loss_changes":[4.8574128E8,4.81102E6,1.385056E6,3.20012E5,3.0793075E5,1.3372922E4,3.18752E5,2.70668E5,6.933113E6,0E0,1.9455E4,0E0,0E0,0E0,6.5472E4,4.0243E5,2.9577525E6,1.5490286E7,1.901025E5,0E0,5.7074544E5,5.915214E6,0E0,0E0,0E0,0E0,0E0,0E0,0E0,0E0,0E0,0E0,0E0,0E0,0E0],"parents":[2147483647,0,0,1,1,2,2,3,3,4,4,5,5,6,6,7,7,8,8,10,10,14,14,15,15,16,16,17,17,18,18,20,20,21,21],"right_children":[2,4,6,8,10,12,14,16,18,-1,20,-1,-1,-1,22,24,26,28,30,-1,32,34,-1,-1,-1,-1,-1,-1,-1,-1,-1,-1,-1,-1,-1],"split_conditions":[1.413E3,1.171E3,4.81E1,1.2163333E2,5E0,3.4E1,3.338E3,4.7433334E1,1.236E2,-1.3209958E1,1.181E3,-2.0850513E0,-9.448451E0,3.605381E1,3E0,4.7133335E1,3.652E3,4.52E2,1.215E3,7.694118E0,1.182E3,3.724E3,2.5940948E1,-1.7635422E0,2.0700445E1,-6.552241E0,3.752852E1,7.2763535E1,-1.2285303E1,-4.041191E-1,-2.4201915E0,-2.062908E1,6.8728213E0,2.4493357E1,-6.3860786E1],"split_indices":[3,3,7,7,2,0,3,7,7,0,6,0,0,0,1,7,6,6,6,0,6,3,0,0,0,0,0,0,0,0,0,0,0,0,0],"split_type":[0,0,0,0,0,0,0,0,0,0,0,0,0,0,0,0,0,0,0,0,0,0,0,0,0,0,0,0,0,0,0,0,0,0,0],"sum_hessian":[2.7732E4,2.6023E4,1.709E3,2.5863E4,1.6E2,3E0,1.706E3,2.5337E4,5.26E2,1E0,1.59E2,2E0,1E0,1.3E1,1.693E3,2.5252E4,8.5E1,2E1,5.06E2,1E2,5.9E1,1.02E2,1.591E3,2.5251E4,1E0,8.2E1,3E0,9E0,1.1E1,1.84E2,3.22E2,1E0,5.8E1,1.01E2,1E0],"tree_param":{"num_deleted":"0","num_feature":"8","num_nodes":"35","size_leaf_vector":"1"}},{"base_weights":[-2.447728E-1,-3.2384148E1,4.8544833E2,-3.3314068E1,1.295648E2,4.2533536E2,4.92142E2,-3.3172974E1,-5.498212E1,-1.2879709E1,1.3395088E2,4.338998E2,-5.7833313E1,4.5519696E2,4.9827155E2,-3.3311268E1,4.7672888E2,-5.1565647E1,-4.000929E0,7.2954326E0,1.0783466E2,3.5264062E2,4.9074927E2,-3.2654327E1,1.7913998E1,4.6665445E2,2.3529541E1,3.7367172E2,2.499594E1,-1.667839E0,1.0303855E1,8.81418E1,-1.5714151E0,-3.0365005E0,-2.0243177E0,-2.0113354E1,6.322722E0,2.3728653E1,-2.4978535E1,4.462238E1,2.3467289E1,2.422415E1,1.1053341E1,-6.2264263E1,2.2127312E1,-4.398007E1,2.4015772E1],"categories":[],"categories_nodes":[],"categories_segments":[],"categories_sizes":[],"default_left":[0,0,0,0,0,0,0,0,0,0,0,0,0,0,0,0,0,0,0,0,0,0,0,0,0,0,0,0,0,0,0,0,0,0,0,0,0,0,0,0,0,0,0,0,0,0,0],"id":38,"left_children":[1,3,5,7,9,11,13,15,17,-1,19,21,23,25,27,29,31,33,-1,-1,35,37,39,-1,-1,41,43,45,-1,-1,-1,-1,-1,-1,-1,-1,-1,-1,-1,-1,-1,-1,-1,-1,-1,-1,-1],"loss_changes":[4.308326E8,3.902874E6,4.79936E5,7.6868E4,2.85825E5,7.65804E5,1.208E5,1.819388E6,9.9873125E3,0E0,3.0173E4,6.39984E5,1.2247589E6,1.126556E6,8.1248E4,2.85476E5,4.6302145E6,1.2568406E4,0E0,0E0,5.2576725E5,8.134411E6,4.49504E5,0E0,0E0,8.73676E5,4.2726785E6,3.229214E6,0E0,0E0,0E0,0E0,0E0,0E0,0E0,0E0,0E0,0E0,0E0,0E0,0E0,0E0,0E0,0E0,0E0,0E0,0E0],"parents":[2147483647,0,0,1,1,2,2,3,3,4,4,5,5,6,6,7,7,8,8,10,10,11,11,12,12,13,13,14,14,15,15,16,16,17,17,20,20,21,21,22,22,25,25,26,26,27,27],"right_children":[2,4,6,8,10,12,14,16,18,-1,20,22,24,26,28,30,32,34,-1,-1,36,38,40,-1,-1,42,44,46,-1,-1,-1,-1,-1,-1,-1,-1,-1,-1,-1,-1,-1,-1,-1,-1,-1,-1,-1],"split_conditions":[1.413E3,1.171E3,3.663E3,3.681E3,5E0,3.715E3,9E0,3.68E3,3.697E3,-1.2879709E1,1.181E3,3.5700334E3,5E0,3.725E3,1E0,3.701E3,1E1,1.3E1,-4.000929E0,7.2954326E0,1.182E3,3.3716667E3,3.6328333E3,-3.2654327E1,1.7913998E1,3.701E3,3E0,1.181E3,2.499594E1,-1.667839E0,1.0303855E1,8.81418E1,-1.5714151E0,-3.0365005E0,-2.0243177E0,-2.0113354E1,6.322722E0,2.3728653E1,-2.4978535E1,4.462238E1,2.3467289E1,2.422415E1,1.1053341E1,-6.2264263E1,2.2127312E1,-4.398007E1,2.4015772E1],"split_indices":[3,3,3,5,2,4,1,5,4,0,6,7,0,3,0,4,1,1,0,0,6,7,7,0,0,6,1,4,0,0,0,0,0,0,0,0,0,0,0,0,0,0,0,0,0,0,0],"split_type":[0,0,0,0,0,0,0,0,0,0,0,0,0,0,0,0,0,0,0,0,0,0,0,0,0,0,0,0,0,0,0,0,0,0,0,0,0,0,0,0,0,0,0,0,0,0,0],"sum_hessian":[2.7598E4,2.5886E4,1.712E3,2.5739E4,1.47E2,1.78E2,1.534E3,2.5575E4,1.64E2,1E0,1.46E2,1.75E2,3E0,2.29E2,1.305E3,2.5569E4,6E0,1.47E2,1.7E1,9.7E1,4.9E1,7.5E1,1E2,1E0,2E0,2.23E2,6E0,2E1,1.285E3,2.5565E4,4E0,1E0,5E0,7.8E1,6.9E1,1E0,4.8E1,6.6E1,9E0,3E0,9.7E1,2.07E2,1.6E1,1E0,5E0,1E0,1.9E1],"tree_param":{"num_deleted":"0","num_feature":"8","num_nodes":"47","size_leaf_vector":"1"}},{"base_weights":[-4.410878E-2,-3.0156384E1,4.5667346E2,-3.1182652E1,1.3488277E2,-1.4015213E2,4.578078E2,-1.5899092E0,-6.7165303E0,-1.2557716E1,6.944513E0,-1.257802E0,-8.504941E0,4.228929E2,2.3596941E1,7.503444E1,-3.1211243E1,4.6609207E2,-3.5400448E1,2.7862238E1,-7.4750744E-2,-2.8257625E0,-8.669705E-1,1.19251585E1,2.3825346E1,-6.16441E1,1.1223562E1],"categories":[],"categories_nodes":[],"categories_segments":[],"categories_sizes":[],"default_left":[0,0,0,0,0,0,0,0,0,0,0,0,0,0,0,0,0,0,0,0,0,0,0,0,0,0,0],"id":39,"left_children":[1,3,5,7,9,11,13,-1,15,-1,-1,-1,-1,17,-1,19,21,23,25,-1,-1,-1,-1,-1,-1,-1,-1],"loss_changes":[3.7909606E8,4.384228E6,1.218432E6,3.86834E5,2.824095E5,9.495992E3,6.4016E5,0E0,1.2679009E6,0E0,0E0,0E0,0E0,9.915448E6,0E0,5.388714E6,1.6996334E5,9.69576E5,1.3969174E7,0E0,0E0,0E0,0E0,0E0,0E0,0E0,0E0],"parents":[2147483647,0,0,1,1,2,2,3,3,4,4,5,5,6,6,8,8,13,13,15,15,16,16,17,17,18,18],"right_children":[2,4,6,8,10,12,14,-1,16,-1,-1,-1,-1,18,-1,20,22,24,26,-1,-1,-1,-1,-1,-1,-1,-1],"split_conditions":[1.413E3,1.166E3,4.81E1,3.8866665E1,5E0,6E0,3.6328333E3,-1.5899092E0,1.7073334E2,-1.2557716E1,6.944513E0,-1.257802E0,-8.504941E0,3.4511667E3,2.3596941E1,1.3E1,9E0,2E0,3.653E3,2.7862238E1,-7.4750744E-2,-2.8257625E0,-8.669705E-1,1.19251585E1,2.3825346E1,-6.16441E1,1.1223562E1],"split_indices":[3,3,7,7,2,0,7,0,7,0,0,0,0,7,0,1,1,1,5,0,0,0,0,0,0,0,0],"split_type":[0,0,0,0,0,0,0,0,0,0,0,0,0,0,0,0,0,0,0,0,0,0,0,0,0,0,0],"sum_hessian":[2.7563E4,2.5859E4,1.704E3,2.57E4,1.59E2,3E0,1.701E3,2.5069E4,6.31E2,1E0,1.58E2,1E0,2E0,4.99E2,1.202E3,1.45E2,4.86E2,4.56E2,4.3E1,1.9E1,1.26E2,1.71E2,3.15E2,2.1E1,4.35E2,7E0,3.6E1],"tree_param":{"num_deleted":"0","num_feature":"8","num_nodes":"27","size_leaf_vector":"1"}},{"base_weights":[-5.103534E-1,-2.9149845E1,4.3446167E2,-3.0068356E1,1.1819814E2,3.262222E2,4.3902307E2,-2.9813688E1,-4.6162663E1,-1.2243773E1,1.21997826E2,3.6556097E2,-6.2654247E1,3.911001E2,4.4441895E2,-3.025665E1,6.849228E0,-1.894378E1,-6.661312E1,6.627678E0,1.0114889E2,-5.4534615E1,4.0143344E2,3.9918167E2,-5.2161835E1,4.3535373E2,4.7497147E2,-1.5069944E0,-3.4402852E0,2.6757221E1,-9.2952865E-1,-1.5078542E0,3.1326456E1,-3.7776524E1,-2.068676E0,-1.9784132E1,5.8403516E0,2.1220905E1,-3.0187307E1,1.632837E1,2.2625492E1,1.7934917E1,-3.2118557E1,2.18383E1,7.2084823E0,2.4498388E1,2.0319668E1],"categories":[],"categories_nodes":[],"categories_segments":[],"categories_sizes":[],"default_left":[0,0,0,0,0,0,0,0,0,0,0,0,0,0,0,0,0,0,0,0,0,0,0,0,0,0,0,0,0,0,0,0,0,0,0,0,0,0,0,0,0,0,0,0,0,0,0],"id":40,"left_children":[1,3,5,7,9,11,13,15,17,-1,19,21,-1,23,25,27,29,31,33,-1,35,-1,37,39,41,43,45,-1,-1,-1,-1,-1,-1,-1,-1,-1,-1,-1,-1,-1,-1,-1,-1,-1,-1,-1,-1],"loss_changes":[3.4463357E8,3.516452E6,7.00576E5,1.04354E5,2.51984E5,4.993424E6,2.49504E5,4.12662E5,2.213935E5,0E0,2.18045E4,4.199077E6,0E0,6.44134E5,1.98688E5,1.10878E5,4.0956245E6,1.271048E6,3.9332048E6,0E0,4.9742712E5,0E0,1.896604E6,5.14404E5,1.2003915E6,4.0624E5,1.34088E5,0E0,0E0,0E0,0E0,0E0,0E0,0E0,0E0,0E0,0E0,0E0,0E0,0E0,0E0,0E0,0E0,0E0,0E0,0E0,0E0],"parents":[2147483647,0,0,1,1,2,2,3,3,4,4,5,5,6,6,7,7,8,8,10,10,11,11,13,13,14,14,15,15,16,16,17,17,18,18,20,20,22,22,23,23,24,24,25,25,26,26],"right_children":[2,4,6,8,10,12,14,16,18,-1,20,22,-1,24,26,28,30,32,34,-1,36,-1,38,40,42,44,46,-1,-1,-1,-1,-1,-1,-1,-1,-1,-1,-1,-1,-1,-1,-1,-1,-1,-1,-1,-1],"split_conditions":[1.413E3,1.171E3,2E0,3.682E3,5E0,3.697E3,3.665E3,1.2163333E2,1.2163333E2,-1.2243773E1,1.181E3,1.448E3,-6.2654247E1,3.715E3,3.707E3,4.7433334E1,1.236E2,3.8866665E1,1.7073334E2,6.627678E0,1.182E3,-5.4534615E1,3.716E3,3.652E3,5E0,3.731E3,4.7E1,-1.5069944E0,-3.4402852E0,2.6757221E1,-9.2952865E-1,-1.5078542E0,3.1326456E1,-3.7776524E1,-2.068676E0,-1.9784132E1,5.8403516E0,2.1220905E1,-3.0187307E1,1.632837E1,2.2625492E1,1.7934917E1,-3.2118557E1,2.18383E1,7.2084823E0,2.4498388E1,2.0319668E1],"split_indices":[3,3,1,6,2,6,3,7,7,0,6,3,0,4,4,7,7,7,7,0,6,0,3,5,1,5,0,0,0,0,0,0,0,0,0,0,0,0,0,0,0,0,0,0,0,0,0],"split_type":[0,0,0,0,0,0,0,0,0,0,0,0,0,0,0,0,0,0,0,0,0,0,0,0,0,0,0,0,0,0,0,0,0,0,0,0,0,0,0,0,0,0,0,0,0,0,0],"sum_hessian":[2.7663E4,2.5955E4,1.708E3,2.5795E4,1.6E2,7.2E1,1.636E3,2.5396E4,3.99E2,1E0,1.59E2,7.1E1,1E0,1.73E2,1.463E3,2.5093E4,3.03E2,1.72E2,2.27E2,1.02E2,5.7E1,1E0,7E1,1.7E2,3E0,1.14E3,3.23E2,2.5019E4,7.4E1,1.3E1,2.9E2,1.7E2,2E0,7E0,2.2E2,1E0,5.6E1,6.9E1,1E0,7.5E1,9.5E1,2E0,1E0,1.134E3,6E0,2.6E2,6.3E1],"tree_param":{"num_deleted":"0","num_feature":"8","num_nodes":"47","size_leaf_vector":"1"}},{"base_weights":[3.3846194E-1,-2.745759E1,4.1381445E2,-2.8299892E1,1.1146109E2,-1.5514145E2,4.1455463E2,-2.8708628E1,-9.576771E0,-1.1937679E1,1.1523653E2,-1.6345662E0,-1.0001042E1,3.097929E2,4.1848352E2,-2.8609282E1,-8.510199E1,1.4890674E2,-2.7697218E1,6.2549667E0,9.591167E1,3.515097E2,-6.108789E1,3.9864746E2,4.3285907E2,-1.4320363E0,1.9143988E1,-5.799832E0,-2.2870672E0,5.8340963E-2,6.020126E1,-1.5671748E0,3.0507982E0,-1.928953E1,5.570131E0,3.353257E1,1.1798567E1,2.0160643E1,1.0946315E1,8.500969E0,2.1827871E1],"categories":[],"categories_nodes":[],"categories_segments":[],"categories_sizes":[],"default_left":[0,0,0,0,0,0,0,0,0,0,0,0,0,0,0,0,0,0,0,0,0,0,0,0,0,0,0,0,0,0,0,0,0,0,0,0,0,0,0,0,0],"id":41,"left_children":[1,3,5,7,9,11,13,15,17,-1,19,-1,-1,21,23,25,27,29,31,-1,33,35,-1,37,39,-1,-1,-1,-1,-1,-1,-1,-1,-1,-1,-1,-1,-1,-1,-1,-1],"loss_changes":[3.1911453E8,3.047444E6,8.00832E5,1.97634E5,2.3510075E5,9.947516E3,5.8944E5,1.39356E5,1.595097E6,0E0,1.7734625E4,0E0,0E0,4.7101835E6,3.06784E5,3.37852E5,4.8199625E4,8.883932E6,1.630019E5,0E0,4.6831338E5,2.2753705E6,0E0,5.01672E5,8.61904E5,0E0,0E0,0E0,0E0,0E0,0E0,0E0,0E0,0E0,0E0,0E0,0E0,0E0,0E0,0E0,0E0],"parents":[2147483647,0,0,1,1,2,2,3,3,4,4,5,5,6,6,7,7,8,8,10,10,13,13,14,14,15,15,16,16,17,17,18,18,20,20,21,21,23,23,24,24],"right_children":[2,4,6,8,10,12,14,16,18,-1,20,-1,-1,22,24,26,28,30,32,-1,34,36,-1,38,40,-1,-1,-1,-1,-1,-1,-1,-1,-1,-1,-1,-1,-1,-1,-1,-1],"split_conditions":[1.413E3,1.166E3,4.81E1,4.76E1,5E0,6E0,2E0,4.7433334E1,1.7073334E2,-1.1937679E1,1.181E3,-1.6345662E0,-1.0001042E1,3.697E3,3.684E3,4.7133335E1,3.2E1,2.1E1,3.697E3,6.2549667E0,1.182E3,1.4676666E3,-6.108789E1,3.683E3,2.1133333E3,-1.4320363E0,1.9143988E1,-5.799832E0,-2.2870672E0,5.8340963E-2,6.020126E1,-1.5671748E0,3.0507982E0,-1.928953E1,5.570131E0,3.353257E1,1.1798567E1,2.0160643E1,1.0946315E1,8.500969E0,2.1827871E1],"split_indices":[3,3,7,7,2,0,1,7,7,0,6,0,0,6,5,7,0,1,4,0,6,7,0,5,7,0,0,0,0,0,0,0,0,0,0,0,0,0,0,0,0],"split_type":[0,0,0,0,0,0,0,0,0,0,0,0,0,0,0,0,0,0,0,0,0,0,0,0,0,0,0,0,0,0,0,0,0,0,0,0,0,0,0,0,0],"sum_hessian":[2.7764E4,2.6016E4,1.748E3,2.586E4,1.56E2,2E0,1.746E3,2.5307E4,5.53E2,1E0,1.55E2,1E0,1E0,6.6E1,1.68E3,2.5264E4,4.3E1,5.6E1,4.97E2,9.9E1,5.6E1,6.5E1,1E0,7.18E2,9.62E2,2.5263E4,1E0,2.3E1,2E1,5E1,6E0,4.78E2,1.9E1,1E0,5.5E1,1.6E1,4.9E1,6.99E2,1.9E1,1.4E1,9.48E2],"tree_param":{"num_deleted":"0","num_feature":"8","num_nodes":"41","size_leaf_vector":"1"}},{"base_weights":[9.521679E-2,-2.6077915E1,3.9835452E2,-2.6990448E1,1.11290764E2,3.8789377E2,4.2067313E2,-2.6627237E1,-3.9280224E1,1.3342502E2,-8.461707E2,3.521155E2,4.015729E2,1.4416083E2,4.2462714E2,-2.7318281E1,6.819657E1,-3.462684E1,-1.439902E2,1.072405E2,4.137947E2,-6.620541E1,1.4691028E1,4.0293063E2,-3.480935E2,3.5679314E1,1.9961325E1,-4.452618E1,1.9240591E1,4.6821298E2,4.056764E2,-1.3596039E0,-3.4558084E0,5.978393E1,-9.468176E-1,-1.1763633E0,-2.3565402E0,-1.2726027E0,-1.2676449E1,-1.1639237E1,5.5480022E0,-7.1211166E0,2.8921888E1,2.061775E1,6.7264285E0,1.6732136E1,-4.4950848E1,2.2298069E1,4.6767128E1,-8.691668E0,2.0944523E1],"categories":[],"categories_nodes":[],"categories_segments":[],"categories_sizes":[],"default_left":[0,0,0,0,0,0,0,0,0,0,0,0,0,0,0,0,0,0,0,0,0,0,0,0,0,0,0,0,0,0,0,0,0,0,0,0,0,0,0,0,0,0,0,0,0,0,0,0,0,0,0],"id":42,"left_children":[1,3,5,7,9,11,13,15,17,19,21,23,25,27,29,31,33,35,37,39,41,-1,-1,43,45,-1,-1,-1,-1,47,49,-1,-1,-1,-1,-1,-1,-1,-1,-1,-1,-1,-1,-1,-1,-1,-1,-1,-1,-1,-1],"loss_changes":[2.875271E8,3.247528E6,2.33952E5,1.1373E5,3.7368515E6,4.31712E5,5.19344E5,1.638604E6,3.536345E5,1.1889708E6,2.5684275E6,1.1953216E7,3.30112E5,2.5836645E6,2.4204E5,1.28932E5,1.7804226E7,9.687594E4,3.960675E5,2.2186438E5,1.364464E6,0E0,0E0,7.28684E5,8.951963E6,0E0,0E0,0E0,0E0,1.162818E6,2.921472E6,0E0,0E0,0E0,0E0,0E0,0E0,0E0,0E0,0E0,0E0,0E0,0E0,0E0,0E0,0E0,0E0,0E0,0E0,0E0,0E0],"parents":[2147483647,0,0,1,1,2,2,3,3,4,4,5,5,6,6,7,7,8,8,9,9,10,10,11,11,12,12,13,13,14,14,15,15,16,16,17,17,18,18,19,19,20,20,23,23,24,24,29,29,30,30],"right_children":[2,4,6,8,10,12,14,16,18,20,22,24,26,28,30,32,34,36,38,40,42,-1,-1,44,46,-1,-1,-1,-1,48,50,-1,-1,-1,-1,-1,-1,-1,-1,-1,-1,-1,-1,-1,-1,-1,-1,-1,-1,-1,-1],"split_conditions":[3.625E3,1.171E3,3.7E3,1.187E3,1.443E3,3.5937E3,1E0,1.2163333E2,5.8E1,1.413E3,2.3E1,3.4857334E3,3.6328333E3,1.181E3,3.5700334E3,4.7433334E1,1.7073334E2,1.2163333E2,3.8866665E1,5E0,4.81E1,-6.620541E1,1.4691028E1,3.699E3,3E1,3.5679314E1,1.9961325E1,-4.452618E1,1.9240591E1,3.4857334E3,3.6328333E3,-1.3596039E0,-3.4558084E0,5.978393E1,-9.468176E-1,-1.1763633E0,-2.3565402E0,-1.2726027E0,-1.2676449E1,-1.1639237E1,5.5480022E0,-7.1211166E0,2.8921888E1,2.061775E1,6.7264285E0,1.6732136E1,-4.4950848E1,2.2298069E1,4.6767128E1,-8.691668E0,2.0944523E1],"split_indices":[3,3,3,6,3,7,0,7,0,3,0,7,7,4,7,7,7,7,7,2,7,0,0,3,0,0,0,0,0,7,7,0,0,0,0,0,0,0,0,0,0,0,0,0,0,0,0,0,0,0,0],"split_type":[0,0,0,0,0,0,0,0,0,0,0,0,0,0,0,0,0,0,0,0,0,0,0,0,0,0,0,0,0,0,0,0,0,0,0,0,0,0,0,0,0,0,0,0,0,0,0,0,0,0,0],"sum_hessian":[2.7582E4,2.5882E4,1.7E3,2.5712E4,1.7E2,1.17E3,5.3E2,2.4977E4,7.35E2,1.67E2,3E0,3.31E2,8.39E2,8E0,5.22E2,2.4797E4,1.8E2,7.05E2,3E1,1.54E2,1.3E1,2E0,1E0,3.09E2,2.2E1,4E0,8.35E2,1E0,7E0,1.51E2,3.71E2,2.4724E4,7.3E1,1.2E1,1.68E2,3.75E2,3.3E2,1.5E1,1.5E1,1E0,1.53E2,3E0,1E1,2.98E2,1.1E1,1E1,1.2E1,1.46E2,5E0,8E0,3.63E2],"tree_param":{"num_deleted":"0","num_feature":"8","num_nodes":"51","size_leaf_vector":"1"}},{"base_weights":[-6.1029755E-2,-2.4603308E1,3.7417993E2,-2.5384554E1,1.0164837E2,-9.5729885E0,3.746245E2,-1.2956247E0,-4.8322816E0,-1.1348256E1,1.0514258E2,2.8691431E1,3.7287155E2,3.2226383E1,-3.7071144E1,5.6545863E0,8.498954E1,-5.1811077E1,3.7431848E2,1.2437326E0,5.6127453E1,3.1605635E1,-2.2372293E0,-4.1804504E0,5.091703E0,1.7408688E1,1.9258326E1],"categories":[],"categories_nodes":[],"categories_segments":[],"categories_sizes":[],"default_left":[0,0,0,0,0,0,0,0,0,0,0,0,0,0,0,0,0,0,0,0,0,0,0,0,0,0,0],"id":43,"left_children":[1,3,5,7,9,-1,11,-1,13,-1,15,-1,17,19,21,-1,23,-1,25,-1,-1,-1,-1,-1,-1,-1,-1],"loss_changes":[2.5430672E8,2.565475E6,5.00224E5,2.80087E5,2.0758262E5,0E0,3.80704E5,0E0,7.753792E5,0E0,1.5860125E4,0E0,3.8356E6,2.392837E6,1.8101092E6,0E0,1.4767234E5,0E0,3.452E5,0E0,0E0,0E0,0E0,0E0,0E0,0E0,0E0],"parents":[2147483647,0,0,1,1,2,2,3,3,4,4,6,6,8,8,10,10,12,12,13,13,14,14,16,16,18,18],"right_children":[2,4,6,8,10,-1,12,-1,14,-1,16,-1,18,20,22,-1,24,-1,26,-1,-1,-1,-1,-1,-1,-1,-1],"split_conditions":[1.413E3,1.166E3,4.81E1,3.8866665E1,5E0,-9.5729885E0,1.443E3,-1.2956247E0,1.215E3,-1.1348256E1,4.3E1,2.8691431E1,1.448E3,2.3E1,4.81E1,5.6545863E0,4.4E1,-5.1811077E1,3.6328333E3,1.2437326E0,5.6127453E1,3.1605635E1,-2.2372293E0,-4.1804504E0,5.091703E0,1.7408688E1,1.9258326E1],"split_indices":[3,3,7,7,2,0,3,0,6,0,0,0,3,1,7,0,0,0,7,0,0,0,0,0,0,0,0],"split_type":[0,0,0,0,0,0,0,0,0,0,0,0,0,0,0,0,0,0,0,0,0,0,0,0,0,0,0],"sum_hessian":[2.7686E4,2.5983E4,1.703E3,2.5824E4,1.59E2,1E0,1.702E3,2.5177E4,6.47E2,1E0,1.58E2,1.2E1,1.69E3,3.01E2,3.46E2,1.1E2,4.8E1,1E0,1.689E3,3E2,1E0,3E0,3.43E2,4E0,4.4E1,5.05E2,1.184E3],"tree_param":{"num_deleted":"0","num_feature":"8","num_nodes":"27","size_leaf_vector":"1"}},{"base_weights":[-1.2358832E-1,-2.394321E1,3.5809976E2,-2.4757874E1,1.05323654E2,4.0761905E2,3.534824E2,-2.4818804E1,4.742111E1,1.1852834E2,-5.0515804E1,2.8290283E1,1.9348577E1,2.8626813E2,3.6280106E2,-2.449101E1,-3.693175E1,6.38273E2,-3.9732308E0,1.3042464E2,-4.462197E1,3.2117368E2,-5.7645535E1,2.0020937E2,3.6503998E2,-1.2380106E0,6.0623735E-1,-9.373725E-1,-2.9048116E0,-2.4392815E0,4.4177723E1,5.4808097E0,2.5604156E1,-2.2996998E1,1.6629917E1,2.1978779E1,-3.2947758E1,1.865065E1,-4.80475E1,2.0128557E1,1.7945766E1],"categories":[],"categories_nodes":[],"categories_segments":[],"categories_sizes":[],"default_left":[0,0,0,0,0,0,0,0,0,0,0,0,0,0,0,0,0,0,0,0,0,0,0,0,0,0,0,0,0,0,0,0,0,0,0,0,0,0,0,0,0],"id":44,"left_children":[1,3,5,7,9,11,13,15,17,19,-1,-1,-1,21,23,25,27,29,-1,31,-1,33,35,37,39,-1,-1,-1,-1,-1,-1,-1,-1,-1,-1,-1,-1,-1,-1,-1,-1],"loss_changes":[2.3511982E8,2.723474E6,2.48704E5,1.14099E5,2.5062835E6,2.38312E5,8.85168E5,1.0096E5,1.7000749E6,2.052706E6,0E0,0E0,0E0,2.3834E6,4.30368E5,2.46547E5,2.5830738E5,7.171955E5,0E0,1.2145428E6,0E0,1.750364E6,5.970354E6,4.5721505E6,1.68816E5,0E0,0E0,0E0,0E0,0E0,0E0,0E0,0E0,0E0,0E0,0E0,0E0,0E0,0E0,0E0,0E0],"parents":[2147483647,0,0,1,1,2,2,3,3,4,4,5,5,6,6,7,7,8,8,9,9,13,13,14,14,15,15,16,16,17,17,19,19,21,21,22,22,23,23,24,24],"right_children":[2,4,6,8,10,12,14,16,18,20,-1,-1,-1,22,24,26,28,30,-1,32,-1,34,36,38,40,-1,-1,-1,-1,-1,-1,-1,-1,-1,-1,-1,-1,-1,-1,-1,-1],"split_conditions":[3.625E3,1.171E3,1.2359333E3,3.697E3,3.695E3,2E0,3.653E3,3.627E3,3.703E3,3.338E3,-5.0515804E1,2.8290283E1,1.9348577E1,3.651E3,2.1133333E3,1.2163333E2,1.2163333E2,1.6E1,-3.9732308E0,1.429E3,-4.462197E1,1E0,3.658E3,2.0993667E3,3.5511333E3,-1.2380106E0,6.0623735E-1,-9.373725E-1,-2.9048116E0,-2.4392815E0,4.4177723E1,5.4808097E0,2.5604156E1,-2.2996998E1,1.6629917E1,2.1978779E1,-3.2947758E1,1.865065E1,-4.80475E1,2.0128557E1,1.7945766E1],"split_indices":[3,3,7,4,5,1,5,6,4,3,0,0,0,5,7,7,7,0,0,3,0,0,4,7,7,0,0,0,0,0,0,0,0,0,0,0,0,0,0,0,0],"split_type":[0,0,0,0,0,0,0,0,0,0,0,0,0,0,0,0,0,0,0,0,0,0,0,0,0,0,0,0,0,0,0,0,0,0,0,0,0,0,0,0,0],"sum_hessian":[2.7553E4,2.5836E4,1.717E3,2.5675E4,1.61E2,1.39E2,1.578E3,2.5654E4,2.1E1,1.6E2,1E0,1.3E1,1.26E2,1.96E2,1.382E3,2.4981E4,6.73E2,3E0,1.8E1,1.59E2,1E0,1.78E2,1.8E1,2E1,1.362E3,2.4799E4,1.82E2,3.63E2,3.1E2,1E0,2E0,1.52E2,7E0,2E0,1.76E2,1E1,8E0,1.8E1,2E0,1.82E2,1.18E3],"tree_param":{"num_deleted":"0","num_feature":"8","num_nodes":"41","size_leaf_vector":"1"}},{"base_weights":[4.26041E-1,-2.2334936E1,3.413921E2,-2.30887E1,5.1398845E0,-1.3401234E2,3.4229764E2,-2.3483418E1,-3.73871E0,-2.6203678E0,-9.470683E0,2.6988071E1,3.404808E2,-2.3385386E1,-3.727941E2,7.917011E2,-1.9451475E1,-5.328997E2,3.4284094E2,-1.17283E0,1.4989393E0,8.527745E0,-4.114723E1,6.0302074E1,-2.885535E1,-3.1858057E-2,-1.7439814E0,-6.183955E1,1.7431242E1,1.5176981E1,1.7366762E1],"categories":[],"categories_nodes":[],"categories_segments":[],"categories_sizes":[],"default_left":[0,0,0,0,0,0,0,0,0,0,0,0,0,0,0,0,0,0,0,0,0,0,0,0,0,0,0,0,0,0,0],"id":45,"left_children":[1,3,5,7,-1,9,11,13,15,-1,-1,-1,17,19,21,23,25,27,29,-1,-1,-1,-1,-1,-1,-1,-1,-1,-1,-1,-1],"loss_changes":[2.1405608E8,2.441121E6,7.88896E5,1.9622E5,0E0,8.1574297E3,4.34368E5,8.53815E5,6.452158E6,0E0,0E0,0E0,3.707536E6,9.6404E4,1.852479E6,6.3675395E6,1.4685445E5,3.533664E6,1.95904E5,0E0,0E0,0E0,0E0,0E0,0E0,0E0,0E0,0E0,0E0,0E0,0E0],"parents":[2147483647,0,0,1,1,2,2,3,3,5,5,6,6,7,7,8,8,12,12,13,13,14,14,15,15,16,16,17,17,18,18],"right_children":[2,4,6,8,-1,10,12,14,16,-1,-1,-1,18,20,22,24,26,28,30,-1,-1,-1,-1,-1,-1,-1,-1,-1,-1,-1,-1],"split_conditions":[1.356E3,1.171E3,4.81E1,1.2276667E2,5.1398845E0,3.4E1,1.443E3,1.2163333E2,1.236E2,-2.6203678E0,-9.470683E0,2.6988071E1,3.625E3,3.716E3,3E0,3.695E3,1.3E1,2.3E1,3.665E3,-1.17283E0,1.4989393E0,8.527745E0,-4.114723E1,6.0302074E1,-2.885535E1,-3.1858057E-2,-1.7439814E0,-6.183955E1,1.7431242E1,1.5176981E1,1.7366762E1],"split_indices":[3,3,7,7,0,0,3,7,7,0,0,0,3,6,2,6,1,0,3,0,0,0,0,0,0,0,0,0,0,0,0],"split_type":[0,0,0,0,0,0,0,0,0,0,0,0,0,0,0,0,0,0,0,0,0,0,0,0,0,0,0,0,0,0,0],"sum_hessian":[2.758E4,2.5855E4,1.725E3,2.5701E4,1.54E2,3E0,1.722E3,2.5187E4,5.14E2,2E0,1E0,1.3E1,1.709E3,2.5181E4,6E0,9E0,5.05E2,4E0,1.705E3,2.5148E4,3.3E1,3E0,3E0,7E0,2E0,2.28E2,2.77E2,2E0,2E0,1.82E2,1.523E3],"tree_param":{"num_deleted":"0","num_feature":"8","num_nodes":"31","size_leaf_vector":"1"}},{"base_weights":[-4.417466E-2,-2.1241877E1,3.2220312E2,-2.187328E1,8.403794E1,-1.3033449E2,3.230758E2,-2.2192135E1,-6.230521E0,-1.1876271E1,8.766839E1,-2.533022E0,-9.233916E0,2.3900714E2,3.2658246E2,-2.2159155E1,-1.03362206E2,4.06183E2,-2.4510496E1,4.91393E0,6.891842E1,2.7694318E2,-6.1361267E1,3.0902002E2,3.3922006E2,-1.107253E0,-9.466119E0,-1.9924131E1,1.3572739E1,6.3057354E1,-1.4136325E1,-1.3916091E0,2.41609E0,-3.6579328E0,4.171425E0,2.2358883E1,4.4534183E0,1.8611679E0,1.5586563E1,3.1242142E1,1.6881935E1],"categories":[],"categories_nodes":[],"categories_segments":[],"categories_sizes":[],"default_left":[0,0,0,0,0,0,0,0,0,0,0,0,0,0,0,0,0,0,0,0,0,0,0,0,0,0,0,0,0,0,0,0,0,0,0,0,0,0,0,0,0],"id":46,"left_children":[1,3,5,7,9,11,13,15,17,-1,19,-1,-1,21,23,25,27,29,31,-1,33,35,-1,37,39,-1,-1,-1,-1,-1,-1,-1,-1,-1,-1,-1,-1,-1,-1,-1,-1],"loss_changes":[1.8903157E8,1.727834E6,7.16656E5,1.28601E5,2.0177338E5,7.963289E3,4.24576E5,6.542E4,3.9075718E6,0E0,2.386375E4,0E0,0E0,4.34473E6,2.5784E5,5.5401E4,1.2143315E6,1.3314404E7,1.2134019E5,0E0,1.2773491E5,2.230947E6,0E0,5.00548E5,2.136E5,0E0,0E0,0E0,0E0,0E0,0E0,0E0,0E0,0E0,0E0,0E0,0E0,0E0,0E0,0E0,0E0],"parents":[2147483647,0,0,1,1,2,2,3,3,4,4,5,5,6,6,7,7,8,8,10,10,13,13,14,14,15,15,16,16,17,17,18,18,20,20,21,21,23,23,24,24],"right_children":[2,4,6,8,10,12,14,16,18,-1,20,-1,-1,22,24,26,28,30,32,-1,34,36,-1,38,40,-1,-1,-1,-1,-1,-1,-1,-1,-1,-1,-1,-1,-1,-1,-1,-1],"split_conditions":[1.413E3,1.171E3,4.81E1,1.2163333E2,5E0,3.4E1,2E0,4.81E1,1.236E2,-1.1876271E1,4.52E2,-2.533022E0,-9.233916E0,3.697E3,3.686E3,4.52E2,1E0,4.52E2,3.697E3,4.91393E0,1.182E3,1.4E1,-6.1361267E1,1E0,1.429E3,-1.107253E0,-9.466119E0,-1.9924131E1,1.3572739E1,6.3057354E1,-1.4136325E1,-1.3916091E0,2.41609E0,-3.6579328E0,4.171425E0,2.2358883E1,4.4534183E0,1.8611679E0,1.5586563E1,3.1242142E1,1.6881935E1],"split_indices":[3,3,7,7,2,0,1,7,7,0,6,0,0,6,4,3,1,6,4,0,6,0,0,0,3,0,0,0,0,0,0,0,0,0,0,0,0,0,0,0,0],"split_type":[0,0,0,0,0,0,0,0,0,0,0,0,0,0,0,0,0,0,0,0,0,0,0,0,0,0,0,0,0,0,0,0,0,0,0,0,0,0,0,0,0],"sum_hessian":[2.7671E4,2.5964E4,1.707E3,2.581E4,1.54E2,3E0,1.704E3,2.5294E4,5.16E2,1E0,1.53E2,2E0,1E0,7.1E1,1.633E3,2.5285E4,9E0,2.1E1,4.95E2,9.5E1,5.8E1,7E1,1E0,6.94E2,9.39E2,2.5284E4,1E0,5E0,4E0,9E0,1.2E1,4.74E2,2.1E1,5E0,5.3E1,3.6E1,3.4E1,7E0,6.87E2,3E0,9.36E2],"tree_param":{"num_deleted":"0","num_feature":"8","num_nodes":"41","size_leaf_vector":"1"}},{"base_weights":[7.3445344E-1,-2.0083458E1,3.0743707E2,-2.0686127E1,8.080586E1,-1.2675951E2,3.082515E2,-2.110696E1,-4.064058E0,-1.1579364E1,8.436129E1,-2.4485881E0,-9.003069E0,2.9115634E2,3.2083752E2,-1.0550137E0,-1.2481811E0,4.020464E1,-3.674186E1,4.697901E0,6.555334E1,3.625288E2,2.829852E2,3.354519E2,3.012865E2,1.616482E0,5.4161358E1,-1.5941513E1,-8.914734E-1,-1.9015549E1,4.042644E0,2.709209E1,1.662921E1,-1.3617177E1,1.4291995E1,1.8098095E1,1.5971207E1,8.774649E0,1.6020304E1],"categories":[],"categories_nodes":[],"categories_segments":[],"categories_sizes":[],"default_left":[0,0,0,0,0,0,0,0,0,0,0,0,0,0,0,0,0,0,0,0,0,0,0,0,0,0,0,0,0,0,0,0,0,0,0,0,0,0,0],"id":47,"left_children":[1,3,5,7,9,11,13,15,17,-1,19,-1,-1,21,23,-1,-1,25,27,-1,29,31,33,35,37,-1,-1,-1,-1,-1,-1,-1,-1,-1,-1,-1,-1,-1,-1],"loss_changes":[1.7659358E8,1.576461E6,6.60752E5,1.80019E5,1.905835E5,7.767004E3,2.84192E5,1.2E2,9.229637E5,0E0,2.14565E4,0E0,0E0,3.3772E5,1.84944E5,0E0,0E0,2.1909198E6,1.952248E6,0E0,4.059328E5,2.17132E5,1.159012E6,1.24024E5,9.97212E5,0E0,0E0,0E0,0E0,0E0,0E0,0E0,0E0,0E0,0E0,0E0,0E0,0E0,0E0],"parents":[2147483647,0,0,1,1,2,2,3,3,4,4,5,5,6,6,7,7,8,8,10,10,13,13,14,14,17,17,18,18,20,20,21,21,22,22,23,23,24,24],"right_children":[2,4,6,8,10,12,14,16,18,-1,20,-1,-1,22,24,-1,-1,26,28,-1,30,32,34,36,38,-1,-1,-1,-1,-1,-1,-1,-1,-1,-1,-1,-1,-1,-1],"split_conditions":[1.413E3,1.171E3,4.81E1,3.8866665E1,5E0,3.4E1,3.686E3,3.716E3,4.52E2,-1.1579364E1,1.181E3,-2.4485881E0,-9.003069E0,7.3893335E2,3.687E3,-1.0550137E0,-1.2481811E0,2.3E1,1.7073334E2,4.697901E0,1.182E3,1E0,1.448E3,3.6328333E3,3.6328333E3,1.616482E0,5.4161358E1,-1.5941513E1,-8.914734E-1,-1.9015549E1,4.042644E0,2.709209E1,1.662921E1,-1.3617177E1,1.4291995E1,1.8098095E1,1.5971207E1,8.774649E0,1.6020304E1],"split_indices":[3,3,7,7,2,0,4,6,6,0,6,0,0,7,6,0,0,1,7,0,6,1,3,7,7,0,0,0,0,0,0,0,0,0,0,0,0,0,0],"split_type":[0,0,0,0,0,0,0,0,0,0,0,0,0,0,0,0,0,0,0,0,0,0,0,0,0,0,0,0,0,0,0,0,0,0,0,0,0,0,0],"sum_hessian":[2.7656E4,2.5899E4,1.757E3,2.5746E4,1.53E2,3E0,1.754E3,2.511E4,6.36E2,1E0,1.52E2,2E0,1E0,7.54E2,1E3,2.5073E4,3.7E1,2.7E2,3.66E2,9.8E1,5.4E1,7.3E1,6.81E2,5.63E2,4.37E2,2.69E2,1E0,2.2E1,3.44E2,1E0,5.3E1,8E0,6.5E1,3E0,6.78E2,2.04E2,3.59E2,5.9E1,3.78E2],"tree_param":{"num_deleted":"0","num_feature":"8","num_nodes":"39","size_leaf_vector":"1"}},{"base_weights":[9.858843E-2,-1.9406397E1,2.9143237E2,-1.998903E1,7.536874E1,-1.2328444E2,2.9222464E2,-1.9935333E1,-3.949787E0,-1.128988E1,7.872519E1,-2.3669684E0,-8.777991E0,2.5327121E2,2.9665225E2,-1.9921652E1,-9.269877E0,4.3925657E0,5.969109E1,3.0769714E2,1.7435117E2,3.7397253E2,2.9429425E2,-9.841692E-1,-1.4300463E0,-1.854016E1,3.7404954E0,8.227946E0,1.7580557E1,9.73185E0,-3.41843E1,2.4315802E1,1.5641231E1,-7.56428E0,1.4779208E1],"categories":[],"categories_nodes":[],"categories_segments":[],"categories_sizes":[],"default_left":[0,0,0,0,0,0,0,0,0,0,0,0,0,0,0,0,0,0,0,0,0,0,0,0,0,0,0,0,0,0,0,0,0,0,0],"id":48,"left_children":[1,3,5,7,9,11,13,15,-1,-1,17,-1,-1,19,21,23,-1,-1,25,27,29,31,33,-1,-1,-1,-1,-1,-1,-1,-1,-1,-1,-1,-1],"loss_changes":[1.565745E8,1.427543E6,6.04112E5,7.9757E4,1.774905E5,7.5693438E3,2.2256E5,5.4363E4,0E0,0E0,2.2028188E4,0E0,0E0,7.32391E5,1.7144E5,5.2471E4,0E0,0E0,3.7920228E5,6.14717E5,1.473332E6,1.363905E5,9.086E5,0E0,0E0,0E0,0E0,0E0,0E0,0E0,0E0,0E0,0E0,0E0,0E0],"parents":[2147483647,0,0,1,1,2,2,3,3,4,4,5,5,6,6,7,7,10,10,13,13,14,14,15,15,18,18,19,19,20,20,21,21,22,22],"right_children":[2,4,6,8,10,12,14,16,-1,-1,18,-1,-1,20,22,24,-1,-1,26,28,30,32,34,-1,-1,-1,-1,-1,-1,-1,-1,-1,-1,-1,-1],"split_conditions":[1.413E3,1.171E3,4.81E1,3.697E3,5E0,3.4E1,3.665E3,5.27E2,-3.949787E0,-1.128988E1,1.181E3,-2.3669684E0,-8.777991E0,1.3E1,1E0,1.429E3,-9.269877E0,4.3925657E0,1.182E3,1E0,3.715E3,4.52E2,2E0,-9.841692E-1,-1.4300463E0,-1.854016E1,3.7404954E0,8.227946E0,1.7580557E1,9.73185E0,-3.41843E1,2.4315802E1,1.5641231E1,-7.56428E0,1.4779208E1],"split_indices":[3,3,7,4,2,0,3,3,0,0,6,0,0,1,1,6,0,0,6,1,4,5,1,0,0,0,0,0,0,0,0,0,0,0,0],"split_type":[0,0,0,0,0,0,0,0,0,0,0,0,0,0,0,0,0,0,0,0,0,0,0,0,0,0,0,0,0,0,0,0,0,0,0],"sum_hessian":[2.7552E4,2.5824E4,1.728E3,2.5667E4,1.57E2,3E0,1.725E3,2.5645E4,2.2E1,1E0,1.56E2,2E0,1E0,1.82E2,1.543E3,2.5644E4,1E0,1.03E2,5.3E1,1.06E2,7.6E1,4.1E1,1.502E3,2.4962E4,6.82E2,1E0,5.2E1,2.6E1,8E1,7.5E1,1E0,1.2E1,2.9E1,4E0,1.498E3],"tree_param":{"num_deleted":"0","num_feature":"8","num_nodes":"35","size_leaf_vector":"1"}},{"base_weights":[1.3711376E-1,-1.8247297E1,2.7811404E2,-1.876095E1,7.1258606E1,-1.1990646E2,2.7888245E2,-1.9062586E1,-6.701606E0,-1.1007632E1,7.473864E1,-2.2880695E0,-8.558542E0,3.3542685E2,2.7225864E2,-9.528376E-1,-1.1164031E0,4.9185066E1,-2.204279E1,4.2080674E0,5.590559E1,2.529193E1,1.5445212E1,1.6345276E1,2.7545312E2,2.1094292E1,-9.3553174E-1,-9.5550454E-1,-3.7104595E0,-1.8076656E1,3.5589771E0,1.6339422E1,-4.9017094E1,1.1667558E1,1.4308028E1],"categories":[],"categories_nodes":[],"categories_segments":[],"categories_sizes":[],"default_left":[0,0,0,0,0,0,0,0,0,0,0,0,0,0,0,0,0,0,0,0,0,0,0,0,0,0,0,0,0,0,0,0,0,0,0],"id":49,"left_children":[1,3,5,7,9,11,13,15,17,-1,19,-1,-1,21,23,-1,-1,25,27,-1,29,-1,-1,31,33,-1,-1,-1,-1,-1,-1,-1,-1,-1,-1],"loss_changes":[1.4111971E8,1.192136E6,5.57344E5,9.3553E4,1.6654344E5,7.3709844E3,5.49144E5,5.3E1,5.412259E5,0E0,2.1381312E4,0E0,0E0,6.34704E5,1.251184E6,0E0,0E0,3.449344E6,7.4311125E4,0E0,3.572827E5,0E0,0E0,6.5086585E6,6.17096E5,0E0,0E0,0E0,0E0,0E0,0E0,0E0,0E0,0E0,0E0],"parents":[2147483647,0,0,1,1,2,2,3,3,4,4,5,5,6,6,7,7,8,8,10,10,13,13,14,14,17,17,18,18,20,20,23,23,24,24],"right_children":[2,4,6,8,10,12,14,16,18,-1,20,-1,-1,22,24,-1,-1,26,28,-1,30,-1,-1,32,34,-1,-1,-1,-1,-1,-1,-1,-1,-1,-1],"split_conditions":[1.413E3,1.171E3,4.81E1,3.8866665E1,5E0,3.4E1,1.4676666E3,3.716E3,1.7073334E2,-1.1007632E1,1.181E3,-2.2880695E0,-8.558542E0,2E0,1.5719667E3,-9.528376E-1,-1.1164031E0,1.3E1,3.7E3,4.2080674E0,1.182E3,2.529193E1,1.5445212E1,3.7E3,3.5937E3,2.1094292E1,-9.3553174E-1,-9.5550454E-1,-3.7104595E0,-1.8076656E1,3.5589771E0,1.6339422E1,-4.9017094E1,1.1667558E1,1.4308028E1],"split_indices":[3,3,7,7,2,0,7,6,7,0,6,0,0,1,7,0,0,1,4,0,6,0,0,4,7,0,0,0,0,0,0,0,0,0,0],"split_type":[0,0,0,0,0,0,0,0,0,0,0,0,0,0,0,0,0,0,0,0,0,0,0,0,0,0,0,0,0,0,0,0,0,0,0],"sum_hessian":[2.7612E4,2.59E4,1.712E3,2.5753E4,1.47E2,3E0,1.709E3,2.5124E4,6.29E2,1E0,1.46E2,2E0,1E0,1.74E2,1.535E3,2.5086E4,3.8E1,1.35E2,4.94E2,9.5E1,5.1E1,2.1E1,1.53E2,1.9E1,1.516E3,2E1,1.15E2,4.69E2,2.5E1,1E0,5E1,1.5E1,4E0,3.12E2,1.204E3],"tree_param":{"num_deleted":"0","num_feature":"8","num_nodes":"35","size_leaf_vector":"1"}},{"base_weights":[-5.6704426E-1,-1.7665312E1,2.6382394E2,-1.8237482E1,7.513714E1,2.4527594E2,2.8024326E2,-1.8296013E1,4.8048702E1,-1.0732442E1,7.8329765E1,2.134999E2,2.7081903E2,6.6302246E1,2.8386816E2,-1.8147747E1,-3.403732E1,6.169805E2,-3.4070053E0,8.161795E1,5.2991707E1,2.6433127E2,-9.6985535E2,5.0613132E2,1.3346196E1,1.4250592E1,-6.610795E2,3.4247305E2,2.7390347E2,-9.096842E-1,2.8828161E1,-2.5109878E0,-1.2471741E0,4.2822998E1,-2.5364416E0,3.7548146E0,4.547981E0,4.1690164E0,-1.3869516E1,1.3801079E1,3.5411377E0,-5.5584614E1,2.5396551E1,-2.6367884E1,4.0915035E1,1.139854E1,-8.3205765E1,1.4928771E1,4.302287E1,-4.764304E0,1.3851283E1],"categories":[],"categories_nodes":[],"categories_segments":[],"categories_sizes":[],"default_left":[0,0,0,0,0,0,0,0,0,0,0,0,0,0,0,0,0,0,0,0,0,0,0,0,0,0,0,0,0,0,0,0,0,0,0,0,0,0,0,0,0,0,0,0,0,0,0,0,0,0,0],"id":50,"left_children":[1,3,5,7,9,11,13,15,17,-1,19,21,23,25,27,29,31,33,-1,35,37,39,41,43,-1,-1,45,47,49,-1,-1,-1,-1,-1,-1,-1,-1,-1,-1,-1,-1,-1,-1,-1,-1,-1,-1,-1,-1,-1,-1],"loss_changes":[1.24733304E8,1.3774755E6,4.41688E5,1.00815E5,1.6391669E5,5.87448E5,6.65184E5,5.9447E4,1.5624219E6,0E0,8.838875E3,2.1850784E7,2.65444E5,2.7337818E6,4.12504E5,7.07087E5,3.3918656E4,6.8305775E5,0E0,1.5766875E3,2.3396581E5,7.609E5,3.708733E6,2.3672785E6,0E0,0E0,3.9463665E6,2.51716E6,8.863E5,0E0,0E0,0E0,0E0,0E0,0E0,0E0,0E0,0E0,0E0,0E0,0E0,0E0,0E0,0E0,0E0,0E0,0E0,0E0,0E0,0E0,0E0],"parents":[2147483647,0,0,1,1,2,2,3,3,4,4,5,5,6,6,7,7,8,8,10,10,11,11,12,12,13,13,14,14,15,15,16,16,17,17,19,19,20,20,21,21,22,22,23,23,26,26,27,27,28,28],"right_children":[2,4,6,8,10,12,14,16,18,-1,20,22,24,26,28,30,32,34,-1,36,38,40,42,44,-1,-1,46,48,50,-1,-1,-1,-1,-1,-1,-1,-1,-1,-1,-1,-1,-1,-1,-1,-1,-1,-1,-1,-1,-1,-1],"split_conditions":[1.413E3,1.171E3,3.685E3,3.697E3,5E0,3.5700334E3,2.1133333E3,1.178E3,3.703E3,-1.0732442E1,5.1E1,3.4857334E3,3.6328333E3,2.1E1,3.5700334E3,1.177E3,4.52E2,1.3E1,-3.4070053E0,1.214E3,1.9E1,3.2165667E3,2.3E1,2.1E1,1.3346196E1,1.4250592E1,2.3E1,3.4857334E3,3.5937E3,-9.096842E-1,2.8828161E1,-2.5109878E0,-1.2471741E0,4.2822998E1,-2.5364416E0,3.7548146E0,4.547981E0,4.1690164E0,-1.3869516E1,1.3801079E1,3.5411377E0,-5.5584614E1,2.5396551E1,-2.6367884E1,4.0915035E1,1.139854E1,-8.3205765E1,1.4928771E1,4.302287E1,-4.764304E0,1.3851283E1],"split_indices":[3,3,5,4,2,7,7,5,4,0,0,7,7,1,7,5,6,1,0,3,1,7,1,0,0,0,0,7,7,0,0,0,0,0,0,0,0,0,0,0,0,0,0,0,0,0,0,0,0,0,0],"split_type":[0,0,0,0,0,0,0,0,0,0,0,0,0,0,0,0,0,0,0,0,0,0,0,0,0,0,0,0,0,0,0,0,0,0,0,0,0,0,0,0,0,0,0,0,0,0,0,0,0,0,0],"sum_hessian":[2.759E4,2.5915E4,1.675E3,2.5757E4,1.58E2,7.94E2,8.81E2,2.5735E4,2.2E1,1E0,1.57E2,3.58E2,4.36E2,1.5E1,8.66E2,2.5497E4,2.38E2,3E0,1.9E1,1.37E2,2E1,3.44E2,1.4E1,5E0,4.31E2,1.2E1,3E0,1.21E2,7.45E2,2.5496E4,1E0,8.4E1,1.54E2,2E0,1E0,8.6E1,5.1E1,1.9E1,1E0,3.24E2,2E1,1.3E1,1E0,1E0,4E0,2E0,1E0,1.13E2,8E0,6E0,7.39E2],"tree_param":{"num_deleted":"0","num_feature":"8","num_nodes":"51",