{"learner":{"attributes":{"scikit_learn":"{\"_estimator_type\": \"regressor\"}"},"feature_names":["minute","hour","dayofweek","lag_1","lag_5","lag_15","lag_60","rolling_mean_30"],"feature_types":["int","int","int","float","float","float","float","float"],"gradient_booster":{"model":{"gbtree_model_param":{"num_parallel_tree":"1","num_trees":"500"},"iteration_indptr":[0,1,2,3,4,5,6,7,8,9,10,11,12,13,14,15,16,17,18,19,20,21,22,23,24,25,26,27,28,29,30,31,32,33,34,35,36,37,38,39,40,41,42,43,44,45,46,47,48,49,50,51,52,53,54,55,56,57,58,59,60,61,62,63,64,65,66,67,68,69,70,71,72,73,74,75,76,77,78,79,80,81,82,83,84,85,86,87,88,89,90,91,92,93,94,95,96,97,98,99,100,101,102,103,104,105,106,107,108,109,110,111,112,113,114,115,116,117,118,119,120,121,122,123,124,125,126,127,128,129,130,131,132,133,134,135,136,137,138,139,140,141,142,143,144,145,146,147,148,149,150,151,152,153,154,155,156,157,158,159,160,161,162,163,164,165,166,167,168,169,170,171,172,173,174,175,176,177,178,179,180,181,182,183,184,185,186,187,188,189,190,191,192,193,194,195,196,197,198,199,200,201,202,203,204,205,206,207,208,209,210,211,212,213,214,215,216,217,218,219,220,221,222,223,224,225,226,227,228,229,230,231,232,233,234,235,236,237,238,239,240,241,242,243,244,245,246,247,248,249,250,251,252,253,254,255,256,257,258,259,260,261,262,263,264,265,266,267,268,269,270,271,272,273,274,275,276,277,278,279,280,281,282,283,284,285,286,287,288,289,290,291,292,293,294,295,296,297,298,299,300,301,302,303,304,305,306,307,308,309,310,311,312,313,314,315,316,317,318,319,320,321,322,323,324,325,326,327,328,329,330,331,332,333,334,335,336,337,338,339,340,341,342,343,344,345,346,347,348,349,350,351,352,353,354,355,356,357,358,359,360,361,362,363,364,365,366,367,368,369,370,371,372,373,374,375,376,377,378,379,380,381,382,383,384,385,386,387,388,389,390,391,392,393,394,395,396,397,398,399,400,401,402,403,404,405,406,407,408,409,410,411,412,413,414,415,416,417,418,419,420,421,422,423,424,425,426,427,428,429,430,431,432,433,434,435,436,437,438,439,440,441,442,443,444,445,446,447,448,449,450,451,452,453,454,455,456,457,458,459,460,461,462,463,464,465,466,467,468,469,470,471,472,473,474,475,476,477,478,479,480,481,482,483,484,485,486,487,488,489,490,491,492,493,494,495,496,497,498,499,500],"tree_info":[0,0,0,0,0,0,0,0,0,0,0,0,0,0,0,0,0,0,0,0,0,0,0,0,0,0,0,0,0,0,0,0,0,0,0,0,0,0,0,0,0,0,0,0,0,0,0,0,0,0,0,0,0,0,0,0,0,0,0,0,0,0,0,0,0,0,0,0,0,0,0,0,0,0,0,0,0,0,0,0,0,0,0,0,0,0,0,0,0,0,0,0,0,0,0,0,0,0,0,0,0,0,0,0,0,0,0,0,0,0,0,0,0,0,0,0,0,0,0,0,0,0,0,0,0,0,0,0,0,0,0,0,0,0,0,0,0,0,0,0,0,0,0,0,0,0,0,0,0,0,0,0,0,0,0,0,0,0,0,0,0,0,0,0,0,0,0,0,0,0,0,0,0,0,0,0,0,0,0,0,0,0,0,0,0,0,0,0,0,0,0,0,0,0,0,0,0,0,0,0,0,0,0,0,0,0,0,0,0,0,0,0,0,0,0,0,0,0,0,0,0,0,0,0,0,0,0,0,0,0,0,0,0,0,0,0,0,0,0,0,0,0,0,0,0,0,0,0,0,0,0,0,0,0,0,0,0,0,0,0,0,0,0,0,0,0,0,0,0,0,0,0,0,0,0,0,0,0,0,0,0,0,0,0,0,0,0,0,0,0,0,0,0,0,0,0,0,0,0,0,0,0,0,0,0,0,0,0,0,0,0,0,0,0,0,0,0,0,0,0,0,0,0,0,0,0,0,0,0,0,0,0,0,0,0,0,0,0,0,0,0,0,0,0,0,0,0,0,0,0,0,0,0,0,0,0,0,0,0,0,0,0,0,0,0,0,0,0,0,0,0,0,0,0,0,0,0,0,0,0,0,0,0,0,0,0,0,0,0,0,0,0,0,0,0,0,0,0,0,0,0,0,0,0,0,0,0,0,0,0,0,0,0,0,0,0,0,0,0,0,0,0,0,0,0,0,0,0,0,0,0,0,0,0,0,0,0,0,0,0,0,0,0,0,0,0,0,0,0,0,0,0,0,0,0,0,0,0,0,0,0,0,0,0,0,0,0,0,0,0,0,0,0,0,0,0,0,0,0,0,0,0,0,0,0,0,0,0,0,0,0,0,0,0,0,0,0,0,0,0],"trees":[{"base_weights":[-4.9472604E-2,-2.732636E1,3.3528362E1,-4.329885E1,-1.2635151E1,1.8814035E1,4.820638E1,-4.5288612E1,-3.706341E1,-1.3095973E1,-1.4504691E0,-6.0114274E0,2.0455824E1,4.533568E1,5.838956E1,-4.5508945E1,-3.178239E1,-3.526796E1,-4.2610672E1,-1.4010972E1,-9.833656E0,-2.0764782E0,6.587406E0,-7.504828E0,2.880584E1,1.6528622E1,2.3449379E1,2.161992E1,4.617967E1,5.6049446E1,8.0630745E1,-2.3347626E0,-2.2438993E0,-8.4361756E-1,-1.6134194E0,-1.6974258E0,-1.9900286E0,-2.192496E0,-1.5247656E0,-7.203529E-1,-6.448774E-1,-4.297504E-1,-5.754019E-1,-2.3720875E-1,-7.2732763E-3,1.0546802E0,-2.1223466E-1,-6.838922E-1,-1.3304588E-1,1.6474463E0,-8.33511E-1,6.500861E-1,9.256321E-1,1.1375374E0,1.4223691E0,1.2709068E0,8.0364037E-1,2.2892675E0,2.613184E0,2.8064854E0,1.2563825E0,2.7135632E0,4.133125E0],"categories":[],"categories_nodes":[],"categories_segments":[],"categories_sizes":[],"default_left":[0,0,0,0,0,0,0,0,0,0,0,0,0,0,0,0,0,0,0,0,0,0,0,0,0,0,0,0,0,0,0,0,0,0,0,0,0,0,0,0,0,0,0,0,0,0,0,0,0,0,0,0,0,0,0,0,0,0,0,0,0,0,0],"id":0,"left_children":[1,3,5,7,9,11,13,15,17,19,21,23,25,27,29,31,33,35,37,39,41,43,45,47,49,51,53,55,57,59,61,-1,-1,-1,-1,-1,-1,-1,-1,-1,-1,-1,-1,-1,-1,-1,-1,-1,-1,-1,-1,-1,-1,-1,-1,-1,-1,-1,-1,-1,-1,-1,-1],"loss_changes":[2.5272396E7,3.572078E6,2.670298E6,8.8818E4,4.08635E4,2.51927E5,1.78334E5,1.4995E4,1.612625E4,2.260225E4,1.5986903E3,2.0182695E4,6.774E4,9.5759E4,6.616E4,1.972E3,1.2221094E2,6.680625E3,5.08875E3,2.436875E3,3.3687656E3,1.5086576E3,3.703585E3,1.0997271E4,3.5638447E3,1.7322875E4,1.0826625E4,3.1310703E3,8.803E3,1.6475E3,2.315375E3,0E0,0E0,0E0,0E0,0E0,0E0,0E0,0E0,0E0,0E0,0E0,0E0,0E0,0E0,0E0,0E0,0E0,0E0,0E0,0E0,0E0,0E0,0E0,0E0,0E0,0E0,0E0,0E0,0E0,0E0,0E0,0E0],"parents":[2147483647,0,0,1,1,2,2,3,3,4,4,5,5,6,6,7,7,8,8,9,9,10,10,11,11,12,12,13,13,14,14,15,15,16,16,17,17,18,18,19,19,20,20,21,21,22,22,23,23,24,24,25,25,26,26,27,27,28,28,29,29,30,30],"right_children":[2,4,6,8,10,12,14,16,18,20,22,24,26,28,30,32,34,36,38,40,42,44,46,48,50,52,54,56,58,60,62,-1,-1,-1,-1,-1,-1,-1,-1,-1,-1,-1,-1,-1,-1,-1,-1,-1,-1,-1,-1,-1,-1,-1,-1,-1,-1,-1,-1,-1,-1,-1,-1],"split_conditions":[9.3E1,5.2E1,1.16E2,4.4133335E1,7.7E1,4.2E1,1.38E2,4.2E1,1E2,7.1166664E1,1.01E2,1.05E2,1.04E2,9.3166664E1,1.73E2,3.8E1,3.6E1,1.5E1,4.7E1,7E1,7.2E1,8.1E1,1.15E2,1.03E2,5.7E1,9.8E1,1.072E2,7.1E1,1.3863333E2,2.3E1,2E0,-2.3347626E0,-2.2438993E0,-8.4361756E-1,-1.6134194E0,-1.6974258E0,-1.9900286E0,-2.192496E0,-1.5247656E0,-7.203529E-1,-6.448774E-1,-4.297504E-1,-5.754019E-1,-2.3720875E-1,-7.2732763E-3,1.0546802E0,-2.1223466E-1,-6.838922E-1,-1.3304588E-1,1.6474463E0,-8.33511E-1,6.500861E-1,9.256321E-1,1.1375374E0,1.4223691E0,1.2709068E0,8.0364037E-1,2.2892675E0,2.613184E0,2.8064854E0,1.2563825E0,2.7135632E0,4.133125E0],"split_indices":[3,3,3,7,3,4,3,3,4,7,5,3,3,7,3,3,4,1,3,3,4,3,6,3,0,3,7,5,7,1,2,0,0,0,0,0,0,0,0,0,0,0,0,0,0,0,0,0,0,0,0,0,0,0,0,0,0,0,0,0,0,0,0],"split_type":[0,0,0,0,0,0,0,0,0,0,0,0,0,0,0,0,0,0,0,0,0,0,0,0,0,0,0,0,0,0,0,0,0,0,0,0,0,0,0,0,0,0,0,0,0,0,0,0,0,0,0,0,0,0,0,0,0,0,0,0,0,0,0],"sum_hessian":[2.7591E4,1.5224E4,1.2367E4,7.293E3,7.931E3,6.177E3,6.19E3,5.524E3,1.769E3,7.617E3,3.14E2,3.83E2,5.794E3,4.833E3,1.357E3,5.433E3,9.1E1,1.342E3,4.27E2,5.946E3,1.671E3,2.92E2,2.2E1,3.68E2,1.5E1,2.509E3,3.285E3,1.67E2,4.666E3,1.231E3,1.26E2,1.861E3,3.572E3,4E0,8.7E1,1.046E3,2.96E2,3.85E2,4.2E1,4.377E3,1.569E3,9.64E2,7.07E2,1.22E2,1.7E2,9E0,1.3E1,1.61E2,2.07E2,1.4E1,1E0,9.06E2,1.603E3,2.887E3,3.98E2,9.7E1,7E1,4.39E3,2.76E2,1.227E3,4E0,1.1E1,1.15E2],"tree_param":{"num_deleted":"0","num_feature":"8","num_nodes":"63","size_leaf_vector":"1"}},{"base_weights":[3.6759883E-2,-2.6014538E1,3.1796732E1,-4.109845E1,-1.20945215E1,1.798807E1,4.572443E1,-4.2892864E1,-3.471174E1,-1.2504876E1,-1.4992801E0,-5.4950128E0,1.9517132E1,4.3045643E1,5.508843E1,-4.3123165E1,-2.9673817E1,-3.2914253E1,-4.0217403E1,-1.3311102E1,-9.554514E0,1.0845134E0,-3.0030994E0,-6.906061E0,2.7478918E1,1.5962627E1,2.2524673E1,1.9308308E1,4.3830746E1,5.282685E1,7.575724E1,-2.1845105E0,-2.0821831E0,-1.5131626E0,-1.6557058E-2,-1.5698885E0,-1.9307445E0,-2.0651124E0,-1.5349301E0,-6.844446E-1,-6.113435E-1,-5.123142E-1,-3.5303304E-1,4.491136E-1,-5.5332214E-2,-1.7518385E-1,2.2651222E0,-6.1974704E-1,-1.1647605E-1,1.5738987E0,-8.126732E-1,6.187738E-1,8.9113855E-1,1.077534E0,1.3067172E0,7.936811E-1,1.3170532E0,2.1741574E0,2.4692247E0,-2.5367317E-1,2.6438653E0,3.4038773E0,4.277515E0],"categories":[],"categories_nodes":[],"categories_segments":[],"categories_sizes":[],"default_left":[0,0,0,0,0,0,0,0,0,0,0,0,0,0,0,0,0,0,0,0,0,0,0,0,0,0,0,0,0,0,0,0,0,0,0,0,0,0,0,0,0,0,0,0,0,0,0,0,0,0,0,0,0,0,0,0,0,0,0,0,0,0,0],"id":1,"left_children":[1,3,5,7,9,11,13,15,17,19,21,23,25,27,29,31,33,35,37,39,41,43,45,47,49,51,53,55,57,59,61,-1,-1,-1,-1,-1,-1,-1,-1,-1,-1,-1,-1,-1,-1,-1,-1,-1,-1,-1,-1,-1,-1,-1,-1,-1,-1,-1,-1,-1,-1,-1,-1],"loss_changes":[2.2974922E7,3.202569E6,2.405715E6,8.2413E4,3.4481E4,2.2578362E5,1.53877E5,1.6106E4,1.4619375E4,1.80435E4,1.1572677E3,1.8102979E4,6.2724E4,8.9503E4,6.05985E4,2.889E3,1.7368359E3,9.3345E3,2.7800625E3,2.289E3,2.7621094E3,1.913516E3,4.7046895E3,9.265553E3,3.309838E3,1.7848875E4,1.066625E4,3.374254E3,6.91E3,3.91725E3,4.25375E3,0E0,0E0,0E0,0E0,0E0,0E0,0E0,0E0,0E0,0E0,0E0,0E0,0E0,0E0,0E0,0E0,0E0,0E0,0E0,0E0,0E0,0E0,0E0,0E0,0E0,0E0,0E0,0E0,0E0,0E0,0E0,0E0],"parents":[2147483647,0,0,1,1,2,2,3,3,4,4,5,5,6,6,7,7,8,8,9,9,10,10,11,11,12,12,13,13,14,14,15,15,16,16,17,17,18,18,19,19,20,20,21,21,22,22,23,23,24,24,25,25,26,26,27,27,28,28,29,29,30,30],"right_children":[2,4,6,8,10,12,14,16,18,20,22,24,26,28,30,32,34,36,38,40,42,44,46,48,50,52,54,56,58,60,62,-1,-1,-1,-1,-1,-1,-1,-1,-1,-1,-1,-1,-1,-1,-1,-1,-1,-1,-1,-1,-1,-1,-1,-1,-1,-1,-1,-1,-1,-1,-1,-1],"split_conditions":[8.5E1,5.1E1,1.17E2,4.7233334E1,7.7E1,4.2E1,1.38E2,4.7E1,1E2,7.1166664E1,2E0,1.05E2,1.05E2,8.9E1,1.73E2,3.9E1,4.5566666E1,1.5E1,4.2E1,7E1,8.086667E1,7.1E1,1.09E2,1.03E2,5.7E1,9.8E1,1.09E2,4.6E1,1.3863333E2,6.6E1,1.94E2,-2.1845105E0,-2.0821831E0,-1.5131626E0,-1.6557058E-2,-1.5698885E0,-1.9307445E0,-2.0651124E0,-1.5349301E0,-6.844446E-1,-6.113435E-1,-5.123142E-1,-3.5303304E-1,4.491136E-1,-5.5332214E-2,-1.7518385E-1,2.2651222E0,-6.1974704E-1,-1.1647605E-1,1.5738987E0,-8.126732E-1,6.187738E-1,8.9113855E-1,1.077534E0,1.3067172E0,7.936811E-1,1.3170532E0,2.1741574E0,2.4692247E0,-2.5367317E-1,2.6438653E0,3.4038773E0,4.277515E0],"split_indices":[3,3,3,7,3,4,3,3,4,7,2,3,3,7,3,5,7,1,3,3,7,4,4,3,0,3,3,0,7,4,3,0,0,0,0,0,0,0,0,0,0,0,0,0,0,0,0,0,0,0,0,0,0,0,0,0,0,0,0,0,0,0,0],"split_type":[0,0,0,0,0,0,0,0,0,0,0,0,0,0,0,0,0,0,0,0,0,0,0,0,0,0,0,0,0,0,0,0,0,0,0,0,0,0,0,0,0,0,0,0,0,0,0,0,0,0,0,0,0,0,0,0,0,0,0,0,0,0,0],"sum_hessian":[2.7766E4,1.5254E4,1.2512E4,7.32E3,7.934E3,6.284E3,6.228E3,5.71E3,1.61E3,7.638E3,2.96E2,3.84E2,5.9E3,4.847E3,1.381E3,5.61E3,1E2,1.219E3,3.91E2,5.996E3,1.642E3,1.09E2,1.87E2,3.69E2,1.5E1,2.707E3,3.193E3,1.56E2,4.691E3,1.248E3,1.33E2,4.035E3,1.575E3,9.8E1,2E0,9.68E2,2.51E2,3.48E2,4.3E1,4.438E3,1.558E3,1.283E3,3.59E2,2.3E1,8.6E1,1.86E2,1E0,1.67E2,2.02E2,1.4E1,1E0,9.27E2,1.78E3,2.52E3,6.73E2,1.07E2,4.9E1,4.423E3,2.68E2,1E0,1.247E3,7.9E1,5.4E1],"tree_param":{"num_deleted":"0","num_feature":"8","num_nodes":"63","size_leaf_vector":"1"}},{"base_weights":[3.7083812E-2,-2.457134E1,3.0237968E1,-3.9223465E1,-1.1590706E1,1.70428E1,4.3443146E1,-4.0824356E1,-3.313911E1,-1.199746E1,-1.8729031E0,-5.0379395E0,1.846957E1,4.083013E1,5.222503E1,-4.0977146E1,-3.067557E1,-3.1158798E1,-3.906545E1,-2.4705006E1,-1.177093E1,-4.2486243E0,-3.3538964E-1,-6.286659E0,2.5600172E1,1.5016231E1,2.114696E1,1.7586893E1,4.1702663E1,5.0087883E1,6.8859344E1,-2.110619E0,-2.016532E0,-1.5537515E0,-7.2590697E-1,-1.8460884E0,-1.4819976E0,-1.9812672E0,-1.5056008E0,-1.2570504E0,8.4298134E-1,-6.3279E-1,-4.3277022E-1,-3.3442578E-1,-1.4226036E-1,-3.9930265E-2,1.1223012E0,-5.527605E-1,-1.24621354E-1,1.4846315E0,-7.923563E-1,5.9272426E-1,8.39663E-1,1.0250323E0,1.2673471E0,1.1377691E0,5.4338384E-1,2.0663345E0,2.4361553E0,1.1920621E0,2.5118158E0,3.5811474E0,2.516489E0],"categories":[],"categories_nodes":[],"categories_segments":[],"categories_sizes":[],"default_left":[0,0,0,0,0,0,0,0,0,0,0,0,0,0,0,0,0,0,0,0,0,0,0,0,0,0,0,0,0,0,0,0,0,0,0,0,0,0,0,0,0,0,0,0,0,0,0,0,0,0,0,0,0,0,0,0,0,0,0,0,0,0,0],"id":2,"left_children":[1,3,5,7,9,11,13,15,17,19,21,23,25,27,29,31,33,35,37,39,41,43,45,47,49,51,53,55,57,59,61,-1,-1,-1,-1,-1,-1,-1,-1,-1,-1,-1,-1,-1,-1,-1,-1,-1,-1,-1,-1,-1,-1,-1,-1,-1,-1,-1,-1,-1,-1,-1,-1],"loss_changes":[2.056201E7,2.89905E6,2.163726E6,6.8398E4,3.19355E4,1.9589112E5,1.40324E5,7.528E3,1.6351625E4,2.2047375E4,1.1893563E3,1.4622612E4,5.366025E4,9.63895E4,4.7032E4,2.752E3,1.1682031E2,8.770375E3,6.66625E2,2.870375E3,2.0914125E4,4.1926538E2,2.1179143E3,6.558291E3,3.0148633E3,1.41449375E4,8.40025E3,5.830133E3,1.01675E4,3.719E3,4.5373125E3,0E0,0E0,0E0,0E0,0E0,0E0,0E0,0E0,0E0,0E0,0E0,0E0,0E0,0E0,0E0,0E0,0E0,0E0,0E0,0E0,0E0,0E0,0E0,0E0,0E0,0E0,0E0,0E0,0E0,0E0,0E0,0E0],"parents":[2147483647,0,0,1,1,2,2,3,3,4,4,5,5,6,6,7,7,8,8,9,9,10,10,11,11,12,12,13,13,14,14,15,15,16,16,17,17,18,18,19,19,20,20,21,21,22,22,23,23,24,24,25,25,26,26,27,27,28,28,29,29,30,30],"right_children":[2,4,6,8,10,12,14,16,18,20,22,24,26,28,30,32,34,36,38,40,42,44,46,48,50,52,54,56,58,60,62,-1,-1,-1,-1,-1,-1,-1,-1,-1,-1,-1,-1,-1,-1,-1,-1,-1,-1,-1,-1,-1,-1,-1,-1,-1,-1,-1,-1,-1,-1,-1,-1],"split_conditions":[9.3E1,5E1,1.16E2,4.7233334E1,7.6E1,4.2E1,1.37E2,4.2E1,9.9E1,5.2E1,8E1,1.05E2,1.04E2,7.6E1,1.69E2,3.8E1,5.2E1,3.9E1,7.0166664E1,1.133E2,7.1166664E1,6.7E1,1.09E2,1.03E2,5.7E1,9.8E1,1.067E2,7.1E1,1.3993333E2,6.7E1,1.8E1,-2.110619E0,-2.016532E0,-1.5537515E0,-7.2590697E-1,-1.8460884E0,-1.4819976E0,-1.9812672E0,-1.5056008E0,-1.2570504E0,8.4298134E-1,-6.3279E-1,-4.3277022E-1,-3.3442578E-1,-1.4226036E-1,-3.9930265E-2,1.1223012E0,-5.527605E-1,-1.24621354E-1,1.4846315E0,-7.923563E-1,5.9272426E-1,8.39663E-1,1.0250323E0,1.2673471E0,1.1377691E0,5.4338384E-1,2.0663345E0,2.4361553E0,1.1920621E0,2.5118158E0,3.5811474E0,2.516489E0],"split_indices":[3,3,3,7,3,4,3,3,4,3,3,3,3,4,3,3,0,3,7,7,7,5,4,3,0,3,7,5,7,5,1,0,0,0,0,0,0,0,0,0,0,0,0,0,0,0,0,0,0,0,0,0,0,0,0,0,0,0,0,0,0,0,0],"split_type":[0,0,0,0,0,0,0,0,0,0,0,0,0,0,0,0,0,0,0,0,0,0,0,0,0,0,0,0,0,0,0,0,0,0,0,0,0,0,0,0,0,0,0,0,0,0,0,0,0,0,0,0,0,0,0,0,0,0,0,0,0,0,0],"sum_hessian":[2.7665E4,1.5244E4,1.2421E4,7.16E3,8.084E3,6.214E3,6.207E3,5.664E3,1.496E3,7.759E3,3.25E2,3.77E2,5.837E3,4.788E3,1.419E3,5.577E3,8.7E1,1.126E3,3.7E2,1.34E2,7.625E3,1.27E2,1.98E2,3.63E2,1.4E1,2.552E3,3.285E3,1.74E2,4.614E3,1.261E3,1.58E2,1.894E3,3.683E3,8.4E1,3E0,2.3E2,8.96E2,3.45E2,2.5E1,1.33E2,1E0,5.936E3,1.689E3,4.5E1,8.2E1,1.95E2,3E0,1.6E2,2.03E2,1.3E1,1E0,9.21E2,1.631E3,2.852E3,4.33E2,9.7E1,7.7E1,4.386E3,2.28E2,8E0,1.253E3,1.35E2,2.3E1],"tree_param":{"num_deleted":"0","num_feature":"8","num_nodes":"63","size_leaf_vector":"1"}},{"base_weights":[3.823295E-2,-2.3433895E1,2.87478E1,-3.7252174E1,-1.109624E1,1.6183064E1,4.127156E1,-3.874014E1,-3.1518162E1,-1.1457046E1,-1.7624924E0,-3.6232083E0,1.7596468E1,3.8830544E1,4.9735325E1,-3.8902298E1,-2.8569458E1,-2.953983E1,-1.8745736E0,-2.238822E1,-1.1271507E1,8.734574E0,-2.1171596E0,-7.065535E0,6.9755316E0,1.4397979E1,2.0355755E1,1.6750269E1,3.9592747E1,4.767382E1,6.6198524E1,-1.9753236E0,-1.8838023E0,-6.8048286E-1,-1.4544445E0,-1.3971878E0,-1.7857866E0,-1.1411687E0,8.2190686E-1,-6.0184425E-1,-4.2683813E-1,7.2788465E-1,-1.0918373E0,-9.3734585E-2,-5.8433104E-1,-5.2661854E-1,-5.4354798E-2,-3.4288532E-1,5.8990943E-1,5.5889344E-1,8.054616E-1,9.736587E-1,1.1807991E0,6.698E-1,1.1217915E0,1.9639094E0,2.272106E0,-2.77133E-1,2.3860662E0,3.420321E0,2.0736344E0],"categories":[],"categories_nodes":[],"categories_segments":[],"categories_sizes":[],"default_left":[0,0,0,0,0,0,0,0,0,0,0,0,0,0,0,0,0,0,0,0,0,0,0,0,0,0,0,0,0,0,0,0,0,0,0,0,0,0,0,0,0,0,0,0,0,0,0,0,0,0,0,0,0,0,0,0,0,0,0,0,0],"id":3,"left_children":[1,3,5,7,9,11,13,15,17,19,21,23,25,27,29,31,33,35,-1,37,39,41,43,45,47,49,51,53,55,57,59,-1,-1,-1,-1,-1,-1,-1,-1,-1,-1,-1,-1,-1,-1,-1,-1,-1,-1,-1,-1,-1,-1,-1,-1,-1,-1,-1,-1,-1,-1],"loss_changes":[1.861107E7,2.5901095E6,1.954188E6,5.9928E4,2.7018812E4,1.7371225E5,1.26596E5,8.266E3,1.64055E4,1.542525E4,1.1353823E3,1.5153799E4,5.0807E4,8.0674E4,4.39855E4,2.657E3,3.2678125E2,1.00223125E4,0E0,2.5377812E3,1.581125E4,2.0980967E3,6.5329504E2,6.475869E3,6.88563E3,1.46154375E4,8.477375E3,2.808004E3,6.8095E3,3.394E3,5.4609375E3,0E0,0E0,0E0,0E0,0E0,0E0,0E0,0E0,0E0,0E0,0E0,0E0,0E0,0E0,0E0,0E0,0E0,0E0,0E0,0E0,0E0,0E0,0E0,0E0,0E0,0E0,0E0,0E0,0E0,0E0],"parents":[2147483647,0,0,1,1,2,2,3,3,4,4,5,5,6,6,7,7,8,8,9,9,10,10,11,11,12,12,13,13,14,14,15,15,16,16,17,17,19,19,20,20,21,21,22,22,23,23,24,24,25,25,26,26,27,27,28,28,29,29,30,30],"right_children":[2,4,6,8,10,12,14,16,18,20,22,24,26,28,30,32,34,36,-1,38,40,42,44,46,48,50,52,54,56,58,60,-1,-1,-1,-1,-1,-1,-1,-1,-1,-1,-1,-1,-1,-1,-1,-1,-1,-1,-1,-1,-1,-1,-1,-1,-1,-1,-1,-1,-1,-1],"split_conditions":[9.3E1,5E1,1.16E2,4.7233334E1,7.7E1,5.1E1,1.38E2,4.2E1,9.9E1,6.4E1,6E0,1.04E2,1.06E2,8.9E1,1.72E2,3.8266666E1,3.6E1,1.5E1,-1.8745736E0,1.133E2,7.1166664E1,8.9E1,1.08E2,5.7E1,2E0,9.8E1,1.09E2,1.35E2,1.3993333E2,6.6E1,2.1E1,-1.9753236E0,-1.8838023E0,-6.8048286E-1,-1.4544445E0,-1.3971878E0,-1.7857866E0,-1.1411687E0,8.2190686E-1,-6.0184425E-1,-4.2683813E-1,7.2788465E-1,-1.0918373E0,-9.3734585E-2,-5.8433104E-1,-5.2661854E-1,-5.4354798E-2,-3.4288532E-1,5.8990943E-1,5.5889344E-1,8.054616E-1,9.736587E-1,1.1807991E0,6.698E-1,1.1217915E0,1.9639094E0,2.272106E0,-2.77133E-1,2.3860662E0,3.420321E0,2.0736344E0],"split_indices":[3,3,3,7,3,4,3,3,4,3,1,3,3,7,3,7,4,1,0,7,7,3,4,7,1,3,3,3,7,4,1,0,0,0,0,0,0,0,0,0,0,0,0,0,0,0,0,0,0,0,0,0,0,0,0,0,0,0,0,0,0],"split_type":[0,0,0,0,0,0,0,0,0,0,0,0,0,0,0,0,0,0,0,0,0,0,0,0,0,0,0,0,0,0,0,0,0,0,0,0,0,0,0,0,0,0,0,0,0,0,0,0,0,0,0,0,0,0,0,0,0,0,0,0,0],"sum_hessian":[2.7616E4,1.5194E4,1.2422E4,7.166E3,8.028E3,6.202E3,6.22E3,5.685E3,1.481E3,7.729E3,2.99E2,4.13E2,5.789E3,4.832E3,1.388E3,5.593E3,9.2E1,1.117E3,3.64E2,1.27E2,7.602E3,9E0,2.9E2,3.12E2,1.01E2,2.684E3,3.105E3,1.62E2,4.67E3,1.237E3,1.51E2,3.726E3,1.867E3,4E0,8.8E1,8.92E2,2.25E2,1.26E2,1E0,5.937E3,1.665E3,8E0,1E0,2.84E2,6E0,1.97E2,1.15E2,2.6E1,7.5E1,9.34E2,1.75E3,2.449E3,6.56E2,1.04E2,5.8E1,4.439E3,2.31E2,1E0,1.236E3,1.37E2,1.4E1],"tree_param":{"num_deleted":"0","num_feature":"8","num_nodes":"61","size_leaf_vector":"1"}},{"base_weights":[3.2073166E-2,-2.2226149E1,2.7295204E1,-3.553578E1,-1.0490076E1,1.5362267E1,3.9192993E1,-3.697238E1,-3.0773094E1,-1.0832325E1,-1.3341368E0,-5.0805597E0,1.6744795E1,3.6993576E1,4.6797024E1,-3.711603E1,-2.6714375E1,-2.9326096E1,-3.5486145E1,-2.2399996E1,-1.0654341E1,-1.1488553E0,-9.399989E-1,-6.8690734E0,1.1808691E1,1.3748238E1,1.9375679E1,1.7316664E1,3.7661095E1,4.5071434E1,6.0961803E1,-1.9244503E0,-1.8361381E0,-1.0483493E0,-1.4493463E0,-1.4061354E0,-1.669747E0,-1.7997923E0,-1.3363504E0,1.524363E-1,-1.1663908E0,-5.7092243E-1,-3.997351E-1,5.175921E-2,-1.2252833E-1,-6.239468E-1,-1.8130587E-1,8.8589686E-1,-4.6004382E-1,5.344547E-1,7.673263E-1,9.252186E-1,1.1253948E0,8.898749E-1,-6.8897384E-1,1.865702E0,2.1572719E0,1.1391591E0,2.2598732E0,1.4977735E0,3.1616356E0],"categories":[],"categories_nodes":[],"categories_segments":[],"categories_sizes":[],"default_left":[0,0,0,0,0,0,0,0,0,0,0,0,0,0,0,0,0,0,0,0,0,0,0,0,0,0,0,0,0,0,0,0,0,0,0,0,0,0,0,0,0,0,0,0,0,0,0,0,0,0,0,0,0,0,0,0,0,0,0,0,0],"id":4,"left_children":[1,3,5,7,9,11,13,15,17,19,21,23,25,27,29,31,33,35,37,39,41,43,-1,45,47,49,51,53,55,57,59,-1,-1,-1,-1,-1,-1,-1,-1,-1,-1,-1,-1,-1,-1,-1,-1,-1,-1,-1,-1,-1,-1,-1,-1,-1,-1,-1,-1,-1,-1],"loss_changes":[1.673998E7,2.371879E6,1.759753E6,4.755E4,2.5280125E4,1.7508812E5,1.02094E5,7.057E3,1.0246E4,1.57813125E4,9.2334235E2,1.1952331E4,4.5458625E4,6.2657E4,3.120325E4,1.4935E3,4.240664E2,5.289E3,7.5234375E2,2.8336992E3,1.54859375E4,8.270034E2,0E0,6.431295E3,4.880748E3,1.31106875E4,8.0055E3,2.6375703E3,7.262E3,2.459E3,8.5268125E3,0E0,0E0,0E0,0E0,0E0,0E0,0E0,0E0,0E0,0E0,0E0,0E0,0E0,0E0,0E0,0E0,0E0,0E0,0E0,0E0,0E0,0E0,0E0,0E0,0E0,0E0,0E0,0E0,0E0,0E0],"parents":[2147483647,0,0,1,1,2,2,3,3,4,4,5,5,6,6,7,7,8,8,9,9,10,10,11,11,12,12,13,13,14,14,15,15,16,16,17,17,18,18,19,19,20,20,21,21,23,23,24,24,25,25,26,26,27,27,28,28,29,29,30,30],"right_children":[2,4,6,8,10,12,14,16,18,20,22,24,26,28,30,32,34,36,38,40,42,44,-1,46,48,50,52,54,56,58,60,-1,-1,-1,-1,-1,-1,-1,-1,-1,-1,-1,-1,-1,-1,-1,-1,-1,-1,-1,-1,-1,-1,-1,-1,-1,-1,-1,-1,-1,-1],"split_conditions":[9.3E1,5E1,1.16E2,4.4133335E1,7.7E1,5.1E1,1.38E2,4.2E1,9.9E1,5.1E1,8.9E1,1.05E2,1.06E2,8.9E1,1.72E2,3.7033333E1,3.5E1,1.5E1,6.92E1,3.9E1,7.1166664E1,2E0,-9.399989E-1,2E0,4.9E1,9.8E1,1.09E2,1.17E2,1.3863333E2,6.6E1,1E0,-1.9244503E0,-1.8361381E0,-1.0483493E0,-1.4493463E0,-1.4061354E0,-1.669747E0,-1.7997923E0,-1.3363504E0,1.524363E-1,-1.1663908E0,-5.7092243E-1,-3.997351E-1,5.175921E-2,-1.2252833E-1,-6.239468E-1,-1.8130587E-1,8.8589686E-1,-4.6004382E-1,5.344547E-1,7.673263E-1,9.252186E-1,1.1253948E0,8.898749E-1,-6.8897384E-1,1.865702E0,2.1572719E0,1.1391591E0,2.2598732E0,1.4977735E0,3.1616356E0],"split_indices":[3,3,3,7,3,4,3,3,4,3,3,3,3,7,3,7,0,1,7,4,7,2,0,2,5,3,3,4,7,5,2,0,0,0,0,0,0,0,0,0,0,0,0,0,0,0,0,0,0,0,0,0,0,0,0,0,0,0,0,0,0],"split_type":[0,0,0,0,0,0,0,0,0,0,0,0,0,0,0,0,0,0,0,0,0,0,0,0,0,0,0,0,0,0,0,0,0,0,0,0,0,0,0,0,0,0,0,0,0,0,0,0,0,0,0,0,0,0,0,0,0,0,0,0,0],"sum_hessian":[2.7584E4,1.5186E4,1.2398E4,7.115E3,8.071E3,6.191E3,6.207E3,5.461E3,1.654E3,7.78E3,2.91E2,3.92E2,5.799E3,4.819E3,1.388E3,5.383E3,7.8E1,1.271E3,3.83E2,1.16E2,7.664E3,2.89E2,2E0,3.55E2,3.7E1,2.714E3,3.085E3,1.59E2,4.66E3,1.241E3,1.47E2,1.177E3,4.206E3,2.5E1,5.3E1,9.87E2,2.84E2,3.59E2,2.4E1,4E0,1.12E2,5.951E3,1.713E3,1.08E2,1.81E2,1.29E2,2.26E2,2.9E1,8E0,9.34E2,1.78E3,2.419E3,6.66E2,1.57E2,2E0,4.39E3,2.7E2,8E0,1.233E3,1.1E1,1.36E2],"tree_param":{"num_deleted":"0","num_feature":"8","num_nodes":"61","size_leaf_vector":"1"}},{"base_weights":[-4.9564518E-2,-2.116905E1,2.589433E1,-3.3423073E1,-9.853797E0,1.4495991E1,3.724648E1,-3.506578E1,-2.839407E1,-1.017579E1,-1.5192757E0,-5.93375E0,1.5842638E1,3.5122158E1,4.4608364E1,-3.5218624E1,-2.4860525E1,-2.7049738E1,-3.2942707E1,-1.0851029E1,-7.7410865E0,-1.3447626E0,-9.086655E-1,-6.9278455E0,1.904912E1,1.293441E1,1.8306013E1,1.6503275E1,3.575861E1,4.2987316E1,5.951815E1,-1.8090622E0,-1.7351112E0,-1.2622384E0,1.85396E-1,-1.4574976E0,-1.2148308E0,-1.6852814E0,-1.2050868E0,-5.617144E-1,-4.886391E-1,-4.2440772E-1,-2.8070325E-1,4.775339E-1,-8.213722E-2,-3.000513E-1,-1.2937249E0,1.1279849E0,-7.52474E-1,5.25515E-1,7.440991E-1,8.7243426E-1,1.0331138E0,9.4613904E-1,4.1936636E-1,1.771579E0,2.0350237E0,1.4881936E0,2.166488E0,3.213939E0,2.4337134E0],"categories":[],"categories_nodes":[],"categories_segments":[],"categories_sizes":[],"default_left":[0,0,0,0,0,0,0,0,0,0,0,0,0,0,0,0,0,0,0,0,0,0,0,0,0,0,0,0,0,0,0,0,0,0,0,0,0,0,0,0,0,0,0,0,0,0,0,0,0,0,0,0,0,0,0,0,0,0,0,0,0],"id":5,"left_children":[1,3,5,7,9,11,13,15,17,19,21,23,25,27,29,31,33,35,37,39,41,43,-1,45,47,49,51,53,55,57,59,-1,-1,-1,-1,-1,-1,-1,-1,-1,-1,-1,-1,-1,-1,-1,-1,-1,-1,-1,-1,-1,-1,-1,-1,-1,-1,-1,-1,-1,-1],"loss_changes":[1.520154E7,2.1202965E6,1.610436E6,5.96575E4,2.1327688E4,1.7105138E5,9.5974E4,7.751E3,1.019525E4,1.2504125E4,8.387465E2,9.69358E3,4.1529875E4,5.6823E4,3.11095E4,1.451E3,1.026668E3,7.4156875E3,1.9463125E3,2.366375E3,2.599664E3,9.734491E2,0E0,6.3595312E3,2.1350986E3,1.2482031E4,6.01075E3,3.022414E3,6.128E3,4.41575E3,3.7888438E3,0E0,0E0,0E0,0E0,0E0,0E0,0E0,0E0,0E0,0E0,0E0,0E0,0E0,0E0,0E0,0E0,0E0,0E0,0E0,0E0,0E0,0E0,0E0,0E0,0E0,0E0,0E0,0E0,0E0,0E0],"parents":[2147483647,0,0,1,1,2,2,3,3,4,4,5,5,6,6,7,7,8,8,9,9,10,10,11,11,12,12,13,13,14,14,15,15,16,16,17,17,18,18,19,19,20,20,21,21,23,23,24,24,25,25,26,26,27,27,28,28,29,29,30,30],"right_children":[2,4,6,8,10,12,14,16,18,20,22,24,26,28,30,32,34,36,38,40,42,44,-1,46,48,50,52,54,56,58,60,-1,-1,-1,-1,-1,-1,-1,-1,-1,-1,-1,-1,-1,-1,-1,-1,-1,-1,-1,-1,-1,-1,-1,-1,-1,-1,-1,-1,-1,-1],"split_conditions":[9.3E1,5.1E1,1.17E2,4.4133335E1,7.7E1,4.2E1,1.37E2,4.2E1,1E2,7.1166664E1,8.9E1,1.05E2,1.05E2,9.3166664E1,1.73E2,3.8E1,5.2E1,5.3933334E1,7.0166664E1,7E1,8.04E1,4.2E1,-9.086655E-1,4E1,5.7E1,1.018E2,1.08E2,7.2E1,1.3863333E2,9.7E1,1.3E1,-1.8090622E0,-1.7351112E0,-1.2622384E0,1.85396E-1,-1.4574976E0,-1.2148308E0,-1.6852814E0,-1.2050868E0,-5.617144E-1,-4.886391E-1,-4.2440772E-1,-2.8070325E-1,4.775339E-1,-8.213722E-2,-3.000513E-1,-1.2937249E0,1.1279849E0,-7.52474E-1,5.25515E-1,7.440991E-1,8.7243426E-1,1.0331138E0,9.4613904E-1,4.1936636E-1,1.771579E0,2.0350237E0,1.4881936E0,2.166488E0,3.213939E0,2.4337134E0],"split_indices":[3,3,3,7,3,4,3,3,4,7,3,3,3,7,3,3,0,7,7,3,7,4,0,4,0,7,3,6,7,4,1,0,0,0,0,0,0,0,0,0,0,0,0,0,0,0,0,0,0,0,0,0,0,0,0,0,0,0,0,0,0],"split_type":[0,0,0,0,0,0,0,0,0,0,0,0,0,0,0,0,0,0,0,0,0,0,0,0,0,0,0,0,0,0,0,0,0,0,0,0,0,0,0,0,0,0,0,0,0,0,0,0,0,0,0,0,0,0,0,0,0,0,0,0,0],"sum_hessian":[2.7742E4,1.5293E4,1.2449E4,7.341E3,7.952E3,6.213E3,6.236E3,5.529E3,1.812E3,7.656E3,2.96E2,3.84E2,5.829E3,4.844E3,1.392E3,5.445E3,8.4E1,1.404E3,4.08E2,5.991E3,1.665E3,2.94E2,2E0,3.7E2,1.4E1,2.676E3,3.153E3,1.61E2,4.683E3,1.259E3,1.33E2,1.877E3,3.568E3,8.3E1,1E0,7.91E2,6.13E2,3.73E2,3.5E1,4.413E3,1.578E3,1.23E3,4.35E2,7E0,2.87E2,3.54E2,1.6E1,1.3E1,1E0,1.195E3,1.481E3,2.318E3,8.35E2,1.23E2,3.8E1,4.4E3,2.83E2,3.4E1,1.225E3,8.9E1,4.4E1],"tree_param":{"num_deleted":"0","num_feature":"8","num_nodes":"61","size_leaf_vector":"1"}},{"base_weights":[3.5738803E-2,-2.0043282E1,2.4695553E1,-3.1971045E1,-9.4488945E0,1.3956045E1,3.5399776E1,-3.3095203E1,-2.6558973E1,-1.0348208E1,-6.623767E0,-3.8866494E0,1.5106566E1,3.3368732E1,4.2572002E1,-3.3223976E1,-2.3672947E1,-2.4829178E1,-3.1684387E1,-1.8594986E1,-1.0250565E1,-1.9957083E1,-6.289577E0,-5.011351E0,2.3365303E1,1.2388145E1,1.7467896E1,1.3886383E1,3.4034676E1,4.078158E1,5.6958565E1,-1.6944729E0,-1.6010233E0,-1.2014292E0,-3.0898514E-1,-1.0541533E0,-1.407754E0,-1.610027E0,-1.2128206E0,-2.3614681E-1,-9.9108475E-1,-5.1502967E-1,8.376964E-2,-1.0569661E0,8.6064607E-1,-3.4908748E-1,-6.852394E-2,-2.0842758E-1,-1.2771394E0,6.953076E-1,2.8283265E0,5.105838E-1,7.091319E-1,8.4499705E-1,1.0815358E0,8.7185204E-1,4.738163E-1,1.6857802E0,1.9949626E0,-3.6390647E-1,2.041362E0,2.3716629E0,3.154601E0],"categories":[],"categories_nodes":[],"categories_segments":[],"categories_sizes":[],"default_left":[0,0,0,0,0,0,0,0,0,0,0,0,0,0,0,0,0,0,0,0,0,0,0,0,0,0,0,0,0,0,0,0,0,0,0,0,0,0,0,0,0,0,0,0,0,0,0,0,0,0,0,0,0,0,0,0,0,0,0,0,0,0,0],"id":6,"left_children":[1,3,5,7,9,11,13,15,17,19,21,23,25,27,29,31,33,35,37,39,41,43,45,47,49,51,53,55,57,59,61,-1,-1,-1,-1,-1,-1,-1,-1,-1,-1,-1,-1,-1,-1,-1,-1,-1,-1,-1,-1,-1,-1,-1,-1,-1,-1,-1,-1,-1,-1,-1,-1],"loss_changes":[1.3613018E7,1.9146685E6,1.4179735E6,4.2488E4,2.03255E4,1.26534125E5,8.859E4,6.37E3,1.012725E4,4.7109375E3,8.523305E3,1.1580311E4,3.6937125E4,6.20625E4,3.2708E4,3.573E3,3.678789E2,1.0931125E4,3.96E2,1.0975703E3,3.607875E3,2.4292266E3,6.4426562E3,6.122924E3,3.9242085E3,1.0377031E4,6.9520625E3,2.3557969E3,7.3745E3,2.959125E3,5.6539375E3,0E0,0E0,0E0,0E0,0E0,0E0,0E0,0E0,0E0,0E0,0E0,0E0,0E0,0E0,0E0,0E0,0E0,0E0,0E0,0E0,0E0,0E0,0E0,0E0,0E0,0E0,0E0,0E0,0E0,0E0,0E0,0E0],"parents":[2147483647,0,0,1,1,2,2,3,3,4,4,5,5,6,6,7,7,8,8,9,9,10,10,11,11,12,12,13,13,14,14,15,15,16,16,17,17,18,18,19,19,20,20,21,21,22,22,23,23,24,24,25,25,26,26,27,27,28,28,29,29,30,30],"right_children":[2,4,6,8,10,12,14,16,18,20,22,24,26,28,30,32,34,36,38,40,42,44,46,48,50,52,54,56,58,60,62,-1,-1,-1,-1,-1,-1,-1,-1,-1,-1,-1,-1,-1,-1,-1,-1,-1,-1,-1,-1,-1,-1,-1,-1,-1,-1,-1,-1,-1,-1,-1,-1],"split_conditions":[8.5E1,5E1,1.16E2,4.96E1,7.1166664E1,4.2E1,1.38E2,4.7E1,9.9E1,5.2E1,5.1E1,1.05E2,1.06E2,8.9E1,1.72E2,3.8266666E1,5.2E1,4E1,6.92E1,3.9E1,8.1E1,1.133E2,7.7E1,4E1,6.0033333E1,1.018E2,1.072E2,7.1E1,1.3993333E2,6.6E1,1.3726666E2,-1.6944729E0,-1.6010233E0,-1.2014292E0,-3.0898514E-1,-1.0541533E0,-1.407754E0,-1.610027E0,-1.2128206E0,-2.3614681E-1,-9.9108475E-1,-5.1502967E-1,8.376964E-2,-1.0569661E0,8.6064607E-1,-3.4908748E-1,-6.852394E-2,-2.0842758E-1,-1.2771394E0,6.953076E-1,2.8283265E0,5.105838E-1,7.091319E-1,8.4499705E-1,1.0815358E0,8.7185204E-1,4.738163E-1,1.6857802E0,1.9949626E0,-3.6390647E-1,2.041362E0,2.3716629E0,3.154601E0],"split_indices":[3,3,3,7,7,4,3,3,4,3,3,3,3,7,3,7,0,5,7,4,3,7,3,4,7,7,7,5,7,4,7,0,0,0,0,0,0,0,0,0,0,0,0,0,0,0,0,0,0,0,0,0,0,0,0,0,0,0,0,0,0,0,0],"split_type":[0,0,0,0,0,0,0,0,0,0,0,0,0,0,0,0,0,0,0,0,0,0,0,0,0,0,0,0,0,0,0,0,0,0,0,0,0,0,0,0,0,0,0,0,0,0,0,0,0,0,0,0,0,0,0,0,0,0,0,0,0,0,0],"sum_hessian":[2.7491E4,1.5153E4,1.2338E4,7.127E3,8.026E3,6.16E3,6.178E3,5.897E3,1.23E3,6.086E3,1.94E3,3.73E2,5.787E3,4.819E3,1.359E3,5.815E3,8.2E1,9.24E2,3.06E2,6.9E1,6.017E3,4.6E1,1.894E3,3.59E2,1.4E1,2.693E3,3.094E3,1.6E2,4.659E3,1.212E3,1.47E2,3.727E3,2.088E3,8E1,2E0,4.38E2,4.86E2,2.83E2,2.3E1,6E0,6.3E1,5.992E3,2.5E1,4.5E1,1E0,1.66E3,2.34E2,3.46E2,1.3E1,1.2E1,2E0,1.22E3,1.473E3,2.727E3,3.67E2,8.7E1,7.3E1,4.425E3,2.34E2,1E0,1.211E3,6.1E1,8.6E1],"tree_param":{"num_deleted":"0","num_feature":"8","num_nodes":"63","size_leaf_vector":"1"}},{"base_weights":[-3.862529E-2,-1.908641E1,2.3300585E1,-3.0442923E1,-9.070452E0,1.3151769E1,3.3615234E1,-3.1739893E1,-2.6131847E1,-1.0388825E1,-7.154425E0,-3.7967744E0,1.4382508E1,3.1638401E1,4.038684E1,-1.6365473E0,-3.1225107E1,-2.4691153E1,-3.0421974E1,-1.8857168E1,-1.0042762E1,-7.7489414E0,-1.5513301E0,-5.7552724E0,1.17055E1,1.1792465E1,1.6619808E1,1.541322E1,3.2230377E1,3.896743E1,6.0928745E1,-1.5657071E0,-1.2492533E0,-1.1777413E0,-1.442223E0,-1.544691E0,-1.1692029E0,-3.615315E-1,-1.0026357E0,-5.058271E-1,-1.62742E-1,-4.1029403E-1,-1.7452611E-1,-6.967061E-2,-8.834125E-1,-5.825798E-1,-1.1386397E-1,9.6772873E-1,-5.188489E-1,4.5139852E-1,6.6273445E-1,7.997913E-1,1.0322036E0,9.038046E-1,3.5640448E-1,1.5958785E0,1.8483654E0,1.9610255E0,1.3252848E0,1.6898422E0,3.09092E0],"categories":[],"categories_nodes":[],"categories_segments":[],"categories_sizes":[],"default_left":[0,0,0,0,0,0,0,0,0,0,0,0,0,0,0,0,0,0,0,0,0,0,0,0,0,0,0,0,0,0,0,0,0,0,0,0,0,0,0,0,0,0,0,0,0,0,0,0,0,0,0,0,0,0,0,0,0,0,0,0,0],"id":7,"left_children":[1,3,5,7,9,11,13,15,17,19,21,23,25,27,29,-1,31,33,35,37,39,41,43,45,47,49,51,53,55,57,59,-1,-1,-1,-1,-1,-1,-1,-1,-1,-1,-1,-1,-1,-1,-1,-1,-1,-1,-1,-1,-1,-1,-1,-1,-1,-1,-1,-1,-1,-1],"loss_changes":[1.2294759E7,1.7318535E6,1.3005395E6,3.90705E4,2.0368875E4,1.30758625E5,8.1223E4,1.7745E3,9.48425E3,1.3854E4,1.0987375E4,1.2970867E4,3.3656625E4,4.53665E4,3.81255E4,0E0,1.23375E3,5.1963125E3,6.4575E2,2.4543203E3,2.2737812E3,5.7796875E3,7.8473895E2,7.725251E3,8.308547E3,1.0839031E4,7.5344375E3,3.6217305E3,5.6455E3,3.066625E3,3.4875E1,0E0,0E0,0E0,0E0,0E0,0E0,0E0,0E0,0E0,0E0,0E0,0E0,0E0,0E0,0E0,0E0,0E0,0E0,0E0,0E0,0E0,0E0,0E0,0E0,0E0,0E0,0E0,0E0,0E0,0E0],"parents":[2147483647,0,0,1,1,2,2,3,3,4,4,5,5,6,6,7,7,8,8,9,9,10,10,11,11,12,12,13,13,14,14,16,16,17,17,18,18,19,19,20,20,21,21,22,22,23,23,24,24,25,25,26,26,27,27,28,28,29,29,30,30],"right_children":[2,4,6,8,10,12,14,16,18,20,22,24,26,28,30,-1,32,34,36,38,40,42,44,46,48,50,52,54,56,58,60,-1,-1,-1,-1,-1,-1,-1,-1,-1,-1,-1,-1,-1,-1,-1,-1,-1,-1,-1,-1,-1,-1,-1,-1,-1,-1,-1,-1,-1,-1],"split_conditions":[9.3E1,4.9E1,1.16E2,4.4133335E1,7E1,5.1E1,1.37E2,3.8E1,7.2E1,5.1E1,7.6E1,1.05E2,1.05E2,7.6E1,1.92E2,-1.6365473E0,4.2E1,1.5E1,7.0166664E1,3.9E1,1.02E2,8.086667E1,8.7E1,2E0,4.9E1,9.8E1,1.1E2,7.2E1,1.3863333E2,1.61E2,2E0,-1.5657071E0,-1.2492533E0,-1.1777413E0,-1.442223E0,-1.544691E0,-1.1692029E0,-3.615315E-1,-1.0026357E0,-5.058271E-1,-1.62742E-1,-4.1029403E-1,-1.7452611E-1,-6.967061E-2,-8.834125E-1,-5.825798E-1,-1.1386397E-1,9.6772873E-1,-5.188489E-1,4.5139852E-1,6.6273445E-1,7.997913E-1,1.0322036E0,9.038046E-1,3.5640448E-1,1.5958785E0,1.8483654E0,1.9610255E0,1.3252848E0,1.6898422E0,3.09092E0],"split_indices":[3,3,3,7,3,4,3,3,4,3,3,3,3,4,3,0,3,1,7,4,5,7,3,2,5,3,3,6,7,6,0,0,0,0,0,0,0,0,0,0,0,0,0,0,0,0,0,0,0,0,0,0,0,0,0,0,0,0,0,0,0],"split_type":[0,0,0,0,0,0,0,0,0,0,0,0,0,0,0,0,0,0,0,0,0,0,0,0,0,0,0,0,0,0,0,0,0,0,0,0,0,0,0,0,0,0,0,0,0,0,0,0,0,0,0,0,0,0,0,0,0,0,0,0,0],"sum_hessian":[2.7654E4,1.5227E4,1.2427E4,7.135E3,8.092E3,6.265E3,6.162E3,5.48E3,1.655E3,4.791E3,3.301E3,4.24E2,5.841E3,4.774E3,1.388E3,1.852E3,3.628E3,1.244E3,4.11E2,1.86E2,4.605E3,2.984E3,3.17E2,3.77E2,4.7E1,2.71E3,3.131E3,1.69E2,4.605E3,1.301E3,8.7E1,3.573E3,5.5E1,9.82E2,2.62E2,3.82E2,2.9E1,1.8E1,1.68E2,4.555E3,5E1,2.694E3,2.9E2,3.15E2,2E0,1.39E2,2.38E2,3.5E1,1.2E1,9.4E2,1.77E3,2.715E3,4.16E2,1.27E2,4.2E1,4.327E3,2.78E2,1.273E3,2.8E1,4E0,8.3E1],"tree_param":{"num_deleted":"0","num_feature":"8","num_nodes":"61","size_leaf_vector":"1"}},{"base_weights":[8.801388E-2,-1.802512E1,2.2166616E1,-2.8624065E1,-8.388051E0,1.2409439E1,3.1935919E1,-2.9957062E1,-2.3842602E1,-8.691178E0,-1.4082212E0,-4.1421447E0,1.3619088E1,3.0111103E1,3.818992E1,-3.0118721E1,-2.0497746E1,-2.244393E1,-2.8230854E1,-9.35812E0,-6.737392E0,-1.2614895E0,-8.539653E-1,-7.1197424E0,5.000247E0,1.0869999E1,1.5732069E1,1.4682863E1,3.0644642E1,3.7288532E1,5.95714E1,-1.5293965E0,-1.4467152E0,-1.0557569E0,9.84734E-1,1.2236346E0,-1.1290808E0,-1.4463774E0,-1.0035323E0,-4.8128638E-1,-4.2208534E-1,-3.7507278E-1,-2.4239369E-1,-1.1043381E-1,8.879419E-2,-3.122486E-1,-1.1702374E0,-3.4897935E-1,4.9426207E-1,4.2699775E-1,6.142875E-1,7.488337E-1,9.356865E-1,9.171993E-1,1.2860055E-1,1.5167567E0,1.7780619E0,1.8263378E0,2.1983626E0,3.0660377E0,1.4906863E0],"categories":[],"categories_nodes":[],"categories_segments":[],"categories_sizes":[],"default_left":[0,0,0,0,0,0,0,0,0,0,0,0,0,0,0,0,0,0,0,0,0,0,0,0,0,0,0,0,0,0,0,0,0,0,0,0,0,0,0,0,0,0,0,0,0,0,0,0,0,0,0,0,0,0,0,0,0,0,0,0,0],"id":8,"left_children":[1,3,5,7,9,11,13,15,17,19,21,23,25,27,29,31,33,35,37,39,41,43,-1,45,47,49,51,53,55,57,59,-1,-1,-1,-1,-1,-1,-1,-1,-1,-1,-1,-1,-1,-1,-1,-1,-1,-1,-1,-1,-1,-1,-1,-1,-1,-1,-1,-1,-1,-1],"loss_changes":[1.1045188E7,1.54947E6,1.186061E6,4.53355E4,1.6803938E4,1.2477106E5,6.9824E4,8.0165E3,9.064E3,9.8623125E3,7.418704E2,1.1605105E4,3.3548875E4,3.92185E4,2.478025E4,2.1985E3,2.8476758E3,8.323625E3,1.568375E3,1.3107188E3,2.7673203E3,9.533187E2,0E0,4.4266885E3,6.2137446E3,8.22775E3,7.107375E3,7.180129E3,6.0075E3,5.247125E3,1.0349062E3,0E0,0E0,0E0,0E0,0E0,0E0,0E0,0E0,0E0,0E0,0E0,0E0,0E0,0E0,0E0,0E0,0E0,0E0,0E0,0E0,0E0,0E0,0E0,0E0,0E0,0E0,0E0,0E0,0E0,0E0],"parents":[2147483647,0,0,1,1,2,2,3,3,4,4,5,5,6,6,7,7,8,8,9,9,10,10,11,11,12,12,13,13,14,14,15,15,16,16,17,17,18,18,19,19,20,20,21,21,23,23,24,24,25,25,26,26,27,27,28,28,29,29,30,30],"right_children":[2,4,6,8,10,12,14,16,18,20,22,24,26,28,30,32,34,36,38,40,42,44,-1,46,48,50,52,54,56,58,60,-1,-1,-1,-1,-1,-1,-1,-1,-1,-1,-1,-1,-1,-1,-1,-1,-1,-1,-1,-1,-1,-1,-1,-1,-1,-1,-1,-1,-1,-1],"split_conditions":[9.3E1,5.1E1,1.16E2,4.7233334E1,7.6E1,5.1E1,1.37E2,4.7E1,1E2,7.07E1,8.9E1,1.04E2,1.04E2,7.6E1,1.94E2,3.9E1,4.5566666E1,2.3E1,7.0166664E1,7E1,7.87E1,8.3E1,-8.539653E-1,4E1,2E0,9.8E1,1.09E2,7.2E1,1.3863333E2,1.63E2,1.64E2,-1.5293965E0,-1.4467152E0,-1.0557569E0,9.84734E-1,1.2236346E0,-1.1290808E0,-1.4463774E0,-1.0035323E0,-4.8128638E-1,-4.2208534E-1,-3.7507278E-1,-2.4239369E-1,-1.1043381E-1,8.879419E-2,-3.122486E-1,-1.1702374E0,-3.4897935E-1,4.9426207E-1,4.2699775E-1,6.142875E-1,7.488337E-1,9.356865E-1,9.171993E-1,1.2860055E-1,1.5167567E0,1.7780619E0,1.8263378E0,2.1983626E0,3.0660377E0,1.4906863E0],"split_indices":[3,3,3,7,3,4,3,3,4,7,3,3,3,4,3,5,7,3,7,4,7,3,0,4,1,3,3,6,7,3,6,0,0,0,0,0,0,0,0,0,0,0,0,0,0,0,0,0,0,0,0,0,0,0,0,0,0,0,0,0,0],"split_type":[0,0,0,0,0,0,0,0,0,0,0,0,0,0,0,0,0,0,0,0,0,0,0,0,0,0,0,0,0,0,0,0,0,0,0,0,0,0,0,0,0,0,0,0,0,0,0,0,0,0,0,0,0,0,0,0,0,0,0,0,0],"sum_hessian":[2.7617E4,1.5171E4,1.2446E4,7.224E3,7.947E3,6.228E3,6.218E3,5.645E3,1.579E3,7.616E3,3.31E2,4.24E2,5.804E3,4.818E3,1.4E3,5.548E3,9.7E1,1.202E3,3.77E2,5.675E3,1.941E3,3.29E2,2E0,3.2E2,1.04E2,2.525E3,3.279E3,1.62E2,4.656E3,1.346E3,5.4E1,3.956E3,1.592E3,9.6E1,1E0,3E0,1.199E3,3.45E2,3.2E1,4.385E3,1.29E3,1.38E3,5.61E2,2.51E2,7.8E1,3.05E2,1.5E1,3E1,7.4E1,9.57E2,1.568E3,2.621E3,6.58E2,1.24E2,3.8E1,4.387E3,2.69E2,1.214E3,1.32E2,5E1,4E0],"tree_param":{"num_deleted":"0","num_feature":"8","num_nodes":"61","size_leaf_vector":"1"}},{"base_weights":[-3.3655673E-2,-1.7300934E1,2.1041624E1,-2.7551197E1,-8.272154E0,1.1836539E1,3.0332603E1,-2.861087E1,-2.3473867E1,-8.536444E0,-1.5865719E0,-3.5117178E0,1.2926866E1,2.85956E1,3.63825E1,-3.0436863E1,-2.8363295E1,-2.1653893E1,-2.660824E1,-1.671503E1,-8.338919E0,-2.4561856E0,1.2465158E0,1.0657922E1,-5.751712E0,1.0421166E1,1.4838809E1,1.2233963E1,2.9174166E1,3.4915405E1,4.85031E1,-2.1475537E0,-1.5137757E0,-1.4208715E0,-1.1767801E0,-1.0203627E0,-1.4327528E0,-1.3785887E0,-1.1144984E0,-6.315169E-1,-9.548726E-1,-4.2798075E-1,-1.911896E-1,-1.08341E-1,-9.3488425E-1,-1.3421697E-2,1.3723253E0,2.6012656E-1,8.9711565E-1,-5.2233994E-1,-1.20448224E-1,4.1753575E-1,5.987877E-1,7.1769065E-1,9.114172E-1,7.9762286E-1,3.3876607E-1,1.4428573E0,1.7622614E0,1.4644176E0,1.779665E0,2.0412145E0,2.7426965E0],"categories":[],"categories_nodes":[],"categories_segments":[],"categories_sizes":[],"default_left":[0,0,0,0,0,0,0,0,0,0,0,0,0,0,0,0,0,0,0,0,0,0,0,0,0,0,0,0,0,0,0,0,0,0,0,0,0,0,0,0,0,0,0,0,0,0,0,0,0,0,0,0,0,0,0,0,0,0,0,0,0,0,0],"id":9,"left_children":[1,3,5,7,9,11,13,15,17,19,21,23,25,27,29,31,33,35,37,39,41,43,45,47,49,51,53,55,57,59,61,-1,-1,-1,-1,-1,-1,-1,-1,-1,-1,-1,-1,-1,-1,-1,-1,-1,-1,-1,-1,-1,-1,-1,-1,-1,-1,-1,-1,-1,-1,-1,-1],"loss_changes":[1.0043628E7,1.4037155E6,1.062622E6,3.0022E4,1.424025E4,1.04553E5,6.3956E4,1.684E3,7.8150625E3,1.23966875E4,7.618787E2,1.3233363E4,2.7780188E4,4.517625E4,2.2774625E4,3.025E1,6.3175E2,7.5845625E3,1.615625E3,1.529918E3,7.5195E3,1.068622E3,2.9048594E3,2.1717886E3,5.6091543E3,8.033625E3,5.1715E3,3.261373E3,7.9225E3,3.653125E3,4.8805938E3,0E0,0E0,0E0,0E0,0E0,0E0,0E0,0E0,0E0,0E0,0E0,0E0,0E0,0E0,0E0,0E0,0E0,0E0,0E0,0E0,0E0,0E0,0E0,0E0,0E0,0E0,0E0,0E0,0E0,0E0,0E0,0E0],"parents":[2147483647,0,0,1,1,2,2,3,3,4,4,5,5,6,6,7,7,8,8,9,9,10,10,11,11,12,12,13,13,14,14,15,15,16,16,17,17,18,18,19,19,20,20,21,21,22,22,23,23,24,24,25,25,26,26,27,27,28,28,29,29,30,30],"right_children":[2,4,6,8,10,12,14,16,18,20,22,24,26,28,30,32,34,36,38,40,42,44,46,48,50,52,54,56,58,60,62,-1,-1,-1,-1,-1,-1,-1,-1,-1,-1,-1,-1,-1,-1,-1,-1,-1,-1,-1,-1,-1,-1,-1,-1,-1,-1,-1,-1,-1,-1,-1,-1],"split_conditions":[8.5E1,4.9E1,1.16E2,4.7233334E1,7.7E1,5.1E1,1.37E2,3.7E1,4E1,6.4E1,8.3E1,3.9E1,1.04E2,7.6E1,1.69E2,2.3E1,4.2E1,9E0,4E1,4E1,8.086667E1,2.3E1,7.6E1,1.04E2,1.03E2,1.0123333E2,1.1E2,7.1E1,1.3993333E2,1.1546667E2,1.3726666E2,-2.1475537E0,-1.5137757E0,-1.4208715E0,-1.1767801E0,-1.0203627E0,-1.4327528E0,-1.3785887E0,-1.1144984E0,-6.315169E-1,-9.548726E-1,-4.2798075E-1,-1.911896E-1,-1.08341E-1,-9.3488425E-1,-1.3421697E-2,1.3723253E0,2.6012656E-1,8.9711565E-1,-5.2233994E-1,-1.20448224E-1,4.1753575E-1,5.987877E-1,7.1769065E-1,9.114172E-1,7.9762286E-1,3.3876607E-1,1.4428573E0,1.7622614E0,1.4644176E0,1.779665E0,2.0412145E0,2.7426965E0],"split_indices":[3,3,3,7,3,4,3,3,4,3,3,5,3,4,3,3,3,1,3,5,7,1,6,3,3,7,3,5,7,7,7,0,0,0,0,0,0,0,0,0,0,0,0,0,0,0,0,0,0,0,0,0,0,0,0,0,0,0,0,0,0,0,0],"split_type":[0,0,0,0,0,0,0,0,0,0,0,0,0,0,0,0,0,0,0,0,0,0,0,0,0,0,0,0,0,0,0,0,0,0,0,0,0,0,0,0,0,0,0,0,0,0,0,0,0,0,0,0,0,0,0,0,0,0,0,0,0,0,0],"sum_hessian":[2.7597E4,1.5169E4,1.2428E4,7.103E3,8.066E3,6.244E3,6.184E3,5.633E3,1.47E3,7.759E3,3.07E2,4.14E2,5.83E3,4.809E3,1.375E3,6.58E2,4.975E3,9.35E2,5.35E2,1.81E2,7.578E3,2.35E2,7.2E1,5.6E1,3.58E2,2.526E3,3.304E3,1.65E2,4.644E3,1.23E3,1.45E2,5E0,6.53E2,4.915E3,6E1,7.97E2,1.38E2,4.33E2,1.02E2,6.9E1,1.12E2,7.224E3,3.54E2,2.32E2,3E0,6.9E1,3E0,3.3E1,2.3E1,1.48E2,2.1E2,1.086E3,1.44E3,2.895E3,4.09E2,9.7E1,6.8E1,4.419E3,2.25E2,1.37E2,1.093E3,6.9E1,7.6E1],"tree_param":{"num_deleted":"0","num_feature":"8","num_nodes":"63","size_leaf_vector":"1"}},{"base_weights":[-3.604798E-2,-1.6436583E1,2.008893E1,-2.6165983E1,-7.7877955E0,1.1287726E1,2.8892578E1,-2.7186357E1,-2.2743675E1,-8.062188E0,-1.2544006E0,-2.142513E0,1.2261539E1,2.724551E1,3.4711163E1,-2.7290827E1,-1.8700012E1,-2.1764805E1,-2.5936604E1,-1.6079842E1,-7.9225607E0,-9.7903185E0,-1.0080988E0,-7.7890797E0,1.3055582E0,1.0040319E1,1.4201482E1,1.3522118E1,2.7707512E1,3.3901756E1,5.4418903E1,-1.4490095E0,-1.352621E0,-1.1243517E0,-8.0482006E-1,-1.0077915E0,-1.2043614E0,-1.0007335E0,-1.3156972E0,-8.2422525E-1,9.1315573E-1,-4.254841E-1,-3.1603667E-1,5.0298655E-1,-1.0695983E0,-7.530379E-2,1.903042E-1,-1.5759335E-1,-8.130978E-1,-2.1813421E-1,3.5697198E-1,3.8122863E-1,5.6503075E-1,6.792962E-1,8.2301724E-1,9.1978055E-1,3.449392E-1,1.3625411E0,1.4980282E0,1.6634699E0,2.021348E0,2.7601862E0,3.5982457E-1],"categories":[],"categories_nodes":[],"categories_segments":[],"categories_sizes":[],"default_left":[0,0,0,0,0,0,0,0,0,0,0,0,0,0,0,0,0,0,0,0,0,0,0,0,0,0,0,0,0,0,0,0,0,0,0,0,0,0,0,0,0,0,0,0,0,0,0,0,0,0,0,0,0,0,0,0,0,0,0,0,0,0,0],"id":10,"left_children":[1,3,5,7,9,11,13,15,17,19,21,23,25,27,29,31,33,35,37,39,41,43,45,47,49,51,53,55,57,59,61,-1,-1,-1,-1,-1,-1,-1,-1,-1,-1,-1,-1,-1,-1,-1,-1,-1,-1,-1,-1,-1,-1,-1,-1,-1,-1,-1,-1,-1,-1,-1,-1],"loss_changes":[9.089203E6,1.2765665E6,9.577475E5,2.4315E4,1.4392531E4,8.0917125E4,5.82905E4,4.36125E3,4.5799375E3,8.5038125E3,6.734143E2,8.1680005E3,2.4707562E4,3.0198E4,1.9849375E4,1.4015E3,3.2823242E2,4.24525E3,3.2471875E2,2.1216016E3,7.0749688E3,2.2878367E3,7.656929E2,6.1959375E3,8.661856E3,8.1097812E3,4.0534375E3,5.005416E3,3.98275E3,4.05625E3,1.5299062E3,0E0,0E0,0E0,0E0,0E0,0E0,0E0,0E0,0E0,0E0,0E0,0E0,0E0,0E0,0E0,0E0,0E0,0E0,0E0,0E0,0E0,0E0,0E0,0E0,0E0,0E0,0E0,0E0,0E0,0E0,0E0,0E0],"parents":[2147483647,0,0,1,1,2,2,3,3,4,4,5,5,6,6,7,7,8,8,9,9,10,10,11,11,12,12,13,13,14,14,15,15,16,16,17,17,18,18,19,19,20,20,21,21,22,22,23,23,24,24,25,25,26,26,27,27,28,28,29,29,30,30],"right_children":[2,4,6,8,10,12,14,16,18,20,22,24,26,28,30,32,34,36,38,40,42,44,46,48,50,52,54,56,58,60,62,-1,-1,-1,-1,-1,-1,-1,-1,-1,-1,-1,-1,-1,-1,-1,-1,-1,-1,-1,-1,-1,-1,-1,-1,-1,-1,-1,-1,-1,-1,-1,-1],"split_conditions":[9.1E1,5E1,1.15E2,4.4133335E1,7.6E1,5.1E1,1.38E2,4.7E1,9.9E1,5.1E1,4E1,1.03E2,1.06E2,8.6433334E1,1.94E2,3.7E1,6E0,4E1,1E0,1.133E2,7.063333E1,2.5E1,1.01E2,4E1,4E0,9.8E1,1.09E2,7.1E1,1.336E2,1.406E2,1.96E2,-1.4490095E0,-1.352621E0,-1.1243517E0,-8.0482006E-1,-1.0077915E0,-1.2043614E0,-1.0007335E0,-1.3156972E0,-8.2422525E-1,9.1315573E-1,-4.254841E-1,-3.1603667E-1,5.0298655E-1,-1.0695983E0,-7.530379E-2,1.903042E-1,-1.5759335E-1,-8.130978E-1,-2.1813421E-1,3.5697198E-1,3.8122863E-1,5.6503075E-1,6.792962E-1,8.2301724E-1,9.1978055E-1,3.449392E-1,1.3625411E0,1.4980282E0,1.6634699E0,2.021348E0,2.7601862E0,3.5982457E-1],"split_indices":[3,3,3,7,3,4,3,3,4,3,4,3,3,7,3,3,1,5,1,7,7,0,5,6,1,3,3,5,7,7,6,0,0,0,0,0,0,0,0,0,0,0,0,0,0,0,0,0,0,0,0,0,0,0,0,0,0,0,0,0,0,0,0],"split_type":[0,0,0,0,0,0,0,0,0,0,0,0,0,0,0,0,0,0,0,0,0,0,0,0,0,0,0,0,0,0,0,0,0,0,0,0,0,0,0,0,0,0,0,0,0,0,0,0,0,0,0,0,0,0,0,0,0,0,0,0,0,0,0],"sum_hessian":[2.7536E4,1.5172E4,1.2364E4,7.139E3,8.033E3,6.184E3,6.18E3,5.494E3,1.645E3,7.709E3,3.24E2,4.18E2,5.766E3,4.821E3,1.359E3,5.425E3,6.9E1,1.265E3,3.8E2,1.3E2,7.579E3,8E0,3.16E2,1.58E2,2.6E2,2.691E3,3.075E3,1.58E2,4.663E3,1.308E3,5.1E1,6.56E2,4.769E3,2.5E1,4.4E1,7.53E2,5.12E2,2.6E1,3.54E2,1.29E2,1E0,5.543E3,2.036E3,3E0,5E0,2.87E2,2.9E1,1.03E2,5.5E1,1.32E2,1.28E2,9.25E2,1.766E3,2.422E3,6.53E2,9E1,6.8E1,3.888E3,7.75E2,1.198E3,1.1E2,5E1,1E0],"tree_param":{"num_deleted":"0","num_feature":"8","num_nodes":"63","size_leaf_vector":"1"}},{"base_weights":[-4.6513125E-2,-1.5555385E1,1.9090862E1,-2.478721E1,-7.3335624E0,1.0822877E1,2.736786E1,-2.5764467E1,-2.1132607E1,-8.351395E0,-5.872527E0,-2.5494463E0,1.1759034E1,2.5679382E1,3.3170837E1,-2.587243E1,-1.785219E1,-1.995348E1,-1.2411664E0,-1.4615808E1,-8.184942E0,-6.3061614E0,-9.295154E-1,-8.220839E0,1.1415776E0,9.542226E0,1.3487056E1,1.0204874E1,2.6239931E1,3.151953E1,4.6304287E1,-1.3117287E0,-1.2432984E0,-1.1262932E-1,-9.219162E-1,-1.2563578E0,-9.34851E-1,-7.517191E-1,8.903269E-1,-4.1490942E-1,-2.6528257E-1,-3.354894E-1,-1.305397E-1,-6.3500784E-2,1.4728922E0,5.5618775E-1,-5.3846264E-1,1.5895687E-1,-3.9924464E-1,3.7691638E-1,5.448806E-1,6.491877E-1,8.5836583E-1,1.277591E0,4.5877376E-1,1.3099594E0,2.6507304E0,1.5806329E0,-2.4520206E-1,2.491182E0,1.6790085E0],"categories":[],"categories_nodes":[],"categories_segments":[],"categories_sizes":[],"default_left":[0,0,0,0,0,0,0,0,0,0,0,0,0,0,0,0,0,0,0,0,0,0,0,0,0,0,0,0,0,0,0,0,0,0,0,0,0,0,0,0,0,0,0,0,0,0,0,0,0,0,0,0,0,0,0,0,0,0,0,0,0],"id":11,"left_children":[1,3,5,7,9,11,13,15,17,19,21,23,25,27,29,31,33,35,-1,37,39,41,43,45,47,49,51,53,55,57,59,-1,-1,-1,-1,-1,-1,-1,-1,-1,-1,-1,-1,-1,-1,-1,-1,-1,-1,-1,-1,-1,-1,-1,-1,-1,-1,-1,-1,-1,-1],"loss_changes":[8.1447615E6,1.1503472E6,8.403485E5,2.4956E4,1.1875906E4,7.698181E4,5.92895E4,4.34675E3,6.084625E3,4.8062188E3,7.0589688E3,8.445482E3,2.1878625E4,4.101275E4,2.8469125E4,1.3705E3,6.807988E2,7.0123125E3,0E0,1.9098203E3,1.4571562E3,4.501875E3,2.8000347E3,7.9581826E3,4.581339E3,6.7623125E3,5.7525E3,2.4196328E3,3.6205E3,4.323875E3,5.1335625E3,0E0,0E0,0E0,0E0,0E0,0E0,0E0,0E0,0E0,0E0,0E0,0E0,0E0,0E0,0E0,0E0,0E0,0E0,0E0,0E0,0E0,0E0,0E0,0E0,0E0,0E0,0E0,0E0,0E0,0E0],"parents":[2147483647,0,0,1,1,2,2,3,3,4,4,5,5,6,6,7,7,8,8,9,9,10,10,11,11,12,12,13,13,14,14,15,15,16,16,17,17,19,19,20,20,21,21,22,22,23,23,24,24,25,25,26,26,27,27,28,28,29,29,30,30],"right_children":[2,4,6,8,10,12,14,16,18,20,22,24,26,28,30,32,34,36,-1,38,40,42,44,46,48,50,52,54,56,58,60,-1,-1,-1,-1,-1,-1,-1,-1,-1,-1,-1,-1,-1,-1,-1,-1,-1,-1,-1,-1,-1,-1,-1,-1,-1,-1,-1,-1,-1,-1],"split_conditions":[9.3E1,5E1,1.15E2,4.7233334E1,7E1,5.1E1,1.37E2,4.7E1,9.9E1,5.1E1,7.9E1,1.03E2,1.04E2,7.6E1,1.72E2,3.9E1,3.6E1,3.9E1,-1.2411664E0,1.133E2,7.61E1,8.086667E1,1.09E2,3.9E1,4E1,1.01E2,1.072E2,1.29E2,1.97E2,2.3E1,1.41E2,-1.3117287E0,-1.2432984E0,-1.1262932E-1,-9.219162E-1,-1.2563578E0,-9.34851E-1,-7.517191E-1,8.903269E-1,-4.1490942E-1,-2.6528257E-1,-3.354894E-1,-1.305397E-1,-6.3500784E-2,1.4728922E0,5.5618775E-1,-5.3846264E-1,1.5895687E-1,-3.9924464E-1,3.7691638E-1,5.448806E-1,6.491877E-1,8.5836583E-1,1.277591E0,4.5877376E-1,1.3099594E0,2.6507304E0,1.5806329E0,-2.4520206E-1,2.491182E0,1.6790085E0],"split_indices":[3,3,3,7,3,4,3,3,4,3,3,3,3,4,3,3,4,3,0,7,7,7,4,5,4,7,7,3,6,1,5,0,0,0,0,0,0,0,0,0,0,0,0,0,0,0,0,0,0,0,0,0,0,0,0,0,0,0,0,0,0],"split_type":[0,0,0,0,0,0,0,0,0,0,0,0,0,0,0,0,0,0,0,0,0,0,0,0,0,0,0,0,0,0,0,0,0,0,0,0,0,0,0,0,0,0,0,0,0,0,0,0,0,0,0,0,0,0,0,0,0,0,0,0,0],"sum_hessian":[2.744E4,1.5157E4,1.2283E4,7.139E3,8.018E3,6.146E3,6.137E3,5.628E3,1.511E3,4.723E3,3.295E3,4.02E2,5.744E3,4.758E3,1.379E3,5.55E3,7.8E1,1.15E3,3.61E2,1.2E2,4.603E3,3.029E3,2.66E2,1.58E2,2.44E2,2.519E3,3.225E3,1.67E2,4.591E3,1.228E3,1.51E2,4.063E3,1.487E3,3E0,7.5E1,2.21E2,9.29E2,1.19E2,1E0,4.427E3,1.76E2,2.73E3,2.99E2,2.64E2,2E0,1.8E1,1.4E2,2E2,4.4E1,1.019E3,1.5E3,2.841E3,3.84E2,9E0,1.58E2,4.586E3,5E0,1.225E3,3E0,1.16E2,3.5E1],"tree_param":{"num_deleted":"0","num_feature":"8","num_nodes":"61","size_leaf_vector":"1"}},{"base_weights":[1.3517474E-2,-1.468798E1,1.8129408E1,-2.3581676E1,-6.947125E0,1.0087225E1,2.6075678E1,-2.4550259E1,-2.032777E1,-8.018752E0,-5.3826327E0,-4.1499233E0,1.1096215E1,2.5609755E1,4.3692974E1,-2.4910614E1,-2.3528593E1,-1.9225485E1,-2.3914717E1,-1.4206519E1,-7.751701E0,-5.8636637E0,-2.4118617E-1,8.926559E0,-5.5955367E0,9.093741E0,1.2844272E1,1.26636505E1,2.6003374E1,1.811014E1,4.5658173E1,-1.309272E0,-1.2328591E0,-5.8443453E-2,-1.1787182E0,-8.7008715E-1,-1.0976819E0,-1.2079268E0,-9.1590273E-1,-3.637143E-1,-7.952363E-1,-3.9166734E-1,-1.11414626E-1,-3.0489287E-1,5.716606E-2,-2.7108744E-2,1.0519408E0,6.790007E-1,-5.983221E-1,-4.9953094E-1,-1.22822426E-1,3.4246475E-1,5.132817E-1,6.1755884E-1,7.9649425E-1,9.014811E-1,2.673334E-1,1.2481863E0,1.4926323E0,1.9081005E0,4.139188E-1,8.5776776E-1,2.327049E0],"categories":[],"categories_nodes":[],"categories_segments":[],"categories_sizes":[],"default_left":[0,0,0,0,0,0,0,0,0,0,0,0,0,0,0,0,0,0,0,0,0,0,0,0,0,0,0,0,0,0,0,0,0,0,0,0,0,0,0,0,0,0,0,0,0,0,0,0,0,0,0,0,0,0,0,0,0,0,0,0,0,0,0],"id":12,"left_children":[1,3,5,7,9,11,13,15,17,19,21,23,25,27,29,31,33,35,37,39,41,43,45,47,49,51,53,55,57,59,61,-1,-1,-1,-1,-1,-1,-1,-1,-1,-1,-1,-1,-1,-1,-1,-1,-1,-1,-1,-1,-1,-1,-1,-1,-1,-1,-1,-1,-1,-1,-1,-1],"loss_changes":[7.3595165E6,1.0499948E6,7.9082175E5,2.187125E4,1.3632469E4,8.8449125E4,4.9986E4,1.42625E3,6.0008125E3,7.8860938E3,8.207117E3,7.7625947E3,2.0000188E4,3.0592E4,7.1669062E3,6.54E2,1.449125E3,5.8621562E3,7.6015625E1,2.2270078E3,2.0754375E3,4.9873906E3,1.8368431E3,4.148714E3,5.052589E3,6.9840156E3,4.4681875E3,7.0101543E3,2.2818E4,2.2469688E3,2.9004688E3,0E0,0E0,0E0,0E0,0E0,0E0,0E0,0E0,0E0,0E0,0E0,0E0,0E0,0E0,0E0,0E0,0E0,0E0,0E0,0E0,0E0,0E0,0E0,0E0,0E0,0E0,0E0,0E0,0E0,0E0,0E0,0E0],"parents":[2147483647,0,0,1,1,2,2,3,3,4,4,5,5,6,6,7,7,8,8,9,9,10,10,11,11,12,12,13,13,14,14,15,15,16,16,17,17,18,18,19,19,20,20,21,21,22,22,23,23,24,24,25,25,26,26,27,27,28,28,29,29,30,30],"right_children":[2,4,6,8,10,12,14,16,18,20,22,24,26,28,30,32,34,36,38,40,42,44,46,48,50,52,54,56,58,60,62,-1,-1,-1,-1,-1,-1,-1,-1,-1,-1,-1,-1,-1,-1,-1,-1,-1,-1,-1,-1,-1,-1,-1,-1,-1,-1,-1,-1,-1,-1,-1,-1],"split_conditions":[8.5E1,4.9E1,1.17E2,4.4133335E1,7E1,5.1E1,1.72E2,3.9E1,7.2E1,6.4E1,7.9E1,3.9E1,1.06E2,7.8E1,1E0,3.7E1,3.6E1,4E1,4.2E1,4.7E1,8.086667E1,1.33E2,1.08E2,4E1,1.03E2,9.8E1,1.1E2,7.1E1,1.35E2,8E0,5.1E1,-1.309272E0,-1.2328591E0,-5.8443453E-2,-1.1787182E0,-8.7008715E-1,-1.0976819E0,-1.2079268E0,-9.1590273E-1,-3.637143E-1,-7.952363E-1,-3.9166734E-1,-1.11414626E-1,-3.0489287E-1,5.716606E-2,-2.7108744E-2,1.0519408E0,6.790007E-1,-5.983221E-1,-4.9953094E-1,-1.22822426E-1,3.4246475E-1,5.132817E-1,6.1755884E-1,7.9649425E-1,9.014811E-1,2.673334E-1,1.2481863E0,1.4926323E0,1.9081005E0,4.139188E-1,8.5776776E-1,2.327049E0],"split_indices":[3,3,3,7,3,4,3,3,4,3,3,6,3,4,2,3,4,5,3,4,7,6,4,4,3,3,3,5,3,0,4,0,0,0,0,0,0,0,0,0,0,0,0,0,0,0,0,0,0,0,0,0,0,0,0,0,0,0,0,0,0,0,0],"split_type":[0,0,0,0,0,0,0,0,0,0,0,0,0,0,0,0,0,0,0,0,0,0,0,0,0,0,0,0,0,0,0,0,0,0,0,0,0,0,0,0,0,0,0,0,0,0,0,0,0,0,0,0,0,0,0,0,0,0,0,0,0,0,0],"sum_hessian":[2.7631E4,1.5253E4,1.2378E4,7.097E3,8.156E3,6.153E3,6.225E3,5.464E3,1.633E3,4.838E3,3.318E3,4.07E2,5.746E3,6.067E3,1.58E2,4.022E3,1.442E3,1.254E3,3.79E2,1.98E2,4.64E3,3.034E3,2.84E2,4E1,3.67E2,2.681E3,3.065E3,1.8E2,5.887E3,1.2E1,1.46E2,6.5E2,3.372E3,3E0,1.439E3,7.56E2,4.98E2,3.6E2,1.9E1,4E1,1.58E2,4.572E3,6.8E1,2.936E3,9.8E1,2.81E2,3E0,3.3E1,7E0,1.52E2,2.15E2,9.22E2,1.759E3,2.647E3,4.18E2,1.03E2,7.7E1,4.641E3,1.246E3,3E0,9E0,5E0,1.41E2],"tree_param":{"num_deleted":"0","num_feature":"8","num_nodes":"63","size_leaf_vector":"1"}},{"base_weights":[-9.9005215E-3,-1.4005479E1,1.7251652E1,-2.2394993E1,-6.622592E0,9.699599E0,2.4786272E1,-2.3268085E1,-1.918816E1,-7.5514107E0,-5.2993565E0,-3.8179417E0,1.0588987E1,2.342766E1,3.058096E1,-2.335182E1,-1.7816032E1,-1.816642E1,-2.2384842E1,-1.3327933E1,-7.389046E0,-5.7184405E0,-1.0675133E0,-2.860527E0,-2.5540022E1,8.491709E0,1.2178787E1,1.2137668E1,2.3842867E1,2.8891727E1,4.108479E1,-1.1860589E0,-1.1205325E0,-4.328173E-1,-9.1291E-1,-9.16821E-1,2.8721198E-1,-1.1363891E0,-8.612278E-1,-6.854771E-1,8.879496E-1,-3.7264568E-1,-7.505646E-2,-2.9605553E-1,-2.2610286E-2,-7.797756E-2,2.2331642E-1,-3.5522225E-1,3.7898947E-2,-1.5818536E0,5.713108E-1,3.3778465E-1,5.024299E-1,5.7839173E-1,7.325449E-1,7.9138446E-1,3.3803016E-1,1.1798033E0,1.4298954E0,1.4500335E0,-2.9198065E-1,2.177777E0,1.3337859E0],"categories":[],"categories_nodes":[],"categories_segments":[],"categories_sizes":[],"default_left":[0,0,0,0,0,0,0,0,0,0,0,0,0,0,0,0,0,0,0,0,0,0,0,0,0,0,0,0,0,0,0,0,0,0,0,0,0,0,0,0,0,0,0,0,0,0,0,0,0,0,0,0,0,0,0,0,0,0,0,0,0,0,0],"id":13,"left_children":[1,3,5,7,9,11,13,15,17,19,21,23,25,27,29,31,33,35,37,39,41,43,45,47,49,51,53,55,57,59,61,-1,-1,-1,-1,-1,-1,-1,-1,-1,-1,-1,-1,-1,-1,-1,-1,-1,-1,-1,-1,-1,-1,-1,-1,-1,-1,-1,-1,-1,-1,-1,-1],"loss_changes":[6.670415E6,9.4429525E5,7.032375E5,1.953575E4,9.93E3,7.4290375E4,4.8E4,2.14275E3,4.600375E3,4.3696875E3,5.933336E3,7.871412E3,1.9218625E4,2.322875E4,1.960825E4,1.38625E3,2.0241211E2,4.849E3,2.58E2,1.7738008E3,1.7321562E3,3.2493984E3,8.319917E2,5.6412734E3,3.9676504E3,6.6944844E3,4.8055625E3,3.464461E3,5.00325E3,4.0023125E3,4.5343438E3,0E0,0E0,0E0,0E0,0E0,0E0,0E0,0E0,0E0,0E0,0E0,0E0,0E0,0E0,0E0,0E0,0E0,0E0,0E0,0E0,0E0,0E0,0E0,0E0,0E0,0E0,0E0,0E0,0E0,0E0,0E0,0E0],"parents":[2147483647,0,0,1,1,2,2,3,3,4,4,5,5,6,6,7,7,8,8,9,9,10,10,11,11,12,12,13,13,14,14,15,15,16,16,17,17,18,18,19,19,20,20,21,21,22,22,23,23,24,24,25,25,26,26,27,27,28,28,29,29,30,30],"right_children":[2,4,6,8,10,12,14,16,18,20,22,24,26,28,30,32,34,36,38,40,42,44,46,48,50,52,54,56,58,60,62,-1,-1,-1,-1,-1,-1,-1,-1,-1,-1,-1,-1,-1,-1,-1,-1,-1,-1,-1,-1,-1,-1,-1,-1,-1,-1,-1,-1,-1,-1,-1,-1],"split_conditions":[9.1E1,5E1,1.15E2,4.7233334E1,7E1,4.2E1,1.39E2,4.2E1,9.9E1,5.2E1,7.7E1,4E1,1.04E2,7.6E1,1.65E2,3.9E1,3.6E1,1.64E2,6.92E1,1.133E2,8.4E1,1.12E2,1.01E2,1.03E2,1.15E2,1.018E2,1.09E2,7.1E1,1.3993333E2,2.3E1,1.8E1,-1.1860589E0,-1.1205325E0,-4.328173E-1,-9.1291E-1,-9.16821E-1,2.8721198E-1,-1.1363891E0,-8.612278E-1,-6.854771E-1,8.879496E-1,-3.7264568E-1,-7.505646E-2,-2.9605553E-1,-2.2610286E-2,-7.797756E-2,2.2331642E-1,-3.5522225E-1,3.7898947E-2,-1.5818536E0,5.713108E-1,3.3778465E-1,5.024299E-1,5.7839173E-1,7.325449E-1,7.9138446E-1,3.3803016E-1,1.1798033E0,1.4298954E0,1.4500335E0,-2.9198065E-1,2.177777E0,1.3337859E0],"split_indices":[3,3,3,7,3,4,3,3,4,3,3,4,3,4,3,5,4,6,7,7,5,6,5,3,6,7,3,5,7,1,1,0,0,0,0,0,0,0,0,0,0,0,0,0,0,0,0,0,0,0,0,0,0,0,0,0,0,0,0,0,0,0,0],"split_type":[0,0,0,0,0,0,0,0,0,0,0,0,0,0,0,0,0,0,0,0,0,0,0,0,0,0,0,0,0,0,0,0,0,0,0,0,0,0,0,0,0,0,0,0,0,0,0,0,0,0,0,0,0,0,0,0,0,0,0,0,0,0,0],"sum_hessian":[2.7609E4,1.5247E4,1.2362E4,7.136E3,8.111E3,6.175E3,6.187E3,5.604E3,1.532E3,4.763E3,3.348E3,3.81E2,5.794E3,5.016E3,1.171E3,5.516E3,8.8E1,1.166E3,3.66E2,1.28E2,4.635E3,3.046E3,3.02E2,3.66E2,1.5E1,2.501E3,3.293E3,1.79E2,4.837E3,1.012E3,1.59E2,3.944E3,1.572E3,5E0,8.3E1,1.158E3,8E0,3.4E2,2.6E1,1.27E2,1E0,4.585E3,5E1,2.933E3,1.13E2,2.78E2,2.4E1,1.68E2,1.98E2,1.3E1,2E0,1.185E3,1.316E3,2.645E3,6.48E2,1.05E2,7.4E1,4.604E3,2.33E2,1.009E3,3E0,1.34E2,2.5E1],"tree_param":{"num_deleted":"0","num_feature":"8","num_nodes":"63","size_leaf_vector":"1"}},{"base_weights":[-6.5867655E-2,-1.3320763E1,1.6327898E1,-2.1081034E1,-6.136654E0,9.233003E0,2.3439695E1,-2.205885E1,-1.7622215E1,-6.775332E0,-4.126081E0,-3.3107538E0,1.0008541E1,2.2057798E1,2.8229244E1,-2.2153648E1,-1.6876186E1,-1.6503918E1,-2.079893E1,-6.8691845E0,-5.9100106E-2,-3.639309E0,-8.607308E0,1.3083325E1,-5.055347E0,7.987741E0,1.1522501E1,8.730876E0,2.253105E1,2.6936129E1,3.732062E1,-1.1475376E0,-1.0875978E0,-6.8539673E-1,-9.144778E-1,-1.0669488E0,-7.674392E-1,-1.0465769E0,8.657509E-1,-1.10327594E-1,-3.4561965E-1,-6.2239062E-2,9.4618094E-1,-1.8645842E-1,1.8033663E0,-3.9865285E-1,-6.0352707E-1,7.257213E-1,-8.893513E-1,-5.3759307E-1,-2.2892E-2,3.0186623E-1,4.5591855E-1,5.6253934E-1,7.951657E-1,6.3831747E-1,1.04993366E-1,1.1132478E0,1.3307346E0,1.3510852E0,-2.8103152E-1,2.0124676E0,1.4042807E0],"categories":[],"categories_nodes":[],"categories_segments":[],"categories_sizes":[],"default_left":[0,0,0,0,0,0,0,0,0,0,0,0,0,0,0,0,0,0,0,0,0,0,0,0,0,0,0,0,0,0,0,0,0,0,0,0,0,0,0,0,0,0,0,0,0,0,0,0,0,0,0,0,0,0,0,0,0,0,0,0,0,0,0],"id":14,"left_children":[1,3,5,7,9,11,13,15,17,19,21,23,25,27,29,31,33,35,37,39,41,43,45,47,49,51,53,55,57,59,61,-1,-1,-1,-1,-1,-1,-1,-1,-1,-1,-1,-1,-1,-1,-1,-1,-1,-1,-1,-1,-1,-1,-1,-1,-1,-1,-1,-1,-1,-1,-1,-1],"loss_changes":[6.005672E6,8.51852E5,6.23236E5,2.445625E4,1.0164031E4,6.0221312E4,4.021475E4,2.438E3,5.426E3,3.7954688E3,4.1481133E3,1.0391104E4,1.7735125E4,3.00325E4,1.5194875E4,1.29925E3,2.2842773E2,6.4081875E3,2.4800938E3,1.18125E3,1.9141815E3,6.307166E3,3.1451855E2,1.804417E3,8.559128E3,5.4557344E3,3.7836562E3,4.4152305E3,4.4365E3,3.5230625E3,3.4404844E3,0E0,0E0,0E0,0E0,0E0,0E0,0E0,0E0,0E0,0E0,0E0,0E0,0E0,0E0,0E0,0E0,0E0,0E0,0E0,0E0,0E0,0E0,0E0,0E0,0E0,0E0,0E0,0E0,0E0,0E0,0E0,0E0],"parents":[2147483647,0,0,1,1,2,2,3,3,4,4,5,5,6,6,7,7,8,8,9,9,10,10,11,11,12,12,13,13,14,14,15,15,16,16,17,17,18,18,19,19,20,20,21,21,22,22,23,23,24,24,25,25,26,26,27,27,28,28,29,29,30,30],"right_children":[2,4,6,8,10,12,14,16,18,20,22,24,26,28,30,32,34,36,38,40,42,44,46,48,50,52,54,56,58,60,62,-1,-1,-1,-1,-1,-1,-1,-1,-1,-1,-1,-1,-1,-1,-1,-1,-1,-1,-1,-1,-1,-1,-1,-1,-1,-1,-1,-1,-1,-1,-1,-1],"split_conditions":[9.3E1,5.2E1,1.17E2,4.7233334E1,7.1166664E1,4.2E1,1.37E2,4.2E1,7.7E1,7.3E1,1.15E2,3.9E1,1.04E2,9.3166664E1,1.64E2,3.8E1,3.9E1,3.9E1,1.133E2,4E1,1.01E2,1.09E2,1.9E1,4E1,1.03E2,9.8E1,1.1163333E2,7.1E1,1.3863333E2,2.3E1,1.41E2,-1.1475376E0,-1.0875978E0,-6.8539673E-1,-9.144778E-1,-1.0669488E0,-7.674392E-1,-1.0465769E0,8.657509E-1,-1.10327594E-1,-3.4561965E-1,-6.2239062E-2,9.4618094E-1,-1.8645842E-1,1.8033663E0,-3.9865285E-1,-6.0352707E-1,7.257213E-1,-8.893513E-1,-5.3759307E-1,-2.2892E-2,3.0186623E-1,4.5591855E-1,5.6253934E-1,7.951657E-1,6.3831747E-1,1.04993366E-1,1.1132478E0,1.3307346E0,1.3510852E0,-2.8103152E-1,2.0124676E0,1.4042807E0],"split_indices":[3,3,3,7,7,4,3,3,4,3,4,6,3,7,3,4,4,3,7,5,6,4,1,4,3,3,7,5,7,1,5,0,0,0,0,0,0,0,0,0,0,0,0,0,0,0,0,0,0,0,0,0,0,0,0,0,0,0,0,0,0,0,0],"split_type":[0,0,0,0,0,0,0,0,0,0,0,0,0,0,0,0,0,0,0,0,0,0,0,0,0,0,0,0,0,0,0,0,0,0,0,0,0,0,0,0,0,0,0,0,0,0,0,0,0,0,0,0,0,0,0,0,0,0,0,0,0,0,0],"sum_hessian":[2.7636E4,1.5281E4,1.2355E4,7.345E3,7.936E3,6.186E3,6.169E3,5.722E3,1.623E3,6.021E3,1.915E3,3.6E2,5.826E3,4.792E3,1.377E3,5.616E3,1.06E2,1.205E3,4.18E2,5.938E3,8.3E1,1.729E3,1.86E2,3.4E1,3.26E2,2.498E3,3.328E3,1.65E2,4.627E3,1.209E3,1.68E2,1.863E3,3.753E3,3.6E1,7E1,2.29E2,9.76E2,4.17E2,1E0,5.5E1,5.883E3,7.9E1,4E0,1.726E3,3E0,1.6E2,2.6E1,3.3E1,1E0,1.45E2,1.81E2,9.19E2,1.579E3,3.137E3,1.91E2,1.02E2,6.3E1,4.35E3,2.77E2,1.206E3,3E0,1.25E2,4.3E1],"tree_param":{"num_deleted":"0","num_feature":"8","num_nodes":"63","size_leaf_vector":"1"}},{"base_weights":[4.5290645E-3,-1.2695126E1,1.5429541E1,-2.0191658E1,-6.084825E0,8.644427E0,2.2271208E1,-2.1054167E1,-1.6886007E1,-6.8720956E0,-4.914072E0,-1.2040161E0,9.559332E0,2.1109034E1,2.720856E1,-2.257608E1,-2.0842644E1,1.4079372E0,-1.6997091E1,-1.1997904E1,-6.664424E0,-5.1470747E0,-4.275596E-1,-4.8709874E0,2.9664793E0,7.834031E0,1.1052639E1,9.647094E0,2.147406E1,2.6105413E1,3.9809757E1,-1.5849352E0,-1.1216409E0,-1.0447454E0,-8.421713E-1,-8.601128E-1,2.784314E-1,-4.941572E-2,-6.549765E-1,-3.386125E-1,-1.6902949E-1,-2.6944563E-1,-7.413106E-2,1.8598036E-1,-1.5657754E-1,2.534717E-1,-3.750059E-1,1.9257353E-1,-1.4848594E-1,2.969114E-1,4.4822654E-1,5.300065E-1,6.9559526E-1,8.6469764E-1,3.3519724E-1,1.0532036E0,1.1638644E0,-5.985762E-1,1.3110918E0,2.220327E0,1.4338154E0],"categories":[],"categories_nodes":[],"categories_segments":[],"categories_sizes":[],"default_left":[0,0,0,0,0,0,0,0,0,0,0,0,0,0,0,0,0,0,0,0,0,0,0,0,0,0,0,0,0,0,0,0,0,0,0,0,0,0,0,0,0,0,0,0,0,0,0,0,0,0,0,0,0,0,0,0,0,0,0,0,0],"id":15,"left_children":[1,3,5,7,9,11,13,15,17,19,21,23,25,27,29,31,33,-1,35,37,39,41,43,45,47,49,51,53,55,57,59,-1,-1,-1,-1,-1,-1,-1,-1,-1,-1,-1,-1,-1,-1,-1,-1,-1,-1,-1,-1,-1,-1,-1,-1,-1,-1,-1,-1,-1,-1],"loss_changes":[5.4076075E6,7.5012975E5,5.7845125E5,1.98705E4,7.3831562E3,5.6416562E4,3.503625E4,1.3395E3,7.849125E3,5.039125E3,3.3837422E3,8.165665E3,1.4671031E4,2.082975E4,1.535E4,1.698125E2,6.8225E2,0E0,6.9014062E3,2.2429453E3,1.614375E3,2.7206328E3,1.8170865E3,7.4602646E3,1.3248086E3,5.649828E3,3.8220312E3,3.4174795E3,3.1115E3,5.1325625E3,3.486125E3,0E0,0E0,0E0,0E0,0E0,0E0,0E0,0E0,0E0,0E0,0E0,0E0,0E0,0E0,0E0,0E0,0E0,0E0,0E0,0E0,0E0,0E0,0E0,0E0,0E0,0E0,0E0,0E0,0E0,0E0],"parents":[2147483647,0,0,1,1,2,2,3,3,4,4,5,5,6,6,7,7,8,8,9,9,10,10,11,11,12,12,13,13,14,14,15,15,16,16,18,18,19,19,20,20,21,21,22,22,23,23,24,24,25,25,26,26,27,27,28,28,29,29,30,30],"right_children":[2,4,6,8,10,12,14,16,18,20,22,24,26,28,30,32,34,-1,36,38,40,42,44,46,48,50,52,54,56,58,60,-1,-1,-1,-1,-1,-1,-1,-1,-1,-1,-1,-1,-1,-1,-1,-1,-1,-1,-1,-1,-1,-1,-1,-1,-1,-1,-1,-1,-1,-1],"split_conditions":[8.3E1,4.9E1,1.15E2,4.7233334E1,7E1,9.4E1,1.39E2,3.7E1,2.3E1,5.2E1,1.12E2,5.7E1,1.06E2,8.6433334E1,1.92E2,2.3E1,4.2E1,1.4079372E0,1.62E2,3.9E1,7.71E1,7.7E1,7.1E1,3.9E1,2.2E1,1.01E2,1.1E2,7E1,1.336E2,6.673333E1,1.32E2,-1.5849352E0,-1.1216409E0,-1.0447454E0,-8.421713E-1,-8.601128E-1,2.784314E-1,-4.941572E-2,-6.549765E-1,-3.386125E-1,-1.6902949E-1,-2.6944563E-1,-7.413106E-2,1.8598036E-1,-1.5657754E-1,2.534717E-1,-3.750059E-1,1.9257353E-1,-1.4848594E-1,2.969114E-1,4.4822654E-1,5.300065E-1,6.9559526E-1,8.6469764E-1,3.3519724E-1,1.0532036E0,1.1638644E0,-5.985762E-1,1.3110918E0,2.220327E0,1.4338154E0],"split_indices":[3,3,3,7,3,4,3,3,3,3,6,7,3,7,3,3,3,0,6,4,7,3,3,5,1,7,3,6,7,7,5,0,0,0,0,0,0,0,0,0,0,0,0,0,0,0,0,0,0,0,0,0,0,0,0,0,0,0,0,0,0],"split_type":[0,0,0,0,0,0,0,0,0,0,0,0,0,0,0,0,0,0,0,0,0,0,0,0,0,0,0,0,0,0,0,0,0,0,0,0,0,0,0,0,0,0,0,0,0,0,0,0,0,0,0,0,0,0,0,0,0,0,0,0,0],"sum_hessian":[2.7603E4,1.5139E4,1.2464E4,7.093E3,8.046E3,6.259E3,6.205E3,5.621E3,1.472E3,4.808E3,3.238E3,5.32E2,5.727E3,5.027E3,1.178E3,6.73E2,4.948E3,3E0,1.469E3,1.85E2,4.623E3,3.078E3,1.6E2,2.83E2,2.49E2,2.66E3,3.067E3,1.56E2,4.871E3,1.086E3,9.2E1,7E0,6.66E2,4.88E3,6.8E1,1.456E3,1.3E1,1.7E1,1.68E2,4.475E3,1.48E2,2.887E3,1.91E2,6.3E1,9.7E1,5.9E1,2.24E2,2.17E2,3.2E1,9.96E2,1.664E3,2.652E3,4.15E2,4.2E1,1.14E2,3.979E3,8.92E2,3E0,1.083E3,6.3E1,2.9E1],"tree_param":{"num_deleted":"0","num_feature":"8","num_nodes":"61","size_leaf_vector":"1"}},{"base_weights":[2.9215075E-2,-1.2144381E1,1.4695155E1,-1.9258694E1,-5.7249327E0,8.194419E0,2.1284298E1,-1.9731255E1,-1.5113377E1,-6.5223536E0,-4.553259E0,-1.5384626E0,9.122752E0,2.0045612E1,2.5710224E1,-2.0290651E1,-1.8642706E1,-1.0835059E1,-1.7445486E1,-9.361749E0,-6.2125854E0,-5.022233E0,-1.7478112E0,-4.9153523E0,2.098112E0,7.3067193E0,1.0486418E1,9.771151E0,2.0342995E1,2.4568201E1,3.488876E1,-1.071071E0,-1.0019296E0,-9.656605E-1,-8.83697E-1,-3.6773714E-1,-9.6508473E-1,-8.882265E-1,5.4161917E-2,-6.1536616E-1,-4.1593018E-1,-3.1626377E-1,-2.9823298E-2,-2.6157132E-1,-6.865587E-2,-6.935364E-3,-3.7207088E-1,4.5655552E-1,-3.5196242E-1,-3.1850547E-2,2.6177034E-1,2.8878996E-1,4.227713E-1,4.963541E-1,6.3637006E-1,5.605869E-1,-4.0056524E-1,1.0101984E0,1.250083E0,1.0459862E-1,1.2367307E0,1.8731581E0,1.0013354E0],"categories":[],"categories_nodes":[],"categories_segments":[],"categories_sizes":[],"default_left":[0,0,0,0,0,0,0,0,0,0,0,0,0,0,0,0,0,0,0,0,0,0,0,0,0,0,0,0,0,0,0,0,0,0,0,0,0,0,0,0,0,0,0,0,0,0,0,0,0,0,0,0,0,0,0,0,0,0,0,0,0,0,0],"id":16,"left_children":[1,3,5,7,9,11,13,15,17,19,21,23,25,27,29,31,33,35,37,39,41,43,45,47,49,51,53,55,57,59,61,-1,-1,-1,-1,-1,-1,-1,-1,-1,-1,-1,-1,-1,-1,-1,-1,-1,-1,-1,-1,-1,-1,-1,-1,-1,-1,-1,-1,-1,-1,-1,-1],"loss_changes":[4.9392325E6,6.902825E5,5.3731E5,1.374725E4,7.39625E3,5.7099438E4,3.364525E4,3.539E3,7.174375E3,4.0994844E3,4.2303516E3,6.776764E3,1.4207625E4,1.4690625E4,1.3388E4,7.78625E2,1.0850625E3,7.607748E3,2.8331094E3,1.3202578E3,2.6954688E3,2.099711E3,4.2407905E3,8.596582E3,2.2858503E3,4.3071562E3,4.0000312E3,3.6506104E3,2.5615E3,4.4815E3,4.9123594E3,0E0,0E0,0E0,0E0,0E0,0E0,0E0,0E0,0E0,0E0,0E0,0E0,0E0,0E0,0E0,0E0,0E0,0E0,0E0,0E0,0E0,0E0,0E0,0E0,0E0,0E0,0E0,0E0,0E0,0E0,0E0,0E0],"parents":[2147483647,0,0,1,1,2,2,3,3,4,4,5,5,6,6,7,7,8,8,9,9,10,10,11,11,12,12,13,13,14,14,15,15,16,16,17,17,18,18,19,19,20,20,21,21,22,22,23,23,24,24,25,25,26,26,27,27,28,28,29,29,30,30],"right_children":[2,4,6,8,10,12,14,16,18,20,22,24,26,28,30,32,34,36,38,40,42,44,46,48,50,52,54,56,58,60,62,-1,-1,-1,-1,-1,-1,-1,-1,-1,-1,-1,-1,-1,-1,-1,-1,-1,-1,-1,-1,-1,-1,-1,-1,-1,-1,-1,-1,-1,-1,-1,-1],"split_conditions":[8.3E1,5E1,1.15E2,5.3933334E1,7E1,9.4E1,1.38E2,3.9E1,4E1,6.8E1,7.9E1,5.7E1,1.04E2,8.6433334E1,1.69E2,3.68E1,3.95E1,5.1E1,1.63E2,5.2E1,7.61E1,7.7E1,1.13E2,7E0,5.1E1,1.0123333E2,1.09E2,5.6E1,1.4246666E2,6.7E1,1.41E2,-1.071071E0,-1.0019296E0,-9.656605E-1,-8.83697E-1,-3.6773714E-1,-9.6508473E-1,-8.882265E-1,5.4161917E-2,-6.1536616E-1,-4.1593018E-1,-3.1626377E-1,-2.9823298E-2,-2.6157132E-1,-6.865587E-2,-6.935364E-3,-3.7207088E-1,4.5655552E-1,-3.5196242E-1,-3.1850547E-2,2.6177034E-1,2.8878996E-1,4.227713E-1,4.963541E-1,6.3637006E-1,5.605869E-1,-4.0056524E-1,1.0101984E0,1.250083E0,1.0459862E-1,1.2367307E0,1.8731581E0,1.0013354E0],"split_indices":[3,3,3,7,3,4,3,3,5,3,7,7,3,7,3,7,7,4,6,3,7,3,4,0,6,7,3,0,7,5,6,0,0,0,0,0,0,0,0,0,0,0,0,0,0,0,0,0,0,0,0,0,0,0,0,0,0,0,0,0,0,0,0],"split_type":[0,0,0,0,0,0,0,0,0,0,0,0,0,0,0,0,0,0,0,0,0,0,0,0,0,0,0,0,0,0,0,0,0,0,0,0,0,0,0,0,0,0,0,0,0,0,0,0,0,0,0,0,0,0,0,0,0,0,0,0,0,0,0],"sum_hessian":[2.7663E4,1.5116E4,1.2547E4,7.169E3,7.947E3,6.317E3,6.23E3,6.432E3,7.37E2,4.726E3,3.221E3,5.5E2,5.767E3,4.872E3,1.358E3,4.237E3,2.195E3,2.62E2,4.75E2,4.62E2,4.264E3,2.759E3,4.62E2,2.85E2,2.65E2,2.476E3,3.291E3,1.38E2,4.734E3,1.211E3,1.47E2,7.57E2,3.48E3,1.286E3,9.09E2,1.87E2,7.5E1,4.67E2,8E0,1.18E2,3.44E2,4.18E3,8.4E1,2.609E3,1.5E2,3.61E2,1.01E2,3.7E1,2.48E2,1.42E2,1.23E2,1.064E3,1.412E3,2.638E3,6.53E2,1.28E2,1E1,4.602E3,1.32E2,9E0,1.202E3,1.24E2,2.3E1],"tree_param":{"num_deleted":"0","num_feature":"8","num_nodes":"63","size_leaf_vector":"1"}},{"base_weights":[1.0365435E-2,-1.149929E1,1.4050566E1,-1.8262632E1,-5.474991E0,7.8374395E0,2.0277493E1,-1.8961878E1,-1.5615937E1,-6.1975946E0,-4.4110537E0,-3.0210474E0,8.530934E0,1.9012714E1,2.4582762E1,-1.9034544E1,-1.2134933E1,-1.4686706E1,-1.8437132E1,-8.700065E0,-5.920562E0,-4.83806E0,-2.583377E0,-3.903006E0,1.828857E1,5.006698E0,9.240416E0,1.9320282E1,8.193168E0,2.345067E1,3.297878E1,-1.0201135E0,-9.4253695E-1,-2.9264113E-1,-7.974281E-1,-6.7926234E-1,-9.4993657E-1,-6.0689586E-1,-9.4218457E-1,-4.629047E-1,-1.5307757E-1,-3.0053613E-1,-8.251346E-2,-2.4969296E-1,1.53711615E-2,-6.619399E-2,-3.6825135E-1,-3.349435E-1,5.668986E-2,2.0152776E0,6.918481E-1,1.6824292E-1,2.9454184E-1,3.6499158E-1,4.8769543E-1,9.5475286E-1,1.1774051E0,6.9646674E-1,-2.8140409E-2,-6.951632E-1,1.1746054E0,1.0731275E0,1.7447817E0],"categories":[],"categories_nodes":[],"categories_segments":[],"categories_sizes":[],"default_left":[0,0,0,0,0,0,0,0,0,0,0,0,0,0,0,0,0,0,0,0,0,0,0,0,0,0,0,0,0,0,0,0,0,0,0,0,0,0,0,0,0,0,0,0,0,0,0,0,0,0,0,0,0,0,0,0,0,0,0,0,0,0,0],"id":17,"left_children":[1,3,5,7,9,11,13,15,17,19,21,23,25,27,29,31,33,35,37,39,41,43,45,47,49,51,53,55,57,59,61,-1,-1,-1,-1,-1,-1,-1,-1,-1,-1,-1,-1,-1,-1,-1,-1,-1,-1,-1,-1,-1,-1,-1,-1,-1,-1,-1,-1,-1,-1,-1,-1],"loss_changes":[4.4428105E6,6.154664E5,4.7900025E5,1.28755E4,6.1169688E3,4.6721156E4,3.321125E4,2.55925E3,3.6431562E3,3.2463594E3,2.5129727E3,7.0816196E3,1.4528469E4,1.5765E4,1.254325E4,1.014375E3,1.3920293E3,5.0993594E3,7.0860156E2,1.4567852E3,1.64025E3,2.1035E3,3.6940713E3,5.0631104E3,9.124585E2,1.4013086E3,4.7626875E3,3.979875E3,6.738089E3,2.242875E3,2.8713594E3,0E0,0E0,0E0,0E0,0E0,0E0,0E0,0E0,0E0,0E0,0E0,0E0,0E0,0E0,0E0,0E0,0E0,0E0,0E0,0E0,0E0,0E0,0E0,0E0,0E0,0E0,0E0,0E0,0E0,0E0,0E0,0E0],"parents":[2147483647,0,0,1,1,2,2,3,3,4,4,5,5,6,6,7,7,8,8,9,9,10,10,11,11,12,12,13,13,14,14,15,15,16,16,17,17,18,18,19,19,20,20,21,21,22,22,23,23,24,24,25,25,26,26,27,27,28,28,29,29,30,30],"right_children":[2,4,6,8,10,12,14,16,18,20,22,24,26,28,30,32,34,36,38,40,42,44,46,48,50,52,54,56,58,60,62,-1,-1,-1,-1,-1,-1,-1,-1,-1,-1,-1,-1,-1,-1,-1,-1,-1,-1,-1,-1,-1,-1,-1,-1,-1,-1,-1,-1,-1,-1,-1,-1],"split_conditions":[8.3E1,5E1,1.15E2,4.7233334E1,7E1,4.2E1,1.36E2,4.8E1,9.9E1,6.8E1,7.836667E1,1.05E2,9.8E1,1.33E2,1.64E2,3.7E1,3.5E1,1.5E1,1E0,1.08E2,7.61E1,8.1E1,8.3E1,5.7E1,7E0,9.6E1,1.0226667E2,1.3993333E2,7.1E1,6.6E1,2E0,-1.0201135E0,-9.4253695E-1,-2.9264113E-1,-7.974281E-1,-6.7926234E-1,-9.4993657E-1,-6.0689586E-1,-9.4218457E-1,-4.629047E-1,-1.5307757E-1,-3.0053613E-1,-8.251346E-2,-2.4969296E-1,1.53711615E-2,-6.619399E-2,-3.6825135E-1,-3.349435E-1,5.668986E-2,2.0152776E0,6.918481E-1,1.6824292E-1,2.9454184E-1,3.6499158E-1,4.8769543E-1,9.5475286E-1,1.1774051E0,6.9646674E-1,-2.8140409E-2,-6.951632E-1,1.1746054E0,1.0731275E0,1.7447817E0],"split_indices":[3,3,3,7,3,4,3,3,4,3,7,3,3,3,3,3,0,1,1,5,7,3,4,7,0,3,7,7,5,4,2,0,0,0,0,0,0,0,0,0,0,0,0,0,0,0,0,0,0,0,0,0,0,0,0,0,0,0,0,0,0,0,0],"split_type":[0,0,0,0,0,0,0,0,0,0,0,0,0,0,0,0,0,0,0,0,0,0,0,0,0,0,0,0,0,0,0,0,0,0,0,0,0,0,0,0,0,0,0,0,0,0,0,0,0,0,0,0,0,0,0,0,0,0,0,0,0,0,0],"sum_hessian":[2.7491E4,1.5107E4,1.2384E4,7.116E3,7.991E3,6.2E3,6.184E3,5.624E3,1.492E3,4.756E3,3.235E3,3.72E2,5.828E3,4.784E3,1.4E3,5.563E3,6.1E1,1.127E3,3.65E2,4.71E2,4.285E3,2.621E3,6.14E2,3.58E2,1.4E1,9.78E2,4.85E3,4.651E3,1.33E2,1.237E3,1.63E2,6.46E2,4.917E3,2.4E1,3.7E1,9.01E2,2.26E2,2.4E1,3.41E2,4.28E2,4.3E1,4.196E3,8.9E1,2.544E3,7.7E1,4.87E2,1.27E2,2.3E2,1.28E2,1E0,1.3E1,3.44E2,6.34E2,1.018E3,3.832E3,4.421E3,2.3E2,8E1,5.3E1,1E0,1.236E3,2.5E1,1.38E2],"tree_param":{"num_deleted":"0","num_feature":"8","num_nodes":"63","size_leaf_vector":"1"}},{"base_weights":[-4.099662E-2,-1.0856608E1,1.3277023E1,-1.7189825E1,-5.0518494E0,7.401946E0,1.9181244E1,-1.7848574E1,-1.360851E1,-5.5562744E0,-3.4456565E0,-3.528412E0,8.166532E0,1.8059126E1,2.3056032E1,-1.8378973E1,-1.6992914E1,-1.034086E1,-1.5999989E1,-5.6308184E0,4.0189052E-1,-3.0530295E0,-7.0490565E0,5.187914E0,-4.732557E0,6.5343432E0,9.43175E0,1.8403399E1,7.2410197E0,2.2051931E1,3.1382809E1,-1.6523999E0,-9.169661E-1,7.1411467E-1,-8.5192263E-1,-3.675321E-1,-8.329854E-1,-1.0743032E0,-7.61731E-1,-5.391542E-2,-2.8356048E-1,-4.2619653E-2,9.191598E-1,-1.8671836E-1,1.1107429E-2,-3.7775835E-1,-9.387542E-2,-3.715391E-1,5.150798E-1,-4.5251185E-1,-7.591829E-2,3.075161E-1,5.0825334E-1,4.4194674E-1,5.6106067E-1,9.1381735E-1,1.2864913E0,6.109903E-1,7.645665E-2,3.3232945E-1,1.1092095E0,1.6558539E0,1.1019032E0],"categories":[],"categories_nodes":[],"categories_segments":[],"categories_sizes":[],"default_left":[0,0,0,0,0,0,0,0,0,0,0,0,0,0,0,0,0,0,0,0,0,0,0,0,0,0,0,0,0,0,0,0,0,0,0,0,0,0,0,0,0,0,0,0,0,0,0,0,0,0,0,0,0,0,0,0,0,0,0,0,0,0,0],"id":18,"left_children":[1,3,5,7,9,11,13,15,17,19,21,23,25,27,29,31,33,35,37,39,41,43,45,47,49,51,53,55,57,59,61,-1,-1,-1,-1,-1,-1,-1,-1,-1,-1,-1,-1,-1,-1,-1,-1,-1,-1,-1,-1,-1,-1,-1,-1,-1,-1,-1,-1,-1,-1,-1,-1],"loss_changes":[3.9938675E6,5.624206E5,4.3088825E5,1.701925E4,6.4503438E3,5.2094156E4,2.6528E4,2.49125E3,8.750891E3,2.7004375E3,2.6821445E3,4.3068047E3,1.1963281E4,1.7781E4,1.0912875E4,1.60475E3,3.6286875E3,9.041484E3,2.4313281E3,1.0971875E3,1.7297474E3,3.8501719E3,4.7526465E2,3.3029482E3,4.9684053E3,3.4873125E3,3.3781875E3,3.868375E3,4.247053E3,2.383125E3,1.6524844E3,0E0,0E0,0E0,0E0,0E0,0E0,0E0,0E0,0E0,0E0,0E0,0E0,0E0,0E0,0E0,0E0,0E0,0E0,0E0,0E0,0E0,0E0,0E0,0E0,0E0,0E0,0E0,0E0,0E0,0E0,0E0,0E0],"parents":[2147483647,0,0,1,1,2,2,3,3,4,4,5,5,6,6,7,7,8,8,9,9,10,10,11,11,12,12,13,13,14,14,15,15,16,16,17,17,18,18,19,19,20,20,21,21,22,22,23,23,24,24,25,25,26,26,27,27,28,28,29,29,30,30],"right_children":[2,4,6,8,10,12,14,16,18,20,22,24,26,28,30,32,34,36,38,40,42,44,46,48,50,52,54,56,58,60,62,-1,-1,-1,-1,-1,-1,-1,-1,-1,-1,-1,-1,-1,-1,-1,-1,-1,-1,-1,-1,-1,-1,-1,-1,-1,-1,-1,-1,-1,-1,-1,-1],"split_conditions":[9.3E1,5.2E1,1.16E2,5.1433334E1,7.1166664E1,5.1E1,1.37E2,3.8266666E1,4E1,7.3E1,8.5E1,3.9E1,1.04E2,1.33E2,1.406E2,2.3E1,2.3E1,4E1,3.9E1,4E1,1.01E2,8.086667E1,1.0036667E2,3E0,1.03E2,1.133E2,1.08E2,1.91E2,7.1E1,6.7E1,4.8E1,-1.6523999E0,-9.169661E-1,7.1411467E-1,-8.5192263E-1,-3.675321E-1,-8.329854E-1,-1.0743032E0,-7.61731E-1,-5.391542E-2,-2.8356048E-1,-4.2619653E-2,9.191598E-1,-1.8671836E-1,1.1107429E-2,-3.7775835E-1,-9.387542E-2,-3.715391E-1,5.150798E-1,-4.5251185E-1,-7.591829E-2,3.075161E-1,5.0825334E-1,4.4194674E-1,5.6106067E-1,9.1381735E-1,1.2864913E0,6.109903E-1,7.645665E-2,3.3232945E-1,1.1092095E0,1.6558539E0,1.1019032E0],"split_indices":[3,3,3,7,7,4,3,7,5,3,4,5,3,3,7,3,3,4,4,5,6,7,7,1,3,7,3,6,6,5,0,0,0,0,0,0,0,0,0,0,0,0,0,0,0,0,0,0,0,0,0,0,0,0,0,0,0,0,0,0,0,0,0],"split_type":[0,0,0,0,0,0,0,0,0,0,0,0,0,0,0,0,0,0,0,0,0,0,0,0,0,0,0,0,0,0,0,0,0,0,0,0,0,0,0,0,0,0,0,0,0,0,0,0,0,0,0,0,0,0,0,0,0,0,0,0,0,0,0],"sum_hessian":[2.7725E4,1.53E4,1.2425E4,7.316E3,7.984E3,6.229E3,6.196E3,6.176E3,1.14E3,6.074E3,1.91E3,4.07E2,5.822E3,4.809E3,1.387E3,3.8E3,2.376E3,4.84E2,6.56E2,5.999E3,7.5E1,1.724E3,1.86E2,4.9E1,3.58E2,2.545E3,3.277E3,4.66E3,1.49E2,1.241E3,1.46E2,8E0,3.792E3,3E0,2.373E3,3.3E2,1.54E2,7.7E1,5.79E2,5.3E1,5.946E3,7.1E1,4E0,1.427E3,2.97E2,1.69E2,1.7E1,1.4E1,3.5E1,1.52E2,2.06E2,2.304E3,2.41E2,2.466E3,8.11E2,4.584E3,7.6E1,7.9E1,7E1,1.1E1,1.23E3,1.21E2,2.5E1],"tree_param":{"num_deleted":"0","num_feature":"8","num_nodes":"63","size_leaf_vector":"1"}},{"base_weights":[-2.4605593E-2,-1.03973465E1,1.2514174E1,-1.6488556E1,-4.956781E0,6.9462023E0,1.8160019E1,-1.6881252E1,-1.2747867E1,-5.5844817E0,-4.033597E0,-1.507672E0,7.748163E0,1.7215046E1,2.220604E1,-1.7405798E1,-1.5897537E1,-8.267336E0,-1.4925922E1,-7.819121E0,-5.3411446E0,-4.2530947E0,-7.364052E-1,-2.4680927E0,9.784415E0,5.1640873E0,8.536536E0,6.8926153E0,1.7578873E1,2.1217485E1,3.1837852E1,-8.958279E-1,-8.496842E-1,-8.0433905E-1,-5.6387585E-1,-1.793581E-1,-8.4356827E-1,-8.077354E-1,-5.427312E-1,8.745114E-1,-4.010882E-1,-2.7182433E-1,4.654682E-2,-2.2328554E-1,-4.3034222E-2,-5.7855815E-2,2.106181E0,-2.0027025E-1,1.1125404E-1,7.4448675E-1,-1.5712272E-1,2.296658E-1,4.6107933E-1,4.097409E-1,5.9263223E-1,2.3921406E-1,9.8912567E-1,8.549557E-1,9.581203E-1,2.9702798E-1,1.0685643E0,1.7494402E0,1.0849037E0],"categories":[],"categories_nodes":[],"categories_segments":[],"categories_sizes":[],"default_left":[0,0,0,0,0,0,0,0,0,0,0,0,0,0,0,0,0,0,0,0,0,0,0,0,0,0,0,0,0,0,0,0,0,0,0,0,0,0,0,0,0,0,0,0,0,0,0,0,0,0,0,0,0,0,0,0,0,0,0,0,0,0,0],"id":19,"left_children":[1,3,5,7,9,11,13,15,17,19,21,23,25,27,29,31,33,35,37,39,41,43,45,47,49,51,53,55,57,59,61,-1,-1,-1,-1,-1,-1,-1,-1,-1,-1,-1,-1,-1,-1,-1,-1,-1,-1,-1,-1,-1,-1,-1,-1,-1,-1,-1,-1,-1,-1,-1,-1],"loss_changes":[3.5893078E6,5.0042588E5,3.92634E5,1.0251125E4,4.601172E3,4.2669438E4,2.333425E4,3.048875E3,6.522383E3,2.5395312E3,2.3366719E3,5.9456035E3,1.166375E4,1.8780625E4,1.04741875E4,5.78125E2,1.788375E3,8.999859E3,2.1109062E3,2.520045E3,2.5668672E3,2.1823633E3,3.7091738E3,3.6452078E3,2.8846094E3,3.0748516E3,4.891125E3,4.606839E3,3.365375E3,2.375375E3,2.6594531E3,0E0,0E0,0E0,0E0,0E0,0E0,0E0,0E0,0E0,0E0,0E0,0E0,0E0,0E0,0E0,0E0,0E0,0E0,0E0,0E0,0E0,0E0,0E0,0E0,0E0,0E0,0E0,0E0,0E0,0E0,0E0,0E0],"parents":[2147483647,0,0,1,1,2,2,3,3,4,4,5,5,6,6,7,7,8,8,9,9,10,10,11,11,12,12,13,13,14,14,15,15,16,16,17,17,18,18,19,19,20,20,21,21,22,22,23,23,24,24,25,25,26,26,27,27,28,28,29,29,30,30],"right_children":[2,4,6,8,10,12,14,16,18,20,22,24,26,28,30,32,34,36,38,40,42,44,46,48,50,52,54,56,58,60,62,-1,-1,-1,-1,-1,-1,-1,-1,-1,-1,-1,-1,-1,-1,-1,-1,-1,-1,-1,-1,-1,-1,-1,-1,-1,-1,-1,-1,-1,-1,-1,-1],"split_conditions":[8.3E1,5E1,1.15E2,5.4733334E1,7E1,9.4E1,1.39E2,3.9E1,4E1,6.8E1,7.9E1,1.05E2,9.9E1,7.6E1,1.75E2,3.8E1,4.7E1,4E1,4.2E1,3.9E1,7.87E1,8.296667E1,1.08E2,5E1,7.1E1,1.133E2,1.1E2,5E1,1.3E2,6.7E1,1.41E2,-8.958279E-1,-8.496842E-1,-8.0433905E-1,-5.6387585E-1,-1.793581E-1,-8.4356827E-1,-8.077354E-1,-5.427312E-1,8.745114E-1,-4.010882E-1,-2.7182433E-1,4.654682E-2,-2.2328554E-1,-4.3034222E-2,-5.7855815E-2,2.106181E0,-2.0027025E-1,1.1125404E-1,7.4448675E-1,-1.5712272E-1,2.296658E-1,4.6107933E-1,4.097409E-1,5.9263223E-1,2.3921406E-1,9.8912567E-1,8.549557E-1,9.581203E-1,2.9702798E-1,1.0685643E0,1.7494402E0,1.0849037E0],"split_indices":[3,3,3,7,3,4,3,3,5,3,3,3,3,4,3,4,3,4,0,4,7,7,4,4,5,7,3,0,3,5,5,0,0,0,0,0,0,0,0,0,0,0,0,0,0,0,0,0,0,0,0,0,0,0,0,0,0,0,0,0,0,0,0],"split_type":[0,0,0,0,0,0,0,0,0,0,0,0,0,0,0,0,0,0,0,0,0,0,0,0,0,0,0,0,0,0,0,0,0,0,0,0,0,0,0,0,0,0,0,0,0,0,0,0,0,0,0,0,0,0,0,0,0,0,0,0,0,0,0],"sum_hessian":[2.7595E4,1.5102E4,1.2493E4,7.124E3,7.978E3,6.291E3,6.202E3,6.444E3,6.8E2,4.746E3,3.232E3,5.45E2,5.746E3,5.032E3,1.17E3,4.192E3,2.252E3,2.24E2,4.56E2,4.63E2,4.283E3,3.03E3,2.02E2,5.03E2,4.2E1,1.345E3,4.401E3,1.72E2,4.86E3,1.064E3,1.06E2,1.853E3,2.339E3,2.161E3,9.1E1,1.46E2,7.8E1,3.48E2,1.08E2,3E0,4.6E2,4.219E3,6.4E1,2.851E3,1.79E2,2.01E2,1E0,3.79E2,1.24E2,3E1,1.2E1,1.181E3,1.64E2,3.993E3,4.08E2,1.49E2,2.3E1,3.739E3,1.121E3,1.1E1,1.053E3,7.9E1,2.7E1],"tree_param":{"num_deleted":"0","num_feature":"8","num_nodes":"63","size_leaf_vector":"1"}},{"base_weights":[3.4836374E-2,-9.82309E0,1.2011346E1,-1.5667785E1,-4.6509686E0,6.8113546E0,1.7212751E1,-1.6213453E1,-1.2975498E1,-5.394072E0,-3.5404131E0,9.108906E-1,7.6412787E0,1.619319E1,2.075994E1,-1.6884104E1,-1.583009E1,-1.7141031E1,-1.2100045E1,-9.821308E0,-5.2174635E0,-4.214212E0,-1.752589E0,-1.7031361E0,3.570553E0,6.343415E0,8.655256E0,1.6521893E1,5.29942E0,1.990184E1,2.9169338E1,-1.3136289E0,-8.4203666E-1,7.260345E-1,-7.9290766E-1,-6.833768E-1,-9.782812E-1,-5.1813215E-1,-7.943946E-1,-7.1653806E-2,-5.5697453E-1,-2.6330966E-1,-1.0977751E-1,1.4619368E0,-2.1205361E-1,-1.0892167E-1,4.1576338E-1,-4.218944E-2,-9.66031E-1,4.9753687E-1,1.3647164E-1,2.9489347E-1,5.1234895E-1,4.023899E-1,5.184224E-1,8.078827E-1,9.060337E-1,4.92523E-1,-2.360921E-2,1.0100323E0,5.4910797E-1,-3.7826368E-1,1.4761869E0],"categories":[],"categories_nodes":[],"categories_segments":[],"categories_sizes":[],"default_left":[0,0,0,0,0,0,0,0,0,0,0,0,0,0,0,0,0,0,0,0,0,0,0,0,0,0,0,0,0,0,0,0,0,0,0,0,0,0,0,0,0,0,0,0,0,0,0,0,0,0,0,0,0,0,0,0,0,0,0,0,0,0,0],"id":20,"left_children":[1,3,5,7,9,11,13,15,17,19,21,23,25,27,29,31,33,35,37,39,41,43,45,47,49,51,53,55,57,59,61,-1,-1,-1,-1,-1,-1,-1,-1,-1,-1,-1,-1,-1,-1,-1,-1,-1,-1,-1,-1,-1,-1,-1,-1,-1,-1,-1,-1,-1,-1,-1,-1],"loss_changes":[3.2512338E6,4.5654325E5,3.3616138E5,1.0207125E4,6.5953438E3,3.0447062E4,2.214075E4,1.2475E3,4.1686562E3,3.7018281E3,3.8667188E3,5.3455464E3,7.1199688E3,1.7215E4,9.4065625E3,4.24125E2,3.4370625E3,1.4674805E3,6.3834688E3,2.0075078E3,6.6846094E2,2.222125E3,3.7995488E3,5.857838E3,2.017478E3,4.1049844E3,3.099E3,2.438375E3,3.760804E3,3.1336562E3,1.8637109E3,0E0,0E0,0E0,0E0,0E0,0E0,0E0,0E0,0E0,0E0,0E0,0E0,0E0,0E0,0E0,0E0,0E0,0E0,0E0,0E0,0E0,0E0,0E0,0E0,0E0,0E0,0E0,0E0,0E0,0E0,0E0,0E0],"parents":[2147483647,0,0,1,1,2,2,3,3,4,4,5,5,6,6,7,7,8,8,9,9,10,10,11,11,12,12,13,13,14,14,15,15,16,16,17,17,18,18,19,19,20,20,21,21,22,22,23,23,24,24,25,25,26,26,27,27,28,28,29,29,30,30],"right_children":[2,4,6,8,10,12,14,16,18,20,22,24,26,28,30,32,34,36,38,40,42,44,46,48,50,52,54,56,58,60,62,-1,-1,-1,-1,-1,-1,-1,-1,-1,-1,-1,-1,-1,-1,-1,-1,-1,-1,-1,-1,-1,-1,-1,-1,-1,-1,-1,-1,-1,-1,-1,-1],"split_conditions":[8.3E1,4.9E1,1.15E2,4.96E1,7E1,9.6E1,1.37E2,3.78E1,3.9E1,5.2E1,7.4933334E1,4.2E1,1.06E2,1.33E2,1.73E2,2.3E1,2.3E1,7.1E1,5.1E1,3.9E1,8.086667E1,3.7E1,1.35E2,4E1,7.1E1,1.133E2,1.08E2,1.3E2,7.1E1,1.45E2,3.9E1,-1.3136289E0,-8.4203666E-1,7.260345E-1,-7.9290766E-1,-6.833768E-1,-9.782812E-1,-5.1813215E-1,-7.943946E-1,-7.1653806E-2,-5.5697453E-1,-2.6330966E-1,-1.0977751E-1,1.4619368E0,-2.1205361E-1,-1.0892167E-1,4.1576338E-1,-4.218944E-2,-9.66031E-1,4.9753687E-1,1.3647164E-1,2.9489347E-1,5.1234895E-1,4.023899E-1,5.184224E-1,8.078827E-1,9.060337E-1,4.92523E-1,-2.360921E-2,1.0100323E0,5.4910797E-1,-3.7826368E-1,1.4761869E0],"split_indices":[3,3,3,7,3,4,3,7,3,3,7,4,3,3,3,3,3,6,4,6,7,4,6,4,5,7,3,3,5,5,5,0,0,0,0,0,0,0,0,0,0,0,0,0,0,0,0,0,0,0,0,0,0,0,0,0,0,0,0,0,0,0,0],"split_type":[0,0,0,0,0,0,0,0,0,0,0,0,0,0,0,0,0,0,0,0,0,0,0,0,0,0,0,0,0,0,0,0,0,0,0,0,0,0,0,0,0,0,0,0,0,0,0,0,0,0,0,0,0,0,0,0,0,0,0,0,0,0,0],"sum_hessian":[2.7536E4,1.5104E4,1.2432E4,7.09E3,8.014E3,6.218E3,6.214E3,5.891E3,1.199E3,4.799E3,3.215E3,7.67E2,5.451E3,4.831E3,1.383E3,2.127E3,3.764E3,2.05E2,9.94E2,1.82E2,4.617E3,2.334E3,8.81E2,3.87E2,3.8E2,2.394E3,3.057E3,4.689E3,1.42E2,1.258E3,1.25E2,7E0,2.12E3,3E0,3.761E3,8.7E1,1.18E2,6.84E2,3.1E2,2.5E1,1.57E2,4.543E3,7.4E1,1E0,2.333E3,8.46E2,3.5E1,3.7E2,1.7E1,4.3E1,3.37E2,2.151E3,2.43E2,2.261E3,7.96E2,3.828E3,8.61E2,7.9E1,6.3E1,1.216E3,4.2E1,1E0,1.24E2],"tree_param":{"num_deleted":"0","num_feature":"8","num_nodes":"63","size_leaf_vector":"1"}},{"base_weights":[-1.8971924E-2,-9.302834E0,1.1386016E1,-1.4954728E1,-4.3920746E0,6.462062E0,1.6328867E1,-1.5386355E1,-1.2318887E1,-4.568599E0,-9.63521E-2,-2.41246E0,7.0323715E0,1.5330719E1,1.9729605E1,-1.5773102E1,-1.474847E1,-9.856245E0,-1.4479496E1,-4.6466556E0,4.3058288E-1,5.641999E-2,-8.179962E-1,-3.2290065E0,1.7399925E1,5.0792737E0,7.883161E0,6.035526E0,1.5649519E1,1.9280422E1,3.1444967E1,-1.4779854E0,-7.867924E-1,7.0959E-1,-7.396175E-1,-3.4594545E-1,-7.8063816E-1,-8.147796E-1,-6.047311E-1,-4.208385E-1,-2.2765636E-1,-3.8684246E-1,1.6648872E-1,-1.9684939E-2,2.3822883E-1,-1.2674047E-1,-9.019605E-1,4.1779032E-1,2.0091152E0,-3.7853953E-1,2.6731354E-1,6.907266E-1,3.842375E-1,8.132766E-1,1.4671752E-1,7.662192E-1,8.3724326E-1,-2.5654393E-1,9.687563E-1,1.8588701E0,5.998552E-2],"categories":[],"categories_nodes":[],"categories_segments":[],"categories_sizes":[],"default_left":[0,0,0,0,0,0,0,0,0,0,0,0,0,0,0,0,0,0,0,0,0,0,0,0,0,0,0,0,0,0,0,0,0,0,0,0,0,0,0,0,0,0,0,0,0,0,0,0,0,0,0,0,0,0,0,0,0,0,0,0,0],"id":21,"left_children":[1,3,5,7,9,11,13,15,17,19,21,23,25,27,29,31,33,35,37,39,41,43,-1,45,47,49,51,53,55,57,59,-1,-1,-1,-1,-1,-1,-1,-1,-1,-1,-1,-1,-1,-1,-1,-1,-1,-1,-1,-1,-1,-1,-1,-1,-1,-1,-1,-1,-1,-1],"loss_changes":[2.9185405E6,4.2167288E5,3.0093588E5,7.84725E3,6.166047E3,3.1386469E4,2.0648E4,1.26375E3,5.1727812E3,3.05E3,8.0097064E2,6.122836E3,9.6375625E3,1.405825E4,6.745125E3,1.467125E3,3.1370938E3,7.839125E3,2.0984219E3,2.673625E3,2.8909146E3,6.8002924E2,0E0,3.6657886E3,2.7549424E3,6.018703E3,4.665953E3,5.0282773E3,1.38775E3,3.2158438E3,8.624348E3,0E0,0E0,0E0,0E0,0E0,0E0,0E0,0E0,0E0,0E0,0E0,0E0,0E0,0E0,0E0,0E0,0E0,0E0,0E0,0E0,0E0,0E0,0E0,0E0,0E0,0E0,0E0,0E0,0E0,0E0],"parents":[2147483647,0,0,1,1,2,2,3,3,4,4,5,5,6,6,7,7,8,8,9,9,10,10,11,11,12,12,13,13,14,14,15,15,16,16,17,17,18,18,19,19,20,20,21,21,23,23,24,24,25,25,26,26,27,27,28,28,29,29,30,30],"right_children":[2,4,6,8,10,12,14,16,18,20,22,24,26,28,30,32,34,36,38,40,42,44,-1,46,48,50,52,54,56,58,60,-1,-1,-1,-1,-1,-1,-1,-1,-1,-1,-1,-1,-1,-1,-1,-1,-1,-1,-1,-1,-1,-1,-1,-1,-1,-1,-1,-1,-1,-1],"split_conditions":[9.3E1,4.9E1,1.17E2,5.1433334E1,7.6E1,4.2E1,1.37E2,3.8266666E1,4E1,1.33E2,8.9E1,1.05E2,1.0226667E2,9.3166664E1,1.94E2,2.3E1,2.3E1,5.1E1,1.01E2,6.5E1,7.61E1,1.01E2,-8.179962E-1,4E1,6.0033333E1,5E0,7.1E1,1.3E1,1.3E2,6.6E1,1.41E2,-1.4779854E0,-7.867924E-1,7.0959E-1,-7.396175E-1,-3.4594545E-1,-7.8063816E-1,-8.147796E-1,-6.047311E-1,-4.208385E-1,-2.2765636E-1,-3.8684246E-1,1.6648872E-1,-1.9684939E-2,2.3822883E-1,-1.2674047E-1,-9.019605E-1,4.1779032E-1,2.0091152E0,-3.7853953E-1,2.6731354E-1,6.907266E-1,3.842375E-1,8.132766E-1,1.4671752E-1,7.662192E-1,8.3724326E-1,-2.5654393E-1,9.687563E-1,1.8588701E0,5.998552E-2],"split_indices":[3,3,3,7,3,4,3,7,6,6,3,3,7,7,3,3,3,4,6,3,7,5,0,4,7,1,6,0,4,4,6,0,0,0,0,0,0,0,0,0,0,0,0,0,0,0,0,0,0,0,0,0,0,0,0,0,0,0,0,0,0],"split_type":[0,0,0,0,0,0,0,0,0,0,0,0,0,0,0,0,0,0,0,0,0,0,0,0,0,0,0,0,0,0,0,0,0,0,0,0,0,0,0,0,0,0,0,0,0,0,0,0,0,0,0,0,0,0,0,0,0,0,0,0,0],"sum_hessian":[2.7562E4,1.5194E4,1.2368E4,7.063E3,8.131E3,6.197E3,6.171E3,6.065E3,9.98E2,7.81E3,3.21E2,3.74E2,5.823E3,4.775E3,1.396E3,3.761E3,2.304E3,4.69E2,5.29E2,7.69E3,1.2E2,3.19E2,2E0,3.6E2,1.4E1,1.769E3,4.054E3,1.59E2,4.616E3,1.347E3,4.9E1,8E0,3.753E3,3E0,2.301E3,3.12E2,1.57E2,2.97E2,2.32E2,1.84E2,7.506E3,3.1E1,8.9E1,2.92E2,2.7E1,3.45E2,1.5E1,1.1E1,3E0,3.6E1,1.733E3,1.29E2,3.925E3,3.6E1,1.23E2,3.571E3,1.045E3,5E0,1.342E3,4.1E1,8E0],"tree_param":{"num_deleted":"0","num_feature":"8","num_nodes":"61","size_leaf_vector":"1"}},{"base_weights":[1.9513967E-2,-8.890039E0,1.0777642E1,-1.4139537E1,-4.2360125E0,5.9568267E0,1.568285E1,-1.4755069E1,-1.2198008E1,-7.139733E0,-4.033457E0,-2.859563E0,6.5669303E0,1.5337932E1,2.5666275E1,-2.6489372E1,-1.4730547E1,-1.1416394E1,-1.4663698E1,-6.599389E0,-1.0321821E1,-4.491945E0,-2.5222552E0,5.8241835E0,-4.306954E0,4.1625934E0,7.3192296E0,8.647989E0,1.5616001E1,2.8624254E1,1.7811235E1,-1.5139458E0,-3.7770674E-1,-7.630846E-1,-7.221549E-1,-7.359852E-1,-5.21408E-1,-7.5345236E-1,-4.6109405E-1,-3.3616373E-1,7.02965E-1,-5.506621E-1,4.856444E-1,-2.2835068E-1,-1.0969205E-1,-3.9964434E-2,-1.6860104E-1,4.692602E-1,-3.1461617E-1,-3.7009096E-1,2.162133E-2,1.858413E-1,3.8768205E-1,3.5029355E-1,4.628226E-1,5.504395E-1,3.963041E-2,7.32171E-1,8.718872E-1,1.4710227E0,-1.5574646E-3,3.2935035E-1,1.1289144E0],"categories":[],"categories_nodes":[],"categories_segments":[],"categories_sizes":[],"default_left":[0,0,0,0,0,0,0,0,0,0,0,0,0,0,0,0,0,0,0,0,0,0,0,0,0,0,0,0,0,0,0,0,0,0,0,0,0,0,0,0,0,0,0,0,0,0,0,0,0,0,0,0,0,0,0,0,0,0,0,0,0,0,0],"id":22,"left_children":[1,3,5,7,9,11,13,15,17,19,21,23,25,27,29,31,33,35,37,39,41,43,45,47,49,51,53,55,57,59,61,-1,-1,-1,-1,-1,-1,-1,-1,-1,-1,-1,-1,-1,-1,-1,-1,-1,-1,-1,-1,-1,-1,-1,-1,-1,-1,-1,-1,-1,-1,-1,-1],"loss_changes":[2.6524602E6,3.6975675E5,2.963465E5,8.320625E3,4.6912188E3,3.4035016E4,2.1000625E4,1.1625E3,3.1435625E3,8.294219E2,5.187953E3,5.1782812E3,1.0668469E4,1.10415E4,4.2765938E3,4.8882812E2,6.02E2,4.1196562E3,7.654297E2,1.2436523E3,1.1320493E3,9.829844E2,2.5580469E3,2.6047354E3,5.1662466E3,2.2314707E3,2.6692812E3,4.479158E3,9.962625E3,3.3776016E3,3.0081582E3,0E0,0E0,0E0,0E0,0E0,0E0,0E0,0E0,0E0,0E0,0E0,0E0,0E0,0E0,0E0,0E0,0E0,0E0,0E0,0E0,0E0,0E0,0E0,0E0,0E0,0E0,0E0,0E0,0E0,0E0,0E0,0E0],"parents":[2147483647,0,0,1,1,2,2,3,3,4,4,5,5,6,6,7,7,8,8,9,9,10,10,11,11,12,12,13,13,14,14,15,15,16,16,17,17,18,18,19,19,20,20,21,21,22,22,23,23,24,24,25,25,26,26,27,27,28,28,29,29,30,30],"right_children":[2,4,6,8,10,12,14,16,18,20,22,24,26,28,30,32,34,36,38,40,42,44,46,48,50,52,54,56,58,60,62,-1,-1,-1,-1,-1,-1,-1,-1,-1,-1,-1,-1,-1,-1,-1,-1,-1,-1,-1,-1,-1,-1,-1,-1,-1,-1,-1,-1,-1,-1,-1,-1],"split_conditions":[8.3E1,4.9E1,1.15E2,4.23E1,6.8E1,5.1E1,1.62E2,2.3E1,7.2E1,8.4E1,7.1166664E1,3.9E1,9.9E1,1.02E2,1.33E2,3.9E1,3.8E1,3.9E1,7.0166664E1,8E1,1.133E2,7.2E1,7.1E1,5.1E1,5.7E1,1.133E2,1.072E2,9.9E1,1.3E2,2.3E1,1.63E2,-1.5139458E0,-3.7770674E-1,-7.630846E-1,-7.221549E-1,-7.359852E-1,-5.21408E-1,-7.5345236E-1,-4.6109405E-1,-3.3616373E-1,7.02965E-1,-5.506621E-1,4.856444E-1,-2.2835068E-1,-1.0969205E-1,-3.9964434E-2,-1.6860104E-1,4.692602E-1,-3.1461617E-1,-3.7009096E-1,2.162133E-2,1.858413E-1,3.8768205E-1,3.5029355E-1,4.628226E-1,5.504395E-1,3.963041E-2,7.32171E-1,8.718872E-1,1.4710227E0,-1.5574646E-3,3.2935035E-1,1.1289144E0],"split_indices":[3,3,3,7,3,4,3,3,4,4,7,5,3,4,5,6,3,3,7,4,7,3,4,6,7,7,7,5,3,1,5,0,0,0,0,0,0,0,0,0,0,0,0,0,0,0,0,0,0,0,0,0,0,0,0,0,0,0,0,0,0,0,0],"split_type":[0,0,0,0,0,0,0,0,0,0,0,0,0,0,0,0,0,0,0,0,0,0,0,0,0,0,0,0,0,0,0,0,0,0,0,0,0,0,0,0,0,0,0,0,0,0,0,0,0,0,0,0,0,0,0,0,0,0,0,0,0,0,0],"sum_hessian":[2.7671E4,1.5136E4,1.2535E4,7.112E3,8.024E3,6.323E3,6.212E3,5.395E3,1.717E3,5.21E2,7.503E3,4.09E2,5.914E3,6.007E3,2.05E2,9E0,5.386E3,1.308E3,4.09E2,4.48E2,7.3E1,5.755E3,1.748E3,5.8E1,3.51E2,1.411E3,4.503E3,2.41E2,5.766E3,1.47E2,5.8E1,7E0,2E0,1.873E3,3.513E3,2.98E2,1.01E3,3.79E2,3E1,4.46E2,2E0,7.1E1,2E0,5.572E3,1.83E2,5.78E2,1.17E3,4.5E1,1.3E1,2.12E2,1.39E2,1.257E3,1.54E2,3.88E3,6.23E2,1.85E2,5.6E1,3.765E3,2.001E3,1.43E2,4E0,1.8E1,4E1],"tree_param":{"num_deleted":"0","num_feature":"8","num_nodes":"63","size_leaf_vector":"1"}},{"base_weights":[4.5696825E-2,-8.371341E0,1.0352891E1,-1.3358221E1,-3.838525E0,5.762132E0,1.4943461E1,-1.4048112E1,-1.1642804E1,-4.3053274E0,-2.3575795E0,-1.743852E0,6.3186727E0,1.4661535E1,2.681394E1,-1.5042204E1,-1.3880831E1,1.802336E1,-1.17084875E1,-3.5280818E-1,-4.374913E0,-1.9853231E0,-6.214571E0,6.333814E0,-3.0455127E0,3.6726642E0,6.8328104E0,1.4017825E1,1.7129547E1,1.985278E1,3.175026E1,-1.0693551E0,-7.480154E-1,-3.9198828E-1,-6.947042E-1,1.4146495E0,-5.76379E-1,-7.10068E-1,-5.500105E-1,-4.9239628E-2,1.6501387E0,-2.2510663E-1,-1.749355E-1,-1.3489535E-1,6.503764E-2,-4.3844548E-1,-2.884805E-1,-2.663326E-1,5.728991E-1,-2.2000639E-1,2.0246227E-1,1.8034647E-1,1.1544551E0,3.2318702E-1,4.338734E-1,4.217208E-1,7.1106243E-1,8.609361E-1,-7.4986076E-1,1.2480532E0,-4.603202E-1,1.7918516E0,1.019034E0],"categories":[],"categories_nodes":[],"categories_segments":[],"categories_sizes":[],"default_left":[0,0,0,0,0,0,0,0,0,0,0,0,0,0,0,0,0,0,0,0,0,0,0,0,0,0,0,0,0,0,0,0,0,0,0,0,0,0,0,0,0,0,0,0,0,0,0,0,0,0,0,0,0,0,0,0,0,0,0,0,0,0,0],"id":23,"left_children":[1,3,5,7,9,11,13,15,17,19,21,23,25,27,29,31,33,35,37,39,41,43,45,47,49,51,53,55,57,59,61,-1,-1,-1,-1,-1,-1,-1,-1,-1,-1,-1,-1,-1,-1,-1,-1,-1,-1,-1,-1,-1,-1,-1,-1,-1,-1,-1,-1,-1,-1,-1,-1],"loss_changes":[2.3994982E6,3.4410388E5,2.619295E5,8.41525E3,5.5044297E3,2.5985969E4,2.04095E4,6.500625E2,4.273875E3,1.6662891E3,2.7357637E3,4.540473E3,7.8503438E3,9.4095E3,4.283508E3,6.040625E1,2.460625E2,1.8435359E3,3.5180938E3,2.267003E3,6.485E2,4.0942915E3,1.4035254E2,3.6460437E3,3.5833748E3,1.1215762E3,3.2430938E3,5.3580625E3,3.845E3,9.433236E3,3.0797344E3,0E0,0E0,0E0,0E0,0E0,0E0,0E0,0E0,0E0,0E0,0E0,0E0,0E0,0E0,0E0,0E0,0E0,0E0,0E0,0E0,0E0,0E0,0E0,0E0,0E0,0E0,0E0,0E0,0E0,0E0,0E0,0E0],"parents":[2147483647,0,0,1,1,2,2,3,3,4,4,5,5,6,6,7,7,8,8,9,9,10,10,11,11,12,12,13,13,14,14,15,15,16,16,17,17,18,18,19,19,20,20,21,21,22,22,23,23,24,24,25,25,26,26,27,27,28,28,29,29,30,30],"right_children":[2,4,6,8,10,12,14,16,18,20,22,24,26,28,30,32,34,36,38,40,42,44,46,48,50,52,54,56,58,60,62,-1,-1,-1,-1,-1,-1,-1,-1,-1,-1,-1,-1,-1,-1,-1,-1,-1,-1,-1,-1,-1,-1,-1,-1,-1,-1,-1,-1,-1,-1,-1,-1],"split_conditions":[8.5E1,5.2E1,1.16E2,3.95E1,7.1166664E1,5.1E1,1.72E2,3.68E1,2.3E1,5.2E1,1.29E2,3.9E1,9.8E1,1.37E2,1.3863333E2,2.3E1,3.6E1,4E0,3.9E1,5.1E1,7.1E1,8.086667E1,6.9E1,4E0,1.03E2,1.61E2,1.08E2,1.09E2,1.71E2,1.31E2,1.41E2,-1.0693551E0,-7.480154E-1,-3.9198828E-1,-6.947042E-1,1.4146495E0,-5.76379E-1,-7.10068E-1,-5.500105E-1,-4.9239628E-2,1.6501387E0,-2.2510663E-1,-1.749355E-1,-1.3489535E-1,6.503764E-2,-4.3844548E-1,-2.884805E-1,-2.663326E-1,5.728991E-1,-2.2000639E-1,2.0246227E-1,1.8034647E-1,1.1544551E0,3.2318702E-1,4.338734E-1,4.217208E-1,7.1106243E-1,8.609361E-1,-7.4986076E-1,1.2480532E0,-4.603202E-1,1.7918516E0,1.019034E0],"split_indices":[3,3,3,7,7,4,3,7,3,5,4,5,3,3,7,3,5,2,3,5,3,7,3,1,6,6,3,4,3,6,5,0,0,0,0,0,0,0,0,0,0,0,0,0,0,0,0,0,0,0,0,0,0,0,0,0,0,0,0,0,0,0,0],"split_type":[0,0,0,0,0,0,0,0,0,0,0,0,0,0,0,0,0,0,0,0,0,0,0,0,0,0,0,0,0,0,0,0,0,0,0,0,0,0,0,0,0,0,0,0,0,0,0,0,0,0,0,0,0,0,0,0,0,0,0,0,0,0,0],"sum_hessian":[2.7656E4,1.5224E4,1.2432E4,7.248E3,7.976E3,6.217E3,6.215E3,5.164E3,2.084E3,6.063E3,1.913E3,4.29E2,5.788E3,6.073E3,1.42E2,7.31E2,4.433E3,4E0,2.08E3,1.05E2,5.958E3,1.746E3,1.67E2,5.9E1,3.7E2,9.43E2,4.845E3,4.822E3,1.251E3,6.1E1,8.1E1,6E0,7.25E2,1.1E1,4.422E3,3E0,1E0,4.56E2,1.624E3,1.04E2,1E0,5.199E3,7.59E2,1.435E3,3.11E2,2.2E1,1.45E2,1.8E1,4.1E1,3.11E2,5.9E1,9.41E2,2E0,4.041E3,8.04E2,1.71E2,4.651E3,1.248E3,3E0,5.2E1,9E0,5.8E1,2.3E1],"tree_param":{"num_deleted":"0","num_feature":"8","num_nodes":"63","size_leaf_vector":"1"}},{"base_weights":[6.662542E-2,-7.942249E0,9.8732605E0,-1.271889E1,-3.7306771E0,5.5767627E0,1.407262E1,-1.3346729E1,-1.1059473E1,-4.141975E0,-2.46556E0,-1.3543916E0,6.0704436E0,1.3189902E1,1.7079473E1,-2.5907116E1,-1.3322273E1,-1.0425049E1,-1.3464002E1,-6.131694E0,-4.0425296E0,-2.060979E0,-5.7961216E0,7.8455224E0,-2.771922E0,3.4391875E0,6.550805E0,1.3427189E1,5.933503E0,1.662195E1,2.7967505E1,-1.6079527E0,-5.026215E-1,-6.94493E-1,-6.544607E-1,-4.7205883E-1,-6.759892E-1,-6.9078636E-1,-4.5995092E-1,-5.4994684E-1,-2.6755002E-1,-7.1297586E-3,-2.0574008E-1,-1.4094743E-1,-3.781491E-2,-3.187273E-1,-1.0786313E-1,5.1358354E-1,-6.839981E-1,-7.2284676E-2,-6.3263196E-1,1.6854799E-1,6.4591086E-1,3.1276402E-1,5.107018E-1,6.630089E-1,8.229662E-1,4.8159486E-1,5.65359E-2,8.0687875E-1,1.103877E0,1.5443759E0,5.723344E-1],"categories":[],"categories_nodes":[],"categories_segments":[],"categories_sizes":[],"default_left":[0,0,0,0,0,0,0,0,0,0,0,0,0,0,0,0,0,0,0,0,0,0,0,0,0,0,0,0,0,0,0,0,0,0,0,0,0,0,0,0,0,0,0,0,0,0,0,0,0,0,0,0,0,0,0,0,0,0,0,0,0,0,0],"id":24,"left_children":[1,3,5,7,9,11,13,15,17,19,21,23,25,27,29,31,33,35,37,39,41,43,45,47,49,51,53,55,57,59,61,-1,-1,-1,-1,-1,-1,-1,-1,-1,-1,-1,-1,-1,-1,-1,-1,-1,-1,-1,-1,-1,-1,-1,-1,-1,-1,-1,-1,-1,-1,-1,-1],"loss_changes":[2.1746182E6,3.0655844E5,2.24497E5,7.292125E3,4.2050547E3,2.1065828E4,1.648025E4,1.2448125E3,2.8587656E3,1.1845859E3,2.669546E3,5.3686226E3,7.2389062E3,8.30575E3,6.6338438E3,5.688262E2,5.01875E2,4.6222812E3,4.8345312E2,1.039294E3,1.6409375E3,1.7541685E3,4.3878174E2,3.012836E3,4.6467637E3,5.313994E2,5.1941875E3,2.169375E3,2.7600728E3,3.264E3,2.3479375E3,0E0,0E0,0E0,0E0,0E0,0E0,0E0,0E0,0E0,0E0,0E0,0E0,0E0,0E0,0E0,0E0,0E0,0E0,0E0,0E0,0E0,0E0,0E0,0E0,0E0,0E0,0E0,0E0,0E0,0E0,0E0,0E0],"parents":[2147483647,0,0,1,1,2,2,3,3,4,4,5,5,6,6,7,7,8,8,9,9,10,10,11,11,12,12,13,13,14,14,15,15,16,16,17,17,18,18,19,19,20,20,21,21,22,22,23,23,24,24,25,25,26,26,27,27,28,28,29,29,30,30],"right_children":[2,4,6,8,10,12,14,16,18,20,22,24,26,28,30,32,34,36,38,40,42,44,46,48,50,52,54,56,58,60,62,-1,-1,-1,-1,-1,-1,-1,-1,-1,-1,-1,-1,-1,-1,-1,-1,-1,-1,-1,-1,-1,-1,-1,-1,-1,-1,-1,-1,-1,-1,-1,-1],"split_conditions":[9.4E1,5E1,1.15E2,3.95E1,7.1166664E1,7.1E1,1.37E2,2.3E1,7.1E1,6.8E1,9.7E1,3.9E1,9.8E1,1.33E2,1.94E2,3.8E1,3.7266666E1,1.5E1,4.2E1,5.3933334E1,5.2E1,7.836667E1,1.0036667E2,5.5E1,4E1,1.27433334E2,1.133E2,1.3993333E2,7.1E1,1.406E2,1.41E2,-1.6079527E0,-5.026215E-1,-6.94493E-1,-6.544607E-1,-4.7205883E-1,-6.759892E-1,-6.9078636E-1,-4.5995092E-1,-5.4994684E-1,-2.6755002E-1,-7.1297586E-3,-2.0574008E-1,-1.4094743E-1,-3.781491E-2,-3.187273E-1,-1.0786313E-1,5.1358354E-1,-6.839981E-1,-7.2284676E-2,-6.3263196E-1,1.6854799E-1,6.4591086E-1,3.1276402E-1,5.107018E-1,6.630089E-1,8.229662E-1,4.8159486E-1,5.65359E-2,8.0687875E-1,1.103877E0,1.5443759E0,5.723344E-1],"split_indices":[3,3,3,7,7,4,3,3,4,3,4,5,3,3,3,4,7,1,3,7,5,7,7,0,4,7,7,7,5,7,6,0,0,0,0,0,0,0,0,0,0,0,0,0,0,0,0,0,0,0,0,0,0,0,0,0,0,0,0,0,0,0,0],"split_type":[0,0,0,0,0,0,0,0,0,0,0,0,0,0,0,0,0,0,0,0,0,0,0,0,0,0,0,0,0,0,0,0,0,0,0,0,0,0,0,0,0,0,0,0,0,0,0,0,0,0,0,0,0,0,0,0,0,0,0,0,0,0,0],"sum_hessian":[2.7686E4,1.524E4,1.2446E4,7.14E3,8.1E3,6.153E3,6.293E3,5.175E3,1.965E3,6.111E3,1.989E3,4.09E2,5.744E3,4.869E3,1.424E3,8E0,5.167E3,1.559E3,4.06E2,2.88E2,5.823E3,1.775E3,2.14E2,5.4E1,3.55E2,8.88E2,4.856E3,4.714E3,1.55E2,1.369E3,5.5E1,5E0,3E0,1.487E3,3.68E3,1.186E3,3.73E2,3.73E2,3.3E1,3.8E1,2.5E2,1.06E2,5.717E3,1.122E3,6.53E2,1.84E2,3E1,4.9E1,5E0,3.14E2,4.1E1,8.83E2,5E0,4.496E3,3.6E2,4.473E3,2.41E2,8.7E1,6.8E1,1.261E3,1.08E2,4.6E1,9E0],"tree_param":{"num_deleted":"0","num_feature":"8","num_nodes":"63","size_leaf_vector":"1"}},{"base_weights":[1.6297765E-2,-7.592171E0,9.26152E0,-1.2067677E1,-3.6332393E0,5.2403903E0,1.3325943E1,-1.2578308E1,-1.0125063E1,-4.1357045E0,-2.8911886E0,2.0961483E0,6.1466284E0,1.2594324E1,1.6382914E1,-6.8419105E-1,-1.2426225E1,1.3793024E0,-1.0220079E1,-6.9441876E0,-4.0194135E0,-2.967762E0,2.3854606E0,-1.8696468E0,3.0342124E0,5.8890033E0,9.249339E0,4.6026564E0,1.2859102E1,1.5819866E1,2.6572245E1,-6.278558E-1,-5.6655157E-1,-4.7634313E-1,-6.7976856E-1,2.744145E-4,-3.815553E-1,-4.5398064E-2,-2.0350425E-1,-1.5684177E-1,-1.5086527E-2,3.550633E-1,-2.8033704E-1,2.9656607E-1,-1.9742261E-1,1.557691E-1,-5.24538E-1,2.1586478E-1,3.257681E-1,7.557848E-1,2.8750828E-1,1.1110696E0,1.7105111E-1,6.411902E-1,1.7704298E0,4.463806E-1,8.028704E-1,1.4926699E0,6.7122775E-1],"categories":[],"categories_nodes":[],"categories_segments":[],"categories_sizes":[],"default_left":[0,0,0,0,0,0,0,0,0,0,0,0,0,0,0,0,0,0,0,0,0,0,0,0,0,0,0,0,0,0,0,0,0,0,0,0,0,0,0,0,0,0,0,0,0,0,0,0,0,0,0,0,0,0,0,0,0,0,0],"id":25,"left_children":[1,3,5,7,9,11,13,15,17,19,21,23,25,27,29,-1,31,-1,33,35,37,39,41,43,45,47,49,51,53,55,57,-1,-1,-1,-1,-1,-1,-1,-1,-1,-1,-1,-1,-1,-1,-1,-1,-1,-1,-1,-1,-1,-1,-1,-1,-1,-1,-1,-1],"loss_changes":[1.9411575E6,2.6817462E5,2.0353838E5,6.9205625E3,2.9835703E3,1.7835953E4,1.3649E4,7.75125E2,5.5993594E3,1.5358516E3,1.3190312E3,5.2250703E3,3.8318906E3,1.052725E4,6.4239688E3,0E0,5.678125E2,0E0,3.3357344E3,9.0230176E2,7.215469E2,1.4419199E3,1.8112291E3,4.38571E3,1.278706E3,4.394047E3,7.528752E3,3.2966404E3,3.4E3,1.7115938E3,2.230746E3,0E0,0E0,0E0,0E0,0E0,0E0,0E0,0E0,0E0,0E0,0E0,0E0,0E0,0E0,0E0,0E0,0E0,0E0,0E0,0E0,0E0,0E0,0E0,0E0,0E0,0E0,0E0,0E0],"parents":[2147483647,0,0,1,1,2,2,3,3,4,4,5,5,6,6,7,7,8,8,9,9,10,10,11,11,12,12,13,13,14,14,16,16,18,18,19,19,20,20,21,21,22,22,23,23,24,24,25,25,26,26,27,27,28,28,29,29,30,30],"right_children":[2,4,6,8,10,12,14,16,18,20,22,24,26,28,30,-1,32,-1,34,36,38,40,42,44,46,48,50,52,54,56,58,-1,-1,-1,-1,-1,-1,-1,-1,-1,-1,-1,-1,-1,-1,-1,-1,-1,-1,-1,-1,-1,-1,-1,-1,-1,-1,-1,-1],"split_conditions":[8.3E1,4.9E1,1.15E2,4.7233334E1,7E1,9.8E1,1.39E2,3.7E1,2.3E1,5.2E1,1.35E2,5.7E1,1.133E2,8.9E1,1.94E2,-6.8419105E-1,3.9366665E1,1.3793024E0,1.5E1,3.9E1,5.1E1,7.9E1,7.1E1,3.9E1,1.14E2,1.03E2,1.1E2,4E1,1.97E2,9.8E1,1.4E1,-6.278558E-1,-5.6655157E-1,-4.7634313E-1,-6.7976856E-1,2.744145E-4,-3.815553E-1,-4.5398064E-2,-2.0350425E-1,-1.5684177E-1,-1.5086527E-2,3.550633E-1,-2.8033704E-1,2.9656607E-1,-1.9742261E-1,1.557691E-1,-5.24538E-1,2.1586478E-1,3.257681E-1,7.557848E-1,2.8750828E-1,1.1110696E0,1.7105111E-1,6.411902E-1,1.7704298E0,4.463806E-1,8.028704E-1,1.4926699E0,6.7122775E-1],"split_indices":[3,3,3,7,3,4,3,3,3,3,6,7,7,7,3,0,7,0,1,4,6,3,5,5,3,3,6,5,6,4,1,0,0,0,0,0,0,0,0,0,0,0,0,0,0,0,0,0,0,0,0,0,0,0,0,0,0,0,0],"split_type":[0,0,0,0,0,0,0,0,0,0,0,0,0,0,0,0,0,0,0,0,0,0,0,0,0,0,0,0,0,0,0,0,0,0,0,0,0,0,0,0,0,0,0,0,0,0,0,0,0,0,0,0,0,0,0,0,0,0,0],"sum_hessian":[2.7594E4,1.5137E4,1.2457E4,7.104E3,8.033E3,6.263E3,6.194E3,5.621E3,1.483E3,4.787E3,3.246E3,1.402E3,4.861E3,5.002E3,1.192E3,6.69E2,4.952E3,3E0,1.48E3,1.88E2,4.599E3,3.2E3,4.6E1,2.68E2,1.134E3,4.491E3,3.7E2,1.61E2,4.841E3,1.132E3,6E1,4.414E3,5.38E2,1.231E3,2.49E2,1.7E1,1.71E2,7.4E1,4.525E3,3.009E3,1.91E2,2.9E1,1.7E1,5.6E1,2.12E2,1.128E3,6E0,1.282E3,3.209E3,1.37E2,2.33E2,9E0,1.52E2,4.835E3,6E0,3.9E1,1.093E3,4.7E1,1.3E1],"tree_param":{"num_deleted":"0","num_feature":"8","num_nodes":"59","size_leaf_vector":"1"}},{"base_weights":[3.9186818E-3,-7.2070737E0,8.772647E0,-1.1499956E1,-3.4454408E0,4.978905E0,1.2619725E1,-1.1809089E1,-8.279099E0,-5.4038177E0,-3.2485435E0,9.9187523E-1,5.573518E0,1.1949483E1,1.5459504E1,-1.2181084E1,-1.1088296E1,-4.306452E0,-1.0387211E1,-4.8619766E0,-7.7087116E0,-3.5485823E0,-1.2929579E0,-2.9390993E0,2.0512617E0,4.5464306E0,6.367718E0,4.928144E0,1.2185415E1,1.4466054E1,1.970171E1,-6.1084896E-1,-4.1065022E-1,-5.0402313E-1,-5.7943845E-1,-3.188763E-2,-5.5522317E-1,-5.3220177E-1,6.1437464E-1,-2.5529703E-1,3.728382E-1,-4.0382192E-1,1.8440513E-1,-1.8032561E-1,1.7075432E-2,-1.9215066E-3,-1.703962E-1,-4.9783926E-2,-8.878242E-1,7.3438875E-2,4.4534245E-1,-2.2091532E-1,2.3645805E-1,3.0213252E-1,4.229791E-1,3.7986353E-1,-1.379667E-1,5.9956443E-1,7.5915796E-1,7.5128734E-1,6.437171E-2,1.1769866E0,6.477766E-1],"categories":[],"categories_nodes":[],"categories_segments":[],"categories_sizes":[],"default_left":[0,0,0,0,0,0,0,0,0,0,0,0,0,0,0,0,0,0,0,0,0,0,0,0,0,0,0,0,0,0,0,0,0,0,0,0,0,0,0,0,0,0,0,0,0,0,0,0,0,0,0,0,0,0,0,0,0,0,0,0,0,0,0],"id":26,"left_children":[1,3,5,7,9,11,13,15,17,19,21,23,25,27,29,31,33,35,37,39,41,43,45,47,49,51,53,55,57,59,61,-1,-1,-1,-1,-1,-1,-1,-1,-1,-1,-1,-1,-1,-1,-1,-1,-1,-1,-1,-1,-1,-1,-1,-1,-1,-1,-1,-1,-1,-1,-1,-1],"loss_changes":[1.7403132E6,2.4384738E5,1.81205E5,6.9246875E3,3.086914E3,1.48234375E4,1.155125E4,1.5898125E3,5.1560117E3,8.792031E2,4.289258E3,3.3917031E3,4.4109688E3,8.211125E3,4.6627188E3,5.025625E2,9.9334375E2,5.4048677E3,2.4892656E3,1.8322559E3,6.081328E2,1.4308672E3,2.5868198E3,4.9640996E3,2.5466042E3,3.9147227E3,2.0344375E3,3.3860552E3,2.6286875E3,7.024703E3,5.3912656E3,0E0,0E0,0E0,0E0,0E0,0E0,0E0,0E0,0E0,0E0,0E0,0E0,0E0,0E0,0E0,0E0,0E0,0E0,0E0,0E0,0E0,0E0,0E0,0E0,0E0,0E0,0E0,0E0,0E0,0E0,0E0,0E0],"parents":[2147483647,0,0,1,1,2,2,3,3,4,4,5,5,6,6,7,7,8,8,9,9,10,10,11,11,12,12,13,13,14,14,15,15,16,16,17,17,18,18,19,19,20,20,21,21,22,22,23,23,24,24,25,25,26,26,27,27,28,28,29,29,30,30],"right_children":[2,4,6,8,10,12,14,16,18,20,22,24,26,28,30,32,34,36,38,40,42,44,46,48,50,52,54,56,58,60,62,-1,-1,-1,-1,-1,-1,-1,-1,-1,-1,-1,-1,-1,-1,-1,-1,-1,-1,-1,-1,-1,-1,-1,-1,-1,-1,-1,-1,-1,-1,-1,-1],"split_conditions":[8.3E1,4.9E1,1.15E2,5.4733334E1,6.9E1,9.6E1,1.39E2,3.9E1,4E1,7.87E1,7.4933334E1,4E0,1.06E2,7.2E1,1.62E2,5E1,4E0,4E1,1.63E2,1.05E2,1.133E2,7.6E1,7.2E1,4E1,1.05E2,7.4933334E1,1.1E2,7.2E1,1.3863333E2,1.46E2,1.29E2,-6.1084896E-1,-4.1065022E-1,-5.0402313E-1,-5.7943845E-1,-3.188763E-2,-5.5522317E-1,-5.3220177E-1,6.1437464E-1,-2.5529703E-1,3.728382E-1,-4.0382192E-1,1.8440513E-1,-1.8032561E-1,1.7075432E-2,-1.9215066E-3,-1.703962E-1,-4.9783926E-2,-8.878242E-1,7.3438875E-2,4.4534245E-1,-2.2091532E-1,2.3645805E-1,3.0213252E-1,4.229791E-1,3.7986353E-1,-1.379667E-1,5.9956443E-1,7.5915796E-1,7.5128734E-1,6.437171E-2,1.1769866E0,6.477766E-1],"split_indices":[3,3,3,7,3,4,3,3,5,7,7,1,3,4,3,5,2,4,6,5,7,3,4,4,3,7,3,6,7,3,6,0,0,0,0,0,0,0,0,0,0,0,0,0,0,0,0,0,0,0,0,0,0,0,0,0,0,0,0,0,0,0,0],"split_type":[0,0,0,0,0,0,0,0,0,0,0,0,0,0,0,0,0,0,0,0,0,0,0,0,0,0,0,0,0,0,0,0,0,0,0,0,0,0,0,0,0,0,0,0,0,0,0,0,0,0,0,0,0,0,0,0,0,0,0,0,0,0,0],"sum_hessian":[2.7521E4,1.5102E4,1.2419E4,7.052E3,8.05E3,6.254E3,6.165E3,6.432E3,6.2E2,7.33E2,7.317E3,8.12E2,5.442E3,4.992E3,1.173E3,4.232E3,2.2E3,2.16E2,4.04E2,5.96E2,1.37E2,6.343E3,9.74E2,1.72E2,6.4E2,2.376E3,3.066E3,1.63E2,4.829E3,9.54E2,2.19E2,4.192E3,4E1,7.37E2,1.463E3,1.41E2,7.5E1,4E2,4E0,5.85E2,1.1E1,1.33E2,4E0,6.25E3,9.3E1,6.12E2,3.62E2,1.53E2,1.9E1,5.91E2,4.9E1,4.7E1,2.329E3,2.657E3,4.09E2,1.21E2,4.2E1,4.54E3,2.89E2,9.15E2,3.9E1,1.38E2,8.1E1],"tree_param":{"num_deleted":"0","num_feature":"8","num_nodes":"63","size_leaf_vector":"1"}},{"base_weights":[-6.7030545E-3,-6.8694124E0,8.356363E0,-1.1054979E1,-3.2094893E0,4.678827E0,1.2034329E1,-1.1368188E1,-7.860601E0,-3.5734563E0,-2.0884829E0,-2.209764E0,5.1788797E0,1.1769414E1,2.2259998E1,-1.13822775E1,3.2084503E0,-4.331307E0,-9.7081585E0,-5.6259975E0,-3.4037175E0,-2.3729992E0,